<?xml version="1.0"?>
<opencv_storage>
<stage10>
  <maxWeakCount>53</maxWeakCount>
  <stageThreshold>-1.3550130128860474e+00</stageThreshold>
  <weakClassifiers>
    <_>
      <internalNodes>
        0 -1 28649 1675548639 -613634206 -1110770181 -1353927205
        394257149 -1677814054 -861024880 -67182088</internalNodes>
      <leafValues>
        -5.0993019342422485e-01 -1.2993763387203217e-01</leafValues></_>
    <_>
      <internalNodes>
        0 -1 2548 1172303463 1108009894 1866939411 806003472 -1664228353
        195554098 -950668553 -51922965</internalNodes>
      <leafValues>
        -2.2770535945892334e-01 1.7978787422180176e-01</leafValues></_>
    <_>
      <internalNodes>
        0 -1 81405 -963420433 -7875361 -1600080680 1917468895 -485537708
        -1421901509 -640943388 -87884034</internalNodes>
      <leafValues>
        -2.2670516371726990e-01 1.8020124733448029e-01</leafValues></_>
    <_>
      <internalNodes>
        0 -1 112061 206075734 -53808329 -1783397086 1281846907
        1490879488 -1729891419 -520150966 1893290034</internalNodes>
      <leafValues>
        -2.8513151407241821e-01 1.3462133705615997e-01</leafValues></_>
    <_>
      <internalNodes>
        0 -1 91254 -157943396 1441995868 -861393074 -1166599308
        1028446380 -1103215984 -1183778358 857824971</internalNodes>
      <leafValues>
        -2.1073774993419647e-01 1.9967778027057648e-01</leafValues></_>
    <_>
      <internalNodes>
        0 -1 15168 1448960025 123281757 151089421 -1346043406
        -1465292239 -1790115695 942627601 -1615191527</internalNodes>
      <leafValues>
        -2.7215501666069031e-01 1.5891396999359131e-01</leafValues></_>
    <_>
      <internalNodes>
        0 -1 50856 1480632336 1994052471 -66662691 1842655645
        -1600467723 -1548680461 118409724 1763816446</internalNodes>
      <leafValues>
        -2.8868660330772400e-01 1.3305544853210449e-01</leafValues></_>
    <_>
      <internalNodes>
        0 -1 27535 1061638623 -835507572 -1294221741 143709398
        -1113123086 -1371557634 290757460 671798080</internalNodes>
      <leafValues>
        -3.0888584256172180e-01 1.2649768590927124e-01</leafValues></_>
    <_>
      <internalNodes>
        0 -1 60438 1031962252 -3552946 -1701118602 -741343745 314524748
        -11860278 840188938 1895918967</internalNodes>
      <leafValues>
        -2.7144441008567810e-01 1.5352299809455872e-01</leafValues></_>
    <_>
      <internalNodes>
        0 -1 35111 72085795 -2002353489 -2050626217 -328149552 96295219
        854386820 520699909 -1062936000</internalNodes>
      <leafValues>
        -3.5562384128570557e-01 1.0584076493978500e-01</leafValues></_>
    <_>
      <internalNodes>
        0 -1 75208 1914873147 -6919108 -1353047127 962190399 -2022018942
        863987784 -129703798 1526953475</internalNodes>
      <leafValues>
        -1.8819968402385712e-01 2.0959299802780151e-01</leafValues></_>
    <_>
      <internalNodes>
        0 -1 84518 75634711 1045590300 -179043213 1029125394 679481533
        -1180294982 596710955 -1342303976</internalNodes>
      <leafValues>
        -2.0473957061767578e-01 2.0039238035678864e-01</leafValues></_>
    <_>
      <internalNodes>
        0 -1 100782 723211870 2124121207 -667487852 -230755043
        -745952734 -1157014467 -561073836 -357500424</internalNodes>
      <leafValues>
        -3.0941900610923767e-01 1.3158987462520599e-01</leafValues></_>
    <_>
      <internalNodes>
        0 -1 84937 -162570214 1166012284 1083483495 -1453459852
        -1101598582 -1967179460 -233781602 -1610541632</internalNodes>
      <leafValues>
        -2.5123965740203857e-01 1.5516451001167297e-01</leafValues></_>
    <_>
      <internalNodes>
        0 -1 23582 -732362006 -26489910 -997641964 -1155898822 41846032
        -45940664 -59748916 1610636802</internalNodes>
      <leafValues>
        -3.5730394721031189e-01 1.1082877963781357e-01</leafValues></_>
    <_>
      <internalNodes>
        0 -1 26144 163772978 -257913324 2002817649 -453758940 538247417
        -503836383 1788177554 -731631570</internalNodes>
      <leafValues>
        -3.0575719475746155e-01 1.2382251769304276e-01</leafValues></_>
    <_>
      <internalNodes>
        0 -1 89685 -1105768873 -1974009353 942158028 1887094928
        -787393724 -106846169 -1164119820 -557039368</internalNodes>
      <leafValues>
        -3.0125603079795837e-01 1.2326739728450775e-01</leafValues></_>
    <_>
      <internalNodes>
        0 -1 108655 -1958386840 -1845042856 160219603 -310319680
        738300403 730136985 732889293 -1918549767</internalNodes>
      <leafValues>
        -2.0764741301536560e-01 1.8557439744472504e-01</leafValues></_>
    <_>
      <internalNodes>
        0 -1 106665 1073642093 1298094043 -1005452555 -228665905
        -343811516 -1122498534 1804139252 -26673163</internalNodes>
      <leafValues>
        -2.5673127174377441e-01 1.5551109611988068e-01</leafValues></_>
    <_>
      <internalNodes>
        0 -1 111087 957064614 1192224680 -1333671516 26257289 -829795600
        202789080 352479034 822305871</internalNodes>
      <leafValues>
        -2.4280880391597748e-01 1.6717104613780975e-01</leafValues></_>
    <_>
      <internalNodes>
        0 -1 75571 -1607461616 308023388 -1123847208 228481320
        -1870440022 1604583593 528908138 -1077743339</internalNodes>
      <leafValues>
        -3.2580742239952087e-01 1.1379531770944595e-01</leafValues></_>
    <_>
      <internalNodes>
        0 -1 84304 -952638689 -125335916 -1929838872 -2060355533
        -109670694 1139263162 1424678063 -607257605</internalNodes>
      <leafValues>
        -1.2647631764411926e-01 3.1801736354827881e-01</leafValues></_>
    <_>
      <internalNodes>
        0 -1 47175 -720898066 -2034163680 -227393468 -284999630
        -893735835 447556088 -460148602 -1673182206</internalNodes>
      <leafValues>
        -2.4831159412860870e-01 1.6360417008399963e-01</leafValues></_>
    <_>
      <internalNodes>
        0 -1 94287 -1907405189 -1496427809 -1601120786 712823387
        -1161177072 -1190043613 -97457820 -1339024044</internalNodes>
      <leafValues>
        -4.0966075658798218e-01 9.8034702241420746e-02</leafValues></_>
    <_>
      <internalNodes>
        0 -1 389 1434810054 -555876018 -2017275603 -568686761
        -2096969928 -2146680814 253916744 1110274355</internalNodes>
      <leafValues>
        -2.5401863455772400e-01 1.5603969991207123e-01</leafValues></_>
    <_>
      <internalNodes>
        0 -1 50664 -999888203 1029686615 85265771 1060132185 1488928980
        -1445986128 -2113705928 420507762</internalNodes>
      <leafValues>
        -2.0689307153224945e-01 2.0209285616874695e-01</leafValues></_>
    <_>
      <internalNodes>
        0 -1 36002 558867447 -943323114 -1408687343 615291327
        -1582142761 -1665715470 1960098555 1081924863</internalNodes>
      <leafValues>
        -2.0792770385742188e-01 1.9441996514797211e-01</leafValues></_>
    <_>
      <internalNodes>
        0 -1 96094 -1625670564 667310870 -522583312 990514750 -217199296
        -1786893244 -1307512128 806420500</internalNodes>
      <leafValues>
        -4.1892331838607788e-01 1.0766583681106567e-01</leafValues></_>
    <_>
      <internalNodes>
        0 -1 115664 1145747131 920751000 647999726 1905187505 418351310
        1680270248 -440423162 282047647</internalNodes>
      <leafValues>
        -1.9760365784168243e-01 2.1291208267211914e-01</leafValues></_>
    <_>
      <internalNodes>
        0 -1 80891 1372853996 -1359016600 476993778 359815742 2314968
        1398210968 -1586106488 1392715684</internalNodes>
      <leafValues>
        -2.9238224029541016e-01 1.4146533608436584e-01</leafValues></_>
    <_>
      <internalNodes>
        0 -1 101675 1011888656 1773291700 -1794883066 857807518
        142727380 963546045 650143731 266927969</internalNodes>
      <leafValues>
        -3.2100400328636169e-01 1.3451205193996429e-01</leafValues></_>
    <_>
      <internalNodes>
        0 -1 3211 -188071710 -1563062736 -980345802 -1071620318
        437103146 1736153713 1554292576 1645304368</internalNodes>
      <leafValues>
        -4.2755109071731567e-01 9.0259455144405365e-02</leafValues></_>
    <_>
      <internalNodes>
        0 -1 8480 -210108561 2069872599 -156226946 -618287190 -831006727
        72609772 -1015949429 -75518805</internalNodes>
      <leafValues>
        -1.0527464002370834e-01 4.1349041461944580e-01</leafValues></_>
    <_>
      <internalNodes>
        0 -1 71703 1548284556 277085500 811738856 2527900 -709741984
        406929740 977973330 844183438</internalNodes>
      <leafValues>
        -3.8483959436416626e-01 1.0903023183345795e-01</leafValues></_>
    <_>
      <internalNodes>
        0 -1 117987 61319003 -1968988383 1874803632 -136876191
        1635696117 350224382 766908299 -1667527685</internalNodes>
      <leafValues>
        -1.7467758059501648e-01 2.3837719857692719e-01</leafValues></_>
    <_>
      <internalNodes>
        0 -1 107015 35274328 9597238 -1139131821 812683105 1507143748
        -869418251 351119680 1760637494</internalNodes>
      <leafValues>
        -4.0902367234230042e-01 9.8885931074619293e-02</leafValues></_>
    <_>
      <internalNodes>
        0 -1 97638 -319369249 -1082556432 -1409814659 2062727164
        -1079714311 -49289 -688328980 -22222384</internalNodes>
      <leafValues>
        -1.5765848755836487e-01 2.7011561393737793e-01</leafValues></_>
    <_>
      <internalNodes>
        0 -1 69079 705970176 756685274 -884537482 -1905443038 1866646096
        -1675459848 -1941562867 983736478</internalNodes>
      <leafValues>
        -3.9267975091934204e-01 1.1370768398046494e-01</leafValues></_>
    <_>
      <internalNodes>
        0 -1 110731 -1934532857 -690540334 -736554800 1386906049
        2115874820 -273479595 -934609936 -937386188</internalNodes>
      <leafValues>
        -3.4092211723327637e-01 1.2755784392356873e-01</leafValues></_>
    <_>
      <internalNodes>
        0 -1 102415 1798284599 169379737 -761147325 -1089349318
        -1460838438 -1145801380 -2109359270 -404115589</internalNodes>
      <leafValues>
        -1.5675009787082672e-01 2.7711617946624756e-01</leafValues></_>
    <_>
      <internalNodes>
        0 -1 85205 673146139 1762525657 -86682884 610013647 -477216467
        2072215611 -614053035 -1226552976</internalNodes>
      <leafValues>
        -3.9748463034629822e-01 1.0587172955274582e-01</leafValues></_>
    <_>
      <internalNodes>
        0 -1 4668 1541404977 1830569827 1608053103 721572689 1482350693
        -1280102345 1867306712 1427315543</internalNodes>
      <leafValues>
        -2.5614228844642639e-01 1.6292412579059601e-01</leafValues></_>
    <_>
      <internalNodes>
        0 -1 91371 -326251318 1015309734 996534406 -1086286075
        2089494722 223901840 1304730804 144793658</internalNodes>
      <leafValues>
        -3.0108171701431274e-01 1.4312522113323212e-01</leafValues></_>
    <_>
      <internalNodes>
        0 -1 29419 1845644402 -1132706190 -293087677 -1355032948
        1622255474 163095433 -824717223 -2048777737</internalNodes>
      <leafValues>
        -2.8638824820518494e-01 1.5028518438339233e-01</leafValues></_>
    <_>
      <internalNodes>
        0 -1 111431 592063391 -1575300708 -2121328206 -1886010664
        458765223 1342308361 -1417186320 -1421981748</internalNodes>
      <leafValues>
        -2.6486554741859436e-01 1.6129143536090851e-01</leafValues></_>
    <_>
      <internalNodes>
        0 -1 108000 519391231 -877301297 -209613636 1381208411
        2072682360 -611622656 -558208088 -140450848</internalNodes>
      <leafValues>
        -2.4308483302593231e-01 1.7971178889274597e-01</leafValues></_>
    <_>
      <internalNodes>
        0 -1 65100 625880679 1343701647 -1039663047 1249956860
        2076921910 -771301344 -1359948988 -127730912</internalNodes>
      <leafValues>
        -3.5887822508811951e-01 1.2131261080503464e-01</leafValues></_>
    <_>
      <internalNodes>
        0 -1 101391 -66391656 416207060 -2128523885 -309554864 17528755
        148214096 1904969898 -1926598636</internalNodes>
      <leafValues>
        -2.1333080530166626e-01 2.0900364220142365e-01</leafValues></_>
    <_>
      <internalNodes>
        0 -1 113679 -2098770489 -37062809 -762817572 1927205820
        -510987470 1550584459 1082710485 -224203314</internalNodes>
      <leafValues>
        -2.3416753113269806e-01 1.9074517488479614e-01</leafValues></_>
    <_>
      <internalNodes>
        0 -1 2724 1439953472 1496426122 120898909 946118702 1528386231
        -1131730300 1809709768 -238561870</internalNodes>
      <leafValues>
        -1.9893668591976166e-01 2.3016032576560974e-01</leafValues></_>
    <_>
      <internalNodes>
        0 -1 94024 -910561294 1357331945 -187238162 2074177234
        -693117250 964426988 2136779674 -1014015441</internalNodes>
      <leafValues>
        -1.7000667750835419e-01 2.6543146371841431e-01</leafValues></_>
    <_>
      <internalNodes>
        0 -1 65193 1786731871 1949884541 -2021789953 1065068104
        -1068202569 -1202929003 -587799737 -903150391</internalNodes>
      <leafValues>
        -1.6382548213005066e-01 2.8883585333824158e-01</leafValues></_>
    <_>
      <internalNodes>
        0 -1 106490 -1573392804 620714425 -997919649 819811147
        -233573878 -1439498205 -1190923356 -1905250706</internalNodes>
      <leafValues>
        -2.8575488924980164e-01 1.5836872160434723e-01</leafValues></_></weakClassifiers></stage10>
</opencv_storage>
