<?xml version="1.0"?>
<opencv_storage>
<stage5>
  <maxWeakCount>31</maxWeakCount>
  <stageThreshold>-1.4728131294250488e+00</stageThreshold>
  <weakClassifiers>
    <_>
      <internalNodes>
        0 -1 5105 -51849 2144829309 -1847729825 -132257 -1147193993
        -1111813917 -35930265 -1073750021</internalNodes>
      <leafValues>
        -5.7992714643478394e-01 -2.5726782041601837e-04</leafValues></_>
    <_>
      <internalNodes>
        0 -1 36125 -138939393 -1313562 -879413257 -1092297546
        -1143030795 -278779786 -1621109260 -557157148</internalNodes>
      <leafValues>
        -3.9190098643302917e-01 2.3370046913623810e-01</leafValues></_>
    <_>
      <internalNodes>
        0 -1 10501 1644947202 258208176 -489296647 -270937768 1116411975
        2100996475 -735999057 -1056</internalNodes>
      <leafValues>
        -4.1675937175750732e-01 2.0844577252864838e-01</leafValues></_>
    <_>
      <internalNodes>
        0 -1 74340 -318820785 -1505799205 -63750697 1713041772
        -914158783 -83401925 -211437500 -267321536</internalNodes>
      <leafValues>
        -4.5962429046630859e-01 2.0149074494838715e-01</leafValues></_>
    <_>
      <internalNodes>
        0 -1 7886 -354684945 1657202050 -939144246 719514084 823875383
        1556085333 598736165 -764939017</internalNodes>
      <leafValues>
        -3.6091846227645874e-01 1.9755990803241730e-01</leafValues></_>
    <_>
      <internalNodes>
        0 -1 60646 -60826376 -632438066 -527264538 -1218748593
        -904617256 -199815984 1107361610 1997766487</internalNodes>
      <leafValues>
        -2.8050559759140015e-01 2.6223754882812500e-01</leafValues></_>
    <_>
      <internalNodes>
        0 -1 111485 37361233 336112371 -1216170375 -1707349153 522026332
        1877931767 796732486 -18205837</internalNodes>
      <leafValues>
        -3.5504558682441711e-01 2.1123714745044708e-01</leafValues></_>
    <_>
      <internalNodes>
        0 -1 98370 -273215921 -731946164 -1590439586 -121728543
        -268211904 -138671319 -622014224 -26020012</internalNodes>
      <leafValues>
        -3.6397168040275574e-01 1.9748526811599731e-01</leafValues></_>
    <_>
      <internalNodes>
        0 -1 87278 179251829 1040082475 -4210819 494088036 -1359642881
        -1746591759 1027081385 -1141234636</internalNodes>
      <leafValues>
        -2.6684680581092834e-01 2.9125487804412842e-01</leafValues></_>
    <_>
      <internalNodes>
        0 -1 91610 -1103122440 1026527061 -340070786 -612148011
        2126222570 521916416 779784594 923387787</internalNodes>
      <leafValues>
        -2.5712174177169800e-01 2.8737103939056396e-01</leafValues></_>
    <_>
      <internalNodes>
        0 -1 77904 -2072048513 -489729601 -1059655477 -368159242
        -133467567 -82882461 -1982140828 -126822604</internalNodes>
      <leafValues>
        -4.6379509568214417e-01 1.3835591077804565e-01</leafValues></_>
    <_>
      <internalNodes>
        0 -1 72529 1912619008 -177718297 -2041512069 2099363648
        -1978579499 -1214065224 -1713045670 -865019798</internalNodes>
      <leafValues>
        -3.7140268087387085e-01 1.9464534521102905e-01</leafValues></_>
    <_>
      <internalNodes>
        0 -1 78201 -1918022049 1600606583 -569639169 1659796287
        -1702538668 -46430021 -70530188 -160417500</internalNodes>
      <leafValues>
        -4.2996284365653992e-01 1.4828589558601379e-01</leafValues></_>
    <_>
      <internalNodes>
        0 -1 38237 -966826695 831887101 496768887 1593917807 1527211316
        -1356332207 2063973372 1261581136</internalNodes>
      <leafValues>
        -3.0489435791969299e-01 2.3312762379646301e-01</leafValues></_>
    <_>
      <internalNodes>
        0 -1 62963 732800771 -1935125238 -318029359 -17305408 -645180653
        -68450181 -221622204 -1029375179</internalNodes>
      <leafValues>
        -4.1330736875534058e-01 1.7050231993198395e-01</leafValues></_>
    <_>
      <internalNodes>
        0 -1 96405 1854925746 -594412406 -846093894 1493487270 954847650
        -958258526 1099002996 1355145970</internalNodes>
      <leafValues>
        -3.7096512317657471e-01 1.7015622556209564e-01</leafValues></_>
    <_>
      <internalNodes>
        0 -1 8739 -19403166 1278004522 -1739553580 537322278 1699557725
        27648533 -1847787088 1952835891</internalNodes>
      <leafValues>
        -4.0953561663627625e-01 1.6326442360877991e-01</leafValues></_>
    <_>
      <internalNodes>
        0 -1 89037 -1369491957 -157298209 1586678199 -51202114
        -337966512 -1424842709 -2003109691 -529466412</internalNodes>
      <leafValues>
        -4.0272676944732666e-01 1.6557689011096954e-01</leafValues></_>
    <_>
      <internalNodes>
        0 -1 49341 -23635734 1944014444 -76093710 -15483443 1380220120
        -548579904 -1420635990 1934846671</internalNodes>
      <leafValues>
        -2.4601466953754425e-01 2.7571368217468262e-01</leafValues></_>
    <_>
      <internalNodes>
        0 -1 112694 714849932 182376227 -2118122704 736043565 166704366
        505938672 141961544 215292152</internalNodes>
      <leafValues>
        -4.1440707445144653e-01 1.5908098220825195e-01</leafValues></_>
    <_>
      <internalNodes>
        0 -1 49498 735945559 944691310 1510273947 -2004590930 1597346289
        1442584818 1343655648 946897457</internalNodes>
      <leafValues>
        -4.0670806169509888e-01 1.6468127071857452e-01</leafValues></_>
    <_>
      <internalNodes>
        0 -1 64 214313731 2055404534 -2081116259 -1434789962 793495869
        2143035515 1267098922 -830475274</internalNodes>
      <leafValues>
        -3.0613258481025696e-01 2.2553887963294983e-01</leafValues></_>
    <_>
      <internalNodes>
        0 -1 112306 -299893249 -609231025 852328304 323878639 2037617544
        -587715074 438815694 1939330939</internalNodes>
      <leafValues>
        -1.9328005611896515e-01 3.6648154258728027e-01</leafValues></_>
    <_>
      <internalNodes>
        0 -1 76203 -1440010433 202430104 -1584204972 -1634811074
        768434295 -217881060 -1261766075 -29825196</internalNodes>
      <leafValues>
        -3.8837224245071411e-01 1.7964677512645721e-01</leafValues></_>
    <_>
      <internalNodes>
        0 -1 77113 -9109924 2107100764 2132414628 -339118764 -9645640
        -1625093752 464678298 -1291640305</internalNodes>
      <leafValues>
        -2.5681030750274658e-01 2.6046392321586609e-01</leafValues></_>
    <_>
      <internalNodes>
        0 -1 87346 634694161 5820893 -1675256389 -682058121 23812208
        -1946172943 -856449699 -16983319</internalNodes>
      <leafValues>
        -2.9178935289382935e-01 2.4381616711616516e-01</leafValues></_>
    <_>
      <internalNodes>
        0 -1 3816 -385894603 1004876601 -1377457312 454038094 -135039171
        -273219598 -1223197368 -299376633</internalNodes>
      <leafValues>
        -2.5111830234527588e-01 2.8553050756454468e-01</leafValues></_>
    <_>
      <internalNodes>
        0 -1 24298 -1225048196 2135794971 -1333637092 257034979
        -2008911788 646685781 -62764628 -1118641558</internalNodes>
      <leafValues>
        -3.2688590884208679e-01 2.1841573715209961e-01</leafValues></_>
    <_>
      <internalNodes>
        0 -1 47563 -1128204299 -355687498 -1370203148 -554944440
        1082485940 -933747979 1292958260 174434876</internalNodes>
      <leafValues>
        -4.1725409030914307e-01 1.6809928417205811e-01</leafValues></_>
    <_>
      <internalNodes>
        0 -1 95076 137575742 2042687391 -1879053035 -2139095205
        565867922 -1345060883 2030042894 -1074019733</internalNodes>
      <leafValues>
        -2.3200684785842896e-01 3.0752104520797729e-01</leafValues></_>
    <_>
      <internalNodes>
        0 -1 67130 -2070991869 744259193 -1575956007 -321986444
        -140821952 -351633117 -4497068 -259985292</internalNodes>
      <leafValues>
        -5.1058423519134521e-01 1.4810423552989960e-01</leafValues></_></weakClassifiers></stage5>
</opencv_storage>
