<?xml version="1.0"?>
<opencv_storage>
<stage3>
  <maxWeakCount>24</maxWeakCount>
  <stageThreshold>-1.6737685203552246e+00</stageThreshold>
  <weakClassifiers>
    <_>
      <internalNodes>
        0 -1 110895 -257 -136315905 -132590850 1916465951 -621040556
        -367357365 -554762498 -218431506</internalNodes>
      <leafValues>
        -5.8703941106796265e-01 9.3294464051723480e-02</leafValues></_>
    <_>
      <internalNodes>
        0 -1 5165 -36700161 -142770593 -201369089 -537133061 2130654837
        -4358274 -285278533 -1074012901</internalNodes>
      <leafValues>
        -2.9241144657135010e-01 4.7106319665908813e-01</leafValues></_>
    <_>
      <internalNodes>
        0 -1 27407 -2360329 -20515634 -1625432324 -592511824 2133774160
        -320432910 1930755888 -935275184</internalNodes>
      <leafValues>
        -5.2965629100799561e-01 2.2431023418903351e-01</leafValues></_>
    <_>
      <internalNodes>
        0 -1 92180 -134263425 -17334401 -16914433 -226856961 -562047164
        2139062143 -318840892 -88412677</internalNodes>
      <leafValues>
        -2.9280623793601990e-01 3.6336085200309753e-01</leafValues></_>
    <_>
      <internalNodes>
        0 -1 2872 -522196017 1086652134 -226492658 681764906 1997923071
        -52998397 -411584877 -234623213</internalNodes>
      <leafValues>
        -3.2039648294448853e-01 3.3347603678703308e-01</leafValues></_>
    <_>
      <internalNodes>
        0 -1 81813 -503168944 -176883403 -482017763 1232304434
        -160395054 -136595185 -468652226 -13181621</internalNodes>
      <leafValues>
        -4.1728931665420532e-01 2.3965200781822205e-01</leafValues></_>
    <_>
      <internalNodes>
        0 -1 87965 -1367401387 -1373677707 -948232613 -1361791528
        -292680106 -174406593 -590689580 -86704268</internalNodes>
      <leafValues>
        -4.5252391695976257e-01 2.2335107624530792e-01</leafValues></_>
    <_>
      <internalNodes>
        0 -1 102444 -31237033 -2207002 -1710828290 538596767 -657502120
        -93642182 -387253516 -529335952</internalNodes>
      <leafValues>
        -4.2203354835510254e-01 2.2393089532852173e-01</leafValues></_>
    <_>
      <internalNodes>
        0 -1 101160 -2120609945 -19651818 -107768201 1918260570
        -1198827404 -99900872 -57681168 -1560658467</internalNodes>
      <leafValues>
        -3.7388202548027039e-01 2.6069879531860352e-01</leafValues></_>
    <_>
      <internalNodes>
        0 -1 108133 -1962934310 1150745762 -2146377724 148491915
        -1819481926 538503384 -1869557508 3798479</internalNodes>
      <leafValues>
        -4.0368828177452087e-01 2.2708635032176971e-01</leafValues></_>
    <_>
      <internalNodes>
        0 -1 71130 2085939318 1541359437 -121474834 306366175 1230149568
        -212563700 -234829106 1645444187</internalNodes>
      <leafValues>
        -3.6522126197814941e-01 2.6632484793663025e-01</leafValues></_>
    <_>
      <internalNodes>
        0 -1 14500 -67900305 -157558447 -1420393134 994186704 -683513264
        -1164441545 -501069974 -368021709</internalNodes>
      <leafValues>
        -3.5599932074546814e-01 2.4653555452823639e-01</leafValues></_>
    <_>
      <internalNodes>
        0 -1 58445 2112963584 1439947775 -1529547979 1909028583
        -1307422652 2144741391 195280 1618207071</internalNodes>
      <leafValues>
        -4.8699185252189636e-01 1.8132814764976501e-01</leafValues></_>
    <_>
      <internalNodes>
        0 -1 61123 2016923102 -137864509 1918343870 1567845119 -84882726
        -431800320 269526571 324475851</internalNodes>
      <leafValues>
        -2.9994133114814758e-01 2.9590904712677002e-01</leafValues></_>
    <_>
      <internalNodes>
        0 -1 88885 -459856801 -325625393 -1584889090 1883929167
        -204783244 -148016227 -771108416 -1235164187</internalNodes>
      <leafValues>
        -4.1275003552436829e-01 2.1329693496227264e-01</leafValues></_>
    <_>
      <internalNodes>
        0 -1 55863 -2032224965 -1530162857 -653918881 -1161929275
        -1683129501 -343241943 1459694452 -857019052</internalNodes>
      <leafValues>
        -3.8858371973037720e-01 2.2307987511157990e-01</leafValues></_>
    <_>
      <internalNodes>
        0 -1 106725 -1905299661 598898335 310481247 -1057483777
        -1447856095 -45956343 -85512236 -1340456580</internalNodes>
      <leafValues>
        -4.1482999920845032e-01 2.0246568322181702e-01</leafValues></_>
    <_>
      <internalNodes>
        0 -1 75662 1549797892 1618864891 -334371971 416374585 1941526616
        -112229968 1754059086 -84086052</internalNodes>
      <leafValues>
        -4.1194292902946472e-01 2.1450605988502502e-01</leafValues></_>
    <_>
      <internalNodes>
        0 -1 26067 -2883663 1850271221 -28516430 -16163478 -1464715024
        -826533673 -846961580 1511390554</internalNodes>
      <leafValues>
        -3.4174710512161255e-01 2.5743335485458374e-01</leafValues></_>
    <_>
      <internalNodes>
        0 -1 112447 157524127 -866953569 -973071683 -755043701
        -1733605105 -1318090485 -1565856695 -1564806660</internalNodes>
      <leafValues>
        -3.0812010169029236e-01 2.8083267807960510e-01</leafValues></_>
    <_>
      <internalNodes>
        0 -1 72330 -1159916933 -831105476 1511446623 -631619299
        -744468416 -757066582 -224629820 -1098737316</internalNodes>
      <leafValues>
        -3.8247844576835632e-01 2.3412814736366272e-01</leafValues></_>
    <_>
      <internalNodes>
        0 -1 1009 -145132034 -12526208 -784284826 -334477488 1409874681
        -440483678 1585476232 8090387</internalNodes>
      <leafValues>
        -3.8222420215606689e-01 2.3399873077869415e-01</leafValues></_>
    <_>
      <internalNodes>
        0 -1 106015 -327267969 2128597887 -2070799649 907948316
        -621907452 2066477057 -1696674568 -390923404</internalNodes>
      <leafValues>
        -3.8087764382362366e-01 2.3615038394927979e-01</leafValues></_>
    <_>
      <internalNodes>
        0 -1 108040 -401749100 -1836311990 1515756064 1380696261
        -657993590 -926006180 956397264 1074002426</internalNodes>
      <leafValues>
        -3.8874512910842896e-01 2.3883776366710663e-01</leafValues></_></weakClassifiers></stage3>
</opencv_storage>
