<?xml version="1.0"?>
<opencv_storage>
<stage4>
  <maxWeakCount>27</maxWeakCount>
  <stageThreshold>-1.5272095203399658e+00</stageThreshold>
  <weakClassifiers>
    <_>
      <internalNodes>
        0 -1 2393 -234881041 -487662097 1859897518 -490046226 -106497025
        -349441606 -806359109 -1</internalNodes>
      <leafValues>
        -6.0097193717956543e-01 3.9054471999406815e-02</leafValues></_>
    <_>
      <internalNodes>
        0 -1 25021 1876291075 2010862041 -556545665 -184551939
        1111779855 2134882491 -70386721 -7681</internalNodes>
      <leafValues>
        -3.8075047731399536e-01 2.6946124434471130e-01</leafValues></_>
    <_>
      <internalNodes>
        0 -1 106275 -45345 2004828031 -285212930 1927470843 -35668388
        -8487041 -16843042 -92602402</internalNodes>
      <leafValues>
        -2.7141395211219788e-01 3.6903315782546997e-01</leafValues></_>
    <_>
      <internalNodes>
        0 -1 3834 -539025537 -144738186 -1849917634 33566250 -185441263
        -1149936781 2033196144 842170163</internalNodes>
      <leafValues>
        -4.9174135923385620e-01 1.9654698669910431e-01</leafValues></_>
    <_>
      <internalNodes>
        0 -1 91816 -1074314017 -100697281 -1360019726 1895727103 -16572
        -536912001 -419627788 -223675206</internalNodes>
      <leafValues>
        -2.5610604882240295e-01 3.3639216423034668e-01</leafValues></_>
    <_>
      <internalNodes>
        0 -1 7661 -134873089 -287670534 1003443152 -354255134 186383319
        -151307301 -480094464 -858493008</internalNodes>
      <leafValues>
        -4.0281453728675842e-01 2.1665318310260773e-01</leafValues></_>
    <_>
      <internalNodes>
        0 -1 93489 -1617998561 -328344709 709361758 -1526926009
        -1920005804 -70004689 -696614044 -188681356</internalNodes>
      <leafValues>
        -4.7286570072174072e-01 1.7160257697105408e-01</leafValues></_>
    <_>
      <internalNodes>
        0 -1 54669 -849021840 444589037 -891531402 1416371887 -401485648
        -1182627961 211608767 1223425595</internalNodes>
      <leafValues>
        -3.6619594693183899e-01 2.3834829032421112e-01</leafValues></_>
    <_>
      <internalNodes>
        0 -1 53663 -268473637 -832997153 -195563075 -1564284580
        -604273067 -350541557 -1614941674 -218955970</internalNodes>
      <leafValues>
        -2.9585209488868713e-01 2.6515889167785645e-01</leafValues></_>
    <_>
      <internalNodes>
        0 -1 82005 -1937629713 -1443179169 -43677191 907040721 -39912705
        -884897233 -427623425 -1343295332</internalNodes>
      <leafValues>
        -2.6221513748168945e-01 2.9819059371948242e-01</leafValues></_>
    <_>
      <internalNodes>
        0 -1 24683 -42641283 2031564831 1455848462 1060130143
        -1428264350 -9406971 -1416455576 1864527714</internalNodes>
      <leafValues>
        -3.5047286748886108e-01 2.2517028450965881e-01</leafValues></_>
    <_>
      <internalNodes>
        0 -1 94560 912087679 -2533637 -1174212354 -220412003 -133539519
        -80029409 -191169564 -88956976</internalNodes>
      <leafValues>
        -3.3906447887420654e-01 2.3260851204395294e-01</leafValues></_>
    <_>
      <internalNodes>
        0 -1 84041 -567476492 -1745137140 1121188562 1938640963
        -1086079608 -820115647 -764220966 861082955</internalNodes>
      <leafValues>
        -2.9079636931419373e-01 2.6929661631584167e-01</leafValues></_>
    <_>
      <internalNodes>
        0 -1 76554 -1441837709 -1396051244 1640392013 1316214365
        -4425345 -276987738 -272632972 -126561484</internalNodes>
      <leafValues>
        -4.4624227285385132e-01 1.6262643039226532e-01</leafValues></_>
    <_>
      <internalNodes>
        0 -1 107625 -1430304937 -88498789 -1340913649 -262515369
        -439953828 -812971365 -957166930 -118042412</internalNodes>
      <leafValues>
        -2.8608950972557068e-01 2.6609382033348083e-01</leafValues></_>
    <_>
      <internalNodes>
        0 -1 24948 774391298 1869398592 1613220445 769972240 -879238573
        1321911208 1043641061 -1376273964</internalNodes>
      <leafValues>
        -4.4493740797042847e-01 1.7940562963485718e-01</leafValues></_>
    <_>
      <internalNodes>
        0 -1 3806 -95984769 1348868714 -805158736 777973450 -486059148
        -522903004 -138357965 -497622685</internalNodes>
      <leafValues>
        -3.0194869637489319e-01 2.5748571753501892e-01</leafValues></_>
    <_>
      <internalNodes>
        0 -1 108419 -1975538113 -1443002229 -117895983 800436603
        -330761478 478317223 1890422284 15047817</internalNodes>
      <leafValues>
        -3.4032937884330750e-01 2.3122680187225342e-01</leafValues></_>
    <_>
      <internalNodes>
        0 -1 64290 -1368424817 -1896000677 -696200993 -159726658
        -877967003 -32271733 -112530794 -95225760</internalNodes>
      <leafValues>
        -3.3328261971473694e-01 2.3167870938777924e-01</leafValues></_>
    <_>
      <internalNodes>
        0 -1 338 4451310 679795121 540066707 -319495888 1365791668
        -100755241 -1062030495 -53354543</internalNodes>
      <leafValues>
        -3.8659152388572693e-01 1.9436426460742950e-01</leafValues></_>
    <_>
      <internalNodes>
        0 -1 96408 -1076926885 -186838645 -233926657 1121620477
        -53761192 -961953701 -1902712124 -164445724</internalNodes>
      <leafValues>
        -3.5038697719573975e-01 2.1380548179149628e-01</leafValues></_>
    <_>
      <internalNodes>
        0 -1 90549 -1396750145 -1365485231 -166988495 2061661126
        -67413425 -223526309 -326323232 -466592416</internalNodes>
      <leafValues>
        -4.2388370633125305e-01 1.8554399907588959e-01</leafValues></_>
    <_>
      <internalNodes>
        0 -1 88365 -1124529565 608996033 1175046629 316281239
        -1475962510 -262454777 -1432475068 -198166668</internalNodes>
      <leafValues>
        -5.1460832357406616e-01 1.5389177203178406e-01</leafValues></_>
    <_>
      <internalNodes>
        0 -1 46739 1090174069 -1638506683 1710520565 -16887822
        -1913220944 -319324545 403098963 -1955867365</internalNodes>
      <leafValues>
        -2.3368966579437256e-01 3.5088771581649780e-01</leafValues></_>
    <_>
      <internalNodes>
        0 -1 24920 243978256 -1079092028 -121702443 1717490634 13916667
        -654359573 719637697 -258444656</internalNodes>
      <leafValues>
        -4.3126454949378967e-01 1.8531730771064758e-01</leafValues></_>
    <_>
      <internalNodes>
        0 -1 78030 -495506481 -493951022 1083412670 -1060351083
        -619984123 -139423673 -628362256 -227364488</internalNodes>
      <leafValues>
        -3.6051994562149048e-01 2.2611494362354279e-01</leafValues></_>
    <_>
      <internalNodes>
        0 -1 77646 -20855589 -99778849 -1292632382 -528778116 -179833110
        2098169300 -875496774 -1285820500</internalNodes>
      <leafValues>
        -2.3357002437114716e-01 3.4426864981651306e-01</leafValues></_></weakClassifiers></stage4>
</opencv_storage>
