<?xml version="1.0"?>
<opencv_storage>
<stage2>
  <maxWeakCount>23</maxWeakCount>
  <stageThreshold>-1.4702533483505249e+00</stageThreshold>
  <weakClassifiers>
    <_>
      <internalNodes>
        0 -1 212 -638718462 -615005705 -128332289 -10526721 -168188089
        -75516674 -74458625 -1061</internalNodes>
      <leafValues>
        -6.5727770328521729e-01 3.4742198884487152e-02</leafValues></_>
    <_>
      <internalNodes>
        0 -1 2423 -2097153 -147131277 -13928578 -1694454256 -1572865
        -9046278 -67772418 -80479429</internalNodes>
      <leafValues>
        -3.2476893067359924e-01 4.4042220711708069e-01</leafValues></_>
    <_>
      <internalNodes>
        0 -1 93961 -35791620 1428118549 -241656838 1365334605 -554116920
        -111651832 -300889878 1912861471</internalNodes>
      <leafValues>
        -3.3856806159019470e-01 3.5766115784645081e-01</leafValues></_>
    <_>
      <internalNodes>
        0 -1 62226 -598622128 1431356252 1548797021 1970399228
        -1539988284 -655433 71368680 1763041535</internalNodes>
      <leafValues>
        -4.1079866886138916e-01 2.7375426888465881e-01</leafValues></_>
    <_>
      <internalNodes>
        0 -1 67947 -50602788 -209728437 -621610242 554794743 -17259828
        -603665336 -624755062 1661167887</internalNodes>
      <leafValues>
        -2.9942375421524048e-01 3.6306193470954895e-01</leafValues></_>
    <_>
      <internalNodes>
        0 -1 102852 -1090829217 -19652265 -595014945 1883789501
        -91460796 -79885301 -1467458860 -1162151236</internalNodes>
      <leafValues>
        -4.0543645620346069e-01 2.5400874018669128e-01</leafValues></_>
    <_>
      <internalNodes>
        0 -1 4800 -41988779 359989253 -602515457 387136835 -175028620
        2107341859 -1664585859 1060338215</internalNodes>
      <leafValues>
        -3.6012455821037292e-01 3.1661102175712585e-01</leafValues></_>
    <_>
      <internalNodes>
        0 -1 102168 -361085323 -554532649 1342230269 817509247
        -930981427 -2225958 -1731527683 -26185184</internalNodes>
      <leafValues>
        -3.6547890305519104e-01 2.9114431142807007e-01</leafValues></_>
    <_>
      <internalNodes>
        0 -1 90020 1720493711 10094766 1410925341 227158754 -1064715780
        11763915 185411231 141107443</internalNodes>
      <leafValues>
        -3.7601977586746216e-01 2.9810366034507751e-01</leafValues></_>
    <_>
      <internalNodes>
        0 -1 5256 779014016 777671410 -1090465313 700907204 84996607
        -925206 1019804651 -891817385</internalNodes>
      <leafValues>
        -4.0975326299667358e-01 2.3602461814880371e-01</leafValues></_>
    <_>
      <internalNodes>
        0 -1 96933 -631297243 -329576073 403883998 -231540787 -32685498
        -3270654 -1195188058 -88938244</internalNodes>
      <leafValues>
        -3.5283207893371582e-01 2.9768833518028259e-01</leafValues></_>
    <_>
      <internalNodes>
        0 -1 95886 -50867010 -1193766824 -1725902892 965270215
        -456097656 -125564440 -2134846760 4319950</internalNodes>
      <leafValues>
        -4.3451526761054993e-01 2.3926611244678497e-01</leafValues></_>
    <_>
      <internalNodes>
        0 -1 54287 -511752039 -580943851 440412777 1594912856 -949730568
        2013274192 -1171127384 1009801730</internalNodes>
      <leafValues>
        -3.7640890479087830e-01 2.6285690069198608e-01</leafValues></_>
    <_>
      <internalNodes>
        0 -1 57205 -958579089 2090198399 -456604802 -491098886
        -659861995 -670170805 -242728812 -53286028</internalNodes>
      <leafValues>
        -4.2927503585815430e-01 2.3729589581489563e-01</leafValues></_>
    <_>
      <internalNodes>
        0 -1 69580 -1883433387 743254124 37910993 -55783016 -69112067
        -73547623 -523575297 -89989180</internalNodes>
      <leafValues>
        -3.5860869288444519e-01 2.9756912589073181e-01</leafValues></_>
    <_>
      <internalNodes>
        0 -1 36249 -220209163 1716437198 -847001411 714005602 1522778613
        1819948977 553650420 169520</internalNodes>
      <leafValues>
        -5.6915479898452759e-01 1.7198795080184937e-01</leafValues></_>
    <_>
      <internalNodes>
        0 -1 81103 -99621868 362541800 269521988 -875708392 2062121456
        394619924 -1240460657 356992154</internalNodes>
      <leafValues>
        -3.8704001903533936e-01 2.6114186644554138e-01</leafValues></_>
    <_>
      <internalNodes>
        0 -1 99615 2085868628 903151393 -1155280087 -1196382417
        -653114280 -56956007 -321843762 -390895521</internalNodes>
      <leafValues>
        -3.4394600987434387e-01 2.9281684756278992e-01</leafValues></_>
    <_>
      <internalNodes>
        0 -1 29403 1117931042 -1092517888 -2099595009 130087117
        688219187 2005916237 -1307563783 -618696564</internalNodes>
      <leafValues>
        -3.8924798369407654e-01 2.6437628269195557e-01</leafValues></_>
    <_>
      <internalNodes>
        0 -1 100242 -1403100290 -263306917 -682563201 -1805725421
        -628407484 -115670523 -125384075 -253296908</internalNodes>
      <leafValues>
        -4.4331189990043640e-01 2.1714450418949127e-01</leafValues></_>
    <_>
      <internalNodes>
        0 -1 59922 248980543 649794640 -1996456585 -2072984124 55249201
        -236771917 -1168438368 -53422076</internalNodes>
      <leafValues>
        -5.3308880329132080e-01 1.9061970710754395e-01</leafValues></_>
    <_>
      <internalNodes>
        0 -1 68900 -408244396 475014114 815413957 85627014 2145548281
        -1736415130 1812354936 135797346</internalNodes>
      <leafValues>
        -4.0197834372520447e-01 2.6385304331779480e-01</leafValues></_>
    <_>
      <internalNodes>
        0 -1 22530 -821597138 -1907965854 -2146253320 -2012290806
        -1299238605 717160584 -87039755 -327490700</internalNodes>
      <leafValues>
        -4.3767291307449341e-01 2.2597631812095642e-01</leafValues></_></weakClassifiers></stage2>
</opencv_storage>
