<?xml version="1.0"?>
<opencv_storage>
<stage5>
  <maxWeakCount>15</maxWeakCount>
  <stageThreshold>-1.9504505395889282e+00</stageThreshold>
  <weakClassifiers>
    <_>
      <internalNodes>
        0 -1 475 -270016549 -222855297 1039453569 1584789471 -270532641
        -735523340 -655437845 -402671889</internalNodes>
      <leafValues>
        -9.1484248638153076e-01 -6.7408907413482666e-01</leafValues></_>
    <_>
      <internalNodes>
        0 -1 109 -201865142 1978592946 -354422822 -719065558 -1812410764
        -1344953801 1436350181 -139462737</internalNodes>
      <leafValues>
        -6.6195732355117798e-01 -1.7014606297016144e-01</leafValues></_>
    <_>
      <internalNodes>
        0 -1 472 -100669048 1390346237 2046610596 1343727189 -1209010877
        368496527 -303235672 -1803880453</internalNodes>
      <leafValues>
        -3.7672543525695801e-01 2.2485882043838501e-01</leafValues></_>
    <_>
      <internalNodes>
        0 -1 250 -80024352 -661656846 -1081182622 -202081632 -949530646
        165461623 2093634989 -245584451</internalNodes>
      <leafValues>
        -3.1846940517425537e-01 2.8765639662742615e-01</leafValues></_>
    <_>
      <internalNodes>
        0 -1 406 1858038912 1378832198 -839967146 1659305954 -412266992
        -25461386 -1093815004 100659492</internalNodes>
      <leafValues>
        -6.8557894229888916e-01 1.3626658916473389e-01</leafValues></_>
    <_>
      <internalNodes>
        0 -1 439 -1372819925 -1380303836 -1094739210 439939797 782720816
        -830477763 504731476 -991550343</internalNodes>
      <leafValues>
        -4.9948933720588684e-01 1.9902032613754272e-01</leafValues></_>
    <_>
      <internalNodes>
        0 -1 418 -157559124 376633652 -276841881 -202457948 2142876043
        -159383553 828825087 -336659221</internalNodes>
      <leafValues>
        -2.5247481465339661e-01 3.7402918934822083e-01</leafValues></_>
    <_>
      <internalNodes>
        0 -1 88 -529483598 -694524203 2127230799 2060691838 -1370538835
        1878755765 1608504823 -176680090</internalNodes>
      <leafValues>
        -3.3014416694641113e-01 3.0076932907104492e-01</leafValues></_>
    <_>
      <internalNodes>
        0 -1 108 -29411133 1803018232 -160760133 -51389408 164530290
        -1141476743 2109591600 -1086499505</internalNodes>
      <leafValues>
        -3.2415986061096191e-01 3.0505988001823425e-01</leafValues></_>
    <_>
      <internalNodes>
        0 -1 63 -335766822 -1104226260 1987772355 -1557070390 510998229
        833482939 -1882724235 1644216025</internalNodes>
      <leafValues>
        -4.8848578333854675e-01 2.0825898647308350e-01</leafValues></_>
    <_>
      <internalNodes>
        0 -1 311 -342898781 1725548204 -402859123 -118748046 1272416734
        -622229067 1835294526 1736168903</internalNodes>
      <leafValues>
        -3.0877399444580078e-01 3.3220481872558594e-01</leafValues></_>
    <_>
      <internalNodes>
        0 -1 199 -1610899571 -943821191 -352338316 -672568083 2113834664
        -327385122 -1157847299 -68234010</internalNodes>
      <leafValues>
        -2.6316341757774353e-01 3.9129143953323364e-01</leafValues></_>
    <_>
      <internalNodes>
        0 -1 354 948993683 438752243 251118974 1843363004 -9248142
        1539075613 -143308940 1556076285</internalNodes>
      <leafValues>
        -3.9800119400024414e-01 2.5007843971252441e-01</leafValues></_>
    <_>
      <internalNodes>
        0 -1 450 -317240770 -1712948718 -1572484512 485487530
        -1746953719 308904550 -174626824 -483134562</internalNodes>
      <leafValues>
        -3.5075172781944275e-01 2.9201480746269226e-01</leafValues></_>
    <_>
      <internalNodes>
        0 -1 469 -1353794841 1627115963 -1708174348 1355996150
        1906200708 -1309787213 2147048905 81509843</internalNodes>
      <leafValues>
        -3.9046263694763184e-01 2.7150362730026245e-01</leafValues></_></weakClassifiers></stage5>
</opencv_storage>
