<?xml version="1.0"?>
<opencv_storage>
<stage6>
  <maxWeakCount>17</maxWeakCount>
  <stageThreshold>-2.1634392738342285e+00</stageThreshold>
  <weakClassifiers>
    <_>
      <internalNodes>
        0 -1 357 -67111937 1912202943 1650216807 -134218753 -76022273
        -528665417 -303051013 -1</internalNodes>
      <leafValues>
        -9.0153920650482178e-01 -4.7619047760963440e-01</leafValues></_>
    <_>
      <internalNodes>
        0 -1 123 -580138117 -314995521 1598029009 2141814627 -807485865
        -948266763 -1709319169 -91236353</internalNodes>
      <leafValues>
        -6.0768961906433105e-01 -4.5301683247089386e-02</leafValues></_>
    <_>
      <internalNodes>
        0 -1 68 -277875130 -497172788 -32053006 -698286358 1341383756
        1199116663 -100696188 -792988162</internalNodes>
      <leafValues>
        -4.0779867768287659e-01 1.8850624561309814e-01</leafValues></_>
    <_>
      <internalNodes>
        0 -1 204 -84193656 685694094 -833854872 1114827206 2012963648
        -2836361 1744635460 584242532</internalNodes>
      <leafValues>
        -8.2587188482284546e-01 1.0069503635168076e-01</leafValues></_>
    <_>
      <internalNodes>
        0 -1 16 -403790330 -836852488 1313845958 1348977876 762144887
        -960033880 1990993524 657594213</internalNodes>
      <leafValues>
        -5.1679772138595581e-01 1.8846358358860016e-01</leafValues></_>
    <_>
      <internalNodes>
        0 -1 52 -30691604 -156085057 -287523178 1118353390 -1656326844
        1668796671 -137310876 -680432396</internalNodes>
      <leafValues>
        -4.2504215240478516e-01 2.0535162091255188e-01</leafValues></_>
    <_>
      <internalNodes>
        0 -1 320 -2156942 481025172 -364118953 788445630 -577549818
        462719974 2053518939 -765758857</internalNodes>
      <leafValues>
        -3.3164963126182556e-01 2.7727735042572021e-01</leafValues></_>
    <_>
      <internalNodes>
        0 -1 433 -50335570 -1121030422 -1098989702 1190066864 -8462646
        -41943723 500826111 -706757122</internalNodes>
      <leafValues>
        -2.3568244278430939e-01 3.9229643344879150e-01</leafValues></_>
    <_>
      <internalNodes>
        0 -1 54 -471152062 766311150 1313864444 -2033986049 -952207518
        687468346 1814145999 -1789395466</internalNodes>
      <leafValues>
        -4.9488550424575806e-01 1.9833761453628540e-01</leafValues></_>
    <_>
      <internalNodes>
        0 -1 382 1950875336 1205826443 -1693640004 1954510695 1983642728
        1778356413 410642383 935090170</internalNodes>
      <leafValues>
        -4.0902987122535706e-01 2.3480002582073212e-01</leafValues></_>
    <_>
      <internalNodes>
        0 -1 300 -881948018 635330282 -61509616 791101151 -1085126014
        1715873449 2116268634 1125514712</internalNodes>
      <leafValues>
        -4.6843028068542480e-01 1.9875290989875793e-01</leafValues></_>
    <_>
      <internalNodes>
        0 -1 151 254717536 803688940 -1099339534 1782470584 -741411504
        188577270 1511803732 1156721148</internalNodes>
      <leafValues>
        -6.7902761697769165e-01 1.3152053952217102e-01</leafValues></_>
    <_>
      <internalNodes>
        0 -1 239 -1092097534 107170902 1861906231 -231997591 1303997248
        1331931540 -162049240 70769174</internalNodes>
      <leafValues>
        -6.4277291297912598e-01 1.3477976620197296e-01</leafValues></_>
    <_>
      <internalNodes>
        0 -1 182 -1677763875 -579342953 -10555791 -1494958389 259160707
        -1501823113 1030708712 -816382060</internalNodes>
      <leafValues>
        -2.7824851870536804e-01 3.3671453595161438e-01</leafValues></_>
    <_>
      <internalNodes>
        0 -1 246 -831904984 866012503 1300151001 216980090 -50450532
        2063585941 -1527753155 2080233466</internalNodes>
      <leafValues>
        -4.3916016817092896e-01 2.2527866065502167e-01</leafValues></_>
    <_>
      <internalNodes>
        0 -1 389 -604418642 -1183142156 1046243988 264213348 -874063940
        2049032194 1400749813 1416813496</internalNodes>
      <leafValues>
        -3.8733646273612976e-01 2.5093647837638855e-01</leafValues></_>
    <_>
      <internalNodes>
        0 -1 407 952896324 1235124541 1112786510 1853180499 1330662480
        767279293 -1659476928 -1671104715</internalNodes>
      <leafValues>
        -6.3947361707687378e-01 1.4607810974121094e-01</leafValues></_></weakClassifiers></stage6>
</opencv_storage>
