<?xml version="1.0"?>
<opencv_storage>
<stage7>
  <maxWeakCount>17</maxWeakCount>
  <stageThreshold>-1.8941915035247803e+00</stageThreshold>
  <weakClassifiers>
    <_>
      <internalNodes>
        0 -1 165 -1788233733 1979448063 -1212457097 -1620312361
        -1644175361 -335823905 -276866657 -1073747553</internalNodes>
      <leafValues>
        -9.0868628025054932e-01 -6.0777956247329712e-01</leafValues></_>
    <_>
      <internalNodes>
        0 -1 314 -76613959 -1420531020 261524821 -1312888013 -29657158
        -1707921035 1852014559 -17825873</internalNodes>
      <leafValues>
        -6.2772876024246216e-01 -1.2918363511562347e-01</leafValues></_>
    <_>
      <internalNodes>
        0 -1 159 212077056 1069145762 -1616151115 -424248328 175205908
        -1434455049 1576944293 349433012</internalNodes>
      <leafValues>
        -7.0427513122558594e-01 6.5320290625095367e-02</leafValues></_>
    <_>
      <internalNodes>
        0 -1 301 -1635414784 -1394051598 247097084 -1246531267
        -281596677 485653186 108493145 165793404</internalNodes>
      <leafValues>
        -4.7789543867111206e-01 1.6983672976493835e-01</leafValues></_>
    <_>
      <internalNodes>
        0 -1 71 1242692162 1041213347 -1638428 1739050817 1529379700
        1939816443 -723590315 -516049427</internalNodes>
      <leafValues>
        -3.3028870820999146e-01 2.8017979860305786e-01</leafValues></_>
    <_>
      <internalNodes>
        0 -1 290 683601536 -826634932 759766975 -539034346 -161659920
        229337444 760942312 503279841</internalNodes>
      <leafValues>
        -3.8102319836616516e-01 2.4364064633846283e-01</leafValues></_>
    <_>
      <internalNodes>
        0 -1 316 -947384583 -27984235 534639074 1705670263 -82253704
        1856006742 -2005894201 -658640447</internalNodes>
      <leafValues>
        -3.3858534693717957e-01 2.8100851178169250e-01</leafValues></_>
    <_>
      <internalNodes>
        0 -1 28 1851764480 -395670814 -355227724 -1453242760 -54004799
        510803861 -935188684 397826037</internalNodes>
      <leafValues>
        -4.8252588510513306e-01 1.8451219797134399e-01</leafValues></_>
    <_>
      <internalNodes>
        0 -1 340 -1492652902 511073260 -363956266 2100294983 1665081335
        2129296237 -805595394 1677401141</internalNodes>
      <leafValues>
        -3.2762244343757629e-01 2.7955517172813416e-01</leafValues></_>
    <_>
      <internalNodes>
        0 -1 462 1736429089 1737288575 -460334657 -501624964 1047818841
        480196155 2126045952 3796476</internalNodes>
      <leafValues>
        -4.9615606665611267e-01 1.9605946540832520e-01</leafValues></_>
    <_>
      <internalNodes>
        0 -1 195 1988024352 -1612187934 1786751248 653052917 -1322492477
        717204443 -405810620 -1058746553</internalNodes>
      <leafValues>
        -4.9539157748222351e-01 1.8166211247444153e-01</leafValues></_>
    <_>
      <internalNodes>
        0 -1 225 1077937704 778041965 -1770765226 847169141 1802446580
        -387767513 503048021 141870382</internalNodes>
      <leafValues>
        -6.5269589424133301e-01 1.3620488345623016e-01</leafValues></_>
    <_>
      <internalNodes>
        0 -1 425 -894036352 641923172 1249634880 477505912 599617056
        1206896729 666047290 901453236</internalNodes>
      <leafValues>
        -6.0972595214843750e-01 1.3666811585426331e-01</leafValues></_>
    <_>
      <internalNodes>
        0 -1 401 -634780672 474895856 -315524488 2147248501 246766197
        -1993657689 -545357963 882142492</internalNodes>
      <leafValues>
        -7.0845293998718262e-01 1.1843927204608917e-01</leafValues></_>
    <_>
      <internalNodes>
        0 -1 368 -1668936006 -470230635 -879059622 580640071 1791901324
        1392163995 1537373683 -1913536041</internalNodes>
      <leafValues>
        -3.6956307291984558e-01 2.5044569373130798e-01</leafValues></_>
    <_>
      <internalNodes>
        0 -1 483 670199187 777447007 -1191660647 -878877251 1734254142
        -688314245 -404403025 -570957674</internalNodes>
      <leafValues>
        -2.8531152009963989e-01 3.2465663552284241e-01</leafValues></_>
    <_>
      <internalNodes>
        0 -1 101 1609012394 892189354 -460899882 -567493676 1634181096
        1510908684 1104073689 2041795066</internalNodes>
      <leafValues>
        -3.3592015504837036e-01 2.9873186349868774e-01</leafValues></_></weakClassifiers></stage7>
</opencv_storage>
