<?xml version="1.0"?>
<opencv_storage>
<stage8>
  <maxWeakCount>14</maxWeakCount>
  <stageThreshold>-1.8057754039764404e+00</stageThreshold>
  <weakClassifiers>
    <_>
      <internalNodes>
        0 -1 148526 -537134081 -205791777 1205010431 -4230701 -427045957
        -187040801 -42468353 -4641</internalNodes>
      <leafValues>
        -9.0344828367233276e-01 -5.1111114025115967e-01</leafValues></_>
    <_>
      <internalNodes>
        0 -1 124376 -149171971 -4244355 1337670698 192871164 -837903381
        -41439646 622293930 -318801233</internalNodes>
      <leafValues>
        -6.3594847917556763e-01 -1.0746780037879944e-01</leafValues></_>
    <_>
      <internalNodes>
        0 -1 64803 263378728 -1430373799 1848893374 674027180 -3188924
        -538293260 -822714060 276332033</internalNodes>
      <leafValues>
        -8.2264769077301025e-01 5.4994296282529831e-02</leafValues></_>
    <_>
      <internalNodes>
        0 -1 72828 953049760 985550833 -21676704 363659106 1738333845
        234408894 -1514144144 5263204</internalNodes>
      <leafValues>
        -6.9875663518905640e-01 1.5790548920631409e-01</leafValues></_>
    <_>
      <internalNodes>
        0 -1 54955 251277044 670905045 1122200782 1314613703 -1141950108
        -896573309 1004302357 1807357540</internalNodes>
      <leafValues>
        -7.1673929691314697e-01 1.2546837329864502e-01</leafValues></_>
    <_>
      <internalNodes>
        0 -1 19934 230304450 2056744090 -1488161703 -652737577
        1014688673 -31697975 -437651464 205214058</internalNodes>
      <leafValues>
        -5.4487162828445435e-01 1.6474223136901855e-01</leafValues></_>
    <_>
      <internalNodes>
        0 -1 113309 -1208955238 -556808758 229069922 1032767959
        1328563773 804641519 859535192 -797813931</internalNodes>
      <leafValues>
        -4.4713580608367920e-01 2.5298744440078735e-01</leafValues></_>
    <_>
      <internalNodes>
        0 -1 148156 100270144 1205038186 -119632425 -1545044137
        -84284198 -304190719 197361492 544363828</internalNodes>
      <leafValues>
        -6.8507492542266846e-01 1.5407095849514008e-01</leafValues></_>
    <_>
      <internalNodes>
        0 -1 45121 -1364517012 225822663 -1378469 1918890544 -899523503
        -1401546787 1919934784 511297198</internalNodes>
      <leafValues>
        -4.9727889895439148e-01 2.0935150980949402e-01</leafValues></_>
    <_>
      <internalNodes>
        0 -1 147291 1852587272 209599724 -1668829788 1868152431
        -548336358 798783175 1643557201 100691061</internalNodes>
      <leafValues>
        -7.2683978080749512e-01 1.4503201842308044e-01</leafValues></_>
    <_>
      <internalNodes>
        0 -1 115967 1195186704 -2006310940 996970494 -1895982253
        1133759714 67058400 2061419619 1427223154</internalNodes>
      <leafValues>
        -6.1511540412902832e-01 1.6571465134620667e-01</leafValues></_>
    <_>
      <internalNodes>
        0 -1 104602 -280307970 -1146228560 -1109700856 1985607036
        -1702906133 945510578 -2075448034 360470470</internalNodes>
      <leafValues>
        -4.1116270422935486e-01 2.8159436583518982e-01</leafValues></_>
    <_>
      <internalNodes>
        0 -1 60869 -2145711456 607979388 -1516331050 -805470764
        1316408644 -1342259441 -1263897412 134118898</internalNodes>
      <leafValues>
        -6.6168528795242310e-01 1.7727924883365631e-01</leafValues></_>
    <_>
      <internalNodes>
        0 -1 23903 1026478618 2049097414 -293341325 -2076188317
        -593527949 1303915368 -665882596 246801795</internalNodes>
      <leafValues>
        -4.9343276023864746e-01 2.3025783896446228e-01</leafValues></_></weakClassifiers></stage8>
</opencv_storage>
