<?xml version="1.0"?>
<opencv_storage>
<stage0>
  <maxWeakCount>7</maxWeakCount>
  <stageThreshold>-1.9245479106903076e+00</stageThreshold>
  <weakClassifiers>
    <_>
      <internalNodes>
        0 -1 88069 -7340097 -1347759168 -786572815 -2116705 -1368925253
        -339572261 -335814733 -8732</internalNodes>
      <leafValues>
        -9.2667204141616821e-01 -3.1446540355682373e-01</leafValues></_>
    <_>
      <internalNodes>
        0 -1 61000 -271585361 -1901661332 -439364106 -825306630
        -548543581 -819490669 -1210854683 -153356827</internalNodes>
      <leafValues>
        -8.0725002288818359e-01 1.2175820767879486e-01</leafValues></_>
    <_>
      <internalNodes>
        0 -1 69299 -19006978 -134221104 1917968592 -649473452 -571540499
        -802103260 -480128513 1158791379</internalNodes>
      <leafValues>
        -6.7228639125823975e-01 3.8675633072853088e-01</leafValues></_>
    <_>
      <internalNodes>
        0 -1 103925 -1343244663 -1978748114 -736963135 -599994636
        -1141114635 -368476025 -100929051 -1527753228</internalNodes>
      <leafValues>
        -7.3535484075546265e-01 3.8060721755027771e-01</leafValues></_>
    <_>
      <internalNodes>
        0 -1 68550 -807432577 -1365847078 -369503849 -1398893642
        -74712203 1607959181 1932258164 -185672716</internalNodes>
      <leafValues>
        -6.7066550254821777e-01 3.8824787735939026e-01</leafValues></_>
    <_>
      <internalNodes>
        0 -1 7994 -1049638 -1087439890 -788376608 -1059398 -87569952
        -829455614 -443747124 1340593279</internalNodes>
      <leafValues>
        -5.4664397239685059e-01 4.8472905158996582e-01</leafValues></_>
    <_>
      <internalNodes>
        0 -1 104246 -1073745485 -360476261 -904537630 -78187886
        1669719015 104464771 -72268300 -168439308</internalNodes>
      <leafValues>
        -5.8197373151779175e-01 4.4640317559242249e-01</leafValues></_></weakClassifiers></stage0>
</opencv_storage>
