<?xml version="1.0"?>
<opencv_storage>
<stage1>
  <maxWeakCount>9</maxWeakCount>
  <stageThreshold>-2.0918090343475342e+00</stageThreshold>
  <weakClassifiers>
    <_>
      <internalNodes>
        0 -1 79002 -540279041 -15751462 -1850780321 -9465387 -1349666561
        -68435222 -551887873 -536874029</internalNodes>
      <leafValues>
        -8.9467018842697144e-01 -2.6546907424926758e-01</leafValues></_>
    <_>
      <internalNodes>
        0 -1 33995 -11536662 -753952562 -586618457 -673082734 -15205413
        -1927556929 -203359781 1090769255</internalNodes>
      <leafValues>
        -7.9043477773666382e-01 2.5421386584639549e-02</leafValues></_>
    <_>
      <internalNodes>
        0 -1 95805 -33825063 -776675200 -746066115 367643127 -362481423
        -1220219728 -1688931845 88294430</internalNodes>
      <leafValues>
        -6.2167996168136597e-01 3.0038499832153320e-01</leafValues></_>
    <_>
      <internalNodes>
        0 -1 9362 -56688982 -936717142 -644055086 -403898508 -646485065
        -829775627 -361955980 -913187631</internalNodes>
      <leafValues>
        -7.2882884740829468e-01 2.8702303767204285e-01</leafValues></_>
    <_>
      <internalNodes>
        0 -1 79767 -1499727068 -1488055842 -1445897904 2102678138
        1722128880 -2085482334 -1165385499 -989958044</internalNodes>
      <leafValues>
        -6.1156451702117920e-01 3.6439913511276245e-01</leafValues></_>
    <_>
      <internalNodes>
        0 -1 107170 -2070009744 1073336786 1771172689 -1519344 589364464
        -1288990037 -326469123 -1212364336</internalNodes>
      <leafValues>
        -5.3853750228881836e-01 3.9326128363609314e-01</leafValues></_>
    <_>
      <internalNodes>
        0 -1 71000 -234882049 -1474519333 1493816273 -287780412
        -775177231 -928159574 449552822 -553659660</internalNodes>
      <leafValues>
        -5.0658762454986572e-01 4.1325837373733521e-01</leafValues></_>
    <_>
      <internalNodes>
        0 -1 95077 -22029713 -50804240 -1086007859 -48708958 -94180426
        -194639184 218387423 201453971</internalNodes>
      <leafValues>
        -5.2129274606704712e-01 3.9805877208709717e-01</leafValues></_>
    <_>
      <internalNodes>
        0 -1 102 -975635222 432601549 -913452068 -840984620 1578827251
        -893983771 1097846525 -1062216444</internalNodes>
      <leafValues>
        -5.6156557798385620e-01 3.6002609133720398e-01</leafValues></_></weakClassifiers></stage1>
</opencv_storage>
