<?xml version="1.0"?>
<opencv_storage>
<stage5>
  <maxWeakCount>43</maxWeakCount>
  <stageThreshold>-1.6402455568313599e+00</stageThreshold>
  <weakClassifiers>
    <_>
      <internalNodes>
        0 -1 2417 -1 -135473185 -2713601 -30475170 -85991435 -17387149
        1967641840 -84742112</internalNodes>
      <leafValues>
        -6.0465925931930542e-01 -5.3240742534399033e-02</leafValues></_>
    <_>
      <internalNodes>
        0 -1 456 -8403225 1749958982 -121513246 12756154 -178824633
        1215949317 -154485307 -186384825</internalNodes>
      <leafValues>
        -3.7500807642936707e-01 2.0934839546680450e-01</leafValues></_>
    <_>
      <internalNodes>
        0 -1 7750 -747110945 -17875075 -161546498 1915908094 -50340788
        -59793571 -1292701974 -263012357</internalNodes>
      <leafValues>
        -2.3866054415702820e-01 3.1347176432609558e-01</leafValues></_>
    <_>
      <internalNodes>
        0 -1 1373 -134258889 -41943049 -97025 -537179421 -50633161
        -159957562 -98578569 -1078247489</internalNodes>
      <leafValues>
        -2.1137316524982452e-01 3.4821838140487671e-01</leafValues></_>
    <_>
      <internalNodes>
        0 -1 3812 2070575881 1937768446 -277479563 1978907635 1987538779
        2142732287 2104685820 -67141673</internalNodes>
      <leafValues>
        -2.2311934828758240e-01 2.9823166131973267e-01</leafValues></_>
    <_>
      <internalNodes>
        0 -1 5119 -16785702 -566114 1660600030 1902071759 -304434488
        -1084797948 -120393014 1930632543</internalNodes>
      <leafValues>
        -2.2840268909931183e-01 2.8879663348197937e-01</leafValues></_>
    <_>
      <internalNodes>
        0 -1 3616 -83997105 -496671405 -728313386 -229967917 -252058020
        1466901279 -424346048 -231573674</internalNodes>
      <leafValues>
        -3.0825698375701904e-01 1.9171603024005890e-01</leafValues></_>
    <_>
      <internalNodes>
        0 -1 5984 -1397072785 -1352846497 -1931895558 1928489807
        -540910780 2034180145 -1966408876 -93178000</internalNodes>
      <leafValues>
        -3.3490577340126038e-01 1.6258341073989868e-01</leafValues></_>
    <_>
      <internalNodes>
        0 -1 3532 -1562915241 -297034413 -2066222900 -218847268
        -1146298025 -1038570981 -684228588 -263913996</internalNodes>
      <leafValues>
        -3.2785469293594360e-01 1.6653755307197571e-01</leafValues></_>
    <_>
      <internalNodes>
        0 -1 7757 -61999621 -1645664060 834719948 1507185875 -353133368
        -427534648 -1593582694 -213658117</internalNodes>
      <leafValues>
        -1.8028198182582855e-01 3.3585932850837708e-01</leafValues></_>
    <_>
      <internalNodes>
        0 -1 791 -1258354595 225724310 -1338453839 -135503893 607176156
        -1367474178 325210403 -1074045009</internalNodes>
      <leafValues>
        -1.6408902406692505e-01 3.1684559583663940e-01</leafValues></_>
    <_>
      <internalNodes>
        0 -1 3166 -39825 -774454815 -963232122 1919218366 -94490284
        -234876597 -889468244 -231712710</internalNodes>
      <leafValues>
        -2.5690132379531860e-01 2.1769708395004272e-01</leafValues></_>
    <_>
      <internalNodes>
        0 -1 7471 -1167679794 1490309539 -1039110952 583191303
        -653989556 -94650084 -359624008 -1529775636</internalNodes>
      <leafValues>
        -3.0286103487014771e-01 1.6363535821437836e-01</leafValues></_>
    <_>
      <internalNodes>
        0 -1 3352 -1442677743 -1359551558 -1781939619 -287523484
        -1198395179 -150363928 -678548959 -423298924</internalNodes>
      <leafValues>
        -3.2611522078514099e-01 1.6153100132942200e-01</leafValues></_>
    <_>
      <internalNodes>
        0 -1 3645 -621945384 -606120484 -804218296 -1290680629 808517578
        -36978620 -788336562 1426279942</internalNodes>
      <leafValues>
        -2.4152500927448273e-01 2.3200395703315735e-01</leafValues></_>
    <_>
      <internalNodes>
        0 -1 1275 -17963226 1850354495 -733648438 2054690390 -794219996
        -1797429891 1219660388 -1334384366</internalNodes>
      <leafValues>
        -3.1804350018501282e-01 1.6068752110004425e-01</leafValues></_>
    <_>
      <internalNodes>
        0 -1 6372 -1095573532 1991997129 1962835570 1935345786
        -176488824 -1115334904 -82647158 860343759</internalNodes>
      <leafValues>
        -2.0293450355529785e-01 2.4862717092037201e-01</leafValues></_>
    <_>
      <internalNodes>
        0 -1 1590 179039458 -393424950 -1056648912 -195286996 13652886
        -1055662929 -781858672 1882253848</internalNodes>
      <leafValues>
        -3.8955888152122498e-01 1.3350610435009003e-01</leafValues></_>
    <_>
      <internalNodes>
        0 -1 2668 -1929771775 -2435768 1923472091 884486877 430663419
        1802183400 -170100825 -701702680</internalNodes>
      <leafValues>
        -2.9316914081573486e-01 1.6345116496086121e-01</leafValues></_>
    <_>
      <internalNodes>
        0 -1 7331 -313524608 165209664 25565396 334865080 169193690
        1230504832 1092740497 5370087</internalNodes>
      <leafValues>
        -3.0525386333465576e-01 1.7046295106410980e-01</leafValues></_>
    <_>
      <internalNodes>
        0 -1 4614 1728821934 -833653329 -958443906 -1302105861
        -112241459 -97152691 -990121018 -177997337</internalNodes>
      <leafValues>
        -2.3022787272930145e-01 2.2015053033828735e-01</leafValues></_>
    <_>
      <internalNodes>
        0 -1 22 -835558930 2033390575 1702353354 -113765736 -1208652879
        -1250004241 831548404 -19411469</internalNodes>
      <leafValues>
        -2.3407441377639771e-01 2.1852092444896698e-01</leafValues></_>
    <_>
      <internalNodes>
        0 -1 6994 -1714532609 -352357937 -234360706 -1291947185
        -362361004 -47753147 -85263448 -1304770307</internalNodes>
      <leafValues>
        -2.3348766565322876e-01 2.2631567716598511e-01</leafValues></_>
    <_>
      <internalNodes>
        0 -1 5277 543508228 -798953985 -523796149 -801600397 1927445512
        1609750631 16857972 -396735490</internalNodes>
      <leafValues>
        -3.5347372293472290e-01 1.4363324642181396e-01</leafValues></_>
    <_>
      <internalNodes>
        0 -1 1100 -1244030169 1732354030 1578157458 1089753356
        1963554173 -698158846 576562228 -1843867952</internalNodes>
      <leafValues>
        -3.5663476586341858e-01 1.2955920398235321e-01</leafValues></_>
    <_>
      <internalNodes>
        0 -1 1332 -23232652 -692826928 -804027907 2102804766 -212112447
        1028262163 1768045305 -315476481</internalNodes>
      <leafValues>
        -2.2897687554359436e-01 2.1544648706912994e-01</leafValues></_>
    <_>
      <internalNodes>
        0 -1 108 -17044792 1798711282 -821900716 -949564292 1526357586
        -1004924268 1682166228 -2013035759</internalNodes>
      <leafValues>
        -3.3286985754966736e-01 1.5343488752841949e-01</leafValues></_>
    <_>
      <internalNodes>
        0 -1 6104 -1363917648 -372869167 274086878 1980215600
        -2101018658 -9703253 -24184059 -1439631100</internalNodes>
      <leafValues>
        -3.0955862998962402e-01 1.5879186987876892e-01</leafValues></_>
    <_>
      <internalNodes>
        0 -1 7813 -1376345110 880705734 639804842 1933948357 -1570923590
        -266338076 715031036 150947829</internalNodes>
      <leafValues>
        -2.5340622663497925e-01 2.0270520448684692e-01</leafValues></_>
    <_>
      <internalNodes>
        0 -1 8144 -1496321018 1749511286 -666962894 2016572398
        -1576284096 -501071870 -196548460 -227135108</internalNodes>
      <leafValues>
        -2.9903090000152588e-01 1.7420606315135956e-01</leafValues></_>
    <_>
      <internalNodes>
        0 -1 6674 655916484 2073543367 -241784080 1639672387 1498412746
        1527598338 1040257754 1717787343</internalNodes>
      <leafValues>
        -2.3137363791465759e-01 2.2341673076152802e-01</leafValues></_>
    <_>
      <internalNodes>
        0 -1 3818 752000436 1076326633 -394882780 1389521356 1743004769
        -1274341323 -330388335 -907382857</internalNodes>
      <leafValues>
        -2.8661492466926575e-01 1.8047669529914856e-01</leafValues></_>
    <_>
      <internalNodes>
        0 -1 5419 -1079698401 1850176474 -737426942 -85299160
        -1123467148 55779883 -1171538140 -1167918748</internalNodes>
      <leafValues>
        -3.2173597812652588e-01 1.6526481509208679e-01</leafValues></_>
    <_>
      <internalNodes>
        0 -1 5644 -1462362541 -923011699 -665002914 1916461335
        -251143098 -813989620 -620062190 -1825417164</internalNodes>
      <leafValues>
        -3.0571496486663818e-01 1.6238948702812195e-01</leafValues></_>
    <_>
      <internalNodes>
        0 -1 7514 -965413057 1890384591 -1320825326 1696227211
        -663271026 706683114 1754581228 282444711</internalNodes>
      <leafValues>
        -2.3537163436412811e-01 2.1132315695285797e-01</leafValues></_>
    <_>
      <internalNodes>
        0 -1 28 50425672 553047586 332432050 -1376465864 -723482770
        2096930906 1941345697 -956830479</internalNodes>
      <leafValues>
        -3.3120962977409363e-01 1.5331172943115234e-01</leafValues></_>
    <_>
      <internalNodes>
        0 -1 960 -1594134569 -1736278058 -763162761 -62890031 -348763883
        2012972388 -485458099 1874918096</internalNodes>
      <leafValues>
        -2.7539086341857910e-01 2.0748832821846008e-01</leafValues></_>
    <_>
      <internalNodes>
        0 -1 6176 242709846 2087250268 -1838657172 1006371958 -338513880
        -90338804 -1642990710 889276138</internalNodes>
      <leafValues>
        -2.7117368578910828e-01 1.9502653181552887e-01</leafValues></_>
    <_>
      <internalNodes>
        0 -1 1380 -1529125011 1596969249 -826011373 -18951800 -147184789
        -19033511 1067938226 -1060438899</internalNodes>
      <leafValues>
        -2.3857177793979645e-01 2.1808998286724091e-01</leafValues></_>
    <_>
      <internalNodes>
        0 -1 4306 -28078615 -145542019 -1475118721 406348743 -508016076
        -1094513907 -487793706 -1301119018</internalNodes>
      <leafValues>
        -2.2226659953594208e-01 2.3257361352443695e-01</leafValues></_>
    <_>
      <internalNodes>
        0 -1 7501 -826929497 -1368628918 13014210 -363150564 -646387184
        1801424898 -1730948368 -434077423</internalNodes>
      <leafValues>
        -3.5596537590026855e-01 1.5040096640586853e-01</leafValues></_>
    <_>
      <internalNodes>
        0 -1 485 -515167409 720657871 1850312682 -1944703319 369320944
        -333448525 -561875517 482600081</internalNodes>
      <leafValues>
        -2.7753189206123352e-01 1.8845508992671967e-01</leafValues></_>
    <_>
      <internalNodes>
        0 -1 981 1032683366 -492553310 806746382 1224139224 297482575
        -368361341 -1018386062 -627430460</internalNodes>
      <leafValues>
        -3.4545087814331055e-01 1.4597520232200623e-01</leafValues></_></weakClassifiers></stage5>
</opencv_storage>
