<?xml version="1.0"?>
<opencv_storage>
<stage1>
  <maxWeakCount>23</maxWeakCount>
  <stageThreshold>-1.8585178852081299e+00</stageThreshold>
  <weakClassifiers>
    <_>
      <internalNodes>
        0 -1 5353 -2097186 -67175681 -690029316 -70450 -18880776
        -88430661 -1062551304 -385892114</internalNodes>
      <leafValues>
        -6.9491034746170044e-01 2.0597870647907257e-01</leafValues></_>
    <_>
      <internalNodes>
        0 -1 8454 -1364284421 -1902505217 -1108691555 -1074033828
        212839163 -1098147253 50313663 -1342187009</internalNodes>
      <leafValues>
        -4.1975376009941101e-01 4.0300947427749634e-01</leafValues></_>
    <_>
      <internalNodes>
        0 -1 8113 -17043706 -2109209 -1220290912 -37364590 -1552163008
        -1692419929 -723060860 -203162693</internalNodes>
      <leafValues>
        -4.2563724517822266e-01 3.5658764839172363e-01</leafValues></_>
    <_>
      <internalNodes>
        0 -1 1422 -1599414238 -2146173269 -732701291 -580922405
        -1002908179 -1146758465 1214569903 -551292293</internalNodes>
      <leafValues>
        -4.0354609489440918e-01 3.5871252417564392e-01</leafValues></_>
    <_>
      <internalNodes>
        0 -1 6024 -290730718 -2103415646 2129653744 -9806352 -1124074011
        243203965 82298277 -704719436</internalNodes>
      <leafValues>
        -3.2746094465255737e-01 3.6261492967605591e-01</leafValues></_>
    <_>
      <internalNodes>
        0 -1 703 -14983661 2103165459 1003130999 1966167345 -243575296
        559546469 -549844600 1361146423</internalNodes>
      <leafValues>
        -4.0020677447319031e-01 2.7827918529510498e-01</leafValues></_>
    <_>
      <internalNodes>
        0 -1 5044 -1364513533 -1903916158 -1290671180 -21084288
        -1420070159 -1448086038 1354389137 -1058926384</internalNodes>
      <leafValues>
        -4.4758805632591248e-01 2.6945328712463379e-01</leafValues></_>
    <_>
      <internalNodes>
        0 -1 4591 -35457486 -125123872 1455513048 -712286208 -2145337440
        -2004291582 144758744 -2079371241</internalNodes>
      <leafValues>
        -3.4258276224136353e-01 3.2435825467109680e-01</leafValues></_>
    <_>
      <internalNodes>
        0 -1 6809 -2069887916 -1101391688 -645787220 -44101132
        -1140709920 -1235531655 -1416074577 -1359340383</internalNodes>
      <leafValues>
        -4.7428625822067261e-01 2.3537212610244751e-01</leafValues></_>
    <_>
      <internalNodes>
        0 -1 3473 -134742101 -612306200 -973100428 -539789964
        -1393980210 -1899485730 59299291 -983579189</internalNodes>
      <leafValues>
        -2.4984012544155121e-01 4.6470582485198975e-01</leafValues></_>
    <_>
      <internalNodes>
        0 -1 3501 -136315265 851111979 -583545523 -1472010050 -222719536
        -222385163 2108658696 576884789</internalNodes>
      <leafValues>
        -3.8114598393440247e-01 2.7845904231071472e-01</leafValues></_>
    <_>
      <internalNodes>
        0 -1 8092 -268435638 -526462787 -1802250770 -789580857
        1393426245 2036461631 -1317866560 -170921232</internalNodes>
      <leafValues>
        -4.2956173419952393e-01 2.3540990054607391e-01</leafValues></_>
    <_>
      <internalNodes>
        0 -1 5244 -1433271248 849173429 -784502571 -1076421420
        -1582793732 -1365708577 1301040113 -325561052</internalNodes>
      <leafValues>
        -4.3930721282958984e-01 2.2476683557033539e-01</leafValues></_>
    <_>
      <internalNodes>
        0 -1 1870 -123736114 -1542787032 -1217695504 -1772990334
        -1380236896 -1036316381 1200820452 -432553872</internalNodes>
      <leafValues>
        -3.4329620003700256e-01 2.8867447376251221e-01</leafValues></_>
    <_>
      <internalNodes>
        0 -1 3093 -606345182 -132074328 -685969152 -686128128 -905647966
        142623712 69466521 1104086523</internalNodes>
      <leafValues>
        -2.9578465223312378e-01 3.1372967362403870e-01</leafValues></_>
    <_>
      <internalNodes>
        0 -1 8258 -1150831869 -1362830687 -510987750 -961879566
        437933377 188850359 948618292 -1059139100</internalNodes>
      <leafValues>
        -4.7328481078147888e-01 2.1237540245056152e-01</leafValues></_>
    <_>
      <internalNodes>
        0 -1 6039 -210528265 451426848 -33885784 422057068 -1887399951
        -1562222910 89294716 -1035299661</internalNodes>
      <leafValues>
        -3.1078580021858215e-01 3.1212866306304932e-01</leafValues></_>
    <_>
      <internalNodes>
        0 -1 8463 582111607 572170611 -212737569 -1661572870 851184053
        143297177 -1846019073 -1627971332</internalNodes>
      <leafValues>
        -3.5497444868087769e-01 2.8463730216026306e-01</leafValues></_>
    <_>
      <internalNodes>
        0 -1 5731 248906304 -119885453 1208537437 -12650666 -142078190
        -600912968 -368817330 -368355186</internalNodes>
      <leafValues>
        -4.1742908954620361e-01 2.3565451800823212e-01</leafValues></_>
    <_>
      <internalNodes>
        0 -1 6556 -2039800317 985553344 -716713635 -1238740144
        -639353227 -1425342246 -1164526732 -333133356</internalNodes>
      <leafValues>
        -4.2963781952857971e-01 2.2803445160388947e-01</leafValues></_>
    <_>
      <internalNodes>
        0 -1 7636 -1896676571 -997588832 1628542406 1952408404 566640848
        -15236992 -87526924 -125241220</internalNodes>
      <leafValues>
        -3.8220441341400146e-01 2.4658124148845673e-01</leafValues></_>
    <_>
      <internalNodes>
        0 -1 8073 -285475279 -33751044 -1342345732 -579085065
        -1898723599 -50397195 246890600 -827077409</internalNodes>
      <leafValues>
        -2.5393286347389221e-01 3.8979744911193848e-01</leafValues></_>
    <_>
      <internalNodes>
        0 -1 93 -1943674258 614764626 -736821323 1163852805 1168864082
        -1758453553 -1847541033 1169642229</internalNodes>
      <leafValues>
        -4.4309371709823608e-01 2.1777603030204773e-01</leafValues></_></weakClassifiers></stage1>
</opencv_storage>
