<?xml version="1.0"?>
<opencv_storage>
<stage6>
  <maxWeakCount>46</maxWeakCount>
  <stageThreshold>-1.5762070417404175e+00</stageThreshold>
  <weakClassifiers>
    <_>
      <internalNodes>
        0 -1 8014 -1056953 -9486555 -234884297 2071964663 -2098182
        -72645441 -137958153 -71566593</internalNodes>
      <leafValues>
        -4.6501696109771729e-01 1.6760404407978058e-01</leafValues></_>
    <_>
      <internalNodes>
        0 -1 8187 -1560355361 -1344307234 -18890890 -1375736787
        -1890451461 -1896775763 -536940801 -1346401297</internalNodes>
      <leafValues>
        -2.6988634467124939e-01 2.7225074172019958e-01</leafValues></_>
    <_>
      <internalNodes>
        0 -1 8438 -1342177297 805298143 -820011098 1178336519 319422022
        23005547 1369310370 -136316945</internalNodes>
      <leafValues>
        -2.6722386479377747e-01 2.6847574114799500e-01</leafValues></_>
    <_>
      <internalNodes>
        0 -1 5957 -571277318 -1126104 -1542204124 -102641424 -1314167077
        -2004815222 923509755 93279739</internalNodes>
      <leafValues>
        -2.5134712457656860e-01 2.7027955651283264e-01</leafValues></_>
    <_>
      <internalNodes>
        0 -1 4077 1386472415 1929272279 1916542779 -1435044037
        1924626245 -65874480 -100401648 -96574478</internalNodes>
      <leafValues>
        -2.9268348217010498e-01 2.2719992697238922e-01</leafValues></_>
    <_>
      <internalNodes>
        0 -1 4793 8388608 -723369509 -2043833258 -181799841 512715258
        -1150293874 -1437672449 -1914299235</internalNodes>
      <leafValues>
        -3.6848652362823486e-01 1.7167054116725922e-01</leafValues></_>
    <_>
      <internalNodes>
        0 -1 1847 -742261025 -674803030 1681613040 1901027528
        -1841038166 -2138785379 1898903535 -976236869</internalNodes>
      <leafValues>
        -1.3250558078289032e-01 3.9684459567070007e-01</leafValues></_>
    <_>
      <internalNodes>
        0 -1 7481 2144017970 -177911521 -581249956 -1216233962
        -1761663936 1897496291 -597819200 -58945344</internalNodes>
      <leafValues>
        -3.8610649108886719e-01 1.3921539485454559e-01</leafValues></_>
    <_>
      <internalNodes>
        0 -1 5648 -739838979 -793877048 904909024 -876877216 1628102298
        42262600 1915105791 1124849631</internalNodes>
      <leafValues>
        -2.1540546417236328e-01 2.6178780198097229e-01</leafValues></_>
    <_>
      <internalNodes>
        0 -1 575 -142715371 2130072186 -512746116 2015407818 2111133712
        1567752598 1534500210 855671366</internalNodes>
      <leafValues>
        -3.7210610508918762e-01 1.5826226770877838e-01</leafValues></_>
    <_>
      <internalNodes>
        0 -1 6913 10947873 786063577 -430867278 -389876404 -596567737
        -1924429174 -1222753948 -993722908</internalNodes>
      <leafValues>
        -4.4595789909362793e-01 1.1521328985691071e-01</leafValues></_>
    <_>
      <internalNodes>
        0 -1 3017 -84298749 1938358410 661312942 1171214454 -1497170278
        -1148670246 1176565698 1469018555</internalNodes>
      <leafValues>
        -2.1353922784328461e-01 2.4671563506126404e-01</leafValues></_>
    <_>
      <internalNodes>
        0 -1 2712 776890901 -557449619 1156905823 1472069631 -14273020
        -134742081 -326829587 -8912908</internalNodes>
      <leafValues>
        -1.8592199683189392e-01 2.5859281420707703e-01</leafValues></_>
    <_>
      <internalNodes>
        0 -1 7706 -1034197941 648487836 -1877900634 -1269296357
        -844383405 -567573735 -336662700 -1937573064</internalNodes>
      <leafValues>
        -2.9737812280654907e-01 1.8261831998825073e-01</leafValues></_>
    <_>
      <internalNodes>
        0 -1 4937 -614590822 1502019312 -2137657326 -707964664
        -1439783974 -1255505720 -1697088573 227519695</internalNodes>
      <leafValues>
        -2.2456254065036774e-01 2.2011950612068176e-01</leafValues></_>
    <_>
      <internalNodes>
        0 -1 463 -101188097 -620239120 -1882280214 1414494376 -981763906
        -243435662 1934065247 1405346931</internalNodes>
      <leafValues>
        -1.6778270900249481e-01 2.9294908046722412e-01</leafValues></_>
    <_>
      <internalNodes>
        0 -1 8170 -375914617 -1428024351 -669595852 -1627720288
        -1598424693 -1984968193 865063344 -1921003047</internalNodes>
      <leafValues>
        -2.2678308188915253e-01 2.2136929631233215e-01</leafValues></_>
    <_>
      <internalNodes>
        0 -1 1414 48810528 -1933874557 -531145027 -673522992 -822313899
        465390429 40986997 1545392417</internalNodes>
      <leafValues>
        -4.0624296665191650e-01 1.2576840817928314e-01</leafValues></_>
    <_>
      <internalNodes>
        0 -1 4287 -739795858 -631967888 305300032 305461840 -47036580
        1480688228 1359014687 236541469</internalNodes>
      <leafValues>
        -2.9690659046173096e-01 1.6552878916263580e-01</leafValues></_>
    <_>
      <internalNodes>
        0 -1 8041 -18942517 642650599 -585655130 587071968 -81954020
        994812169 -224921680 -87765116</internalNodes>
      <leafValues>
        -2.8586784005165100e-01 1.7129431664943695e-01</leafValues></_>
    <_>
      <internalNodes>
        0 -1 6467 -299938732 -1102812696 -1955677356 320330591
        1603819080 685384406 -394079618 -1705058665</internalNodes>
      <leafValues>
        -3.0786535143852234e-01 1.5176168084144592e-01</leafValues></_>
    <_>
      <internalNodes>
        0 -1 2605 -1372508881 1321490426 1118425280 1041009290
        2140797533 40305283 -267751215 -457293576</internalNodes>
      <leafValues>
        -2.8805381059646606e-01 1.6706840693950653e-01</leafValues></_>
    <_>
      <internalNodes>
        0 -1 6351 1006995803 1658058442 -1097446880 -1602037728
        2029776440 -2079329325 -591005606 1290432204</internalNodes>
      <leafValues>
        -3.1511190533638000e-01 1.6030666232109070e-01</leafValues></_>
    <_>
      <internalNodes>
        0 -1 8401 -1968202721 -1421596419 -1862148002 1641632079
        -1163030986 1699981340 863691460 -1760366252</internalNodes>
      <leafValues>
        -2.9854571819305420e-01 1.6140380501747131e-01</leafValues></_>
    <_>
      <internalNodes>
        0 -1 7781 -1280329846 -1410729992 -922756316 -781209179
        -1831151589 -1542259357 -1875479653 -1849165905</internalNodes>
      <leafValues>
        -1.6685537993907928e-01 2.9955613613128662e-01</leafValues></_>
    <_>
      <internalNodes>
        0 -1 8463 777799775 652129735 -1986955397 -1996516642 1363890175
        956908049 1943778799 313303575</internalNodes>
      <leafValues>
        -3.3949244022369385e-01 1.4616708457469940e-01</leafValues></_>
    <_>
      <internalNodes>
        0 -1 3326 1053257591 -205491480 -805420821 1363244262 -226848184
        -1089241144 -964909858 467496950</internalNodes>
      <leafValues>
        -1.9802814722061157e-01 2.5809422135353088e-01</leafValues></_>
    <_>
      <internalNodes>
        0 -1 7473 710103046 -92798890 277148374 -237172612 -240418276
        -1279294714 -264965632 -2063536641</internalNodes>
      <leafValues>
        -2.8661775588989258e-01 1.7624945938587189e-01</leafValues></_>
    <_>
      <internalNodes>
        0 -1 1945 -96582427 -618699776 -1823462799 1599135904
        -1092964952 806242448 419965934 1661015851</internalNodes>
      <leafValues>
        -2.4237129092216492e-01 2.1400679647922516e-01</leafValues></_>
    <_>
      <internalNodes>
        0 -1 2318 -238027299 -708513364 -588865026 -739907484 -528936513
        -1430948610 838203370 1196364535</internalNodes>
      <leafValues>
        -1.7701032757759094e-01 2.9019230604171753e-01</leafValues></_>
    <_>
      <internalNodes>
        0 -1 4168 992040755 1794014890 2147418020 -27443276 -1645748658
        -823396353 1476388339 -827648527</internalNodes>
      <leafValues>
        -2.2326920926570892e-01 2.3763926327228546e-01</leafValues></_>
    <_>
      <internalNodes>
        0 -1 7405 -1629811465 -1357283332 -1190470079 1920590539
        -1329184443 -252977107 1219681424 -30089755</internalNodes>
      <leafValues>
        -2.8044804930686951e-01 1.9402270019054413e-01</leafValues></_>
    <_>
      <internalNodes>
        0 -1 5834 -338229229 -623083730 -16847630 -1857702567 -87155512
        -159580530 -152972341 -2025325330</internalNodes>
      <leafValues>
        -1.8271882832050323e-01 2.7050125598907471e-01</leafValues></_>
    <_>
      <internalNodes>
        0 -1 6104 -1369025167 -321068545 -1873618540 -426588783
        -1700071020 -1081371965 1367931567 -1935606287</internalNodes>
      <leafValues>
        -2.6670840382575989e-01 1.9274918735027313e-01</leafValues></_>
    <_>
      <internalNodes>
        0 -1 1430 -863421406 -1396710782 -333625758 1482411079
        -1370065112 2069070207 1019527185 -15435910</internalNodes>
      <leafValues>
        -3.9046749472618103e-01 1.2688688933849335e-01</leafValues></_>
    <_>
      <internalNodes>
        0 -1 4694 1839359489 -1432059928 1494577656 -226993796
        -1298443801 193708499 481359220 -2068123532</internalNodes>
      <leafValues>
        -3.4444877505302429e-01 1.4806835353374481e-01</leafValues></_>
    <_>
      <internalNodes>
        0 -1 4698 -1387202216 -1865525784 -81558352 432869698 1924642410
        -1958170184 1378046971 361485367</internalNodes>
      <leafValues>
        -2.4720862507820129e-01 2.1401552855968475e-01</leafValues></_>
    <_>
      <internalNodes>
        0 -1 3221 966791792 -1213712417 -519573043 -1472261740 660556428
        -113075573 455276589 -1983901268</internalNodes>
      <leafValues>
        -4.1125226020812988e-01 1.2550114095211029e-01</leafValues></_>
    <_>
      <internalNodes>
        0 -1 242 -2140905136 -796853650 1347570156 -265508706 11395512
        -87991933 1166506656 1631597654</internalNodes>
      <leafValues>
        -3.9897143840789795e-01 1.3049264252185822e-01</leafValues></_>
    <_>
      <internalNodes>
        0 -1 8184 -1342898497 -1567746101 -1458840669 -770437603
        288021070 42107539 -238937747 -1694851140</internalNodes>
      <leafValues>
        -2.6310825347900391e-01 2.0453853905200958e-01</leafValues></_>
    <_>
      <internalNodes>
        0 -1 8240 -287724790 677367946 -1484150886 -2098278362
        -911520428 1263001693 -393546235 -465372236</internalNodes>
      <leafValues>
        -3.7945973873138428e-01 1.3343422114849091e-01</leafValues></_>
    <_>
      <internalNodes>
        0 -1 6956 635137303 -707264638 1073662072 -777044044 -1766466390
        -39141554 -740825121 -1790444033</internalNodes>
      <leafValues>
        -1.5297734737396240e-01 3.5548317432403564e-01</leafValues></_>
    <_>
      <internalNodes>
        0 -1 5503 283259393 -1163437390 -1626444524 -1599410614
        697212592 -1145120429 618135648 2022067236</internalNodes>
      <leafValues>
        -4.3817833065986633e-01 1.2318027019500732e-01</leafValues></_>
    <_>
      <internalNodes>
        0 -1 4989 436763906 1787487426 1532223730 -196578432 -1486126881
        -1425307989 1084953376 -2064985611</internalNodes>
      <leafValues>
        -3.4196552634239197e-01 1.4330376684665680e-01</leafValues></_>
    <_>
      <internalNodes>
        0 -1 1944 -204706341 2038320080 322052272 276365464 -379405345
        203582912 1088365194 1376745995</internalNodes>
      <leafValues>
        -2.1114780008792877e-01 2.4437208473682404e-01</leafValues></_>
    <_>
      <internalNodes>
        0 -1 3215 -1640270347 -42188866 1006075815 1060224767 -541098227
        1072059863 -965350993 -1693757894</internalNodes>
      <leafValues>
        -1.5683650970458984e-01 3.2509940862655640e-01</leafValues></_></weakClassifiers></stage6>
</opencv_storage>
