<?xml version="1.0"?>
<opencv_storage>
<stage2>
  <maxWeakCount>28</maxWeakCount>
  <stageThreshold>-1.7988823652267456e+00</stageThreshold>
  <weakClassifiers>
    <_>
      <internalNodes>
        0 -1 3245 11059328 1002133747 -804138601 -44695693 80925950
        -1090813442 1083309211 -842015105</internalNodes>
      <leafValues>
        -6.4256286621093750e-01 1.5185885131359100e-01</leafValues></_>
    <_>
      <internalNodes>
        0 -1 5448 -69215745 -201362721 -601724180 -118980370 -50336328
        -1140852745 -188952360 -387268358</internalNodes>
      <leafValues>
        -4.9135962128639221e-01 3.1290933489799500e-01</leafValues></_>
    <_>
      <internalNodes>
        0 -1 8279 -1464169409 150507284 -1082753035 -1144314006
        -1074749701 -1482719235 -1347772417 -1146155029</internalNodes>
      <leafValues>
        -3.3281576633453369e-01 4.2665511369705200e-01</leafValues></_>
    <_>
      <internalNodes>
        0 -1 4507 -581382918 -651670960 -557154437 -1660315416
        -1373076998 -1096106054 1886031307 164298911</internalNodes>
      <leafValues>
        -3.0733749270439148e-01 4.0011253952980042e-01</leafValues></_>
    <_>
      <internalNodes>
        0 -1 7380 2111003652 -705684892 -654147745 2138959193 1566107008
        -241577956 -1382331288 -11841528</internalNodes>
      <leafValues>
        -3.7019321322441101e-01 3.0874183773994446e-01</leafValues></_>
    <_>
      <internalNodes>
        0 -1 4220 -139199504 -106908958 -1560653456 -6588382 -980951638
        1837399976 -779688469 -796143169</internalNodes>
      <leafValues>
        -2.8114908933639526e-01 3.8293203711509705e-01</leafValues></_>
    <_>
      <internalNodes>
        0 -1 4365 -1903554512 -1611730448 -582780947 -33856127 146400244
        -72863265 -1986386948 -1644472979</internalNodes>
      <leafValues>
        -3.6018708348274231e-01 2.8700739145278931e-01</leafValues></_>
    <_>
      <internalNodes>
        0 -1 3760 -222943936 1879462179 -711160046 487739712 672360448
        549134881 -254137604 -1145408224</internalNodes>
      <leafValues>
        -3.2328546047210693e-01 2.5917690992355347e-01</leafValues></_>
    <_>
      <internalNodes>
        0 -1 2987 -27265026 -77401406 -1364149123 1561788418 -2045578566
        -1993696604 -821377061 -1714481973</internalNodes>
      <leafValues>
        -2.1971783041954041e-01 3.9831495285034180e-01</leafValues></_>
    <_>
      <internalNodes>
        0 -1 7581 -1359229185 -1073798949 -1538324468 -1182701374
        450558772 -1430605788 1086930968 145738971</internalNodes>
      <leafValues>
        -3.3130329847335815e-01 2.6437586545944214e-01</leafValues></_>
    <_>
      <internalNodes>
        0 -1 5792 -1599394272 -322250000 -39854351 -219786384 -771080844
        -856678014 -620047371 -1935614812</internalNodes>
      <leafValues>
        -4.4562035799026489e-01 1.7640979588031769e-01</leafValues></_>
    <_>
      <internalNodes>
        0 -1 1280 -608216959 2114183928 16980377 822100278 -102758736
        746848544 323100863 1897070915</internalNodes>
      <leafValues>
        -2.9742380976676941e-01 2.6969090104103088e-01</leafValues></_>
    <_>
      <internalNodes>
        0 -1 8429 -895569468 -890838147 -243019934 1860081557 587362565
        588466190 1426842544 -160762974</internalNodes>
      <leafValues>
        -3.7116262316703796e-01 2.1932087838649750e-01</leafValues></_>
    <_>
      <internalNodes>
        0 -1 5736 -1467873963 -53034731 -1014300713 1569796229 177713913
        -1418875222 796955561 -319022660</internalNodes>
      <leafValues>
        -2.8680354356765747e-01 2.9147496819496155e-01</leafValues></_>
    <_>
      <internalNodes>
        0 -1 5939 -33557061 1891014116 -4212752 1475205216 -196164416
        -869597982 -1877281959 -980687633</internalNodes>
      <leafValues>
        -2.2764807939529419e-01 3.8148298859596252e-01</leafValues></_>
    <_>
      <internalNodes>
        0 -1 4559 -325161181 -1765653120 -1856799884 -121991120
        714609392 179670691 614110388 -50699872</internalNodes>
      <leafValues>
        -3.3415204286575317e-01 2.5119268894195557e-01</leafValues></_>
    <_>
      <internalNodes>
        0 -1 95 79872966 1198096 486554771 1572900879 -1815379501
        -252497450 -1588470017 993384023</internalNodes>
      <leafValues>
        -3.3987805247306824e-01 2.3666304349899292e-01</leafValues></_>
    <_>
      <internalNodes>
        0 -1 7694 -1494872520 -1608068327 -1996024426 -1313811628
        -1430650780 -86366158 -222131846 -1402977948</internalNodes>
      <leafValues>
        -4.0755209326744080e-01 1.9034264981746674e-01</leafValues></_>
    <_>
      <internalNodes>
        0 -1 4459 -19571087 1994056061 1329761242 1081348866 -128892412
        -1158150064 -1332281910 1208266160</internalNodes>
      <leafValues>
        -4.3510910868644714e-01 1.8871614336967468e-01</leafValues></_>
    <_>
      <internalNodes>
        0 -1 8360 -2105646253 -1463563488 -670856880 -1085799644
        176904755 -1903279693 8798656 -356609864</internalNodes>
      <leafValues>
        -3.5637930035591125e-01 2.2865489125251770e-01</leafValues></_>
    <_>
      <internalNodes>
        0 -1 6725 -158443814 1587731122 -1093791736 1641402832 -41233477
        -704561208 -679000549 -1781560213</internalNodes>
      <leafValues>
        -2.3630329966545105e-01 3.4764388203620911e-01</leafValues></_>
    <_>
      <internalNodes>
        0 -1 6436 739191984 1927156426 -1996308001 -1115613161 411794288
        1394151603 864045240 -1347278792</internalNodes>
      <leafValues>
        -3.1801289319992065e-01 2.6058188080787659e-01</leafValues></_>
    <_>
      <internalNodes>
        0 -1 208 1138084820 -2146138379 -1572237362 -1702574524
        -457411657 -350689375 -634786914 1173451</internalNodes>
      <leafValues>
        -3.4969106316566467e-01 2.2060438990592957e-01</leafValues></_>
    <_>
      <internalNodes>
        0 -1 5868 -1534960107 -324372806 -1743730256 -1379900 155937613
        -1456520829 -2136213104 -1397304844</internalNodes>
      <leafValues>
        -3.7092414498329163e-01 2.1293972432613373e-01</leafValues></_>
    <_>
      <internalNodes>
        0 -1 7377 1863308545 207881365 -1928300464 321527626 2032680712
        -1114666839 -477980557 2047011410</internalNodes>
      <leafValues>
        -4.0152245759963989e-01 1.9256766140460968e-01</leafValues></_>
    <_>
      <internalNodes>
        0 -1 2519 -232653018 1964670496 -118500183 -1825454080
        -1490955105 -2071265568 1471842302 -909163301</internalNodes>
      <leafValues>
        -2.0409460365772247e-01 3.9144447445869446e-01</leafValues></_>
    <_>
      <internalNodes>
        0 -1 7029 -234409 2024795890 536292536 -1389516240 -1879278085
        607903486 1570196600 -1460025854</internalNodes>
      <leafValues>
        -2.7970752120018005e-01 2.8695416450500488e-01</leafValues></_>
    <_>
      <internalNodes>
        0 -1 771 4953008 -1334667215 1708487641 -102414495 -1605534480
        -134752681 220464117 1329986680</internalNodes>
      <leafValues>
        -3.3513516187667847e-01 2.3849222064018250e-01</leafValues></_></weakClassifiers></stage2>
</opencv_storage>
