<?xml version="1.0"?>
<opencv_storage>
<stage3>
  <maxWeakCount>36</maxWeakCount>
  <stageThreshold>-1.7444694042205811e+00</stageThreshold>
  <weakClassifiers>
    <_>
      <internalNodes>
        0 -1 4053 -673193985 -201329795 -299896994 -219231554 -4194305
        -69208129 -1259354887 -353371393</internalNodes>
      <leafValues>
        -5.5224263668060303e-01 1.3512146472930908e-01</leafValues></_>
    <_>
      <internalNodes>
        0 -1 8433 117177343 -1275612193 -217929270 -70277001 13371880
        -1153891955 149621916 1843353323</internalNodes>
      <leafValues>
        -3.9392796158790588e-01 2.7074915170669556e-01</leafValues></_>
    <_>
      <internalNodes>
        0 -1 2703 -1001851888 -598672001 1181013965 1566437173
        -932121669 -51099395 -1943733288 -551682229</internalNodes>
      <leafValues>
        -3.3022630214691162e-01 2.8277468681335449e-01</leafValues></_>
    <_>
      <internalNodes>
        0 -1 5579 -224336918 -555548784 -147352192 -1224476 -316014677
        -324381204 -1541606006 94355711</internalNodes>
      <leafValues>
        -2.8242093324661255e-01 3.1663033366203308e-01</leafValues></_>
    <_>
      <internalNodes>
        0 -1 8342 -1595897 -227016907 -1107382740 -253444162 -303192572
        1582235519 -143235904 -33558630</internalNodes>
      <leafValues>
        -2.2212803363800049e-01 3.4735634922981262e-01</leafValues></_>
    <_>
      <internalNodes>
        0 -1 8002 -1498759821 -1963431370 -1839926315 -1088441388
        346917109 -1990489959 -2133964033 -1346436644</internalNodes>
      <leafValues>
        -2.9357808828353882e-01 2.5625768303871155e-01</leafValues></_>
    <_>
      <internalNodes>
        0 -1 6266 1548966008 -607060030 -74031 -639013008 -829456972
        -1097859099 -1083326789 -1043339873</internalNodes>
      <leafValues>
        -1.8788155913352966e-01 3.8543447852134705e-01</leafValues></_>
    <_>
      <internalNodes>
        0 -1 3040 -1400119581 -494775912 1467858388 -1044476 -1428356203
        -2000156499 -1865699084 -974470940</internalNodes>
      <leafValues>
        -2.8610232472419739e-01 2.6711896061897278e-01</leafValues></_>
    <_>
      <internalNodes>
        0 -1 6500 -1392685455 -17287888 1474423741 -264318604
        -1469465932 -239443417 -1165311491 -319227444</internalNodes>
      <leafValues>
        -3.0462950468063354e-01 2.5291177630424500e-01</leafValues></_>
    <_>
      <internalNodes>
        0 -1 6016 -2425218 2021811432 79597908 -839626688 1880249520
        1218578122 1992449915 29606110</internalNodes>
      <leafValues>
        -2.8930550813674927e-01 2.4799863994121552e-01</leafValues></_>
    <_>
      <internalNodes>
        0 -1 7166 1579571476 2122079102 1208644378 1750388118 -17612800
        2071243805 -454409216 -1442253310</internalNodes>
      <leafValues>
        -5.0182604789733887e-01 1.3072760403156281e-01</leafValues></_>
    <_>
      <internalNodes>
        0 -1 132 -385813808 1360178746 -1078689858 -170361306 -46598153
        -172023839 -332091585 -43948237</internalNodes>
      <leafValues>
        -2.5217816233634949e-01 2.8105169534683228e-01</leafValues></_>
    <_>
      <internalNodes>
        0 -1 3214 -663346379 -633573773 -1342783493 -1082495752
        -1888062224 -1208199618 -1208344579 -68546963</internalNodes>
      <leafValues>
        -2.3225130140781403e-01 3.0798384547233582e-01</leafValues></_>
    <_>
      <internalNodes>
        0 -1 7360 711067920 -1703268521 -603858019 -253865556 81533160
        -643972930 -87197060 -96805891</internalNodes>
      <leafValues>
        -3.1234735250473022e-01 2.2053284943103790e-01</leafValues></_>
    <_>
      <internalNodes>
        0 -1 7018 -1883351767 -1365076542 -1773968160 -1835225296
        -1194649223 -1890336217 -1715830572 -726494732</internalNodes>
      <leafValues>
        -3.9137202501296997e-01 1.7449845373630524e-01</leafValues></_>
    <_>
      <internalNodes>
        0 -1 3097 -473105534 -791527406 1208870513 1369461768
        -1029481325 1116386312 -266710455 -2024827765</internalNodes>
      <leafValues>
        -2.6315164566040039e-01 2.5858166813850403e-01</leafValues></_>
    <_>
      <internalNodes>
        0 -1 8302 -446978201 907207909 -770974506 474788821 -439641568
        2068480082 2114449956 -98510000</internalNodes>
      <leafValues>
        -3.4615191817283630e-01 1.9853100180625916e-01</leafValues></_>
    <_>
      <internalNodes>
        0 -1 4045 -2098668357 2052986169 824441791 1113872408
        -1026076032 -285816106 -126419480 180748018</internalNodes>
      <leafValues>
        -3.2356718182563782e-01 2.0906233787536621e-01</leafValues></_>
    <_>
      <internalNodes>
        0 -1 6693 1593506552 -1107896076 -67379232 -604899088
        -1507123286 -2014839420 -816194129 84001995</internalNodes>
      <leafValues>
        -2.3977099359035492e-01 2.7622324228286743e-01</leafValues></_>
    <_>
      <internalNodes>
        0 -1 6604 582682373 177379184 -32708152 -23545888 465913904
        -291007494 -783446192 -319141884</internalNodes>
      <leafValues>
        -4.2848980426788330e-01 1.6518509387969971e-01</leafValues></_>
    <_>
      <internalNodes>
        0 -1 657 -186916513 1930556798 1460272030 305190034 -331509680
        -133073055 -868007096 2020952930</internalNodes>
      <leafValues>
        -3.2761090993881226e-01 2.0133186876773834e-01</leafValues></_>
    <_>
      <internalNodes>
        0 -1 3862 -1417005296 -1396649962 -1420570643 -506871424
        984157164 -1985437441 1525664343 -104609636</internalNodes>
      <leafValues>
        -3.0717492103576660e-01 2.2778667509555817e-01</leafValues></_>
    <_>
      <internalNodes>
        0 -1 2429 -136464240 1608676922 1954468088 1573744736 -664208181
        411356874 -942285349 1469008347</internalNodes>
      <leafValues>
        -2.1576219797134399e-01 3.2461106777191162e-01</leafValues></_>
    <_>
      <internalNodes>
        0 -1 8462 -1513749377 -1395481761 -1340616803 -1969308834
        -1116921864 -409368155 2027328217 -1112475493</internalNodes>
      <leafValues>
        -2.9890212416648865e-01 2.2495126724243164e-01</leafValues></_>
    <_>
      <internalNodes>
        0 -1 158 -2133490746 1220081822 -1801293627 1796632256 -67960970
        -1531423577 -2063295031 1163773749</internalNodes>
      <leafValues>
        -3.6822846531867981e-01 1.8880638480186462e-01</leafValues></_>
    <_>
      <internalNodes>
        0 -1 7052 -185935724 -238130328 -1074008348 -1253923808
        -319389773 -903413766 -835781221 -2014461810</internalNodes>
      <leafValues>
        -2.3317405581474304e-01 2.9491466283798218e-01</leafValues></_>
    <_>
      <internalNodes>
        0 -1 4784 135268881 -36301862 1761844639 -19969070 831510846
        -1363588645 1688802074 -911070351</internalNodes>
      <leafValues>
        -3.0626979470252991e-01 2.2110103070735931e-01</leafValues></_>
    <_>
      <internalNodes>
        0 -1 4270 49164064 -1071224894 -850228232 -199352430 30497394
        134763194 -1432116300 -877505156</internalNodes>
      <leafValues>
        -3.6228862404823303e-01 1.9164620339870453e-01</leafValues></_>
    <_>
      <internalNodes>
        0 -1 8103 -328228957 -187001858 -237908540 1901674762 2074826757
        -1022947943 1363184260 -437387290</internalNodes>
      <leafValues>
        -3.4940472245216370e-01 1.8998238444328308e-01</leafValues></_>
    <_>
      <internalNodes>
        0 -1 936 -2059982853 -1000857791 -498463900 -690424548
        -235701311 -352616131 -667032445 -1326911373</internalNodes>
      <leafValues>
        -3.0603790283203125e-01 2.1680909395217896e-01</leafValues></_>
    <_>
      <internalNodes>
        0 -1 1550 1204017557 -1702452496 1827514172 -716073296
        -582142218 -538413328 -1470038568 1435458682</internalNodes>
      <leafValues>
        -2.3403514921665192e-01 2.9085254669189453e-01</leafValues></_>
    <_>
      <internalNodes>
        0 -1 1350 -3088779 2104722691 553653817 592977425 -217054667
        1043677600 -1625930726 790752035</internalNodes>
      <leafValues>
        -2.7939605712890625e-01 2.3806783556938171e-01</leafValues></_>
    <_>
      <internalNodes>
        0 -1 7811 -1395483854 872448894 -985441826 1039745050
        -1760696281 -1592904534 394308010 -2015688324</internalNodes>
      <leafValues>
        -2.8386089205741882e-01 2.3592603206634521e-01</leafValues></_>
    <_>
      <internalNodes>
        0 -1 7369 -2000744875 2125930005 -1797924031 -1291349648
        -431224684 992650385 -366833794 -1116669136</internalNodes>
      <leafValues>
        -2.9568150639533997e-01 2.2819533944129944e-01</leafValues></_>
    <_>
      <internalNodes>
        0 -1 4713 -405351918 -1490376992 -160316400 -1197125336
        -551332953 -1534536112 1394853371 151766779</internalNodes>
      <leafValues>
        -2.6839908957481384e-01 2.5441741943359375e-01</leafValues></_>
    <_>
      <internalNodes>
        0 -1 6160 -1498520656 -1487920366 -795297328 -1497173963
        -1181941420 -251620477 548395364 -1897701052</internalNodes>
      <leafValues>
        -3.9863273501396179e-01 1.7061062157154083e-01</leafValues></_></weakClassifiers></stage3>
</opencv_storage>
