<?xml version="1.0"?>
<opencv_storage>
<stage4>
  <maxWeakCount>53</maxWeakCount>
  <stageThreshold>-1.4384994506835938e+00</stageThreshold>
  <weakClassifiers>
    <_>
      <internalNodes>
        0 -1 8333 -136315905 -17639585 -192487572 -122112556 -485105804
        -83455130 1968500848 -2010055568</internalNodes>
      <leafValues>
        -5.1346057653427124e-01 1.3171283900737762e-01</leafValues></_>
    <_>
      <internalNodes>
        0 -1 15738 1568261120 -715659441 -1042322059 -748683297
        -901757948 2087627589 -526058914 -149164197</internalNodes>
      <leafValues>
        -3.2624143362045288e-01 2.0901519060134888e-01</leafValues></_>
    <_>
      <internalNodes>
        0 -1 18364 -50758918 -102737768 -766453030 1363625176 -719294312
        -1918215740 855833818 21174495</internalNodes>
      <leafValues>
        -2.8341108560562134e-01 2.4705848097801208e-01</leafValues></_>
    <_>
      <internalNodes>
        0 -1 26668 -2068840538 -1966302178 -1438237502 151751198 1736920
        147100389 71304392 13622459</internalNodes>
      <leafValues>
        -3.0515503883361816e-01 2.3023499548435211e-01</leafValues></_>
    <_>
      <internalNodes>
        0 -1 1541 -8533155 1427329555 -1018027693 455155713 -75883980
        -1168039934 1512057914 2067880707</internalNodes>
      <leafValues>
        -2.5358456373214722e-01 2.5568026304244995e-01</leafValues></_>
    <_>
      <internalNodes>
        0 -1 21375 -1396287657 -368686082 -90253068 -226863632
        -1337211564 -1883983867 -1299254796 -1427447300</internalNodes>
      <leafValues>
        -2.9645246267318726e-01 1.8481819331645966e-01</leafValues></_>
    <_>
      <internalNodes>
        0 -1 10549 -1358993665 -420580966 -218000396 -1301151652
        -1361360364 -869117359 -2050277244 -793059260</internalNodes>
      <leafValues>
        -3.2519325613975525e-01 1.5999943017959595e-01</leafValues></_>
    <_>
      <internalNodes>
        0 -1 27030 -1968505042 201605767 974187654 -1770761336 61057794
        201532998 1182949600 -523835021</internalNodes>
      <leafValues>
        -3.0878755450248718e-01 1.8967919051647186e-01</leafValues></_>
    <_>
      <internalNodes>
        0 -1 20775 -1366352783 -53464746 2013976404 -125147356
        -624374892 -81979105 -1096758284 -294595788</internalNodes>
      <leafValues>
        -3.0895584821701050e-01 1.6986702382564545e-01</leafValues></_>
    <_>
      <internalNodes>
        0 -1 960 -146541577 1655744630 -816183334 268468742 -11796490
        -588087433 2136444962 -212339689</internalNodes>
      <leafValues>
        -1.6687208414077759e-01 3.1933069229125977e-01</leafValues></_>
    <_>
      <internalNodes>
        0 -1 21209 -23703312 450253532 -1048344384 -801386492
        -1290807120 -1740357502 -1845441910 17026251</internalNodes>
      <leafValues>
        -2.6996937394142151e-01 1.9519329071044922e-01</leafValues></_>
    <_>
      <internalNodes>
        0 -1 18054 -1976883952 -1601799758 -204317706 -93142180
        -1437250988 -376583909 -1670503356 -870268620</internalNodes>
      <leafValues>
        -4.1457790136337280e-01 1.2192574143409729e-01</leafValues></_>
    <_>
      <internalNodes>
        0 -1 25242 -1461935141 -1422203085 -1207964038 -1308650436
        2012712700 -1100521729 -1662140737 -1412473636</internalNodes>
      <leafValues>
        -2.0569831132888794e-01 2.6353928446769714e-01</leafValues></_>
    <_>
      <internalNodes>
        0 -1 6498 -2145749982 -1034893863 -440107171 1608897015
        -1573252491 -1104651267 252162543 -1926496486</internalNodes>
      <leafValues>
        -2.7050521969795227e-01 1.9335235655307770e-01</leafValues></_>
    <_>
      <internalNodes>
        0 -1 26556 -95163434 1059057750 -863255514 -1806284257
        -529954048 -639926229 2135605408 -286010622</internalNodes>
      <leafValues>
        -2.1868190169334412e-01 2.3634177446365356e-01</leafValues></_>
    <_>
      <internalNodes>
        0 -1 21250 -2098775141 -425962529 -824003358 -119516204
        -1166076924 -268711379 -1361403216 -420309548</internalNodes>
      <leafValues>
        -3.0911687016487122e-01 1.5284287929534912e-01</leafValues></_>
    <_>
      <internalNodes>
        0 -1 12021 -278437803 -6859955 -644757551 -79266994 1358573921
        -1472065481 -242068316 -1146992372</internalNodes>
      <leafValues>
        -2.1795363724231720e-01 2.3278430104255676e-01</leafValues></_>
    <_>
      <internalNodes>
        0 -1 11776 -786766 -584595514 1894043680 -720903523 849343434
        -876214772 1391502027 -1826929185</internalNodes>
      <leafValues>
        -1.6933181881904602e-01 3.0765277147293091e-01</leafValues></_>
    <_>
      <internalNodes>
        0 -1 15815 -1430905071 -1398787152 -2125021840 -88290316
        -1918999211 -83766743 -1399784096 -315038992</internalNodes>
      <leafValues>
        -3.2405552268028259e-01 1.5382382273674011e-01</leafValues></_>
    <_>
      <internalNodes>
        0 -1 7290 -1359889407 -426968692 595710866 -463319616 1479231095
        797941934 -1501048108 -523214412</internalNodes>
      <leafValues>
        -3.5062065720558167e-01 1.4302343130111694e-01</leafValues></_>
    <_>
      <internalNodes>
        0 -1 27059 671622687 538531537 -2121213577 720093198 -342982500
        -1112877917 -1151734273 -1633811202</internalNodes>
      <leafValues>
        -2.5184482336044312e-01 2.0053197443485260e-01</leafValues></_>
    <_>
      <internalNodes>
        0 -1 5129 -1224804299 1023340197 15885181 2144063467 1727831335
        1643675382 743472107 2116811351</internalNodes>
      <leafValues>
        -1.9096125662326813e-01 2.6999798417091370e-01</leafValues></_>
    <_>
      <internalNodes>
        0 -1 7367 -201336066 -1282378048 -2007441654 -648019718
        -2144810338 -1182481278 -616369064 1342259274</internalNodes>
      <leafValues>
        -2.4596613645553589e-01 2.2073557972908020e-01</leafValues></_>
    <_>
      <internalNodes>
        0 -1 21030 -291562437 -355744393 -195566315 -95005716 2043414612
        -349500402 -710358780 -533662284</internalNodes>
      <leafValues>
        -3.4699010848999023e-01 1.3776245713233948e-01</leafValues></_>
    <_>
      <internalNodes>
        0 -1 19266 524097781 -120447814 -488574858 230810796 -1082195990
        -19628344 -663486741 -1826917921</internalNodes>
      <leafValues>
        -1.6793429851531982e-01 3.1124940514564514e-01</leafValues></_>
    <_>
      <internalNodes>
        0 -1 23367 -1460717023 -1640029201 -300362043 -93145137
        -1899499434 -283926254 -391465516 -1332675364</internalNodes>
      <leafValues>
        -2.6507940888404846e-01 1.8555104732513428e-01</leafValues></_>
    <_>
      <internalNodes>
        0 -1 14375 -489686564 516605572 1346376816 -77426612 -896127584
        -828319613 -1322073973 26998875</internalNodes>
      <leafValues>
        -2.2672484815120697e-01 2.1694663166999817e-01</leafValues></_>
    <_>
      <internalNodes>
        0 -1 10605 -436245323 -1026635554 -732125774 1880775116
        -367371968 1823811593 -1768099436 -123284424</internalNodes>
      <leafValues>
        -2.4436147511005402e-01 1.9837959110736847e-01</leafValues></_>
    <_>
      <internalNodes>
        0 -1 26860 -1425723613 1189364623 -2049792510 -1340679646
        369881950 712468552 1044478672 -1563165170</internalNodes>
      <leafValues>
        -2.6524218916893005e-01 1.7226685583591461e-01</leafValues></_>
    <_>
      <internalNodes>
        0 -1 22923 -1493268491 1408912892 -1493218034 -1146683544
        1069477265 -1111490691 -1929500692 -1163463432</internalNodes>
      <leafValues>
        -1.8882754445075989e-01 2.5393664836883545e-01</leafValues></_>
    <_>
      <internalNodes>
        0 -1 1720 1610965762 2102628633 1074905275 2031196113 838993939
        1225853176 847347939 -532015</internalNodes>
      <leafValues>
        -2.4657739698886871e-01 1.9842757284641266e-01</leafValues></_>
    <_>
      <internalNodes>
        0 -1 18468 -1548800281 -287399590 -1759329806 1785479656
        572258905 -620527330 -1010740395 -1930241804</internalNodes>
      <leafValues>
        -3.2227271795272827e-01 1.5970630943775177e-01</leafValues></_>
    <_>
      <internalNodes>
        0 -1 23433 -864028257 -847421992 -1188849015 -648620936
        -131214446 651859264 -2108388214 -1059590969</internalNodes>
      <leafValues>
        -1.8479755520820618e-01 2.8122892975807190e-01</leafValues></_>
    <_>
      <internalNodes>
        0 -1 36 48276852 -1786595562 353862091 -5586192 -797675274
        -1733875209 -925877352 -832080365</internalNodes>
      <leafValues>
        -2.8310590982437134e-01 1.8500144779682159e-01</leafValues></_>
    <_>
      <internalNodes>
        0 -1 22395 -1906303472 -425026760 2030097532 -1505711338
        -754198512 -359947990 -488059040 -399455916</internalNodes>
      <leafValues>
        -3.8452780246734619e-01 1.2923061847686768e-01</leafValues></_>
    <_>
      <internalNodes>
        0 -1 1333 -1940141189 -86257702 533142680 1076027514 1107812914
        -863737132 -920125766 1616110162</internalNodes>
      <leafValues>
        -2.7427849173545837e-01 1.8264290690422058e-01</leafValues></_>
    <_>
      <internalNodes>
        0 -1 13830 -876874499 -1756668840 -621285523 -674798495
        -1596173122 -1767132068 -1450115602 -553428721</internalNodes>
      <leafValues>
        -1.4528903365135193e-01 3.5235786437988281e-01</leafValues></_>
    <_>
      <internalNodes>
        0 -1 26274 -1354291653 193681144 -1200237884 -1573093342
        -1702196204 -879620061 -252008188 -260934716</internalNodes>
      <leafValues>
        -3.2026442885398865e-01 1.5590238571166992e-01</leafValues></_>
    <_>
      <internalNodes>
        0 -1 19438 -455379201 -1704662915 -1371851340 -2007299552
        -1288181016 -370749848 2072049102 -229640294</internalNodes>
      <leafValues>
        -1.6669197380542755e-01 2.9075786471366882e-01</leafValues></_>
    <_>
      <internalNodes>
        0 -1 10928 -16919781 -460884688 -1526662799 -850529452 -86417864
        -1230348550 -1068200295 -1954201862</internalNodes>
      <leafValues>
        -1.7099030315876007e-01 2.7296468615531921e-01</leafValues></_>
    <_>
      <internalNodes>
        0 -1 18600 -1532792293 -1404612213 -297546330 -218315824
        -1892135846 1727153059 726293716 -1799732012</internalNodes>
      <leafValues>
        -3.0740910768508911e-01 1.5607242286205292e-01</leafValues></_>
    <_>
      <internalNodes>
        0 -1 15407 1430560456 2005956272 -1928986400 -1379053485
        -1114475926 201564800 1388455470 521641311</internalNodes>
      <leafValues>
        -2.2752895951271057e-01 2.1359600126743317e-01</leafValues></_>
    <_>
      <internalNodes>
        0 -1 15740 -6196908 -1862820631 1996414708 -67373753 -145594888
        -318939321 -1714958641 -1354531389</internalNodes>
      <leafValues>
        -1.9504691660404205e-01 2.5292223691940308e-01</leafValues></_>
    <_>
      <internalNodes>
        0 -1 14204 -1642083497 551235185 -908907482 1625731230 542176336
        1937330288 -709456415 223989972</internalNodes>
      <leafValues>
        -3.0587586760520935e-01 1.5746580064296722e-01</leafValues></_>
    <_>
      <internalNodes>
        0 -1 17268 -1903330017 -1614752590 -1659432016 -1797372968
        -1292808239 -1913442242 1065877633 -856537360</internalNodes>
      <leafValues>
        -2.6945668458938599e-01 1.8158057332038879e-01</leafValues></_>
    <_>
      <internalNodes>
        0 -1 17799 -353109835 308998958 1789532357 768581750 -1224882759
        -2075723946 233966044 498795765</internalNodes>
      <leafValues>
        -1.9448749721050262e-01 2.5842681527137756e-01</leafValues></_>
    <_>
      <internalNodes>
        0 -1 1481 -2637093 -78519314 -1343047107 1431561363 -328186235
        -19801596 959968954 -82575653</internalNodes>
      <leafValues>
        -1.2861815094947815e-01 3.8132971525192261e-01</leafValues></_>
    <_>
      <internalNodes>
        0 -1 21872 -1460687343 1598985436 1107221948 1494175058
        -187049014 -1501956476 -1085220721 555086810</internalNodes>
      <leafValues>
        -2.0009019970893860e-01 2.4550931155681610e-01</leafValues></_>
    <_>
      <internalNodes>
        0 -1 13005 -1996003809 -1906012001 -724380731 -224993392
        -1194825355 -2052333457 597486006 -1226147712</internalNodes>
      <leafValues>
        -2.6219156384468079e-01 1.8643450736999512e-01</leafValues></_>
    <_>
      <internalNodes>
        0 -1 21379 -56188558 -603288836 -1930101524 -240422668
        -1128490028 195261796 -1414993298 -2058676769</internalNodes>
      <leafValues>
        -1.8095232546329498e-01 2.7631428837776184e-01</leafValues></_>
    <_>
      <internalNodes>
        0 -1 7812 -1097650907 -762414574 -1803095659 307254094
        -1161604832 -599045885 -656092992 -30216094</internalNodes>
      <leafValues>
        -2.5748369097709656e-01 1.9453334808349609e-01</leafValues></_>
    <_>
      <internalNodes>
        0 -1 8400 -1611137122 -823528139 1810653094 -571301650
        -594486284 -1164152963 -900334214 1570330702</internalNodes>
      <leafValues>
        -2.0693679153919220e-01 2.3733612895011902e-01</leafValues></_>
    <_>
      <internalNodes>
        0 -1 21775 -1409075967 -84085667 1732310103 -1392885614
        -1869712292 -340152817 -663101403 -596577680</internalNodes>
      <leafValues>
        -3.5701331496238708e-01 1.3454985618591309e-01</leafValues></_></weakClassifiers></stage4>
</opencv_storage>
