<?xml version="1.0"?>
<opencv_storage>
<stage7>
  <maxWeakCount>59</maxWeakCount>
  <stageThreshold>-1.2925250530242920e+00</stageThreshold>
  <weakClassifiers>
    <_>
      <internalNodes>
        0 -1 12077 8192 -1178216655 -9309839 -43654399 147150453
        -1073890884 257282938 -572177968</internalNodes>
      <leafValues>
        -4.5647969841957092e-01 1.7418678104877472e-01</leafValues></_>
    <_>
      <internalNodes>
        0 -1 24771 656359187 722708752 -542040303 2139093872 961376049
        1069544188 828798784 -67663888</internalNodes>
      <leafValues>
        -3.0841618776321411e-01 2.0060111582279205e-01</leafValues></_>
    <_>
      <internalNodes>
        0 -1 25649 724024303 799931071 771424464 -1882362053 92250559
        37399290 32456984 1307411661</internalNodes>
      <leafValues>
        -2.5265744328498840e-01 2.1891427040100098e-01</leafValues></_>
    <_>
      <internalNodes>
        0 -1 4431 1926755263 -740688651 -4210755 2125393662 1710473716
        -71919151 2010506560 -288555772</internalNodes>
      <leafValues>
        -2.0789748430252075e-01 2.5239136815071106e-01</leafValues></_>
    <_>
      <internalNodes>
        0 -1 1643 -335567077 -537707585 804213599 -1614954627
        -1247840395 -47612073 1202864507 -6570177</internalNodes>
      <leafValues>
        -1.8523970246315002e-01 2.7369633316993713e-01</leafValues></_>
    <_>
      <internalNodes>
        0 -1 145 4453866 547942644 -410925310 -9914896 140895718
        -1396731539 -1799751766 -302516560</internalNodes>
      <leafValues>
        -2.7075144648551941e-01 1.7988696694374084e-01</leafValues></_>
    <_>
      <internalNodes>
        0 -1 18365 1839493547 -1718729542 1157872032 -649215616
        1058725962 -410906536 389043146 118453531</internalNodes>
      <leafValues>
        -2.0113973319530487e-01 2.3487651348114014e-01</leafValues></_>
    <_>
      <internalNodes>
        0 -1 13417 -286268416 -1452034009 -273167055 -715010437
        1759857913 -1427899724 -2001950938 -1154947002</internalNodes>
      <leafValues>
        -2.7623584866523743e-01 1.4963562786579132e-01</leafValues></_>
    <_>
      <internalNodes>
        0 -1 27142 -1997016257 -72810527 -1612801089 -3301601 1866973027
        -1442840617 1199031444 -546310955</internalNodes>
      <leafValues>
        -1.3258028030395508e-01 3.1115919351577759e-01</leafValues></_>
    <_>
      <internalNodes>
        0 -1 16389 -1397815637 -905492335 -467974793 -798558252
        -1461717151 -1951169677 -473763212 -159981324</internalNodes>
      <leafValues>
        -2.5641927123069763e-01 1.7729368805885315e-01</leafValues></_>
    <_>
      <internalNodes>
        0 -1 15334 2024013591 1401813588 -281704672 -45510017 1426279860
        -1215402832 2130994128 1565382806</internalNodes>
      <leafValues>
        -2.2517529129981995e-01 1.8472169339656830e-01</leafValues></_>
    <_>
      <internalNodes>
        0 -1 19248 -1979031295 1141498128 -627212139 -453846536
        -1458894736 -1414782413 -1912936332 -1003170496</internalNodes>
      <leafValues>
        -3.7842768430709839e-01 1.2955470383167267e-01</leafValues></_>
    <_>
      <internalNodes>
        0 -1 5052 195245875 -1265962186 802413530 -842206586 226963893
        -441211215 424649617 -322067440</internalNodes>
      <leafValues>
        -2.2464881837368011e-01 1.8485182523727417e-01</leafValues></_>
    <_>
      <internalNodes>
        0 -1 23405 -839125116 1571923400 271954368 -215398310 -740499312
        218628288 -1721838774 318977290</internalNodes>
      <leafValues>
        -2.3743014037609100e-01 1.8918478488922119e-01</leafValues></_>
    <_>
      <internalNodes>
        0 -1 19668 -1501043193 -859176565 -938420879 1883176850
        -1112848035 -1348780005 -1298144796 -1615181328</internalNodes>
      <leafValues>
        -2.5387561321258545e-01 1.6379125416278839e-01</leafValues></_>
    <_>
      <internalNodes>
        0 -1 13395 3899938 171099453 -45785643 467030110 831141225
        2130317443 1149255124 -36570141</internalNodes>
      <leafValues>
        -2.5431612133979797e-01 1.6608570516109467e-01</leafValues></_>
    <_>
      <internalNodes>
        0 -1 17785 -70548875 1395881970 -1885468327 2142383268
        -1694635103 -1748984602 468851672 -557782346</internalNodes>
      <leafValues>
        -1.5762537717819214e-01 2.7291324734687805e-01</leafValues></_>
    <_>
      <internalNodes>
        0 -1 10269 168802075 -326447196 -1726606955 -688483456
        -1980237995 -2055962262 -517783212 -638955407</internalNodes>
      <leafValues>
        -2.4101381003856659e-01 1.7213936150074005e-01</leafValues></_>
    <_>
      <internalNodes>
        0 -1 26625 -830218245 1035976087 -302075980 1530117615
        1307413184 94090982 896730560 -604243681</internalNodes>
      <leafValues>
        -1.3614383339881897e-01 2.9751181602478027e-01</leafValues></_>
    <_>
      <internalNodes>
        0 -1 1209 1593010045 1000439033 1435437362 487616522 1901529365
        567678002 1159019673 1058095223</internalNodes>
      <leafValues>
        -2.5835809111595154e-01 1.5902206301689148e-01</leafValues></_>
    <_>
      <internalNodes>
        0 -1 20085 41364275 -489762776 -1062325887 -16988908 -1282838267
        -1439317752 1324012852 -663719920</internalNodes>
      <leafValues>
        -3.3921611309051514e-01 1.2721243500709534e-01</leafValues></_>
    <_>
      <internalNodes>
        0 -1 7527 2055177282 2070746866 -935694312 -707136269
        -1713138270 -816914474 -162476066 -942717509</internalNodes>
      <leafValues>
        -1.6056475043296814e-01 2.7037483453750610e-01</leafValues></_>
    <_>
      <internalNodes>
        0 -1 13277 -465100720 1542984068 890539894 1029178274 -640742736
        -1742468208 161026300 675285562</internalNodes>
      <leafValues>
        -3.1039035320281982e-01 1.2757071852684021e-01</leafValues></_>
    <_>
      <internalNodes>
        0 -1 19380 -1911084009 1177174966 -292670064 -192271664
        -1567657884 -1505333221 799721589 -262081452</internalNodes>
      <leafValues>
        -3.3591824769973755e-01 1.2553918361663818e-01</leafValues></_>
    <_>
      <internalNodes>
        0 -1 11118 168508704 -1366896428 -1760340528 -455832928
        1218799873 -1946438722 1904832608 -1060007568</internalNodes>
      <leafValues>
        -4.2318549752235413e-01 8.1738084554672241e-02</leafValues></_>
    <_>
      <internalNodes>
        0 -1 22825 -2052064324 -577823780 -1781869839 -584843803
        -561261072 1581808836 289604378 1363273551</internalNodes>
      <leafValues>
        -1.8200558423995972e-01 2.2092920541763306e-01</leafValues></_>
    <_>
      <internalNodes>
        0 -1 16550 648479266 -1467059560 -721366618 -91950668 467364133
        23797811 998495056 -1700209520</internalNodes>
      <leafValues>
        -3.3955127000808716e-01 1.1770950257778168e-01</leafValues></_>
    <_>
      <internalNodes>
        0 -1 6591 686186592 -859267258 -1918318252 1214539245 673719700
        530615116 1064587232 1014501232</internalNodes>
      <leafValues>
        -4.3803986907005310e-01 8.7821565568447113e-02</leafValues></_>
    <_>
      <internalNodes>
        0 -1 12038 -591976519 893087607 -1409545733 2142977653
        -2063650689 -1325648493 -38598808 -1089785814</internalNodes>
      <leafValues>
        -1.6723349690437317e-01 2.4372428655624390e-01</leafValues></_>
    <_>
      <internalNodes>
        0 -1 25165 -901347922 -128600417 -1914150624 2134700526
        -1987070076 136973848 -749518189 1084735650</internalNodes>
      <leafValues>
        -2.3526345193386078e-01 1.7339539527893066e-01</leafValues></_>
    <_>
      <internalNodes>
        0 -1 24450 -1514975390 644847626 -624593595 817058389 -7376572
        -1162248191 -404180288 -533158088</internalNodes>
      <leafValues>
        -2.9435059428215027e-01 1.4066973328590393e-01</leafValues></_>
    <_>
      <internalNodes>
        0 -1 15476 -974689301 2146819582 -675814807 -578707051 583386482
        -1910621500 995126170 -684726541</internalNodes>
      <leafValues>
        -1.3310357928276062e-01 3.1422063708305359e-01</leafValues></_>
    <_>
      <internalNodes>
        0 -1 26472 208778051 2035458847 1036895302 -1092764801 199093844
        2094437343 2146387204 -91829552</internalNodes>
      <leafValues>
        -2.0614965260028839e-01 2.0363165438175201e-01</leafValues></_>
    <_>
      <internalNodes>
        0 -1 11067 107063795 -743900664 1604678981 -683194793
        -1707049448 -29894950 1425366522 -1386386225</internalNodes>
      <leafValues>
        -1.5234526991844177e-01 2.7383756637573242e-01</leafValues></_>
    <_>
      <internalNodes>
        0 -1 3396 1387012640 1410661277 -925614431 216846267 -1403176734
        955986175 1209313431 -899940123</internalNodes>
      <leafValues>
        -2.9776597023010254e-01 1.4453551173210144e-01</leafValues></_>
    <_>
      <internalNodes>
        0 -1 13559 -358011017 -670190442 -1405818990 -604750556
        745690928 -88950352 1258555148 257169546</internalNodes>
      <leafValues>
        -2.3895904421806335e-01 1.7222921550273895e-01</leafValues></_>
    <_>
      <internalNodes>
        0 -1 11685 -1561251973 -292933616 -99290860 2059855776
        -1980108729 673284139 312829076 -218201776</internalNodes>
      <leafValues>
        -2.8663766384124756e-01 1.5162527561187744e-01</leafValues></_>
    <_>
      <internalNodes>
        0 -1 2051 1214460193 -1607813856 2001442710 -831067396
        -1656934341 -355806402 -704752906 -1043088602</internalNodes>
      <leafValues>
        -2.0442128181457520e-01 1.9136358797550201e-01</leafValues></_>
    <_>
      <internalNodes>
        0 -1 15745 -1567218127 -1106709804 -1987591394 -538013027
        165114417 -1682304546 1830681460 -275197444</internalNodes>
      <leafValues>
        -2.4321520328521729e-01 1.6186025738716125e-01</leafValues></_>
    <_>
      <internalNodes>
        0 -1 22927 -1415691525 1017024715 -1726881508 2010699224
        692820662 -1986527087 462041532 -1615178708</internalNodes>
      <leafValues>
        -2.0978531241416931e-01 1.9892090559005737e-01</leafValues></_>
    <_>
      <internalNodes>
        0 -1 11738 1711926816 290043050 -1986894406 -1735533030
        1275251458 520411696 1198540170 1347485530</internalNodes>
      <leafValues>
        -2.7203834056854248e-01 1.5164735913276672e-01</leafValues></_>
    <_>
      <internalNodes>
        0 -1 19734 -404238397 988426187 -1426065166 834298546
        -1079706186 189749071 -2030058068 -1759248929</internalNodes>
      <leafValues>
        -1.8871816992759705e-01 2.1632754802703857e-01</leafValues></_>
    <_>
      <internalNodes>
        0 -1 27214 -1343228457 -1464156785 -35154568 -268583069
        385175520 2009055231 -39880808 -3178274</internalNodes>
      <leafValues>
        -1.4362829923629761e-01 2.9027867317199707e-01</leafValues></_>
    <_>
      <internalNodes>
        0 -1 21225 -2002891247 -1442074040 -162000686 718459648
        -1190059195 -1970568951 -1314217244 -462386364</internalNodes>
      <leafValues>
        -3.8285100460052490e-01 1.1070197075605392e-01</leafValues></_>
    <_>
      <internalNodes>
        0 -1 17529 1189915555 -238753686 -323027144 1595522301 616518074
        1065518742 -2085559366 -271598945</internalNodes>
      <leafValues>
        -1.3230450451374054e-01 3.1073325872421265e-01</leafValues></_>
    <_>
      <internalNodes>
        0 -1 7799 -1526758843 2032020559 771230385 -1284913249
        1629602864 -3774496 169347544 -1149638870</internalNodes>
      <leafValues>
        -1.6456373035907745e-01 2.6279297471046448e-01</leafValues></_>
    <_>
      <internalNodes>
        0 -1 25382 407514948 1625064774 -1122914940 1411557234
        1780826436 469639319 938418208 542669588</internalNodes>
      <leafValues>
        -5.0145059823989868e-01 8.4598071873188019e-02</leafValues></_>
    <_>
      <internalNodes>
        0 -1 19811 67108976 -1578353958 -1656890376 -7578464 1754332529
        -8248415 1681346924 -869269456</internalNodes>
      <leafValues>
        -3.6827680468559265e-01 1.0834024101495743e-01</leafValues></_>
    <_>
      <internalNodes>
        0 -1 5458 -1950892105 -834225308 -458016192 -376359444
        -1443074158 -1177135665 -331072249 251627391</internalNodes>
      <leafValues>
        -1.9638748466968536e-01 2.0568801462650299e-01</leafValues></_>
    <_>
      <internalNodes>
        0 -1 25650 -1353758633 1872695579 -1525104154 -260117510
        -1427723212 34232403 -1446875692 -713391918</internalNodes>
      <leafValues>
        -2.2926369309425354e-01 1.7609281837940216e-01</leafValues></_>
    <_>
      <internalNodes>
        0 -1 16204 1615783532 -1859630718 113417906 -647487956
        1065704848 -1084975980 -536291766 37844045</internalNodes>
      <leafValues>
        -2.8657752275466919e-01 1.4760576188564301e-01</leafValues></_>
    <_>
      <internalNodes>
        0 -1 4440 -471076313 -510858788 -704559728 1988395728 -343387385
        -1986985965 490948788 -260593420</internalNodes>
      <leafValues>
        -2.2468590736389160e-01 1.7640762031078339e-01</leafValues></_>
    <_>
      <internalNodes>
        0 -1 4983 203854192 -1390005784 -35336315 -22102063 67402619
        -240262727 63705566 2086073483</internalNodes>
      <leafValues>
        -2.6050129532814026e-01 1.5629972517490387e-01</leafValues></_>
    <_>
      <internalNodes>
        0 -1 22755 -1374786653 -1608986126 -402618960 -195766824
        -1572697296 -2063425477 -89067408 -246226472</internalNodes>
      <leafValues>
        -2.6422616839408875e-01 1.5481819212436676e-01</leafValues></_>
    <_>
      <internalNodes>
        0 -1 3009 -721965086 -205072520 -392936000 826395674 543101746
        -1992473568 1208074922 -247601364</internalNodes>
      <leafValues>
        -1.9318728148937225e-01 2.1531499922275543e-01</leafValues></_>
    <_>
      <internalNodes>
        0 -1 9538 781711001 1074885623 2100633584 -545566716 1929242414
        -8894343 1767329553 -2002486512</internalNodes>
      <leafValues>
        -2.0508518815040588e-01 2.0553427934646606e-01</leafValues></_>
    <_>
      <internalNodes>
        0 -1 17863 407324226 490063666 -1388738810 -1655634325
        -2034215540 -17544785 -2050715857 -1565043298</internalNodes>
      <leafValues>
        -2.2727257013320923e-01 1.7817878723144531e-01</leafValues></_>
    <_>
      <internalNodes>
        0 -1 10701 -2144727195 673514145 2076266651 -80737121
        -1715260907 -237436925 360794897 -1938576</internalNodes>
      <leafValues>
        -2.6414307951927185e-01 1.5036946535110474e-01</leafValues></_>
    <_>
      <internalNodes>
        0 -1 27150 8633943 441882312 -981380984 -136605529 36910868
        1521057795 2084918561 209302870</internalNodes>
      <leafValues>
        -2.1334369480609894e-01 1.8834137916564941e-01</leafValues></_></weakClassifiers></stage7>
</opencv_storage>
