<?xml version="1.0"?>
<opencv_storage>
<stage1>
  <maxWeakCount>24</maxWeakCount>
  <stageThreshold>-1.7525308132171631e+00</stageThreshold>
  <weakClassifiers>
    <_>
      <internalNodes>
        0 -1 16010 -770 -103613773 -872093460 -575870770 -588191560
        -151198560 -2134867752 -930758508</internalNodes>
      <leafValues>
        -5.3516197204589844e-01 3.7828192114830017e-01</leafValues></_>
    <_>
      <internalNodes>
        0 -1 18811 -1971319760 -12943491 -276840451 -1111675479
        -1397178625 -33554433 -1095827461 -1078260069</internalNodes>
      <leafValues>
        -4.2527505755424500e-01 4.3305659294128418e-01</leafValues></_>
    <_>
      <internalNodes>
        0 -1 17562 -186590008 1411944640 -1037905840 1359302672
        -226435960 1091354624 -1040144694 196619</internalNodes>
      <leafValues>
        -4.5519396662712097e-01 3.3561727404594421e-01</leafValues></_>
    <_>
      <internalNodes>
        0 -1 26894 -2134211439 79431730 1982261689 -1156966544
        -1091532804 -673962125 -1375953154 -1411402264</internalNodes>
      <leafValues>
        -2.9813152551651001e-01 4.4082367420196533e-01</leafValues></_>
    <_>
      <internalNodes>
        0 -1 20725 -1467875312 -1695413413 -100658467 -119893483
        -1393293188 -71622520 -1162342440 -1363664208</internalNodes>
      <leafValues>
        -3.8740020990371704e-01 3.1778982281684875e-01</leafValues></_>
    <_>
      <internalNodes>
        0 -1 843 -201590018 -94307824 -725030520 285245504 -271863553
        -1800292168 1835846842 1346491394</internalNodes>
      <leafValues>
        -4.0937834978103638e-01 2.7461969852447510e-01</leafValues></_>
    <_>
      <internalNodes>
        0 -1 18210 -1594683885 -1902637040 -2122262315 -55295360
        -1742253036 -1431493606 -1920927568 -1327312876</internalNodes>
      <leafValues>
        -4.1440346837043762e-01 2.5965148210525513e-01</leafValues></_>
    <_>
      <internalNodes>
        0 -1 12109 -859454384 -728644813 -2042563235 1572427429
        -506682124 -189920558 -2012688440 -888015845</internalNodes>
      <leafValues>
        -3.4190031886100769e-01 3.1447598338127136e-01</leafValues></_>
    <_>
      <internalNodes>
        0 -1 24182 -885141857 542825625 -1376215507 163390188 1804502010
        -1939823474 1086408907 1288686063</internalNodes>
      <leafValues>
        -2.8787228465080261e-01 3.5088735818862915e-01</leafValues></_>
    <_>
      <internalNodes>
        0 -1 7902 -1969617616 1009845203 -771280699 -1111535342
        1904869493 805996672 -256507223 -1080420848</internalNodes>
      <leafValues>
        -3.1874182820320129e-01 3.2136541604995728e-01</leafValues></_>
    <_>
      <internalNodes>
        0 -1 42 1208721410 738592776 1822248261 757559696 21852411
        99788268 361220335 -807460747</internalNodes>
      <leafValues>
        -3.5483387112617493e-01 2.7133804559707642e-01</leafValues></_>
    <_>
      <internalNodes>
        0 -1 23975 -1226366637 -436071174 -2113811747 -1842327552
        -641312428 -248247767 -1578452232 -1163480656</internalNodes>
      <leafValues>
        -3.3427956700325012e-01 3.1959655880928040e-01</leafValues></_>
    <_>
      <internalNodes>
        0 -1 11603 -746593064 1957487650 -2145755582 318902472
        -402487128 -2008528704 -1869365750 17252427</internalNodes>
      <leafValues>
        -3.6226397752761841e-01 2.9489696025848389e-01</leafValues></_>
    <_>
      <internalNodes>
        0 -1 21990 -1493496809 -91872164 2051586257 -225180716
        -1827989168 -1154971648 -326718544 -1171078128</internalNodes>
      <leafValues>
        -3.6182814836502075e-01 2.6273670792579651e-01</leafValues></_>
    <_>
      <internalNodes>
        0 -1 19573 -183836992 1485836424 -1857920468 26906712 1612584336
        -267769420 1392542683 1073793118</internalNodes>
      <leafValues>
        -4.0374892950057983e-01 2.3361521959304810e-01</leafValues></_>
    <_>
      <internalNodes>
        0 -1 7461 -925644233 -2104558816 -451706402 -591345600
        -1853273782 -2102786027 -835300892 -1541219052</internalNodes>
      <leafValues>
        -3.8059380650520325e-01 2.3655062913894653e-01</leafValues></_>
    <_>
      <internalNodes>
        0 -1 19442 -831088430 -1736831980 -1142295971 427904200
        1822875368 -242168316 -1002246709 -2117735357</internalNodes>
      <leafValues>
        -2.7936547994613647e-01 3.3771494030952454e-01</leafValues></_>
    <_>
      <internalNodes>
        0 -1 19788 -1366415812 1922988994 -2016059110 -1825381474
        998619376 -1951516610 -1182256483 -1432204896</internalNodes>
      <leafValues>
        -3.0805543065071106e-01 3.0076229572296143e-01</leafValues></_>
    <_>
      <internalNodes>
        0 -1 25527 -463741310 -575951153 -1248489332 1606791824
        -1066549102 -1109992134 180568080 -1065101877</internalNodes>
      <leafValues>
        -2.7635496854782104e-01 3.5184687376022339e-01</leafValues></_>
    <_>
      <internalNodes>
        0 -1 15948 -1474884302 -89649009 -1072605697 2134906064
        -1047907529 -1173837823 -1439813463 -575253772</internalNodes>
      <leafValues>
        -3.1363955140113831e-01 3.0461806058883667e-01</leafValues></_>
    <_>
      <internalNodes>
        0 -1 22309 -1067755436 270037588 -787033003 1779945295
        -249016184 -251750777 -1600886454 -301629413</internalNodes>
      <leafValues>
        -3.2297286391258240e-01 2.9947674274444580e-01</leafValues></_>
    <_>
      <internalNodes>
        0 -1 2283 -1176552042 814874677 -1088662703 1445749824
        1805573111 1388030767 -780691760 146161667</internalNodes>
      <leafValues>
        -4.1486451029777527e-01 2.2590772807598114e-01</leafValues></_>
    <_>
      <internalNodes>
        0 -1 19950 -2037773248 -427753024 269603923 -834128847
        -1534561967 -610270686 -624756603 -274933152</internalNodes>
      <leafValues>
        -4.3068870902061462e-01 2.1395613253116608e-01</leafValues></_>
    <_>
      <internalNodes>
        0 -1 4995 -1543451088 348279969 -1425092283 -840148908
        -722146317 -88571748 -616094853 1305296956</internalNodes>
      <leafValues>
        -3.8384434580802917e-01 2.4776539206504822e-01</leafValues></_></weakClassifiers></stage1>
</opencv_storage>
