<?xml version="1.0"?>
<opencv_storage>
<stage3>
  <maxWeakCount>26</maxWeakCount>
  <stageThreshold>-1.9203671216964722e+00</stageThreshold>
  <weakClassifiers>
    <_>
      <internalNodes>
        0 -1 23 -112199201 -538850576 -175190273 -6709253 -279969862
        -39595490 -354488337 -5749</internalNodes>
      <leafValues>
        -9.0238392353057861e-01 -6.4313727617263794e-01</leafValues></_>
    <_>
      <internalNodes>
        0 -1 22 -361986855 -129065330 -1130628554 -272402434 -1056710920
        -891483477 -1375915523 -71526146</internalNodes>
      <leafValues>
        -6.1021023988723755e-01 -1.6087467968463898e-01</leafValues></_>
    <_>
      <internalNodes>
        0 -1 11 1357678748 -691811205 2141158397 2147129648 -1403376495
        2096951474 -846446786 -2089184805</internalNodes>
      <leafValues>
        -3.6970266699790955e-01 1.4985515177249908e-01</leafValues></_>
    <_>
      <internalNodes>
        0 -1 8 1512090178 2116953394 -3473440 1805903937 2069457524
        378012155 -774970529 808489452</internalNodes>
      <leafValues>
        -3.9077642560005188e-01 1.5178836882114410e-01</leafValues></_>
    <_>
      <internalNodes>
        0 -1 12 -287522096 251550243 -2067505766 -23167683 -134325848
        150872814 -3120483 -110181652</internalNodes>
      <leafValues>
        -2.4596695601940155e-01 2.4463930726051331e-01</leafValues></_>
    <_>
      <internalNodes>
        0 -1 6 -1003329982 -864460930 848552898 -807871128 -1476713248
        1139937952 -1103560776 -1099173682</internalNodes>
      <leafValues>
        -2.9207256436347961e-01 2.0239064097404480e-01</leafValues></_>
    <_>
      <internalNodes>
        0 -1 18 -133131638 -85541775 -1074888881 -201330824 2002765482
        -17858955 1046793723 -4203265</internalNodes>
      <leafValues>
        -1.9565956294536591e-01 3.0880931019783020e-01</leafValues></_>
    <_>
      <internalNodes>
        0 -1 13 -1872689568 -1761683838 -894603067 -1443437676
        -1175444895 1660335929 -66967695 -1095357354</internalNodes>
      <leafValues>
        -3.6867853999137878e-01 1.6847252845764160e-01</leafValues></_>
    <_>
      <internalNodes>
        0 -1 10 1287965312 -4628814 -1081091916 -223184168 -2030964860
        -1158941705 -104080731 -1129125639</internalNodes>
      <leafValues>
        -2.6704856753349304e-01 2.0333534479141235e-01</leafValues></_>
    <_>
      <internalNodes>
        0 -1 4 -856496080 -623319682 2014735966 -46826457 -742858394
        -1062008119 1276051008 -444737991</internalNodes>
      <leafValues>
        -2.6920342445373535e-01 2.2634646296501160e-01</leafValues></_>
    <_>
      <internalNodes>
        0 -1 17 1761488040 -2143385755 -790780379 1282579696 -1153244350
        -1082742441 -1423445265 -324210920</internalNodes>
      <leafValues>
        -3.0881851911544800e-01 1.8812863528728485e-01</leafValues></_>
    <_>
      <internalNodes>
        0 -1 14 -623992160 -360138344 399686560 -1174487841 445060160
        2066992381 -255858547 -336449126</internalNodes>
      <leafValues>
        -2.6487323641777039e-01 2.0814920961856842e-01</leafValues></_>
    <_>
      <internalNodes>
        0 -1 21 -2038692864 -1359688184 -1953825948 -1411464420
        1720924501 1002322172 43567188 137385221</internalNodes>
      <leafValues>
        -7.9410761594772339e-01 6.4788468182086945e-02</leafValues></_>
    <_>
      <internalNodes>
        0 -1 24 -16807885 -185795012 1878884004 -372212107 2146424987
        -838860801 -76648982 -335620705</internalNodes>
      <leafValues>
        -1.6696473956108093e-01 3.2481929659843445e-01</leafValues></_>
    <_>
      <internalNodes>
        0 -1 19 -138803552 528622246 -2121118558 -910194897 -504751273
        -215104606 -425134099 -1148231740</internalNodes>
      <leafValues>
        -2.4499990046024323e-01 2.1362629532814026e-01</leafValues></_>
    <_>
      <internalNodes>
        0 -1 20 1485112864 -1741909394 1296911477 -596967852 -1259870192
        1860310895 -265073898 91433680</internalNodes>
      <leafValues>
        -4.9734809994697571e-01 1.0081322491168976e-01</leafValues></_>
    <_>
      <internalNodes>
        0 -1 13 1348501408 -1745895214 -1031179820 1894245333 2045911792
        -487148103 -66963502 -594434819</internalNodes>
      <leafValues>
        -2.4932675063610077e-01 1.9707390666007996e-01</leafValues></_>
    <_>
      <internalNodes>
        0 -1 1 -655645725 -51788065 -135300260 -1161256492 416677673
        -80193997 -698848312 799675875</internalNodes>
      <leafValues>
        -2.3042412102222443e-01 2.1228563785552979e-01</leafValues></_>
    <_>
      <internalNodes>
        0 -1 23 -328206113 1592650338 -78104 -1363279876 -278823016
        -42475554 -285356594 -17404526</internalNodes>
      <leafValues>
        -1.6305156052112579e-01 2.9794901609420776e-01</leafValues></_>
    <_>
      <internalNodes>
        0 -1 15 -43677056 2133843525 -1791786340 -537660801 -209784905
        -83886158 1835457998 -344852610</internalNodes>
      <leafValues>
        -2.0058207213878632e-01 2.5533360242843628e-01</leafValues></_>
    <_>
      <internalNodes>
        0 -1 2 -1008263837 1786033528 2079341869 552949440 252996455
        939067546 2050569870 1454455655</internalNodes>
      <leafValues>
        -3.2140207290649414e-01 1.6272838413715363e-01</leafValues></_>
    <_>
      <internalNodes>
        0 -1 0 -1686725063 1610382462 -672493842 1933148152 1710141107
        -218170124 -679477789 -218640426</internalNodes>
      <leafValues>
        -1.8307550251483917e-01 2.8083559870719910e-01</leafValues></_>
    <_>
      <internalNodes>
        0 -1 3 -1373199736 648028366 2111753896 237630672 -1462515373
        -43863984 421213440 636841824</internalNodes>
      <leafValues>
        -6.1455869674682617e-01 8.7640255689620972e-02</leafValues></_>
    <_>
      <internalNodes>
        0 -1 8 1243605602 -20994638 -137692192 1715398728 -213292356
        2055733499 -254901387 -457899011</internalNodes>
      <leafValues>
        -3.2304018735885620e-01 1.5880621969699860e-01</leafValues></_>
    <_>
      <internalNodes>
        0 -1 5 -1107313281 -621150213 -41949277 1476030199 -939524412
        -27787787 -35136295 -612373523</internalNodes>
      <leafValues>
        -1.3511335849761963e-01 3.3851790428161621e-01</leafValues></_>
    <_>
      <internalNodes>
        0 -1 22 -1469062126 1755189966 -1734616714 -1467844627
        -805089568 -892763997 1711124830 -224479108</internalNodes>
      <leafValues>
        -2.6488173007965088e-01 1.8512691557407379e-01</leafValues></_></weakClassifiers></stage3>
</opencv_storage>
