<?xml version="1.0"?>
<opencv_storage>
<cascade>
  <stageType>BOOST</stageType>
  <featureType>LBP</featureType>
  <height>32</height>
  <width>32</width>
  <stageParams>
    <boostType>GAB</boostType>
    <minHitRate>9.9900001287460327e-01</minHitRate>
    <maxFalseAlarm>3.0000001192092896e-01</maxFalseAlarm>
    <weightTrimRate>9.4999999999999996e-01</weightTrimRate>
    <maxDepth>1</maxDepth>
    <maxWeakCount>100</maxWeakCount></stageParams>
  <featureParams>
    <maxCatCount>256</maxCatCount>
    <featSize>1</featSize></featureParams>
  <stageNum>9</stageNum>
  <stages>
    <!-- stage 0 -->
    <_>
      <maxWeakCount>6</maxWeakCount>
      <stageThreshold>-2.0725920200347900e+00</stageThreshold>
      <weakClassifiers>
        <_>
          <internalNodes>
            0 -1 21 -72353920 -179443104 2076591953 -580790797
            -1954820990 -291258079 -372256037 -67108913</internalNodes>
          <leafValues>
            -9.4429045915603638e-01 -5.5854427814483643e-01</leafValues></_>
        <_>
          <internalNodes>
            0 -1 8 -830747518 -1452547506 834755221 -540816871
            -1978214251 -918044533 2018500495 -880806177</internalNodes>
          <leafValues>
            -7.7483421564102173e-01 7.9656569287180901e-03</leafValues></_>
        <_>
          <internalNodes>
            0 -1 31 -391436505 1150579758 -49184698 -772124068
            1474260548 800837947 1455092452 -189549819</internalNodes>
          <leafValues>
            -6.3043862581253052e-01 3.2035315036773682e-01</leafValues></_>
        <_>
          <internalNodes>
            0 -1 102 -1477751769 779381247 -274803718 1056895420
            -1157662960 -1963263941 -219385519 -826379788</internalNodes>
          <leafValues>
            -6.7459571361541748e-01 3.4207138419151306e-01</leafValues></_>
        <_>
          <internalNodes>
            0 -1 7 -420490650 721144510 -153921248 -1030817322
            -203460522 18578457 2008273861 -251921450</internalNodes>
          <leafValues>
            -7.3985791206359863e-01 2.9810556769371033e-01</leafValues></_>
        <_>
          <internalNodes>
            0 -1 49 -1360449886 794645716 1545262490 -734882858
            -257238716 1265338962 1553986420 -1191510220</internalNodes>
          <leafValues>
            -6.6178005933761597e-01 3.1980180740356445e-01</leafValues></_></weakClassifiers></_>
    <!-- stage 1 -->
    <_>
      <maxWeakCount>9</maxWeakCount>
      <stageThreshold>-2.1157031059265137e+00</stageThreshold>
      <weakClassifiers>
        <_>
          <internalNodes>
            0 -1 76 -111420677 -44871663 1968662943 -547890089
            -341076054 -4003079 -1084241233 -1</internalNodes>
          <leafValues>
            -9.1294640302658081e-01 -3.7980768084526062e-01</leafValues></_>
        <_>
          <internalNodes>
            0 -1 0 -634590582 -102179132 1877933229 1569607392
            -1185902438 -1422351446 -1118650917 -541075829</internalNodes>
          <leafValues>
            -7.6412582397460938e-01 -1.7621595412492752e-02</leafValues></_>
        <_>
          <internalNodes>
            0 -1 59 -257177472 -673759072 1829338430 1499706277
            -818961464 500252780 1045754782 986958019</internalNodes>
          <leafValues>
            -5.3408569097518921e-01 3.0546119809150696e-01</leafValues></_>
        <_>
          <internalNodes>
            0 -1 74 -1959326160 -156741474 -635809352 2075787548
            1386429396 1084375331 -104337207 -1162995300</internalNodes>
          <leafValues>
            -4.5946288108825684e-01 3.8278618454933167e-01</leafValues></_>
        <_>
          <internalNodes>
            0 -1 47 -1363475920 -523609406 -678695619 -769736384
            -559277129 -831844181 -1438455318 -1328934504</internalNodes>
          <leafValues>
            -4.8301306366920471e-01 3.7031039595603943e-01</leafValues></_>
        <_>
          <internalNodes>
            0 -1 77 -713044408 1992481952 -1845147867 196017220
            -1212801739 -4564931 -635848199 -1747756983</internalNodes>
          <leafValues>
            -5.1259338855743408e-01 3.5929048061370850e-01</leafValues></_>
        <_>
          <internalNodes>
            0 -1 55 1175046144 586900298 521179103 533586259 -1721344081
            -1095532126 2064565102 1156445294</internalNodes>
          <leafValues>
            -5.3870320320129395e-01 3.1418719887733459e-01</leafValues></_>
        <_>
          <internalNodes>
            0 -1 35 -1431897912 -145321905 -967448424 924703710
            -1609841711 986384887 1178692077 -919622698</internalNodes>
          <leafValues>
            -4.4778972864151001e-01 3.7426084280014038e-01</leafValues></_>
        <_>
          <internalNodes>
            0 -1 62 -1071477750 -242683688 504094045 2145069251
            -625541446 681309175 -1253412421 -1699784176</internalNodes>
          <leafValues>
            -4.3819835782051086e-01 3.8977068662643433e-01</leafValues></_></weakClassifiers></_>
    <!-- stage 2 -->
    <_>
      <maxWeakCount>12</maxWeakCount>
      <stageThreshold>-2.0380289554595947e+00</stageThreshold>
      <weakClassifiers>
        <_>
          <internalNodes>
            0 -1 65 -2099201 -3849 -74089473 -2209 -73729285 -68173654
            -5242881 -1025</internalNodes>
          <leafValues>
            -8.9591252803802490e-01 3.1250000000000000e-01</leafValues></_>
        <_>
          <internalNodes>
            0 -1 109 -858371577 -1162193868 -1707879600 -164201769
            1657743940 1344951528 -85003280 -4538373</internalNodes>
          <leafValues>
            -7.3831707239151001e-01 -1.5279965102672577e-01</leafValues></_>
        <_>
          <internalNodes>
            0 -1 93 -1160092112 -222012296 -733823504 1510665942
            -1073838528 898233423 2063381712 -1897216859</internalNodes>
          <leafValues>
            -5.9558874368667603e-01 1.9348369538784027e-01</leafValues></_>
        <_>
          <internalNodes>
            0 -1 12 -962613558 2141381566 940003342 1601752936
            -1990206753 -33721347 33208701 1235076091</internalNodes>
          <leafValues>
            -4.1879290342330933e-01 3.3766344189643860e-01</leafValues></_>
        <_>
          <internalNodes>
            0 -1 82 -576871376 1997018645 -859320459 1579450098 -361888
            1072925431 -228619400 1322512179</internalNodes>
          <leafValues>
            -4.8111891746520996e-01 3.0792948603630066e-01</leafValues></_>
        <_>
          <internalNodes>
            0 -1 81 1127196800 932606173 -250252827 737669441 1200051617
            -75529566 -1689395233 -850398277</internalNodes>
          <leafValues>
            -3.8858440518379211e-01 3.6694133281707764e-01</leafValues></_>
        <_>
          <internalNodes>
            0 -1 46 -821640686 890959870 -1359005705 666664943 -52953130
            -696450 1677702874 -350235267</internalNodes>
          <leafValues>
            -3.5075804591178894e-01 4.0185374021530151e-01</leafValues></_>
        <_>
          <internalNodes>
            0 -1 48 -1441125360 1849709018 -869624613 444264806
            -1180476636 95502811 -1583451787 -1896680204</internalNodes>
          <leafValues>
            -6.5317219495773315e-01 2.2740238904953003e-01</leafValues></_>
        <_>
          <internalNodes>
            0 -1 43 -1601465246 123636469 -522506939 790651235
            1571909332 628922427 -12098500 1329068894</internalNodes>
          <leafValues>
            -6.0316067934036255e-01 2.2672283649444580e-01</leafValues></_>
        <_>
          <internalNodes>
            0 -1 41 -292846416 399933263 -321210160 -5417584 1358842002
            1045387946 1314728953 175863419</internalNodes>
          <leafValues>
            -5.3675490617752075e-01 2.5851392745971680e-01</leafValues></_>
        <_>
          <internalNodes>
            0 -1 25 -565781844 1523369648 650285153 233001756 -320938026
            2073203265 -226355282 1494083309</internalNodes>
          <leafValues>
            -4.5855695009231567e-01 3.3243808150291443e-01</leafValues></_>
        <_>
          <internalNodes>
            0 -1 94 -300432382 -2038632309 -65713802 -1234128348
            -1971238059 785973266 -1289936130 -1877323268</internalNodes>
          <leafValues>
            -5.1132774353027344e-01 2.9273372888565063e-01</leafValues></_></weakClassifiers></_>
    <!-- stage 3 -->
    <_>
      <maxWeakCount>13</maxWeakCount>
      <stageThreshold>-2.0976047515869141e+00</stageThreshold>
      <weakClassifiers>
        <_>
          <internalNodes>
            0 -1 80 -109314049 -2894597 527168957 -536871969 -355270725
            -7083270 -1117585473 -6291457</internalNodes>
          <leafValues>
            -9.0260529518127441e-01 -3.9849624037742615e-01</leafValues></_>
        <_>
          <internalNodes>
            0 -1 26 -5250357 -22421061 -94963007 146341818 1828709598
            -1212196609 -709368204 -95172621</internalNodes>
          <leafValues>
            -7.2939145565032959e-01 -2.1201930940151215e-01</leafValues></_>
        <_>
          <internalNodes>
            0 -1 104 -2026287344 679364589 -971072394 -1292343669
            -3711392 -892738245 -1532016764 -839755140</internalNodes>
          <leafValues>
            -6.1952471733093262e-01 1.3614439964294434e-01</leafValues></_>
        <_>
          <internalNodes>
            0 -1 54 2147351118 -1970298121 -1101109075 -160432532
            -820179319 -1219677188 -1270887424 -1310337978</internalNodes>
          <leafValues>
            -4.7011986374855042e-01 2.3546706140041351e-01</leafValues></_>
        <_>
          <internalNodes>
            0 -1 32 -1909733224 -558608646 1859471357 1193602320
            1989574097 -1417790290 -319391108 -1472174672</internalNodes>
          <leafValues>
            -5.7693338394165039e-01 2.4004352092742920e-01</leafValues></_>
        <_>
          <internalNodes>
            0 -1 95 -421249899 -1374128296 -547690500 -1969299984
            2138182400 708815563 -1249084433 -253087240</internalNodes>
          <leafValues>
            -4.6112695336341858e-01 2.5929510593414307e-01</leafValues></_>
        <_>
          <internalNodes>
            0 -1 50 -1011950914 -1614293566 -950179574 1941530212
            -1116145976 1044900387 675426838 -1032857633</internalNodes>
          <leafValues>
            -3.7291485071182251e-01 3.3827841281890869e-01</leafValues></_>
        <_>
          <internalNodes>
            0 -1 15 -1364237101 -1359572482 -644770075 -1159955972
            -1664127147 -1618011495 858776916 -159733328</internalNodes>
          <leafValues>
            -5.2352112531661987e-01 2.4960157275199890e-01</leafValues></_>
        <_>
          <internalNodes>
            0 -1 88 1234377248 1447573648 2011881309 249831291
            -1554137564 -402949682 -557580008 1153813799</internalNodes>
          <leafValues>
            -6.6692876815795898e-01 1.9215470552444458e-01</leafValues></_>
        <_>
          <internalNodes>
            0 -1 33 1514062497 -1794421169 1594088921 -281593345
            1521876479 -965725 -279480033 -773390105</internalNodes>
          <leafValues>
            -3.4732675552368164e-01 3.8158467411994934e-01</leafValues></_>
        <_>
          <internalNodes>
            0 -1 38 -1477036512 -1345404452 -192314890 1618106596
            479914340 933966411 -1079085100 -361595696</internalNodes>
          <leafValues>
            -6.3253182172775269e-01 2.0385883748531342e-01</leafValues></_>
        <_>
          <internalNodes>
            0 -1 67 -578849603 -563528112 -1770570137 805109687
            466943736 -1084293212 517995483 -784681057</internalNodes>
          <leafValues>
            -3.2018360495567322e-01 4.3405091762542725e-01</leafValues></_>
        <_>
          <internalNodes>
            0 -1 44 -811679605 -80297190 -913217517 1258743774 -99269552
            -592215877 2012115828 -1902678676</internalNodes>
          <leafValues>
            -4.7006559371948242e-01 2.9319271445274353e-01</leafValues></_></weakClassifiers></_>
    <!-- stage 4 -->
    <_>
      <maxWeakCount>14</maxWeakCount>
      <stageThreshold>-1.9218770265579224e+00</stageThreshold>
      <weakClassifiers>
        <_>
          <internalNodes>
            0 -1 90 -2099457 -607388183 1254585265 -73424909 -860624198
            288863182 -1772309509 -79693825</internalNodes>
          <leafValues>
            -9.1295391321182251e-01 -6.0224092006683350e-01</leafValues></_>
        <_>
          <internalNodes>
            0 -1 106 -104348085 -732308161 -1030291726 -522518769
            -572802013 2028406441 108953976 -663029953</internalNodes>
          <leafValues>
            -6.9011145830154419e-01 -1.4308457076549530e-01</leafValues></_>
        <_>
          <internalNodes>
            0 -1 68 -135791037 -516956497 2130376483 -999756044
            -122095807 402543485 671064640 1524103031</internalNodes>
          <leafValues>
            -5.5221468210220337e-01 1.6534645855426788e-01</leafValues></_>
        <_>
          <internalNodes>
            0 -1 69 -402960713 908455274 -396787890 749535200 -83925996
            -705823696 1341879381 1156757221</internalNodes>
          <leafValues>
            -5.6189298629760742e-01 1.9533158838748932e-01</leafValues></_>
        <_>
          <internalNodes>
            0 -1 19 -886061905 -1970823717 -569324360 1391449539
            -1278256330 1590602035 -473499658 -1772749313</internalNodes>
          <leafValues>
            -4.6646523475646973e-01 2.6746010780334473e-01</leafValues></_>
        <_>
          <internalNodes>
            0 -1 83 -219450392 1126423767 1880409253 1920629969
            -491609585 1176136296 1179138555 918485489</internalNodes>
          <leafValues>
            -4.9903583526611328e-01 2.3336434364318848e-01</leafValues></_>
        <_>
          <internalNodes>
            0 -1 9 -93862802 -692348290 -321307910 -555871374 1333256691
            -136610136 349162967 -1077152530</internalNodes>
          <leafValues>
            -3.3222353458404541e-01 3.5961380600929260e-01</leafValues></_>
        <_>
          <internalNodes>
            0 -1 103 -4332341 787119984 2130423335 2064908267 1999631889
            1736289659 909882572 -724867589</internalNodes>
          <leafValues>
            -3.3521792292594910e-01 3.6354890465736389e-01</leafValues></_>
        <_>
          <internalNodes>
            0 -1 110 -51188017 -1903762594 -569018163 -1326518026
            -1683228605 724295817 1801442929 -88424485</internalNodes>
          <leafValues>
            -3.7037321925163269e-01 3.3761656284332275e-01</leafValues></_>
        <_>
          <internalNodes>
            0 -1 51 1789760033 -423237765 -229581699 1257141115
            -1258372904 -1392641371 744779130 2088703461</internalNodes>
          <leafValues>
            -4.4031399488449097e-01 2.8861126303672791e-01</leafValues></_>
        <_>
          <internalNodes>
            0 -1 71 -2016679798 -51544676 -1688992544 1476121456
            -1305879818 1990156847 1065248680 1392433166</internalNodes>
          <leafValues>
            -4.3740895390510559e-01 2.9201102256774902e-01</leafValues></_>
        <_>
          <internalNodes>
            0 -1 20 -18356157 400316834 -668618857 584187740 -73730147
            1869800247 -492709066 1914827229</internalNodes>
          <leafValues>
            -4.8143339157104492e-01 2.6519471406936646e-01</leafValues></_>
        <_>
          <internalNodes>
            0 -1 10 2114448515 -1276184849 -495684616 750045948
            -1359665772 2126154892 2067287378 -563443861</internalNodes>
          <leafValues>
            -4.4864234328269958e-01 2.9447147250175476e-01</leafValues></_>
        <_>
          <internalNodes>
            0 -1 2 1328118734 -1050428522 -498929442 541892552
            -438867931 -1054813101 2075343740 -1002967297</internalNodes>
          <leafValues>
            -4.3912836909294128e-01 3.0548655986785889e-01</leafValues></_></weakClassifiers></_>
    <!-- stage 5 -->
    <_>
      <maxWeakCount>15</maxWeakCount>
      <stageThreshold>-1.9949148893356323e+00</stageThreshold>
      <weakClassifiers>
        <_>
          <internalNodes>
            0 -1 86 -263169 -201328925 -2116046351 -8653537 -745099585
            -1073753385 1600126943 -2099461</internalNodes>
          <leafValues>
            -9.0493917465209961e-01 -5.4028433561325073e-01</leafValues></_>
        <_>
          <internalNodes>
            0 -1 63 145048065 -1087719218 -1751122499 -671221789
            892067063 -403179073 1977315295 -287449681</internalNodes>
          <leafValues>
            -6.8132215738296509e-01 -1.6983944177627563e-01</leafValues></_>
        <_>
          <internalNodes>
            0 -1 36 38412802 753839652 -999899341 -833110032 157578899
            -1882891370 917400145 240580136</internalNodes>
          <leafValues>
            -7.2530025243759155e-01 7.9808630049228668e-02</leafValues></_>
        <_>
          <internalNodes>
            0 -1 16 246869066 187464071 385757509 -2094059840 1592767581
            569832677 1289353056 1862616440</internalNodes>
          <leafValues>
            -5.7666677236557007e-01 1.6691133379936218e-01</leafValues></_>
        <_>
          <internalNodes>
            0 -1 98 1823377440 786366460 375273341 -1725835206
            -1771491454 595488172 1417366932 369128819</internalNodes>
          <leafValues>
            -6.1734181642532349e-01 1.7940098047256470e-01</leafValues></_>
        <_>
          <internalNodes>
            0 -1 79 -1640441464 -1726523344 1306148857 1662931810
            1804399119 1332703843 707990641 1026774096</internalNodes>
          <leafValues>
            -5.4445087909698486e-01 2.1065302193164825e-01</leafValues></_>
        <_>
          <internalNodes>
            0 -1 92 -853042168 -573592266 -2087790906 1501212655
            -335577823 1308523060 -218467367 -291186924</internalNodes>
          <leafValues>
            -5.0466811656951904e-01 2.2635209560394287e-01</leafValues></_>
        <_>
          <internalNodes>
            0 -1 30 208307904 986119997 -427974059 184425846 1340905474
            -1593937985 1023311203 521821364</internalNodes>
          <leafValues>
            -6.9314229488372803e-01 1.5518492460250854e-01</leafValues></_>
        <_>
          <internalNodes>
            0 -1 13 1291635875 -604506452 -456890388 482934748
            -843776224 225484714 2145334710 -759376799</internalNodes>
          <leafValues>
            -4.3681845068931580e-01 2.6008591055870056e-01</leafValues></_>
        <_>
          <internalNodes>
            0 -1 23 -584131197 184269911 -402722891 -1725727631
            -1073860973 -58728460 855589315 514815231</internalNodes>
          <leafValues>
            -3.1529426574707031e-01 3.7783887982368469e-01</leafValues></_>
        <_>
          <internalNodes>
            0 -1 70 -1092925311 66043151 -1152705829 1894705379
            894567390 1064300351 1499659204 1554510079</internalNodes>
          <leafValues>
            -4.2756819725036621e-01 2.8694832324981689e-01</leafValues></_>
        <_>
          <internalNodes>
            0 -1 101 -155468288 583459567 1338420577 -366702025
            1873803073 -1861012917 1449859632 -647530580</internalNodes>
          <leafValues>
            -6.0148537158966064e-01 2.0894475281238556e-01</leafValues></_>
        <_>
          <internalNodes>
            0 -1 107 -1429581884 797853754 -737747024 1154765131
            1873018148 1096362483 2110224982 284471487</internalNodes>
          <leafValues>
            -6.4706039428710938e-01 1.6685716807842255e-01</leafValues></_>
        <_>
          <internalNodes>
            0 -1 85 -775165415 2085557416 349551189 695000762 -77720146
            -1472260819 660035920 -1101087</internalNodes>
          <leafValues>
            -4.0082344412803650e-01 3.0362182855606079e-01</leafValues></_>
        <_>
          <internalNodes>
            0 -1 39 -432986080 437239510 -824228359 908027375
            -1725021935 1580772680 -948911335 -598576268</internalNodes>
          <leafValues>
            -5.6191104650497437e-01 2.1495217084884644e-01</leafValues></_></weakClassifiers></_>
    <!-- stage 6 -->
    <_>
      <maxWeakCount>14</maxWeakCount>
      <stageThreshold>-1.9272348880767822e+00</stageThreshold>
      <weakClassifiers>
        <_>
          <internalNodes>
            0 -1 40 -10485761 -2113163 -207650817 -33617033 -83104769
            -1073774117 -7611393 -72352833</internalNodes>
          <leafValues>
            -8.9733159542083740e-01 -1.7073170840740204e-01</leafValues></_>
        <_>
          <internalNodes>
            0 -1 42 -1189669 -542151000 -336304244 455998876 977778667
            1265368204 1490876283 -537168905</internalNodes>
          <leafValues>
            -6.4619779586791992e-01 -8.7878584861755371e-02</leafValues></_>
        <_>
          <internalNodes>
            0 -1 105 323902744 1377795023 -70462178 322485209 -140536166
            1035514101 1563817967 96464491</internalNodes>
          <leafValues>
            -4.1304996609687805e-01 2.1907667815685272e-01</leafValues></_>
        <_>
          <internalNodes>
            0 -1 4 1076019232 720303164 -287858720 661142775 754350503
            -1947075619 1161368773 618874836</internalNodes>
          <leafValues>
            -6.8368560075759888e-01 1.4847950637340546e-01</leafValues></_>
        <_>
          <internalNodes>
            0 -1 89 -1078274815 -1899015378 1686429692 -85131394
            -1159272462 -1357018710 -758781963 -1246078763</internalNodes>
          <leafValues>
            -3.6780416965484619e-01 3.0092531442642212e-01</leafValues></_>
        <_>
          <internalNodes>
            0 -1 14 1876396588 2012102132 135630602 -1020973929
            902757365 -415882470 1301503996 -1756670849</internalNodes>
          <leafValues>
            -3.3913779258728027e-01 3.2250416278839111e-01</leafValues></_>
        <_>
          <internalNodes>
            0 -1 72 -565615446 226346687 -871288908 167279461
            -1217733508 2052973501 1239491015 883986711</internalNodes>
          <leafValues>
            -4.7227075695991516e-01 2.2316002845764160e-01</leafValues></_>
        <_>
          <internalNodes>
            0 -1 22 -1353725632 200673912 251540694 238908035 946836072
            669248155 1765881096 1477599542</internalNodes>
          <leafValues>
            -6.4912623167037964e-01 1.8285241723060608e-01</leafValues></_>
        <_>
          <internalNodes>
            0 -1 27 -1986127832 523867811 2039308273 1727553368
            586244700 -1091325925 1441683164 1151580108</internalNodes>
          <leafValues>
            -5.8406698703765869e-01 1.8319787085056305e-01</leafValues></_>
        <_>
          <internalNodes>
            0 -1 34 -515191224 1300371033 692516826 670007271 -822641037
            64731106 -1014243376 1673584598</internalNodes>
          <leafValues>
            -5.4090899229049683e-01 2.0123097300529480e-01</leafValues></_>
        <_>
          <internalNodes>
            0 -1 52 1601419592 -1966302032 1029991529 1789313751
            -1211134177 732565934 2097502704 57989492</internalNodes>
          <leafValues>
            -5.5080997943878174e-01 2.0544931292533875e-01</leafValues></_>
        <_>
          <internalNodes>
            0 -1 78 1377821897 389638328 -1806671571 -1216905350
            1594831842 1897658860 2114912149 1002207222</internalNodes>
          <leafValues>
            -4.2101883888244629e-01 2.7849233150482178e-01</leafValues></_>
        <_>
          <internalNodes>
            0 -1 60 -1366663194 -358722620 -188493357 1859752920
            243749617 -886537718 -92081978 -1777298947</internalNodes>
          <leafValues>
            -4.7874656319618225e-01 2.4225090444087982e-01</leafValues></_>
        <_>
          <internalNodes>
            0 -1 64 951256876 -1251565880 -1227981070 1857541662
            -851186320 -2080765422 1394840563 1950276457</internalNodes>
          <leafValues>
            -5.3940892219543457e-01 2.1677984297275543e-01</leafValues></_></weakClassifiers></_>
    <!-- stage 7 -->
    <_>
      <maxWeakCount>15</maxWeakCount>
      <stageThreshold>-2.0499374866485596e+00</stageThreshold>
      <weakClassifiers>
        <_>
          <internalNodes>
            0 -1 99 -524289 -536880135 -1113732643 -3146275 -15730689
            -1107316565 -1350565889 -4194321</internalNodes>
          <leafValues>
            -8.9875859022140503e-01 -3.4426230192184448e-01</leafValues></_>
        <_>
          <internalNodes>
            0 -1 61 -201329669 1574403070 -46203452 131940191
            -1150689601 854454396 34126847 -607132481</internalNodes>
          <leafValues>
            -6.0983622074127197e-01 -3.4877869766205549e-03</leafValues></_>
        <_>
          <internalNodes>
            0 -1 29 1604932482 1799251695 231382452 -1683816524
            223088290 -1627722051 99436276 67113588</internalNodes>
          <leafValues>
            -5.4926019906997681e-01 1.2803369760513306e-01</leafValues></_>
        <_>
          <internalNodes>
            0 -1 84 -537640360 -1939796061 796817381 -645349766 -6406976
            1557131874 1668611515 1329932154</internalNodes>
          <leafValues>
            -4.5283326506614685e-01 2.1785123646259308e-01</leafValues></_>
        <_>
          <internalNodes>
            0 -1 6 -835821878 -1897341208 870088419 262696804 634662820
            -1095496717 -1410302690 51444932</internalNodes>
          <leafValues>
            -5.9921425580978394e-01 2.0423096418380737e-01</leafValues></_>
        <_>
          <internalNodes>
            0 -1 58 117837609 -825731194 1611848958 -1341460168
            1511603485 803328759 548303765 -1495903328</internalNodes>
          <leafValues>
            -5.8899712562561035e-01 1.5915612876415253e-01</leafValues></_>
        <_>
          <internalNodes>
            0 -1 100 997321290 1585704761 -2100576935 1527815455
            1850498468 -1268879430 -738211464 1425575299</internalNodes>
          <leafValues>
            -4.2058703303337097e-01 2.3865449428558350e-01</leafValues></_>
        <_>
          <internalNodes>
            0 -1 66 958063688 -1704113819 1574404029 -1930077198
            2130042712 791501803 1895624226 485603189</internalNodes>
          <leafValues>
            -5.4784488677978516e-01 1.8890000879764557e-01</leafValues></_>
        <_>
          <internalNodes>
            0 -1 57 1394309156 373466230 994489691 1622400721 1469038314
            -1346769698 1196226424 1080335409</internalNodes>
          <leafValues>
            -4.8588231205940247e-01 2.1506574749946594e-01</leafValues></_>
        <_>
          <internalNodes>
            0 -1 91 -860750400 -1169657097 1740533684 493276568
            -814824338 -95542995 1030438848 212160852</internalNodes>
          <leafValues>
            -5.6947386264801025e-01 1.9410656392574310e-01</leafValues></_>
        <_>
          <internalNodes>
            0 -1 56 -1362112608 -18425967 755236149 -1266835494
            -1142541417 1183566085 1519498150 -2110081611</internalNodes>
          <leafValues>
            -4.1639110445976257e-01 2.6964873075485229e-01</leafValues></_>
        <_>
          <internalNodes>
            0 -1 108 -90362358 751301970 -1561988382 1491587720
            -1953498616 1100384905 -216296735 -1821116521</internalNodes>
          <leafValues>
            -4.2239895462989807e-01 2.6853153109550476e-01</leafValues></_>
        <_>
          <internalNodes>
            0 -1 75 -671560454 -537133668 -1694761363 1870626799
            -1619070410 1878978557 1148313469 -648587417</internalNodes>
          <leafValues>
            -3.1553110480308533e-01 3.7555983662605286e-01</leafValues></_>
        <_>
          <internalNodes>
            0 -1 87 -1911087307 -1237519692 4403643 -1575003749
            -343451148 -73689045 -1417055425 202770781</internalNodes>
          <leafValues>
            -5.9503138065338135e-01 2.0032952725887299e-01</leafValues></_>
        <_>
          <internalNodes>
            0 -1 17 -1375839873 2112587247 -1195463753 1070316797
            -30529637 385350136 -1378007578 -357484805</internalNodes>
          <leafValues>
            -3.1417930126190186e-01 3.8669553399085999e-01</leafValues></_></weakClassifiers></_>
    <!-- stage 8 -->
    <_>
      <maxWeakCount>13</maxWeakCount>
      <stageThreshold>-1.8620586395263672e+00</stageThreshold>
      <weakClassifiers>
        <_>
          <internalNodes>
            0 -1 37 -604767233 -36062343 -63946769 -537145273 -78530561
            -203176738 -2630657 -2360321</internalNodes>
          <leafValues>
            -9.0306311845779419e-01 -5.0997149944305420e-01</leafValues></_>
        <_>
          <internalNodes>
            0 -1 5 -818045317 -47467053 1943994063 703063195 -1426369089
            -540568135 -2101889060 -15996165</internalNodes>
          <leafValues>
            -6.1973530054092407e-01 -6.1230875551700592e-02</leafValues></_>
        <_>
          <internalNodes>
            0 -1 73 -825893310 -2030957319 1832611690 1199536560
            1668968356 1541568848 1870083983 208346111</internalNodes>
          <leafValues>
            -4.4824934005737305e-01 1.7220057547092438e-01</leafValues></_>
        <_>
          <internalNodes>
            0 -1 3 -283940250 179239978 -543563008 145284278 1867122528
            1308621427 -411964492 1456821604</internalNodes>
          <leafValues>
            -7.2511613368988037e-01 1.2296847999095917e-01</leafValues></_>
        <_>
          <internalNodes>
            0 -1 24 2126510786 1604528202 704621467 762461567
            -1638570103 1960352308 -1909539955 1751252412</internalNodes>
          <leafValues>
            -3.7531590461730957e-01 2.6580843329429626e-01</leafValues></_>
        <_>
          <internalNodes>
            0 -1 96 1013627668 893478508 -1110000676 -743277282
            2011098859 -830770890 231635380 414107501</internalNodes>
          <leafValues>
            -4.5255190134048462e-01 2.2400452196598053e-01</leafValues></_>
        <_>
          <internalNodes>
            0 -1 53 -291605768 -335723202 -2003351900 454434711
            980678456 1265273147 1516648796 -1336780866</internalNodes>
          <leafValues>
            -4.5643240213394165e-01 2.3119609057903290e-01</leafValues></_>
        <_>
          <internalNodes>
            0 -1 11 488882079 -2032551518 -1401499669 1257438951
            1471108214 -625073283 2147446641 -1430224906</internalNodes>
          <leafValues>
            -4.2331790924072266e-01 2.5397565960884094e-01</leafValues></_>
        <_>
          <internalNodes>
            0 -1 1 -271733238 -516948572 -1269899329 325642772
            -288391293 2071464222 1201903159 1738371830</internalNodes>
          <leafValues>
            -3.9586487412452698e-01 2.7779540419578552e-01</leafValues></_>
        <_>
          <internalNodes>
            0 -1 45 -1438072784 777402870 1007482236 -1493402892
            1032483701 -562679655 -309452012 -654650308</internalNodes>
          <leafValues>
            -5.9685546159744263e-01 1.7905689775943756e-01</leafValues></_>
        <_>
          <internalNodes>
            0 -1 28 -1867784303 -310977603 1769962869 -595899791
            -1928991726 -1409745091 -192078888 -1955645870</internalNodes>
          <leafValues>
            -3.6977219581604004e-01 3.0370229482650757e-01</leafValues></_>
        <_>
          <internalNodes>
            0 -1 18 -17388942 -638397462 -2028753195 1804565689
            -753932369 -2144751217 1469966571 1253800340</internalNodes>
          <leafValues>
            -3.4885063767433167e-01 3.3431577682495117e-01</leafValues></_>
        <_>
          <internalNodes>
            0 -1 97 2009736864 1215804411 2106060269 -1492458374
            -1795211511 -1279565126 356407743 1366220100</internalNodes>
          <leafValues>
            -5.0670367479324341e-01 2.2180031239986420e-01</leafValues></_></weakClassifiers></_></stages>
  <features>
    <_>
      <rect>
        0 2 8 10</rect></_>
    <_>
      <rect>
        0 5 2 3</rect></_>
    <_>
      <rect>
        0 10 3 5</rect></_>
    <_>
      <rect>
        0 20 4 4</rect></_>
    <_>
      <rect>
        1 0 4 5</rect></_>
    <_>
      <rect>
        1 7 8 8</rect></_>
    <_>
      <rect>
        1 8 5 7</rect></_>
    <_>
      <rect>
        1 19 2 1</rect></_>
    <_>
      <rect>
        2 0 9 8</rect></_>
    <_>
      <rect>
        2 1 4 3</rect></_>
    <_>
      <rect>
        2 7 6 7</rect></_>
    <_>
      <rect>
        2 13 5 4</rect></_>
    <_>
      <rect>
        3 3 3 6</rect></_>
    <_>
      <rect>
        3 6 4 4</rect></_>
    <_>
      <rect>
        3 7 2 3</rect></_>
    <_>
      <rect>
        3 26 1 1</rect></_>
    <_>
      <rect>
        4 5 3 4</rect></_>
    <_>
      <rect>
        4 5 4 5</rect></_>
    <_>
      <rect>
        4 9 3 2</rect></_>
    <_>
      <rect>
        4 23 3 1</rect></_>
    <_>
      <rect>
        4 24 5 2</rect></_>
    <_>
      <rect>
        5 0 9 10</rect></_>
    <_>
      <rect>
        5 5 3 3</rect></_>
    <_>
      <rect>
        5 5 7 9</rect></_>
    <_>
      <rect>
        5 6 4 5</rect></_>
    <_>
      <rect>
        5 10 3 3</rect></_>
    <_>
      <rect>
        5 17 6 4</rect></_>
    <_>
      <rect>
        6 0 5 5</rect></_>
    <_>
      <rect>
        6 2 8 9</rect></_>
    <_>
      <rect>
        6 3 3 5</rect></_>
    <_>
      <rect>
        6 6 5 7</rect></_>
    <_>
      <rect>
        6 9 1 1</rect></_>
    <_>
      <rect>
        6 12 4 6</rect></_>
    <_>
      <rect>
        7 0 3 3</rect></_>
    <_>
      <rect>
        7 4 3 2</rect></_>
    <_>
      <rect>
        7 4 3 3</rect></_>
    <_>
      <rect>
        7 4 6 6</rect></_>
    <_>
      <rect>
        7 5 2 3</rect></_>
    <_>
      <rect>
        7 13 1 1</rect></_>
    <_>
      <rect>
        8 9 5 4</rect></_>
    <_>
      <rect>
        8 12 6 2</rect></_>
    <_>
      <rect>
        9 3 3 6</rect></_>
    <_>
      <rect>
        9 5 3 2</rect></_>
    <_>
      <rect>
        9 7 6 4</rect></_>
    <_>
      <rect>
        9 20 4 3</rect></_>
    <_>
      <rect>
        9 24 1 1</rect></_>
    <_>
      <rect>
        10 0 4 2</rect></_>
    <_>
      <rect>
        10 3 1 1</rect></_>
    <_>
      <rect>
        10 5 1 1</rect></_>
    <_>
      <rect>
        10 23 1 1</rect></_>
    <_>
      <rect>
        11 6 2 2</rect></_>
    <_>
      <rect>
        11 8 5 7</rect></_>
    <_>
      <rect>
        11 9 2 3</rect></_>
    <_>
      <rect>
        11 11 4 2</rect></_>
    <_>
      <rect>
        11 11 7 7</rect></_>
    <_>
      <rect>
        12 0 5 5</rect></_>
    <_>
      <rect>
        12 2 1 1</rect></_>
    <_>
      <rect>
        12 3 3 3</rect></_>
    <_>
      <rect>
        12 26 1 1</rect></_>
    <_>
      <rect>
        13 5 3 3</rect></_>
    <_>
      <rect>
        13 6 1 1</rect></_>
    <_>
      <rect>
        13 9 2 3</rect></_>
    <_>
      <rect>
        14 0 2 3</rect></_>
    <_>
      <rect>
        14 0 3 2</rect></_>
    <_>
      <rect>
        14 6 4 5</rect></_>
    <_>
      <rect>
        14 11 4 2</rect></_>
    <_>
      <rect>
        14 11 4 4</rect></_>
    <_>
      <rect>
        14 12 3 3</rect></_>
    <_>
      <rect>
        14 14 6 4</rect></_>
    <_>
      <rect>
        14 19 4 4</rect></_>
    <_>
      <rect>
        15 0 3 3</rect></_>
    <_>
      <rect>
        15 9 2 2</rect></_>
    <_>
      <rect>
        15 10 2 4</rect></_>
    <_>
      <rect>
        15 11 3 3</rect></_>
    <_>
      <rect>
        15 17 1 1</rect></_>
    <_>
      <rect>
        16 3 2 3</rect></_>
    <_>
      <rect>
        16 3 4 3</rect></_>
    <_>
      <rect>
        16 4 5 9</rect></_>
    <_>
      <rect>
        16 6 3 4</rect></_>
    <_>
      <rect>
        16 8 2 3</rect></_>
    <_>
      <rect>
        16 11 3 2</rect></_>
    <_>
      <rect>
        17 0 4 3</rect></_>
    <_>
      <rect>
        17 0 5 6</rect></_>
    <_>
      <rect>
        17 4 3 2</rect></_>
    <_>
      <rect>
        17 4 3 4</rect></_>
    <_>
      <rect>
        17 9 4 4</rect></_>
    <_>
      <rect>
        18 9 2 2</rect></_>
    <_>
      <rect>
        18 26 1 2</rect></_>
    <_>
      <rect>
        19 0 4 4</rect></_>
    <_>
      <rect>
        19 6 1 1</rect></_>
    <_>
      <rect>
        19 8 2 3</rect></_>
    <_>
      <rect>
        19 11 3 3</rect></_>
    <_>
      <rect>
        19 11 4 5</rect></_>
    <_>
      <rect>
        20 8 1 1</rect></_>
    <_>
      <rect>
        20 11 1 1</rect></_>
    <_>
      <rect>
        20 18 1 1</rect></_>
    <_>
      <rect>
        21 0 3 5</rect></_>
    <_>
      <rect>
        22 3 2 2</rect></_>
    <_>
      <rect>
        22 5 2 3</rect></_>
    <_>
      <rect>
        22 10 2 2</rect></_>
    <_>
      <rect>
        23 1 3 6</rect></_>
    <_>
      <rect>
        23 4 3 2</rect></_>
    <_>
      <rect>
        23 27 1 1</rect></_>
    <_>
      <rect>
        24 4 2 2</rect></_>
    <_>
      <rect>
        24 21 1 1</rect></_>
    <_>
      <rect>
        25 6 2 4</rect></_>
    <_>
      <rect>
        26 4 2 4</rect></_>
    <_>
      <rect>
        26 13 2 2</rect></_>
    <_>
      <rect>
        26 15 1 1</rect></_>
    <_>
      <rect>
        27 24 1 1</rect></_>
    <_>
      <rect>
        28 21 1 1</rect></_></features></cascade>
</opencv_storage>
