<?xml version="1.0"?>
<opencv_storage>
<stage6>
  <maxWeakCount>14</maxWeakCount>
  <stageThreshold>-1.9272348880767822e+00</stageThreshold>
  <weakClassifiers>
    <_>
      <internalNodes>
        0 -1 12892 -10485761 -2113163 -207650817 -33617033 -83104769
        -1073774117 -7611393 -72352833</internalNodes>
      <leafValues>
        -8.9733159542083740e-01 -1.7073170840740204e-01</leafValues></_>
    <_>
      <internalNodes>
        0 -1 13720 -1189669 -542151000 -336304244 455998876 977778667
        1265368204 1490876283 -537168905</internalNodes>
      <leafValues>
        -6.4619779586791992e-01 -8.7878584861755371e-02</leafValues></_>
    <_>
      <internalNodes>
        0 -1 26195 323902744 1377795023 -70462178 322485209 -140536166
        1035514101 1563817967 96464491</internalNodes>
      <leafValues>
        -4.1304996609687805e-01 2.1907667815685272e-01</leafValues></_>
    <_>
      <internalNodes>
        0 -1 1684 1076019232 720303164 -287858720 661142775 754350503
        -1947075619 1161368773 618874836</internalNodes>
      <leafValues>
        -6.8368560075759888e-01 1.4847950637340546e-01</leafValues></_>
    <_>
      <internalNodes>
        0 -1 23163 -1078274815 -1899015378 1686429692 -85131394
        -1159272462 -1357018710 -758781963 -1246078763</internalNodes>
      <leafValues>
        -3.6780416965484619e-01 3.0092531442642212e-01</leafValues></_>
    <_>
      <internalNodes>
        0 -1 5545 1876396588 2012102132 135630602 -1020973929 902757365
        -415882470 1301503996 -1756670849</internalNodes>
      <leafValues>
        -3.3913779258728027e-01 3.2250416278839111e-01</leafValues></_>
    <_>
      <internalNodes>
        0 -1 20250 -565615446 226346687 -871288908 167279461 -1217733508
        2052973501 1239491015 883986711</internalNodes>
      <leafValues>
        -4.7227075695991516e-01 2.2316002845764160e-01</leafValues></_>
    <_>
      <internalNodes>
        0 -1 8372 -1353725632 200673912 251540694 238908035 946836072
        669248155 1765881096 1477599542</internalNodes>
      <leafValues>
        -6.4912623167037964e-01 1.8285241723060608e-01</leafValues></_>
    <_>
      <internalNodes>
        0 -1 9449 -1986127832 523867811 2039308273 1727553368 586244700
        -1091325925 1441683164 1151580108</internalNodes>
      <leafValues>
        -5.8406698703765869e-01 1.8319787085056305e-01</leafValues></_>
    <_>
      <internalNodes>
        0 -1 11056 -515191224 1300371033 692516826 670007271 -822641037
        64731106 -1014243376 1673584598</internalNodes>
      <leafValues>
        -5.4090899229049683e-01 2.0123097300529480e-01</leafValues></_>
    <_>
      <internalNodes>
        0 -1 16251 1601419592 -1966302032 1029991529 1789313751
        -1211134177 732565934 2097502704 57989492</internalNodes>
      <leafValues>
        -5.5080997943878174e-01 2.0544931292533875e-01</leafValues></_>
    <_>
      <internalNodes>
        0 -1 20929 1377821897 389638328 -1806671571 -1216905350
        1594831842 1897658860 2114912149 1002207222</internalNodes>
      <leafValues>
        -4.2101883888244629e-01 2.7849233150482178e-01</leafValues></_>
    <_>
      <internalNodes>
        0 -1 18162 -1366663194 -358722620 -188493357 1859752920
        243749617 -886537718 -92081978 -1777298947</internalNodes>
      <leafValues>
        -4.7874656319618225e-01 2.4225090444087982e-01</leafValues></_>
    <_>
      <internalNodes>
        0 -1 19180 951256876 -1251565880 -1227981070 1857541662
        -851186320 -2080765422 1394840563 1950276457</internalNodes>
      <leafValues>
        -5.3940892219543457e-01 2.1677984297275543e-01</leafValues></_></weakClassifiers></stage6>
</opencv_storage>
