<?xml version="1.0"?>
<opencv_storage>
<stage4>
  <maxWeakCount>14</maxWeakCount>
  <stageThreshold>-1.9218770265579224e+00</stageThreshold>
  <weakClassifiers>
    <_>
      <internalNodes>
        0 -1 23237 -2099457 -607388183 1254585265 -73424909 -860624198
        288863182 -1772309509 -79693825</internalNodes>
      <leafValues>
        -9.1295391321182251e-01 -6.0224092006683350e-01</leafValues></_>
    <_>
      <internalNodes>
        0 -1 26490 -104348085 -732308161 -1030291726 -522518769
        -572802013 2028406441 108953976 -663029953</internalNodes>
      <leafValues>
        -6.9011145830154419e-01 -1.4308457076549530e-01</leafValues></_>
    <_>
      <internalNodes>
        0 -1 19527 -135791037 -516956497 2130376483 -999756044
        -122095807 402543485 671064640 1524103031</internalNodes>
      <leafValues>
        -5.5221468210220337e-01 1.6534645855426788e-01</leafValues></_>
    <_>
      <internalNodes>
        0 -1 19659 -402960713 908455274 -396787890 749535200 -83925996
        -705823696 1341879381 1156757221</internalNodes>
      <leafValues>
        -5.6189298629760742e-01 1.9533158838748932e-01</leafValues></_>
    <_>
      <internalNodes>
        0 -1 7818 -886061905 -1970823717 -569324360 1391449539
        -1278256330 1590602035 -473499658 -1772749313</internalNodes>
      <leafValues>
        -4.6646523475646973e-01 2.6746010780334473e-01</leafValues></_>
    <_>
      <internalNodes>
        0 -1 21664 -219450392 1126423767 1880409253 1920629969
        -491609585 1176136296 1179138555 918485489</internalNodes>
      <leafValues>
        -4.9903583526611328e-01 2.3336434364318848e-01</leafValues></_>
    <_>
      <internalNodes>
        0 -1 3432 -93862802 -692348290 -321307910 -555871374 1333256691
        -136610136 349162967 -1077152530</internalNodes>
      <leafValues>
        -3.3222353458404541e-01 3.5961380600929260e-01</leafValues></_>
    <_>
      <internalNodes>
        0 -1 25828 -4332341 787119984 2130423335 2064908267 1999631889
        1736289659 909882572 -724867589</internalNodes>
      <leafValues>
        -3.3521792292594910e-01 3.6354890465736389e-01</leafValues></_>
    <_>
      <internalNodes>
        0 -1 27042 -51188017 -1903762594 -569018163 -1326518026
        -1683228605 724295817 1801442929 -88424485</internalNodes>
      <leafValues>
        -3.7037321925163269e-01 3.3761656284332275e-01</leafValues></_>
    <_>
      <internalNodes>
        0 -1 16224 1789760033 -423237765 -229581699 1257141115
        -1258372904 -1392641371 744779130 2088703461</internalNodes>
      <leafValues>
        -4.4031399488449097e-01 2.8861126303672791e-01</leafValues></_>
    <_>
      <internalNodes>
        0 -1 20213 -2016679798 -51544676 -1688992544 1476121456
        -1305879818 1990156847 1065248680 1392433166</internalNodes>
      <leafValues>
        -4.3740895390510559e-01 2.9201102256774902e-01</leafValues></_>
    <_>
      <internalNodes>
        0 -1 7848 -18356157 400316834 -668618857 584187740 -73730147
        1869800247 -492709066 1914827229</internalNodes>
      <leafValues>
        -4.8143339157104492e-01 2.6519471406936646e-01</leafValues></_>
    <_>
      <internalNodes>
        0 -1 3996 2114448515 -1276184849 -495684616 750045948
        -1359665772 2126154892 2067287378 -563443861</internalNodes>
      <leafValues>
        -4.4864234328269958e-01 2.9447147250175476e-01</leafValues></_>
    <_>
      <internalNodes>
        0 -1 898 1328118734 -1050428522 -498929442 541892552 -438867931
        -1054813101 2075343740 -1002967297</internalNodes>
      <leafValues>
        -4.3912836909294128e-01 3.0548655986785889e-01</leafValues></_></weakClassifiers></stage4>
</opencv_storage>
