<?xml version="1.0"?>
<opencv_storage>
<stage6>
  <maxWeakCount>14</maxWeakCount>
  <stageThreshold>-1.8546797037124634e+00</stageThreshold>
  <weakClassifiers>
    <_>
      <internalNodes>
        0 -1 1696 -885016645 -180636457 -243329025 -524941 1639694303
        -536938081 -4327461 -261</internalNodes>
      <leafValues>
        -9.0782719850540161e-01 -5.4747474193572998e-01</leafValues></_>
    <_>
      <internalNodes>
        0 -1 2714 -2144355567 792584923 -1119929769 -60294791
        -2063739469 -1375862793 -1384160225 -1149240101</internalNodes>
      <leafValues>
        -6.5725213289260864e-01 -1.2632323801517487e-01</leafValues></_>
    <_>
      <internalNodes>
        0 -1 2137 296744704 694598510 1806678506 1604648054 817636435
        -1243885589 36050165 1056392793</internalNodes>
      <leafValues>
        -5.4373246431350708e-01 1.4213545620441437e-01</leafValues></_>
    <_>
      <internalNodes>
        0 -1 3214 -1489040351 -1379968292 -956859181 2046041073
        -1158955739 593449135 2079056852 -335594323</internalNodes>
      <leafValues>
        -3.6459222435951233e-01 2.7686285972595215e-01</leafValues></_>
    <_>
      <internalNodes>
        0 -1 3791 -2124147712 198958630 918454261 -1502577734
        -1649473936 1247542115 2147447988 79334592</internalNodes>
      <leafValues>
        -7.3412048816680908e-01 1.8593716621398926e-01</leafValues></_>
    <_>
      <internalNodes>
        0 -1 5433 2083247794 -1959704160 -1630263116 1872362407 -2030550
        926936749 1064157497 994895572</internalNodes>
      <leafValues>
        -4.9299624562263489e-01 1.9880466163158417e-01</leafValues></_>
    <_>
      <internalNodes>
        0 -1 4306 -1705062493 -1374807041 382932344 738137501
        -1827473002 -1884345611 -1414532108 -27626092</internalNodes>
      <leafValues>
        -3.8881781697273254e-01 2.7719661593437195e-01</leafValues></_>
    <_>
      <internalNodes>
        0 -1 4120 -69026622 -73992531 851176549 568787134 1484696271
        -2055302221 334719986 1239012727</internalNodes>
      <leafValues>
        -3.7659424543380737e-01 2.9818728566169739e-01</leafValues></_>
    <_>
      <internalNodes>
        0 -1 4505 -38285158 -1380977180 1107455736 1934520667
        -1286866508 1138990671 817788765 1842983806</internalNodes>
      <leafValues>
        -3.9643883705139160e-01 2.8893619775772095e-01</leafValues></_>
    <_>
      <internalNodes>
        0 -1 4982 -659520975 643654393 -289489315 872291960 -1413548321
        2096882229 590248827 2147130599</internalNodes>
      <leafValues>
        -3.4216016530990601e-01 3.2571470737457275e-01</leafValues></_>
    <_>
      <internalNodes>
        0 -1 7557 1726827306 -1302664056 -1690587656 490085183
        1063329295 762787016 1701140496 1344591477</internalNodes>
      <leafValues>
        -6.2871414422988892e-01 1.8165606260299683e-01</leafValues></_>
    <_>
      <internalNodes>
        0 -1 5261 311918600 -623025744 793450919 -411061259 1014220788
        -1745898513 903366122 2125293735</internalNodes>
      <leafValues>
        -4.3878799676895142e-01 2.6267206668853760e-01</leafValues></_>
    <_>
      <internalNodes>
        0 -1 4483 -1436053966 -1619382649 168690999 -567771457
        -879093027 -402885275 1198513908 561479544</internalNodes>
      <leafValues>
        -5.1169228553771973e-01 2.2327902913093567e-01</leafValues></_>
    <_>
      <internalNodes>
        0 -1 6272 -1628508119 1601098301 781785044 -372310054 152355928
        1864713149 2121694486 150888817</internalNodes>
      <leafValues>
        -5.3054064512252808e-01 2.1107414364814758e-01</leafValues></_></weakClassifiers></stage6>
</opencv_storage>
