<?xml version="1.0"?>
<opencv_storage>
<stage4>
  <maxWeakCount>37</maxWeakCount>
  <stageThreshold>-1.6922740936279297e+00</stageThreshold>
  <weakClassifiers>
    <_>
      <internalNodes>
        0 -1 1043 -1025 -134219017 -35513538 -15571166 -75499145
        -671745229 -13893638 -15466701</internalNodes>
      <leafValues>
        -5.3468567132949829e-01 9.9623046815395355e-02</leafValues></_>
    <_>
      <internalNodes>
        0 -1 5129 -515 -531097 -184749708 -2425345 -412036748 -108323961
        1883304096 -31264269</internalNodes>
      <leafValues>
        -3.5812675952911377e-01 2.6091119647026062e-01</leafValues></_>
    <_>
      <internalNodes>
        0 -1 19312 -1569 -19571636 -757924102 1909677737 -5064504
        -16573364 -503119990 320077659</internalNodes>
      <leafValues>
        -2.5207772850990295e-01 3.6152133345603943e-01</leafValues></_>
    <_>
      <internalNodes>
        0 -1 1581 -165071 -101220643 -1140981827 -10747937 -1234571
        -1611251841 -37863659 -71315457</internalNodes>
      <leafValues>
        -2.1954499185085297e-01 3.7027102708816528e-01</leafValues></_>
    <_>
      <internalNodes>
        0 -1 14366 -288930705 2029991806 1511978238 1920628218 -22131388
        -75885281 -87397436 -164430238</internalNodes>
      <leafValues>
        -3.3267036080360413e-01 2.3807206749916077e-01</leafValues></_>
    <_>
      <internalNodes>
        0 -1 24498 -353415593 -4500257 -791241986 1913844094 -323041724
        -347903939 -84218404 -227475728</internalNodes>
      <leafValues>
        -3.0779600143432617e-01 2.3868243396282196e-01</leafValues></_>
    <_>
      <internalNodes>
        0 -1 22125 -1145157113 -367364115 1599524210 -262650369
        -1735528428 -1074896093 -1711396890 -29729795</internalNodes>
      <leafValues>
        -2.7699008584022522e-01 2.5132724642753601e-01</leafValues></_>
    <_>
      <internalNodes>
        0 -1 80 1704573487 1573769493 -1005270787 1976032343 1267729167
        1332813968 780755967 -4205893</internalNodes>
      <leafValues>
        -2.6604008674621582e-01 2.7712094783782959e-01</leafValues></_>
    <_>
      <internalNodes>
        0 -1 2730 -136603793 1175340972 -861089004 -490028286 -791703226
        -1028538309 -1733394746 -1325416461</internalNodes>
      <leafValues>
        -2.7668577432632446e-01 2.4831883609294891e-01</leafValues></_>
    <_>
      <internalNodes>
        0 -1 24575 -352846369 451132124 330383426 -247080853 -226588984
        -62075572 -1874732390 -230428213</internalNodes>
      <leafValues>
        -1.8325325846672058e-01 3.6816081404685974e-01</leafValues></_>
    <_>
      <internalNodes>
        0 -1 22395 -1535484323 -52736355 -134156866 -1091649254
        -778282952 -360071109 -494088288 -760161420</internalNodes>
      <leafValues>
        -3.6587211489677429e-01 1.8610732257366180e-01</leafValues></_>
    <_>
      <internalNodes>
        0 -1 17416 -281415684 -2777890 1400568682 155897444 -78318406
        -69609532 -368910901 122904271</internalNodes>
      <leafValues>
        -2.3570871353149414e-01 2.9194745421409607e-01</leafValues></_>
    <_>
      <internalNodes>
        0 -1 15948 -1372779719 -490950324 2074859509 -831201387
        -890552207 -84705137 -108410592 -1401915084</internalNodes>
      <leafValues>
        -4.3345487117767334e-01 1.6300846636295319e-01</leafValues></_>
    <_>
      <internalNodes>
        0 -1 14506 -1146406395 -1088744635 -243205505 2068595040
        -171227024 -1142355824 -208997640 -1401942736</internalNodes>
      <leafValues>
        -3.1770002841949463e-01 2.1246588230133057e-01</leafValues></_>
    <_>
      <internalNodes>
        0 -1 16431 -1682223602 -18902151 -119908270 -1169370852
        -57980324 -620035485 -1464934448 -1302661252</internalNodes>
      <leafValues>
        -3.4437447786331177e-01 1.9026653468608856e-01</leafValues></_>
    <_>
      <internalNodes>
        0 -1 24561 -1615369377 -1216391365 -1039935536 -637005347
        -91292088 -247127462 -5593156 -1598884996</internalNodes>
      <leafValues>
        -2.7741402387619019e-01 2.3878972232341766e-01</leafValues></_>
    <_>
      <internalNodes>
        0 -1 6237 -2143327073 -830717937 1389932882 1648294431
        -494708904 -763118466 -1718962684 -93138088</internalNodes>
      <leafValues>
        -3.3813199400901794e-01 1.9763869047164917e-01</leafValues></_>
    <_>
      <internalNodes>
        0 -1 14177 2058870456 785892556 147385368 -235039698 -111844400
        -28815232 -1826311462 856891739</internalNodes>
      <leafValues>
        -2.5896754860877991e-01 2.5111246109008789e-01</leafValues></_>
    <_>
      <internalNodes>
        0 -1 3352 1325724208 726456059 -330892105 1797902751 -813540237
        830656953 1588065279 -585146089</internalNodes>
      <leafValues>
        -2.9591190814971924e-01 2.2517539560794830e-01</leafValues></_>
    <_>
      <internalNodes>
        0 -1 24115 -1364508603 -1570833505 -771523626 -494921540
        -1694819564 -45465593 -1701132140 -1159049764</internalNodes>
      <leafValues>
        -3.4387275576591492e-01 1.9360063970088959e-01</leafValues></_>
    <_>
      <internalNodes>
        0 -1 1361 -59259905 -46209157 -67207330 421756170 -302619976
        -1199581232 783324084 -80482949</internalNodes>
      <leafValues>
        -2.0046667754650116e-01 3.4892913699150085e-01</leafValues></_>
    <_>
      <internalNodes>
        0 -1 22019 -1904217601 -50483785 229506647 -1663379739
        1602010347 1769505910 -1262311368 -929177347</internalNodes>
      <leafValues>
        -2.1740622818470001e-01 2.9980275034904480e-01</leafValues></_>
    <_>
      <internalNodes>
        0 -1 22927 -1577134549 -1900216504 1878519538 -201392133
        -1132490756 -1653211145 -1400975172 -285582227</internalNodes>
      <leafValues>
        -2.1893030405044556e-01 2.9977124929428101e-01</leafValues></_>
    <_>
      <internalNodes>
        0 -1 17862 2114909760 1148574747 1213377917 1933732167
        -100656576 -879519182 1197014061 -529737234</internalNodes>
      <leafValues>
        -3.3371636271476746e-01 1.9132862985134125e-01</leafValues></_>
    <_>
      <internalNodes>
        0 -1 18654 116674159 1844203887 308255181 2048799199 -508899004
        -341621973 -1125199752 -231573652</internalNodes>
      <leafValues>
        -3.2060146331787109e-01 1.9422377645969391e-01</leafValues></_>
    <_>
      <internalNodes>
        0 -1 20370 246561959 -305245797 1572131061 -2111913548
        -1214396348 -1020493807 -1130451388 -1293616203</internalNodes>
      <leafValues>
        -4.0670216083526611e-01 1.4656463265419006e-01</leafValues></_>
    <_>
      <internalNodes>
        0 -1 22762 -1646002434 1426049561 -151339474 812895612
        -1640253364 2094865494 -114241830 2067492343</internalNodes>
      <leafValues>
        -2.1824583411216736e-01 2.9446959495544434e-01</leafValues></_>
    <_>
      <internalNodes>
        0 -1 18094 -1940999179 1927840150 2118712767 -1375838411
        -590153680 -537671551 -1960782720 362010214</internalNodes>
      <leafValues>
        -3.0985361337661743e-01 2.0420598983764648e-01</leafValues></_>
    <_>
      <internalNodes>
        0 -1 5040 -1089722443 -51394222 -921583589 -50791428 -1945933766
        -360005368 -1516211389 -1901673040</internalNodes>
      <leafValues>
        -2.8106665611267090e-01 2.3177361488342285e-01</leafValues></_>
    <_>
      <internalNodes>
        0 -1 25661 -806100997 146648223 -1646331192 -1119240496
        -1717584902 -2046288447 1615939672 16750007</internalNodes>
      <leafValues>
        -2.3776230216026306e-01 2.7413073182106018e-01</leafValues></_>
    <_>
      <internalNodes>
        0 -1 2468 -69506948 -899110778 -175946942 -934885942 1980840445
        -250199295 -779834654 -265398167</internalNodes>
      <leafValues>
        -3.4771004319190979e-01 1.9948731362819672e-01</leafValues></_>
    <_>
      <internalNodes>
        0 -1 6428 -1292000259 -1410367489 -641365 1072578471 -1510011079
        -550027394 -1481270305 -1615381395</internalNodes>
      <leafValues>
        -2.2298258543014526e-01 3.0528187751770020e-01</leafValues></_>
    <_>
      <internalNodes>
        0 -1 25440 2057072175 -70565409 -95086954 1648818842 -1423063028
        -98836001 -1195190022 -1326391688</internalNodes>
      <leafValues>
        -2.9812502861022949e-01 2.2630639374256134e-01</leafValues></_>
    <_>
      <internalNodes>
        0 -1 18866 -1267641068 1081410423 1956167588 -1657310305
        -261725708 2096810678 1557403549 1972338427</internalNodes>
      <leafValues>
        -3.0638629198074341e-01 2.1395143866539001e-01</leafValues></_>
    <_>
      <internalNodes>
        0 -1 24519 -822194617 749146379 -1727752738 -1166655300
        -1156952572 -670983935 -1333202236 -1170030919</internalNodes>
      <leafValues>
        -3.4047356247901917e-01 2.0189239084720612e-01</leafValues></_>
    <_>
      <internalNodes>
        0 -1 1833 -68682501 1138392753 -835891365 -1076101579 1735884659
        1826553725 -279587117 -126363791</internalNodes>
      <leafValues>
        -1.9821219146251678e-01 3.4930452704429626e-01</leafValues></_>
    <_>
      <internalNodes>
        0 -1 3290 -1262726019 -1713651715 -1343047849 -1241514335
        531765092 -41943553 -1610842173 -1241839150</internalNodes>
      <leafValues>
        -2.2678196430206299e-01 2.9236388206481934e-01</leafValues></_></weakClassifiers></stage4>
</opencv_storage>
