<?xml version="1.0"?>
<opencv_storage>
<stage3>
  <maxWeakCount>37</maxWeakCount>
  <stageThreshold>-1.8055579662322998e+00</stageThreshold>
  <weakClassifiers>
    <_>
      <internalNodes>
        0 -1 93 -20586430 2117130711 -971846955 -41952577 -351149836
        -537153 -888733697 -1281</internalNodes>
      <leafValues>
        -6.0278141498565674e-01 5.4409004747867584e-02</leafValues></_>
    <_>
      <internalNodes>
        0 -1 21149 -1581860 2010598596 -255266050 52101718 -3221368
        -111585208 -201274678 839118351</internalNodes>
      <leafValues>
        -3.7795144319534302e-01 2.6240071654319763e-01</leafValues></_>
    <_>
      <internalNodes>
        0 -1 37 -830279698 -122620950 -741090482 -1095565814 -256836674
        -174677351 -222759524 -289800805</internalNodes>
      <leafValues>
        -3.5377416014671326e-01 2.7743378281593323e-01</leafValues></_>
    <_>
      <internalNodes>
        0 -1 1541 -109588929 2104847473 -888133609 318841345 -182510480
        -130987760 1313238058 2070116147</internalNodes>
      <leafValues>
        -3.2882481813430786e-01 2.5428611040115356e-01</leafValues></_>
    <_>
      <internalNodes>
        0 -1 20675 -1574298608 -1829739692 -938190891 -1151833676
        -626700564 -91258693 -56569927 -67178508</internalNodes>
      <leafValues>
        -2.7516156435012817e-01 2.9060488939285278e-01</leafValues></_>
    <_>
      <internalNodes>
        0 -1 23391 -1342307749 2136302423 -1474787106 840066015
        -70301116 914181937 -1700226316 -231542312</internalNodes>
      <leafValues>
        -3.4024804830551147e-01 2.3148332536220551e-01</leafValues></_>
    <_>
      <internalNodes>
        0 -1 10643 -631256387 980484944 153024577 1057635153 1215728632
        -427425612 1234195404 134241552</internalNodes>
      <leafValues>
        -3.2123029232025146e-01 2.3837248980998993e-01</leafValues></_>
    <_>
      <internalNodes>
        0 -1 2521 -345637473 -355284753 -222087179 -198394878 1873018357
        -26774542 1884575120 -396168078</internalNodes>
      <leafValues>
        -3.6063128709793091e-01 1.9068534672260284e-01</leafValues></_>
    <_>
      <internalNodes>
        0 -1 23620 1480610816 309761109 1816717785 -1218788074
        1883261134 -1074804 -263917601 -1442274450</internalNodes>
      <leafValues>
        -3.6677557229995728e-01 2.0662282407283783e-01</leafValues></_>
    <_>
      <internalNodes>
        0 -1 13045 -419492753 1812657527 -892543234 -225807458
        1486821956 1205300059 -926750188 -222631340</internalNodes>
      <leafValues>
        -3.9000770449638367e-01 1.9195510447025299e-01</leafValues></_>
    <_>
      <internalNodes>
        0 -1 24182 -1441863154 64128598 -1668166603 160179889 -338915393
        605328604 -130188597 147180031</internalNodes>
      <leafValues>
        -3.3840173482894897e-01 1.9787608087062836e-01</leafValues></_>
    <_>
      <internalNodes>
        0 -1 13436 -1904334735 1054475100 680159583 -1946753249
        -70488069 -658323165 -1196946209 -1493282311</internalNodes>
      <leafValues>
        -3.3892285823822021e-01 2.0194110274314880e-01</leafValues></_>
    <_>
      <internalNodes>
        0 -1 15201 2144364148 1927269260 -938847494 -2134601046
        1983251184 -20823680 -232761078 1929634527</internalNodes>
      <leafValues>
        -2.9523396492004395e-01 2.4121864140033722e-01</leafValues></_>
    <_>
      <internalNodes>
        0 -1 23195 -1133639075 349849055 -1467905985 946477082
        -376504240 -123140094 -356454172 -265127052</internalNodes>
      <leafValues>
        -3.9953783154487610e-01 1.7797671258449554e-01</leafValues></_>
    <_>
      <internalNodes>
        0 -1 1219 -164116673 -461439121 -9290881 587385392 -103329544
        -1218314826 -1343205446 -25953605</internalNodes>
      <leafValues>
        -2.2866846621036530e-01 3.1065323948860168e-01</leafValues></_>
    <_>
      <internalNodes>
        0 -1 14571 1895558912 1128069951 -201523619 1651603065
        1966548209 -673841170 -596116003 -631310380</internalNodes>
      <leafValues>
        -2.4352781474590302e-01 2.7908435463905334e-01</leafValues></_>
    <_>
      <internalNodes>
        0 -1 10221 -1368965625 -1366915897 -556013736 -561071640
        -91777018 1770684443 -894187452 -1530872556</internalNodes>
      <leafValues>
        -4.5265105366706848e-01 1.5631823241710663e-01</leafValues></_>
    <_>
      <internalNodes>
        0 -1 20620 651438337 1012688259 668686617 895310155 583347449
        -391431951 965306477 -1561197832</internalNodes>
      <leafValues>
        -3.3969321846961975e-01 1.8625842034816742e-01</leafValues></_>
    <_>
      <internalNodes>
        0 -1 34 765748814 1725624920 2109402027 669710742 638875367
        1939274239 1506452031 -822282224</internalNodes>
      <leafValues>
        -3.6774954199790955e-01 1.8555116653442383e-01</leafValues></_>
    <_>
      <internalNodes>
        0 -1 18612 -139012402 498770117 586735770 -1820184413 1454640780
        1447436488 -348063030 1933834043</internalNodes>
      <leafValues>
        -2.4853485822677612e-01 2.7094501256942749e-01</leafValues></_>
    <_>
      <internalNodes>
        0 -1 20495 -1432465849 -459664836 -741092179 -93160265 709476416
        2049546873 -55701020 -1141337244</internalNodes>
      <leafValues>
        -3.6486360430717468e-01 1.7924304306507111e-01</leafValues></_>
    <_>
      <internalNodes>
        0 -1 19037 -329522362 215552310 1008098500 287526948 2029799424
        1464994279 -732233672 -1337244133</internalNodes>
      <leafValues>
        -3.9159867167472839e-01 1.7611420154571533e-01</leafValues></_>
    <_>
      <internalNodes>
        0 -1 26627 -287903137 -2010498727 -1027398978 -1697722492
        -96014242 2022152849 1087376034 150454666</internalNodes>
      <leafValues>
        -2.4749524891376495e-01 2.6217743754386902e-01</leafValues></_>
    <_>
      <internalNodes>
        0 -1 17634 -872446529 1417448696 451722151 125429636 -178569991
        -587680520 -909038371 -270927559</internalNodes>
      <leafValues>
        -1.9477315247058868e-01 3.5315284132957458e-01</leafValues></_>
    <_>
      <internalNodes>
        0 -1 26056 -2104608156 744126559 -795622252 -1636130203
        1055907808 698892297 480790032 -1146468308</internalNodes>
      <leafValues>
        -3.4755644202232361e-01 1.9207464158535004e-01</leafValues></_>
    <_>
      <internalNodes>
        0 -1 24232 -461973516 -1702297861 262835965 -1989271904
        -1228962119 -1789651060 -1503041286 463818769</internalNodes>
      <leafValues>
        -2.4362853169441223e-01 2.6960510015487671e-01</leafValues></_>
    <_>
      <internalNodes>
        0 -1 9789 -1433727964 -1576226029 -1810146505 -323350404
        -980738416 -368344501 -1177749055 -1059128871</internalNodes>
      <leafValues>
        -3.3287224173545837e-01 1.9205306470394135e-01</leafValues></_>
    <_>
      <internalNodes>
        0 -1 25117 -889593452 341311581 -1798266790 1531984723
        2043594956 -13508604 1745371802 542348663</internalNodes>
      <leafValues>
        -2.7590906620025635e-01 2.3941256105899811e-01</leafValues></_>
    <_>
      <internalNodes>
        0 -1 25488 -290718505 -330018753 1414694122 -1295470445
        -615953916 -7632893 -743716722 -499995601</internalNodes>
      <leafValues>
        -2.5675335526466370e-01 2.5375255942344666e-01</leafValues></_>
    <_>
      <internalNodes>
        0 -1 8927 -1359826129 235457706 -854153867 -1615049308
        1139951600 1576733434 1896288880 -1739544368</internalNodes>
      <leafValues>
        -3.7083008885383606e-01 1.7203620076179504e-01</leafValues></_>
    <_>
      <internalNodes>
        0 -1 15740 -1527655148 829513563 1060836797 1751234310
        -1675049564 -144649744 -868029717 -631027641</internalNodes>
      <leafValues>
        -2.5710618495941162e-01 2.5591936707496643e-01</leafValues></_>
    <_>
      <internalNodes>
        0 -1 2979 -286593457 -627403041 722587363 1836974653 568321248
        -17345294 1012806378 2041836667</internalNodes>
      <leafValues>
        -2.2802171111106873e-01 3.0977830290794373e-01</leafValues></_>
    <_>
      <internalNodes>
        0 -1 168 -305161138 2051211218 -167764158 783848994 419588988
        415152 454494113 208913200</internalNodes>
      <leafValues>
        -4.1887724399566650e-01 1.6713427007198334e-01</leafValues></_>
    <_>
      <internalNodes>
        0 -1 1682 -867283968 1526628824 81582045 1669993612 1238103027
        2096309971 -610109987 -469764404</internalNodes>
      <leafValues>
        -2.8375336527824402e-01 2.3493771255016327e-01</leafValues></_>
    <_>
      <internalNodes>
        0 -1 16243 -2004988841 2123549017 -113212833 -368000613
        1872150796 -638107598 -1177883996 -98403791</internalNodes>
      <leafValues>
        -3.5261446237564087e-01 1.9014270603656769e-01</leafValues></_>
    <_>
      <internalNodes>
        0 -1 16196 -810169971 1936928548 -84410641 -1679102562
        -537626884 2111534413 -153059874 -1508168101</internalNodes>
      <leafValues>
        -1.9643467664718628e-01 3.4463611245155334e-01</leafValues></_>
    <_>
      <internalNodes>
        0 -1 27059 -1508931817 587071184 -1560871105 -1150595843
        -302709611 -25231361 -1166212097 -1346461777</internalNodes>
      <leafValues>
        -2.0152406394481659e-01 3.4544944763183594e-01</leafValues></_></weakClassifiers></stage3>
</opencv_storage>
