<?xml version="1.0"?>
<opencv_storage>
<stage11>
  <maxWeakCount>61</maxWeakCount>
  <stageThreshold>-1.2699956893920898e+00</stageThreshold>
  <weakClassifiers>
    <_>
      <internalNodes>
        0 -1 39 -26023494 1934743455 1147507610 -80707816 -707192581
        1470168239 -1214612274 -13380165</internalNodes>
      <leafValues>
        -5.0832927227020264e-01 -1.3721224665641785e-01</leafValues></_>
    <_>
      <internalNodes>
        0 -1 22972 73684160 -1822226381 -1269268025 1436873268
        -1333767972 -137366273 818739934 -537598105</internalNodes>
      <leafValues>
        -3.1036990880966187e-01 1.1472491919994354e-01</leafValues></_>
    <_>
      <internalNodes>
        0 -1 19436 1846824444 2065375057 -1024219060 -224840939
        -71540482 -78708212 1995503579 1935114187</internalNodes>
      <leafValues>
        -2.0011843740940094e-01 1.9490806758403778e-01</leafValues></_>
    <_>
      <internalNodes>
        0 -1 520 1170320822 579006192 -162148546 -394220536 43618806
        2120692659 1467322708 -985598544</internalNodes>
      <leafValues>
        -3.8158082962036133e-01 1.3317671418190002e-01</leafValues></_>
    <_>
      <internalNodes>
        0 -1 16871 1893885440 1095956093 1343606621 1347600913
        1345083408 -671431495 1078583294 -1635956436</internalNodes>
      <leafValues>
        -3.1726783514022827e-01 1.0859287530183792e-01</leafValues></_>
    <_>
      <internalNodes>
        0 -1 1641 492720401 1029264024 -477034247 1473359963 -1627383183
        -1256547844 1193482835 -1625812678</internalNodes>
      <leafValues>
        -2.3630705475807190e-01 1.5454506874084473e-01</leafValues></_>
    <_>
      <internalNodes>
        0 -1 26729 689088491 210012210 399230231 763039900 537784819
        664477858 1089278107 -1933620231</internalNodes>
      <leafValues>
        -1.8700578808784485e-01 1.8640783429145813e-01</leafValues></_>
    <_>
      <internalNodes>
        0 -1 15521 -740408761 2141151711 -795682242 -252573401
        -206599604 -81819068 -5318448 -149758338</internalNodes>
      <leafValues>
        -2.0441532135009766e-01 1.8244461715221405e-01</leafValues></_>
    <_>
      <internalNodes>
        0 -1 20457 -201408036 -571746212 -129608746 1985024077
        -1011433830 -1556918528 1540010250 728986779</internalNodes>
      <leafValues>
        -1.8887414038181305e-01 1.8659827113151550e-01</leafValues></_>
    <_>
      <internalNodes>
        0 -1 10895 195760931 -1397692222 1557402548 -825989552
        1110398775 -838283085 562890117 -995448540</internalNodes>
      <leafValues>
        -3.4705829620361328e-01 8.9611187577247620e-02</leafValues></_>
    <_>
      <internalNodes>
        0 -1 20135 1540787404 -106363130 -985287534 1944313001
        -121558064 -269284723 -1603217386 1375940247</internalNodes>
      <leafValues>
        -1.9843302667140961e-01 1.6774602234363556e-01</leafValues></_>
    <_>
      <internalNodes>
        0 -1 5392 202370848 -500784990 -553430764 -190676704 1533620601
        791783859 17638486 -437469068</internalNodes>
      <leafValues>
        -2.9872259497642517e-01 1.0952884703874588e-01</leafValues></_>
    <_>
      <internalNodes>
        0 -1 6281 -959985604 -1149501866 1698726370 -351092399
        -882232911 -373389927 123747026 -13578774</internalNodes>
      <leafValues>
        -1.8216091394424438e-01 1.8188591301441193e-01</leafValues></_>
    <_>
      <internalNodes>
        0 -1 22755 214847174 -2141561955 135297622 810965979 2079308630
        -887938535 -91332544 -1301253260</internalNodes>
      <leafValues>
        -3.6752194166183472e-01 7.8645505011081696e-02</leafValues></_>
    <_>
      <internalNodes>
        0 -1 17799 -1427070926 449378659 -1996477364 231802522
        1026146745 342999732 1015548397 412615682</internalNodes>
      <leafValues>
        -2.4220754206180573e-01 1.3328534364700317e-01</leafValues></_>
    <_>
      <internalNodes>
        0 -1 22 1326344320 849770274 1863585646 564443028 -882237165
        1872415161 981948472 1223196306</internalNodes>
      <leafValues>
        -2.5768971443176270e-01 1.2754309177398682e-01</leafValues></_>
    <_>
      <internalNodes>
        0 -1 10181 -1365692561 -1360163124 -74449030 -1812087099
        649502127 -137015423 -1831556870 -716499249</internalNodes>
      <leafValues>
        -1.3886554539203644e-01 2.5118878483772278e-01</leafValues></_>
    <_>
      <internalNodes>
        0 -1 6674 1169295437 922915488 -1875508559 2088733228
        -1054141442 1270543 -404696715 204103970</internalNodes>
      <leafValues>
        -2.2741486132144928e-01 1.4177724719047546e-01</leafValues></_>
    <_>
      <internalNodes>
        0 -1 9000 -1939887089 -958937761 -603926502 1660601750
        -510846381 1494745091 -829571020 -764405132</internalNodes>
      <leafValues>
        -3.3072680234909058e-01 1.0079681873321533e-01</leafValues></_>
    <_>
      <internalNodes>
        0 -1 7665 -380119534 1977331387 -480101085 -381060950 1145102812
        1052013154 953749888 556854050</internalNodes>
      <leafValues>
        -2.4981760978698730e-01 1.2821787595748901e-01</leafValues></_>
    <_>
      <internalNodes>
        0 -1 13808 636102581 -1509326701 1147451138 -1807609428
        1526362147 -122637602 -1203735736 1841274840</internalNodes>
      <leafValues>
        -2.0665600895881653e-01 1.5127295255661011e-01</leafValues></_>
    <_>
      <internalNodes>
        0 -1 16767 -1426633613 -548077357 -1072557810 -791211137
        -129402796 1532706831 -1902473326 -148718318</internalNodes>
      <leafValues>
        -1.8650136888027191e-01 1.7909252643585205e-01</leafValues></_>
    <_>
      <internalNodes>
        0 -1 20240 -2010184689 -1428721645 -803765950 -487177890
        -1312154768 -1148641229 -1400200506 -1302151371</internalNodes>
      <leafValues>
        -2.9122865200042725e-01 1.0751376301050186e-01</leafValues></_>
    <_>
      <internalNodes>
        0 -1 21435 -2115761259 137132496 1762968591 -1126411837
        380367600 -257211515 -1685792096 -1704823948</internalNodes>
      <leafValues>
        -2.4117350578308105e-01 1.3683445751667023e-01</leafValues></_>
    <_>
      <internalNodes>
        0 -1 13458 507665160 39272320 -988540363 -1384573428 -1817162808
        -74030694 -290403274 723589760</internalNodes>
      <leafValues>
        -2.9040044546127319e-01 1.1403527110815048e-01</leafValues></_>
    <_>
      <internalNodes>
        0 -1 8190 -1895271135 -1499923564 1394266518 -1527721276
        1258432875 589938827 -817352137 -866356844</internalNodes>
      <leafValues>
        -3.0995941162109375e-01 1.0599194467067719e-01</leafValues></_>
    <_>
      <internalNodes>
        0 -1 7484 -2064706185 943989119 271911641 1809696955 674124154
        -303028821 285240392 1723541056</internalNodes>
      <leafValues>
        -2.1152214705944061e-01 1.6313055157661438e-01</leafValues></_>
    <_>
      <internalNodes>
        0 -1 15499 -419758982 -515930532 -17416210 -646273801 -6946862
        778526804 -729103094 -70255985</internalNodes>
      <leafValues>
        -1.3180416822433472e-01 2.6941877603530884e-01</leafValues></_>
    <_>
      <internalNodes>
        0 -1 14046 -1758694744 -1164980023 -1182115714 -814843672
        -663850646 1268323044 -96153254 605402502</internalNodes>
      <leafValues>
        -2.3188273608684540e-01 1.4728008210659027e-01</leafValues></_>
    <_>
      <internalNodes>
        0 -1 15706 -2135887552 -1502348233 -2092742817 1527677013
        565559741 -911042392 -615929557 -26304424</internalNodes>
      <leafValues>
        -1.8975476920604706e-01 1.7956180870532990e-01</leafValues></_>
    <_>
      <internalNodes>
        0 -1 99 1146224672 344851530 1415858547 2046307999 -1482997458
        -1434212278 1316114833 -1355549366</internalNodes>
      <leafValues>
        -2.0616851747035980e-01 1.6484382748603821e-01</leafValues></_>
    <_>
      <internalNodes>
        0 -1 23037 1044634700 791750980 -1260895196 404785937 1980006092
        -3725130 -1976250728 1209031507</internalNodes>
      <leafValues>
        -2.5468063354492188e-01 1.2969145178794861e-01</leafValues></_>
    <_>
      <internalNodes>
        0 -1 25385 1107316816 499529574 -636383409 1745646104
        -1792722932 -897718081 -656723732 13697149</internalNodes>
      <leafValues>
        -3.3705276250839233e-01 1.0146200656890869e-01</leafValues></_>
    <_>
      <internalNodes>
        0 -1 24003 645089471 1608192094 -800734722 1912738045 -506574262
        -1154547130 -800216464 -130916936</internalNodes>
      <leafValues>
        -2.5270393490791321e-01 1.3519582152366638e-01</leafValues></_>
    <_>
      <internalNodes>
        0 -1 7164 647875379 -972107584 -1588948176 -31265838 -1744590049
        1317105737 319307764 -2072726160</internalNodes>
      <leafValues>
        -3.0277240276336670e-01 1.1179462820291519e-01</leafValues></_>
    <_>
      <internalNodes>
        0 -1 20392 -283568377 1899222147 1291173532 -1622193612
        995353742 1525710782 1819698313 -3677269</internalNodes>
      <leafValues>
        -1.2039382010698318e-01 2.8506934642791748e-01</leafValues></_>
    <_>
      <internalNodes>
        0 -1 21448 -1306860879 253288518 1694501149 763898150 865076479
        -1141374534 1763405613 230473756</internalNodes>
      <leafValues>
        -1.7791062593460083e-01 1.9192755222320557e-01</leafValues></_>
    <_>
      <internalNodes>
        0 -1 10303 -427921503 149137102 2085419743 -463431593 606656096
        1549703784 701585524 310403088</internalNodes>
      <leafValues>
        -3.9992925524711609e-01 7.6742351055145264e-02</leafValues></_>
    <_>
      <internalNodes>
        0 -1 25044 -689064001 -1344208999 1924360171 2136672890
        -190972966 -1668961088 -1173090053 -94118357</internalNodes>
      <leafValues>
        -1.1926947534084320e-01 2.8836378455162048e-01</leafValues></_>
    <_>
      <internalNodes>
        0 -1 310 97009664 579236186 755083934 -1979049404 168519521
        1319243946 159729725 -1003198432</internalNodes>
      <leafValues>
        -4.3775498867034912e-01 8.2123056054115295e-02</leafValues></_>
    <_>
      <internalNodes>
        0 -1 17880 -1374259664 -1957162760 272996637 2006204637
        -1685230630 -1971142645 -1076708615 -1158113628</internalNodes>
      <leafValues>
        -2.4231055378913879e-01 1.4004966616630554e-01</leafValues></_>
    <_>
      <internalNodes>
        0 -1 203 1303589642 1464562274 -2147237884 -867487436 -339381409
        235442691 1749246624 -325692393</internalNodes>
      <leafValues>
        -1.8801502883434296e-01 1.8903757631778717e-01</leafValues></_>
    <_>
      <internalNodes>
        0 -1 21286 -1533943936 -328740236 -1140828940 -216779746
        1936060841 -1820253440 1679811310 873163203</internalNodes>
      <leafValues>
        -2.0691759884357452e-01 1.7137426137924194e-01</leafValues></_>
    <_>
      <internalNodes>
        0 -1 20648 722555096 956573621 -1793595428 -299760342 437566801
        -288513994 -61795410 547903825</internalNodes>
      <leafValues>
        -2.9717728495597839e-01 1.1579234153032303e-01</leafValues></_>
    <_>
      <internalNodes>
        0 -1 25716 -742871234 -664676416 788494886 -1080690698 217917119
        1072221660 -1971827634 1356312455</internalNodes>
      <leafValues>
        -1.6017730534076691e-01 2.1695916354656219e-01</leafValues></_>
    <_>
      <internalNodes>
        0 -1 3422 1273592611 -1460356434 -409972937 1272658695 306608363
        193642683 1354645549 -453265011</internalNodes>
      <leafValues>
        -1.8110351264476776e-01 1.9924405217170715e-01</leafValues></_>
    <_>
      <internalNodes>
        0 -1 1538 1059059001 836921964 -1946105530 167969615 718034289
        -125214405 767002990 -1971880409</internalNodes>
      <leafValues>
        -2.2936253249645233e-01 1.4899909496307373e-01</leafValues></_>
    <_>
      <internalNodes>
        0 -1 1356 -980534274 1830766265 14607310 72400394 -515442204
        -276331982 2047717768 -1707117976</internalNodes>
      <leafValues>
        -1.8843452632427216e-01 1.8853637576103210e-01</leafValues></_>
    <_>
      <internalNodes>
        0 -1 22862 751445600 639130764 765273310 889477636 450126423
        974407648 591682176 281035968</internalNodes>
      <leafValues>
        -4.2909625172615051e-01 7.6285853981971741e-02</leafValues></_>
    <_>
      <internalNodes>
        0 -1 23512 -1015336271 -190694377 -1090585748 874127127
        1152801980 -550764708 1597116014 -786794773</internalNodes>
      <leafValues>
        -1.7992688715457916e-01 1.9586484134197235e-01</leafValues></_>
    <_>
      <internalNodes>
        0 -1 20595 -307305199 1449842208 -1377555985 -581601935
        1710548979 1821629433 2075275163 -906278169</internalNodes>
      <leafValues>
        -1.2139242142438889e-01 2.9678601026535034e-01</leafValues></_>
    <_>
      <internalNodes>
        0 -1 22885 2033567410 -388560265 1442944179 1689319998
        -201173770 1350611380 -1705946559 1235444238</internalNodes>
      <leafValues>
        -2.4144773185253143e-01 1.4717945456504822e-01</leafValues></_>
    <_>
      <internalNodes>
        0 -1 7532 -439091231 1632827876 1561861795 1373859942 -190652746
        2077217696 2019876378 1883600464</internalNodes>
      <leafValues>
        -2.0431903004646301e-01 1.6930642724037170e-01</leafValues></_>
    <_>
      <internalNodes>
        0 -1 7508 1059987983 -604591315 -1610973456 -105248731
        -280400292 1414377971 -1663718477 -1404057861</internalNodes>
      <leafValues>
        -1.5794655680656433e-01 2.3452475666999817e-01</leafValues></_>
    <_>
      <internalNodes>
        0 -1 19422 -1596470433 1574826004 -1106094033 -1172696769
        -492143092 -767614743 -353436686 -163381482</internalNodes>
      <leafValues>
        -2.0724049210548401e-01 1.6843202710151672e-01</leafValues></_>
    <_>
      <internalNodes>
        0 -1 12619 1735732613 2147417324 -1461587085 -1176048388
        -168446177 -598297098 -7135779 1522263503</internalNodes>
      <leafValues>
        -1.4321045577526093e-01 2.4708922207355499e-01</leafValues></_>
    <_>
      <internalNodes>
        0 -1 23919 450243637 -833656826 -1006582296 306795956 705223684
        1069238279 -121863564 -1607446748</internalNodes>
      <leafValues>
        -3.8864743709564209e-01 9.5743268728256226e-02</leafValues></_>
    <_>
      <internalNodes>
        0 -1 26044 -90510339 -66021533 788282228 -541769888 1592968383
        -1177301548 1564439746 1667724262</internalNodes>
      <leafValues>
        -1.4644272625446320e-01 2.4417871236801147e-01</leafValues></_>
    <_>
      <internalNodes>
        0 -1 19718 -2070767316 -1100118938 688509896 1701875825
        2086544112 595860576 -1062459880 344218185</internalNodes>
      <leafValues>
        -3.0531650781631470e-01 1.1192085593938828e-01</leafValues></_>
    <_>
      <internalNodes>
        0 -1 26160 1212464199 1865606902 -1157709977 892747198
        -996191009 -273416857 2120737912 -1295291229</internalNodes>
      <leafValues>
        -1.6004204750061035e-01 2.1948538720607758e-01</leafValues></_>
    <_>
      <internalNodes>
        0 -1 5937 2093466550 148876019 1430815379 -1778261410 1507594610
        1807903372 -306108072 -156933542</internalNodes>
      <leafValues>
        -1.9191844761371613e-01 1.8429020047187805e-01</leafValues></_></weakClassifiers></stage11>
</opencv_storage>
