<?xml version="1.0"?>
<opencv_storage>
<stage8>
  <maxWeakCount>58</maxWeakCount>
  <stageThreshold>-1.5003850460052490e+00</stageThreshold>
  <weakClassifiers>
    <_>
      <internalNodes>
        0 -1 18364 -1922973704 -36178532 -629109904 429327020 1344560522
        -5564280 909514410 855867339</internalNodes>
      <leafValues>
        -5.3586226701736450e-01 -9.9152229726314545e-02</leafValues></_>
    <_>
      <internalNodes>
        0 -1 18832 -968867776 -176851087 -1379705505 -550411772
        -926899715 -70730825 -177865761 -374089301</internalNodes>
      <leafValues>
        -3.0183359980583191e-01 1.8164888024330139e-01</leafValues></_>
    <_>
      <internalNodes>
        0 -1 228 -194707458 1534328378 -268681236 2066758306 -445319489
        1867906939 2130048922 -80504901</internalNodes>
      <leafValues>
        -2.0621921122074127e-01 2.5484234094619751e-01</leafValues></_>
    <_>
      <internalNodes>
        0 -1 11603 2050227432 -235049234 -1166296358 -1585217815
        -94914578 -19345984 -232459638 1930643023</internalNodes>
      <leafValues>
        -2.0857213437557220e-01 2.3764973878860474e-01</leafValues></_>
    <_>
      <internalNodes>
        0 -1 7290 -949375261 -1567976561 -905489494 -186331056 -81159941
        1795371147 -1281681820 -254479776</internalNodes>
      <leafValues>
        -2.6389947533607483e-01 1.8193928897380829e-01</leafValues></_>
    <_>
      <internalNodes>
        0 -1 26894 604407715 11074478 1739028987 -1080223913 1030028796
        -1479102470 -1073758229 -1949348358</internalNodes>
      <leafValues>
        -1.6192491352558136e-01 2.5936982035636902e-01</leafValues></_>
    <_>
      <internalNodes>
        0 -1 23367 -1210366882 2099188127 -729677705 1392034269
        -377107900 -1623463934 -85267512 -231703588</internalNodes>
      <leafValues>
        -2.6729598641395569e-01 1.7127417027950287e-01</leafValues></_>
    <_>
      <internalNodes>
        0 -1 21906 -842209832 1661283692 605868370 858484504 1183838856
        -1764819060 1578169035 269706051</internalNodes>
      <leafValues>
        -2.7360779047012329e-01 1.6699936985969543e-01</leafValues></_>
    <_>
      <internalNodes>
        0 -1 7382 1634529149 1246342086 -816001539 -1075809332
        -441824424 -287636565 -694824 -391067120</internalNodes>
      <leafValues>
        -2.7666786313056946e-01 1.6012023389339447e-01</leafValues></_>
    <_>
      <internalNodes>
        0 -1 15234 -1375009715 -2105220698 -794705028 -399730924
        -624082686 1930248233 -13714572 -228394126</internalNodes>
      <leafValues>
        -3.2437574863433838e-01 1.2513074278831482e-01</leafValues></_>
    <_>
      <internalNodes>
        0 -1 25270 1178604614 -1164839657 937977127 -182847719
        -1394663032 -358970997 -1310980004 -1195022805</internalNodes>
      <leafValues>
        -2.6780229806900024e-01 1.3469617068767548e-01</leafValues></_>
    <_>
      <internalNodes>
        0 -1 23516 -454822640 1302702146 -735488880 827446574 546555376
        110187208 -415037312 1364419171</internalNodes>
      <leafValues>
        -2.5566440820693970e-01 1.6529953479766846e-01</leafValues></_>
    <_>
      <internalNodes>
        0 -1 23227 -1466275780 1557864841 -2146397606 -1836166690
        -1667250092 -1163722215 -521102652 -1640974032</internalNodes>
      <leafValues>
        -3.4385827183723450e-01 1.1448130756616592e-01</leafValues></_>
    <_>
      <internalNodes>
        0 -1 16404 681209718 226781865 -1297089288 -254685163 -883885906
        -85089406 -132899046 1611111059</internalNodes>
      <leafValues>
        -2.0800371468067169e-01 1.9240672886371613e-01</leafValues></_>
    <_>
      <internalNodes>
        0 -1 15670 -404469955 1051471742 2080369083 1057519591 643770283
        -1916178507 1610032377 -1173344397</internalNodes>
      <leafValues>
        -1.8300659954547882e-01 2.3656353354454041e-01</leafValues></_>
    <_>
      <internalNodes>
        0 -1 24167 -2100343481 -1147478569 -870665833 276059612
        649439300 1124663617 -1145917980 -1428010620</internalNodes>
      <leafValues>
        -2.6557210087776184e-01 1.5745340287685394e-01</leafValues></_>
    <_>
      <internalNodes>
        0 -1 490 1160591137 250279024 -2062462758 718963132 11071827
        95085227 17578878 -531757056</internalNodes>
      <leafValues>
        -3.6119559407234192e-01 1.0088587552309036e-01</leafValues></_>
    <_>
      <internalNodes>
        0 -1 26624 -767043925 840429353 1003150336 344718807 591729226
        699839612 -286140925 7848463</internalNodes>
      <leafValues>
        -1.9264890253543854e-01 2.1680848300457001e-01</leafValues></_>
    <_>
      <internalNodes>
        0 -1 13366 -1640350091 -45559447 -2096899875 -1135701181
        -1182155293 -1142148952 1948150155 -1343227660</internalNodes>
      <leafValues>
        -2.4669158458709717e-01 1.6360598802566528e-01</leafValues></_>
    <_>
      <internalNodes>
        0 -1 25052 -228657890 -2004737400 -1579294615 1433000769
        988065934 1251738036 -1328080758 1208281826</internalNodes>
      <leafValues>
        -2.2483938932418823e-01 1.8517360091209412e-01</leafValues></_>
    <_>
      <internalNodes>
        0 -1 21432 -1026764875 -936078834 -1006097121 -1347592163
        319934905 683207395 538853560 1291075912</internalNodes>
      <leafValues>
        -2.3998689651489258e-01 1.6517452895641327e-01</leafValues></_>
    <_>
      <internalNodes>
        0 -1 19590 -1161608587 -1424680123 -805053225 1117655903
        -609241010 -1633467773 -1642566960 -1161920936</internalNodes>
      <leafValues>
        -2.5219339132308960e-01 1.6894172132015228e-01</leafValues></_>
    <_>
      <internalNodes>
        0 -1 1397 -1094811807 1029464834 1648689754 286487133 1539769341
        -756383225 888944889 257636827</internalNodes>
      <leafValues>
        -2.2857765853404999e-01 1.7971085011959076e-01</leafValues></_>
    <_>
      <internalNodes>
        0 -1 19841 112609796 -2074937217 -925865520 436290193 1934783321
        854673586 747804736 -1392623296</internalNodes>
      <leafValues>
        -3.7758049368858337e-01 1.0626383870840073e-01</leafValues></_>
    <_>
      <internalNodes>
        0 -1 15925 -1435534153 1107029464 -1583946569 -442683598
        -558499918 -168009759 1459852238 530386738</internalNodes>
      <leafValues>
        -1.9187244772911072e-01 2.2247846424579620e-01</leafValues></_>
    <_>
      <internalNodes>
        0 -1 27030 -2037207377 -2132080732 1364377742 -699215729
        27253508 2015430924 -1565863692 -1504552398</internalNodes>
      <leafValues>
        -2.6442509889602661e-01 1.6093415021896362e-01</leafValues></_>
    <_>
      <internalNodes>
        0 -1 20294 -332296677 722002788 -1307606374 972503728 1984207294
        1677540762 1407468134 1375841230</internalNodes>
      <leafValues>
        -2.1748802065849304e-01 1.9170585274696350e-01</leafValues></_>
    <_>
      <internalNodes>
        0 -1 4745 -335566465 -76285131 -950516 1299783360 1331463590
        -1080150085 -575902600 -625881926</internalNodes>
      <leafValues>
        -1.5162202715873718e-01 2.6911148428916931e-01</leafValues></_>
    <_>
      <internalNodes>
        0 -1 10784 2043026797 1174105538 -1778844419 1604462039
        -295125121 -1610647593 771571649 1308340687</internalNodes>
      <leafValues>
        -1.7094554007053375e-01 2.4420234560966492e-01</leafValues></_>
    <_>
      <internalNodes>
        0 -1 1673 1741575559 965751804 -1713683217 -1396382784 743964983
        -1008036961 1928806899 -269468203</internalNodes>
      <leafValues>
        -2.0828202366828918e-01 2.0136620104312897e-01</leafValues></_>
    <_>
      <internalNodes>
        0 -1 26684 -1886722278 -1869829402 201697856 -2115403161
        -1764366368 504016512 -406469832 -1999154262</internalNodes>
      <leafValues>
        -2.2340303659439087e-01 1.9039604067802429e-01</leafValues></_>
    <_>
      <internalNodes>
        0 -1 25650 -456709069 -526650981 277013118 -228952742
        -1156963836 1260620091 -609850884 -112010504</internalNodes>
      <leafValues>
        -2.4147112667560577e-01 1.7580300569534302e-01</leafValues></_>
    <_>
      <internalNodes>
        0 -1 20950 1285437036 -1405595343 -201142227 -1999754979
        -342169476 -1188364278 -1090915772 -1137545388</internalNodes>
      <leafValues>
        -3.5815390944480896e-01 1.1577212810516357e-01</leafValues></_>
    <_>
      <internalNodes>
        0 -1 16091 650637266 -371365074 -736560930 -112594640 1669536204
        2062059656 -2138803110 -1268708857</internalNodes>
      <leafValues>
        -2.0995615422725677e-01 2.0839338004589081e-01</leafValues></_>
    <_>
      <internalNodes>
        0 -1 19950 -1294316417 -227182601 -16781586 -546439369
        -386204437 -229377 -210389265 -281532880</internalNodes>
      <leafValues>
        -1.9723410904407501e-01 2.2341118752956390e-01</leafValues></_>
    <_>
      <internalNodes>
        0 -1 13357 -805882985 778252197 -1098956821 -809533583 528306169
        -1175159427 -67827510 -1107331751</internalNodes>
      <leafValues>
        -1.6168577969074249e-01 2.6183816790580750e-01</leafValues></_>
    <_>
      <internalNodes>
        0 -1 10589 -697831846 -4330946 1044254140 2065296285 572152298
        -864264542 2131660970 -1794523502</internalNodes>
      <leafValues>
        -1.8550202250480652e-01 2.3353767395019531e-01</leafValues></_>
    <_>
      <internalNodes>
        0 -1 12014 -280180683 1122839002 260242766 1065366930
        -2029330011 -1277443152 -24573758 1026700827</internalNodes>
      <leafValues>
        -2.0799884200096130e-01 2.0031438767910004e-01</leafValues></_>
    <_>
      <internalNodes>
        0 -1 18855 -1427587248 1301163986 -1649811668 -1943698672
        -1474271927 2058528489 -2130636050 497096213</internalNodes>
      <leafValues>
        -2.9342669248580933e-01 1.4492639899253845e-01</leafValues></_>
    <_>
      <internalNodes>
        0 -1 20583 1576119608 -1088472752 -1458952856 792892216
        -1164285724 82520340 -913536276 436878259</internalNodes>
      <leafValues>
        -2.3683530092239380e-01 1.7633651196956635e-01</leafValues></_>
    <_>
      <internalNodes>
        0 -1 15540 -2139654291 -178325060 1779748595 -1144746690
        -365205955 779889311 433867317 -1469800551</internalNodes>
      <leafValues>
        -2.1976564824581146e-01 1.9465443491935730e-01</leafValues></_>
    <_>
      <internalNodes>
        0 -1 11326 -269484601 -762875927 1996488430 -72765822 -171969032
        -824418317 1995931370 -162042933</internalNodes>
      <leafValues>
        -1.5149773657321930e-01 2.9600712656974792e-01</leafValues></_>
    <_>
      <internalNodes>
        0 -1 23669 169495570 1309714824 -102485684 813982578 1488785672
        -1205256785 418121884 552653175</internalNodes>
      <leafValues>
        -3.7472409009933472e-01 1.1758811026811600e-01</leafValues></_>
    <_>
      <internalNodes>
        0 -1 24066 2079290363 1239465900 1163438399 -81714567 -33558278
        -1613243248 -1764843501 -547882573</internalNodes>
      <leafValues>
        -1.4722321927547455e-01 3.0256876349449158e-01</leafValues></_>
    <_>
      <internalNodes>
        0 -1 957 -514758815 84736450 -1827453450 2093928834 295387515
        1143539745 596620278 -177887436</internalNodes>
      <leafValues>
        -2.9996117949485779e-01 1.4802064001560211e-01</leafValues></_>
    <_>
      <internalNodes>
        0 -1 4649 -2061924530 -1122209866 1511071121 -36791358
        1595895740 715854068 -1928836385 564994107</internalNodes>
      <leafValues>
        -1.9758674502372742e-01 2.1467940509319305e-01</leafValues></_>
    <_>
      <internalNodes>
        0 -1 23475 1860133480 -2016652857 -725364665 840843733
        -1717142464 -1154842101 -1283268892 -31315467</internalNodes>
      <leafValues>
        -2.9139468073844910e-01 1.5237975120544434e-01</leafValues></_>
    <_>
      <internalNodes>
        0 -1 13078 1928999679 1848106033 807024217 -23744309 1401051676
        2109605550 1385314950 -653005408</internalNodes>
      <leafValues>
        -2.0488145947456360e-01 2.0637550950050354e-01</leafValues></_>
    <_>
      <internalNodes>
        0 -1 46 170503406 62051116 888261582 -965676494 1888788852
        1961665460 1660195296 247592817</internalNodes>
      <leafValues>
        -3.5777798295021057e-01 1.1957101523876190e-01</leafValues></_>
    <_>
      <internalNodes>
        0 -1 15598 675075468 -157480370 1719056910 1527004723 -461972231
        -715297150 -820230485 500927235</internalNodes>
      <leafValues>
        -1.7730119824409485e-01 2.4084100127220154e-01</leafValues></_>
    <_>
      <internalNodes>
        0 -1 13389 -1426039744 -1584920595 -2061338372 -343872664
        1242981513 -1420548187 -431585204 -1495245674</internalNodes>
      <leafValues>
        -3.5472479462623596e-01 1.2461925297975540e-01</leafValues></_>
    <_>
      <internalNodes>
        0 -1 20708 -948178670 731517670 -1327581843 1874172768
        -1964845872 -73031395 -65521973 725510167</internalNodes>
      <leafValues>
        -2.0578537881374359e-01 2.1246401965618134e-01</leafValues></_>
    <_>
      <internalNodes>
        0 -1 1532 1217947761 1190538186 289886349 688185613 2076538976
        -796850167 -605351307 113068112</internalNodes>
      <leafValues>
        -3.7560838460922241e-01 1.1533004045486450e-01</leafValues></_>
    <_>
      <internalNodes>
        0 -1 19362 -194267656 1029808308 268990277 -537226028 -812058250
        -83181852 -317879557 1204418498</internalNodes>
      <leafValues>
        -1.9995070993900299e-01 2.1211330592632294e-01</leafValues></_>
    <_>
      <internalNodes>
        0 -1 22265 -1403224479 -1542313837 -661470722 -1386311509
        -410957601 990201871 1033765500 -1346476868</internalNodes>
      <leafValues>
        -2.4586896598339081e-01 1.6917294263839722e-01</leafValues></_>
    <_>
      <internalNodes>
        0 -1 106 1255430146 1997865423 -1543438315 961347816 -536012095
        1351057411 1887958592 -1590756192</internalNodes>
      <leafValues>
        -2.8105768561363220e-01 1.5851722657680511e-01</leafValues></_>
    <_>
      <internalNodes>
        0 -1 17563 -478855845 1536662364 -355418270 -246952627
        -1044709382 773702300 -221795054 2069200774</internalNodes>
      <leafValues>
        -1.8796448409557343e-01 2.2649645805358887e-01</leafValues></_>
    <_>
      <internalNodes>
        0 -1 23823 -1978184113 -1384496645 -2146387746 1208127741
        -1165866923 -1299480261 -1460868920 -965674656</internalNodes>
      <leafValues>
        -3.4163245558738708e-01 1.2571203708648682e-01</leafValues></_></weakClassifiers></stage8>
</opencv_storage>
