<?xml version="1.0"?>
<opencv_storage>
<stage5>
  <maxWeakCount>42</maxWeakCount>
  <stageThreshold>-1.6056643724441528e+00</stageThreshold>
  <weakClassifiers>
    <_>
      <internalNodes>
        0 -1 1317 -671089713 -271590712 -783163968 -179840561 -89392417
        -2130972407 -218369049 -704644353</internalNodes>
      <leafValues>
        -6.7581766843795776e-01 -1.9061583280563354e-01</leafValues></_>
    <_>
      <internalNodes>
        0 -1 6068 -1390412561 -460467414 -1019262074 -1024462214
        -1214791681 932118979 -189811916 -407383580</internalNodes>
      <leafValues>
        -3.9367979764938354e-01 1.2393628060817719e-01</leafValues></_>
    <_>
      <internalNodes>
        0 -1 4709 -1077943317 -1897773734 -494020976 -1063595184
        -106444201 1404764378 -1333317584 -169545772</internalNodes>
      <leafValues>
        -4.0567624568939209e-01 1.4350014925003052e-01</leafValues></_>
    <_>
      <internalNodes>
        0 -1 8457 -8275 -420757780 -419692956 -486675362 2128588299
        208535535 -302078286 -235929697</internalNodes>
      <leafValues>
        -1.8774606287479401e-01 2.8672501444816589e-01</leafValues></_>
    <_>
      <internalNodes>
        0 -1 4584 -537143157 -850602080 -738037696 -690044480
        -1156855421 75534471 1086177703 -991168268</internalNodes>
      <leafValues>
        -2.5061473250389099e-01 2.2058759629726410e-01</leafValues></_>
    <_>
      <internalNodes>
        0 -1 4769 -1141964869 1272591142 -1441185088 -419530296
        -335836554 -1459388161 865564756 -587408060</internalNodes>
      <leafValues>
        -3.7857675552368164e-01 1.3834148645401001e-01</leafValues></_>
    <_>
      <internalNodes>
        0 -1 8342 -866194934 1853510470 -100507608 2096421386 697460060
        1292898595 -1141641018 -1829293582</internalNodes>
      <leafValues>
        -2.6932403445243835e-01 1.9271036982536316e-01</leafValues></_>
    <_>
      <internalNodes>
        0 -1 6412 -1648513123 1173848574 -442867114 -153171252
        -1890987586 -1358708474 -1463101486 -537478148</internalNodes>
      <leafValues>
        -2.1860826015472412e-01 2.2959533333778381e-01</leafValues></_>
    <_>
      <internalNodes>
        0 -1 5479 -408165461 -309528150 -1961418524 -255565500 180830474
        671801358 1221583168 -756613900</internalNodes>
      <leafValues>
        -3.0931305885314941e-01 1.6069316864013672e-01</leafValues></_>
    <_>
      <internalNodes>
        0 -1 2088 -673063283 -544544668 -1530820976 1076782766
        -1706307068 310575173 -85142246 -751896532</internalNodes>
      <leafValues>
        -2.4409756064414978e-01 2.1579828858375549e-01</leafValues></_>
    <_>
      <internalNodes>
        0 -1 3208 -1172800529 -453185522 1150868386 -1027280092
        847481717 -1990686433 -1141269658 -1815686784</internalNodes>
      <leafValues>
        -3.3290416002273560e-01 1.5448963642120361e-01</leafValues></_>
    <_>
      <internalNodes>
        0 -1 8442 -417802333 -1172389905 1861156542 -218174420
        -973228450 -218759204 -809511796 -1246238785</internalNodes>
      <leafValues>
        -1.8646515905857086e-01 2.7915844321250916e-01</leafValues></_>
    <_>
      <internalNodes>
        0 -1 2387 -968366705 967076320 -20646428 -577070466 -2079987595
        -382077451 -699108226 -1763207470</internalNodes>
      <leafValues>
        -2.2444364428520203e-01 2.2373707592487335e-01</leafValues></_>
    <_>
      <internalNodes>
        0 -1 7069 -1892734997 752685842 -343686856 -119224672
        -1680182924 1655154715 294113492 -961481008</internalNodes>
      <leafValues>
        -3.7679553031921387e-01 1.3387168943881989e-01</leafValues></_>
    <_>
      <internalNodes>
        0 -1 696 -1113899673 -949644498 -732850464 2103038404 1389077485
        -869559704 -139074650 1140719056</internalNodes>
      <leafValues>
        -2.7862605452537537e-01 1.8945978581905365e-01</leafValues></_>
    <_>
      <internalNodes>
        0 -1 4349 -833886198 914408776 -204995404 1081013466 625189802
        572870905 839210575 -1001998747</internalNodes>
      <leafValues>
        -3.3506357669830322e-01 1.4740519225597382e-01</leafValues></_>
    <_>
      <internalNodes>
        0 -1 6979 -1377338880 -1462537234 684638834 -233777314 871289746
        -523089751 1998746053 -164066588</internalNodes>
      <leafValues>
        -3.4455454349517822e-01 1.4392235875129700e-01</leafValues></_>
    <_>
      <internalNodes>
        0 -1 6246 930172891 2079906872 -1879812268 -554340363
        -1364918420 791935349 87447512 1910756999</internalNodes>
      <leafValues>
        -1.8096901476383209e-01 2.9472547769546509e-01</leafValues></_>
    <_>
      <internalNodes>
        0 -1 8371 -686099828 -303369716 -804142842 -757165064 -108266907
        -1617919862 2023486199 -1527848707</internalNodes>
      <leafValues>
        -2.3697115480899811e-01 2.0650951564311981e-01</leafValues></_>
    <_>
      <internalNodes>
        0 -1 34 1106044012 608351718 -1057010586 1724377792 -1783928015
        1169917681 1904391457 409270324</internalNodes>
      <leafValues>
        -5.0781816244125366e-01 9.6005588769912720e-02</leafValues></_>
    <_>
      <internalNodes>
        0 -1 728 -1086537781 -324091906 -66648 -110297556 -1442844681
        -1484849161 1448998711 -942691121</internalNodes>
      <leafValues>
        -1.9788539409637451e-01 2.5684511661529541e-01</leafValues></_>
    <_>
      <internalNodes>
        0 -1 7600 -1450202433 -2069079842 -897540650 1224643844
        -881995778 957522186 1104093745 -437070640</internalNodes>
      <leafValues>
        -3.2388845086097717e-01 1.6015839576721191e-01</leafValues></_>
    <_>
      <internalNodes>
        0 -1 2710 -895425473 -710641097 -269490321 2073900219 -279053676
        -830521374 1878390106 2070347095</internalNodes>
      <leafValues>
        -1.6815952956676483e-01 3.0767688155174255e-01</leafValues></_>
    <_>
      <internalNodes>
        0 -1 6012 -1197543237 -2115374600 -2095933984 1925099680
        413092813 998981763 1887540464 -195774752</internalNodes>
      <leafValues>
        -3.3015778660774231e-01 1.5307752788066864e-01</leafValues></_>
    <_>
      <internalNodes>
        0 -1 7053 883730984 2040790292 1862233328 -1087910020
        -2106151464 -50528673 1648293043 -1592002970</internalNodes>
      <leafValues>
        -2.1158631145954132e-01 2.4206805229187012e-01</leafValues></_>
    <_>
      <internalNodes>
        0 -1 737 -725302558 -1061050216 -1073495414 1087300658
        -1245154749 1497792761 1933824015 1143656024</internalNodes>
      <leafValues>
        -2.9298725724220276e-01 1.7028521001338959e-01</leafValues></_>
    <_>
      <internalNodes>
        0 -1 8182 857909058 -405847078 -1274886334 1992627744 216742415
        -1474375489 176806640 -1293780236</internalNodes>
      <leafValues>
        -2.9243987798690796e-01 1.6960096359252930e-01</leafValues></_>
    <_>
      <internalNodes>
        0 -1 7102 -522727424 415797298 1780390930 -266972032 327095412
        1788641330 1627924952 2155379</internalNodes>
      <leafValues>
        -4.1622793674468994e-01 1.2305117398500443e-01</leafValues></_>
    <_>
      <internalNodes>
        0 -1 698 344172970 -1555820544 -1861682718 471339838 -82261621
        1182828074 -1323593248 127261662</internalNodes>
      <leafValues>
        -3.8667270541191101e-01 1.2827607989311218e-01</leafValues></_>
    <_>
      <internalNodes>
        0 -1 5199 -1295343646 -1403751160 -602356466 -1502740136
        704789074 581599234 328979744 -2132510572</internalNodes>
      <leafValues>
        -5.4156714677810669e-01 8.6708746850490570e-02</leafValues></_>
    <_>
      <internalNodes>
        0 -1 5067 -486703755 27117725 -293597885 -1714097990 -534646751
        1635262920 1764524396 845931423</internalNodes>
      <leafValues>
        -2.4179612100124359e-01 2.2007054090499878e-01</leafValues></_>
    <_>
      <internalNodes>
        0 -1 6817 -1287143248 375536328 775211182 -152652060 522646926
        1526480528 753514186 1584387319</internalNodes>
      <leafValues>
        -2.1082441508769989e-01 2.3788395524024963e-01</leafValues></_>
    <_>
      <internalNodes>
        0 -1 3989 -1772362065 927388149 403862768 -239750404 1938447019
        -932736939 199455179 277620197</internalNodes>
      <leafValues>
        -2.2637900710105896e-01 2.2605146467685699e-01</leafValues></_>
    <_>
      <internalNodes>
        0 -1 8104 -1710113 2137882330 -1091568414 367918826 276188516
        2121385969 1841224942 -781996933</internalNodes>
      <leafValues>
        -1.5209260582923889e-01 3.3352199196815491e-01</leafValues></_>
    <_>
      <internalNodes>
        0 -1 2935 1862004407 -1630543667 -2003918339 -262341538
        1366551300 -420767437 1921537794 -1823127092</internalNodes>
      <leafValues>
        -2.4154405295848846e-01 2.1192140877246857e-01</leafValues></_>
    <_>
      <internalNodes>
        0 -1 6895 -1366824262 -1347501438 1963115619 2095026192
        906192234 1241117187 1671164487 -134555215</internalNodes>
      <leafValues>
        -2.3529702425003052e-01 2.1588991582393646e-01</leafValues></_>
    <_>
      <internalNodes>
        0 -1 4324 -1480922996 1273651416 -955592500 -2014621476
        1663424299 1972097458 -1417032146 395495828</internalNodes>
      <leafValues>
        -2.8020948171615601e-01 1.8001830577850342e-01</leafValues></_>
    <_>
      <internalNodes>
        0 -1 1919 -1095394614 -1934731218 -452079272 -54734634
        -1316060177 1210679453 1795610032 -2060722776</internalNodes>
      <leafValues>
        -2.6957035064697266e-01 1.8189899623394012e-01</leafValues></_>
    <_>
      <internalNodes>
        0 -1 922 -1077219601 499580014 1862170551 -43008113 1459580813
        1289023302 1568003913 -1674128201</internalNodes>
      <leafValues>
        -1.8155685067176819e-01 2.8158989548683167e-01</leafValues></_>
    <_>
      <internalNodes>
        0 -1 8128 -1353304787 80458087 1090670720 1925628566 -241501946
        139077939 -1966919456 -227250512</internalNodes>
      <leafValues>
        -3.6717551946640015e-01 1.3877157866954803e-01</leafValues></_>
    <_>
      <internalNodes>
        0 -1 7001 -1963201050 1466813335 -151098114 -556003890
        1596202236 -34087011 -1640203025 -143142949</internalNodes>
      <leafValues>
        -1.4282616972923279e-01 3.5992830991744995e-01</leafValues></_>
    <_>
      <internalNodes>
        0 -1 5699 -1382450165 -950542055 -784264946 -500771890
        -350600596 -783118200 1941549380 81715652</internalNodes>
      <leafValues>
        -4.4046667218208313e-01 1.2297222018241882e-01</leafValues></_></weakClassifiers></stage5>
</opencv_storage>
