<?xml version="1.0"?>
<opencv_storage>
<stage18>
  <maxWeakCount>100</maxWeakCount>
  <stageThreshold>-3.0034520626068115e+00</stageThreshold>
  <weakClassifiers>
    <_>
      <internalNodes>
        0 -1 2079 1115686912 -1526693888 67121936 536875008 -2147483584
        287309824 536872976 -671055868</internalNodes>
      <leafValues>
        -9.8684209585189819e-01 9.0371084213256836e-01</leafValues></_>
    <_>
      <internalNodes>
        0 -1 37 76072448 524816 -2079326208 338165764 -2013233013
        -1342177245 -2130640616 -1601372032</internalNodes>
      <leafValues>
        -8.9497894048690796e-01 6.2755590677261353e-01</leafValues></_>
    <_>
      <internalNodes>
        0 -1 8019 -1878441932 -1879015423 32768 -1878982654 1073741996 0
        536870920 -511457149</internalNodes>
      <leafValues>
        -6.3224542140960693e-01 3.6883586645126343e-01</leafValues></_>
    <_>
      <internalNodes>
        0 -1 3333 -128593706 328494226 -1995325429 -1988008942
        1549831664 -1794343076 4230666 -1254082992</internalNodes>
      <leafValues>
        -2.7476689219474792e-01 6.0896462202072144e-01</leafValues></_>
    <_>
      <internalNodes>
        0 -1 0 -573996454 -251650047 1092648961 -788463616 -2013224756
        -769622012 -1609826176 1602404746</internalNodes>
      <leafValues>
        -6.4307695627212524e-01 3.1501096487045288e-01</leafValues></_>
    <_>
      <internalNodes>
        0 -1 711 -16777608 -4 -388 -1245250 -286261284 -3866803 -884
        -814874643</internalNodes>
      <leafValues>
        -3.3526426553726196e-01 4.8481282591819763e-01</leafValues></_>
    <_>
      <internalNodes>
        0 -1 8372 -1060450304 -2130566848 32784 -547946496 -1029144446
        -1879048191 -1585411889 957057162</internalNodes>
      <leafValues>
        -6.8318486213684082e-01 1.9203470647335052e-01</leafValues></_>
    <_>
      <internalNodes>
        0 -1 6500 -734216153 -122372304 -1360101539 -529449470
        -1762599260 -293666991 -2056239660 -1196397312</internalNodes>
      <leafValues>
        -2.1817484498023987e-01 6.6545534133911133e-01</leafValues></_>
    <_>
      <internalNodes>
        0 -1 5244 -2079588332 1364295936 1476395016 -754941888
        -2147475354 -1063223168 -402091383 1124797099</internalNodes>
      <leafValues>
        -6.9749695062637329e-01 1.6041029989719391e-01</leafValues></_>
    <_>
      <internalNodes>
        0 -1 6921 -523955042 960724096 -816087482 -1066701664
        -1533893428 -465281522 33784322 -2143057150</internalNodes>
      <leafValues>
        -1.9009101390838623e-01 6.4646822214126587e-01</leafValues></_>
    <_>
      <internalNodes>
        0 -1 8446 -670445440 1048576 134218880 -1040187376 -1861058552
        -2147483637 -1073684448 801869838</internalNodes>
      <leafValues>
        -6.6934663057327271e-01 1.3672296702861786e-01</leafValues></_>
    <_>
      <internalNodes>
        0 -1 2549 -542619646 292019274 1256963253 290144419 1827102097
        -733971124 -344844646 -1823748157</internalNodes>
      <leafValues>
        -1.3656367361545563e-01 7.7091103792190552e-01</leafValues></_>
    <_>
      <internalNodes>
        0 -1 594 276824204 25296896 65568 -939491072 -2147348224
        -1073078272 -2130704376 2147140098</internalNodes>
      <leafValues>
        -8.0429553985595703e-01 1.1329963058233261e-01</leafValues></_>
    <_>
      <internalNodes>
        0 -1 5563 1328717078 -27042192 -486752672 1361436716 -702758275
        -2033942708 -2146404647 -393519989</internalNodes>
      <leafValues>
        -1.2995493412017822e-01 6.8498879671096802e-01</leafValues></_>
    <_>
      <internalNodes>
        0 -1 7633 -1073479612 -2113798128 33619969 -1861222392 295044
        -1601634304 98433 2133459113</internalNodes>
      <leafValues>
        -6.2551230192184448e-01 1.2519709765911102e-01</leafValues></_>
    <_>
      <internalNodes>
        0 -1 6756 2122788063 2082954949 -17563804 1950482156 -4325440
        -1505468608 -747209542 -549788278</internalNodes>
      <leafValues>
        -1.2118778377771378e-01 6.9614535570144653e-01</leafValues></_>
    <_>
      <internalNodes>
        0 -1 3596 1074237894 1090519104 -1879043968 -1870610431
        1073745928 1073741824 -2138988158 1342460288</internalNodes>
      <leafValues>
        -6.4755493402481079e-01 9.9956393241882324e-02</leafValues></_>
    <_>
      <internalNodes>
        0 -1 6853 -1376765296 -142835804 -285331782 -39403784
        -1073969980 -1476427907 -126557260 -1565515866</internalNodes>
      <leafValues>
        -1.2091147899627686e-01 6.2180262804031372e-01</leafValues></_>
    <_>
      <internalNodes>
        0 -1 8461 -536772544 1073758337 26247568 -805240696 -2147384572
        -1879048192 587211440 1528996808</internalNodes>
      <leafValues>
        -7.9349935054779053e-01 7.5074888765811920e-02</leafValues></_>
    <_>
      <internalNodes>
        0 -1 8368 -1096192574 -1347686408 -18939911 -805371912
        -1611866149 -262178 -306938085 -402924161</internalNodes>
      <leafValues>
        -7.3038347065448761e-02 8.7567043304443359e-01</leafValues></_>
    <_>
      <internalNodes>
        0 -1 356 588234123 -805311286 -805323499 -1680765212 -318931239
        -268500994 1585339982 -1639195633</internalNodes>
      <leafValues>
        -5.5394358932971954e-02 7.2616666555404663e-01</leafValues></_>
    <_>
      <internalNodes>
        0 -1 8387 -658407416 -1861124096 1073741842 -1857617912
        -2147319806 -2147483512 -1879007230 2106294410</internalNodes>
      <leafValues>
        -7.2399991750717163e-01 7.5690262019634247e-02</leafValues></_>
    <_>
      <internalNodes>
        0 -1 4499 -1426117429 -73236638 -336630160 -776880716
        -1669590202 -276856993 -33622828 -740526764</internalNodes>
      <leafValues>
        -8.6603321135044098e-02 6.1596596240997314e-01</leafValues></_>
    <_>
      <internalNodes>
        0 -1 5378 -2143283984 -2147090428 285245795 -2128609021
        1074383504 310378496 1212941072 600490052</internalNodes>
      <leafValues>
        -6.8829739093780518e-01 7.1390666067600250e-02</leafValues></_>
    <_>
      <internalNodes>
        0 -1 6080 1914733008 -168034305 -100745241 -101024011 -293609729
        2013265919 2029977596 -50857986</internalNodes>
      <leafValues>
        -5.1737077534198761e-02 7.9400235414505005e-01</leafValues></_>
    <_>
      <internalNodes>
        0 -1 1396 1745881090 -1068498687 1090523219 1426137216
        -1811906552 -2013265920 -1585397614 1451557002</internalNodes>
      <leafValues>
        -7.9996448755264282e-01 5.1764409989118576e-02</leafValues></_>
    <_>
      <internalNodes>
        0 -1 4764 2130501247 -1125323026 -269156750 -806560013 -1507339
        -53149724 1609881500 -101253765</internalNodes>
      <leafValues>
        -7.0489041507244110e-02 6.3164556026458740e-01</leafValues></_>
    <_>
      <internalNodes>
        0 -1 8415 -931127280 -2130640896 -2097151988 269090818
        -2142961624 -2113929208 -2145089472 1736614016</internalNodes>
      <leafValues>
        -9.0555113554000854e-01 4.0290646255016327e-02</leafValues></_>
    <_>
      <internalNodes>
        0 -1 8015 -70459300 -65537 -8452 -131083 2147418104 -1 -126
        -65538</internalNodes>
      <leafValues>
        -5.9271570295095444e-02 6.1362123489379883e-01</leafValues></_>
    <_>
      <internalNodes>
        0 -1 3257 230965348 -1878908926 -2012212979 1630208258 704905348
        -2126512128 269237258 1386808032</internalNodes>
      <leafValues>
        -7.6079088449478149e-01 4.7457948327064514e-02</leafValues></_>
    <_>
      <internalNodes>
        0 -1 7789 1878650846 -290881567 -33554462 -677184024 2130607820
        2147418076 343277102 -83120641</internalNodes>
      <leafValues>
        -3.4548804163932800e-02 8.0263406038284302e-01</leafValues></_>
    <_>
      <internalNodes>
        0 -1 7635 268439681 -1056833520 65800 -805306367 -2147450749
        1082654858 -2097047472 1071874282</internalNodes>
      <leafValues>
        -7.8573942184448242e-01 3.5574533045291901e-02</leafValues></_>
    <_>
      <internalNodes>
        0 -1 5792 -1040712442 -415334468 -1090584583 -1418067996
        -16856233 -1220673537 -1259045482 -714186780</internalNodes>
      <leafValues>
        -4.1279897093772888e-02 7.2620230913162231e-01</leafValues></_>
    <_>
      <internalNodes>
        0 -1 8188 -2139077888 -2139029502 -2147483504 -1048575996
        -1071611708 -1879015294 -2139062120 1889648811</internalNodes>
      <leafValues>
        -8.1908780336380005e-01 2.8815405443310738e-02</leafValues></_>
    <_>
      <internalNodes>
        0 -1 6434 -285212792 -1114114 -66 -169869575 -98338 -1620574386
        -65573 -7866377</internalNodes>
      <leafValues>
        -3.0614862218499184e-02 8.4917944669723511e-01</leafValues></_>
    <_>
      <internalNodes>
        0 -1 2447 1359118592 1103364371 285212801 379588866 655522
        -1593704432 -1878979800 1537762112</internalNodes>
      <leafValues>
        -7.2975182533264160e-01 2.9272064566612244e-02</leafValues></_>
    <_>
      <internalNodes>
        0 -1 6202 -306419779 1039794172 -214349 -1931477561 -58728750
        931069951 1952366158 -296403098</internalNodes>
      <leafValues>
        -2.6502195745706558e-02 7.9478704929351807e-01</leafValues></_>
    <_>
      <internalNodes>
        0 -1 456 -1727971320 -1052729086 1073750016 -264241152
        -1073706742 2 128 1933181057</internalNodes>
      <leafValues>
        -7.3527765274047852e-01 2.0646870136260986e-02</leafValues></_>
    <_>
      <internalNodes>
        0 -1 4800 -16901818 -67387530 -268500996 -402653185 -8193 -1
        -4100 -16777225</internalNodes>
      <leafValues>
        -2.3918967694044113e-02 7.9330003261566162e-01</leafValues></_>
    <_>
      <internalNodes>
        0 -1 4768 -268501379 -17891329 -16908299 -131073 -35 -8519809 -1
        -553713811</internalNodes>
      <leafValues>
        -1.8080083653330803e-02 8.4527939558029175e-01</leafValues></_>
    <_>
      <internalNodes>
        0 -1 8369 16875651 8912897 80 554176772 57888 -1844969472
        -2146959180 1673703435</internalNodes>
      <leafValues>
        -7.9120039939880371e-01 2.1959668025374413e-02</leafValues></_>
    <_>
      <internalNodes>
        0 -1 2904 2129649377 -89260043 -4423 -1174831882 -134221994
        -276824105 -655538 -1485340817</internalNodes>
      <leafValues>
        -1.7937194555997849e-02 8.5996943712234497e-01</leafValues></_>
    <_>
      <internalNodes>
        0 -1 728 -1878941376 -2097151998 2 -1324349424 4248 -1073209344
        138 2064482346</internalNodes>
      <leafValues>
        -7.7941370010375977e-01 1.5272597782313824e-02</leafValues></_>
    <_>
      <internalNodes>
        0 -1 663 -285212994 -269549569 -23 -1245186 -11 -16842882
        -536870956 -655373</internalNodes>
      <leafValues>
        -2.0235456526279449e-02 7.1414595842361450e-01</leafValues></_>
    <_>
      <internalNodes>
        0 -1 4701 1102298 -1845360640 4144 1074364417 1082130598
        -1608515576 -2147284950 1400932554</internalNodes>
      <leafValues>
        -7.8471469879150391e-01 1.3380507938563824e-02</leafValues></_>
    <_>
      <internalNodes>
        0 -1 1884 -17531235 -1347485700 -69645 -555286800 -33100
        -268501002 -13238403 -69730348</internalNodes>
      <leafValues>
        -1.0861285962164402e-02 8.1056445837020874e-01</leafValues></_>
    <_>
      <internalNodes>
        0 -1 4627 269721878 1619198466 -2130706176 831029249 36880
        536870946 17006592 1387932291</internalNodes>
      <leafValues>
        -7.8623461723327637e-01 8.0616120249032974e-03</leafValues></_>
    <_>
      <internalNodes>
        0 -1 3375 1055567357 799440875 -66075 -1166147736 2130575216 -1
        1022687190 -1217331233</internalNodes>
      <leafValues>
        -6.8903551436960697e-03 8.6381262540817261e-01</leafValues></_>
    <_>
      <internalNodes>
        0 -1 5700 98560 1409286145 37125 -1023410111 2192 1107361920 139
        411697280</internalNodes>
      <leafValues>
        -8.6498779058456421e-01 5.4085319861769676e-03</leafValues></_>
    <_>
      <internalNodes>
        0 -1 828 2130636724 -1359020033 -268573341 -151584770 -32816 -1
        -33554491 -134283273</internalNodes>
      <leafValues>
        -6.7218309268355370e-03 8.5282683372497559e-01</leafValues></_>
    <_>
      <internalNodes>
        0 -1 3220 -1073528496 -763297792 16777224 -1858056191 49290
        -1476395008 -1073735544 1808515209</internalNodes>
      <leafValues>
        -8.9445441961288452e-01 4.2041470296680927e-03</leafValues></_>
    <_>
      <internalNodes>
        0 -1 48 -1090556378 -1073741825 -1 -1 -32801 2147483647 -2 -1</internalNodes>
      <leafValues>
        -7.8073004260659218e-03 8.8639169931411743e-01</leafValues></_>
    <_>
      <internalNodes>
        0 -1 7150 -1861517102 1073741825 1048576 -787415040 -2147442616
        -1040187392 33162 1661468672</internalNodes>
      <leafValues>
        -8.7274116277694702e-01 5.2181193605065346e-03</leafValues></_>
    <_>
      <internalNodes>
        0 -1 7579 -4510 -2162705 -285313396 -427884558 2147399500
        -1048577 -537428191 -1250492444</internalNodes>
      <leafValues>
        -7.4952486902475357e-03 8.4793412685394287e-01</leafValues></_>
    <_>
      <internalNodes>
        0 -1 1509 -1005403945 1359004160 4194371 1371734018 32768
        -2146426880 -1073708927 1797070850</internalNodes>
      <leafValues>
        -9.4929993152618408e-01 3.0956720001995564e-03</leafValues></_>
    <_>
      <internalNodes>
        0 -1 5265 -1342931488 -1393131523 2147418103 214728697 -8896522
        -1 -537894977 -1091174412</internalNodes>
      <leafValues>
        -2.5406673084944487e-03 9.3277233839035034e-01</leafValues></_>
    <_>
      <internalNodes>
        0 -1 4844 -1023295481 286326787 1 1476591616 131082 0 558039554
        567091363</internalNodes>
      <leafValues>
        -9.1188585758209229e-01 3.0711411964148283e-03</leafValues></_>
    <_>
      <internalNodes>
        0 -1 2646 -268501138 -65554 -4 -285278210 -9 -16842761 -652
        -17432610</internalNodes>
      <leafValues>
        -4.9453750252723694e-03 8.8550573587417603e-01</leafValues></_>
    <_>
      <internalNodes>
        0 -1 4303 21 1075380225 -2147483647 1360068609 2052 524288
        16908954 420085771</internalNodes>
      <leafValues>
        -9.2533951997756958e-01 2.4405554868280888e-03</leafValues></_>
    <_>
      <internalNodes>
        0 -1 5763 -1129550740 1056899068 -65548 2140995454 -2196111 -2
        -143360012 -587923596</internalNodes>
      <leafValues>
        -2.9839524067938328e-03 9.6210819482803345e-01</leafValues></_>
    <_>
      <internalNodes>
        0 -1 6511 -1855508017 -1073545213 16777219 1627717635 33410
        524288 34275331 1366262659</internalNodes>
      <leafValues>
        -1. 5.7891436154022813e-04</leafValues></_>
    <_>
      <internalNodes>
        0 -1 111 -1359151456 -1900085250 -50397610 216989684 -285278211
        -268435457 -33156 -21200964</internalNodes>
      <leafValues>
        -8.5369386943057179e-04 9.9228000640869141e-01</leafValues></_>
    <_>
      <internalNodes>
        0 -1 3885 -804220717 1392574465 1073808403 -746586109 1073746579
        -1862139896 67113515 1879212298</internalNodes>
      <leafValues>
        -1. 9.4343163073062897e-04</leafValues></_>
    <_>
      <internalNodes>
        0 -1 4833 131072 0 0 -2147483646 0 0 0 -2147450880</internalNodes>
      <leafValues>
        -1.2792870402336121e-03 9.8313605785369873e-01</leafValues></_>
    <_>
      <internalNodes>
        0 -1 2284 1363514359 -251592697 17367041 625021187 813826050
        -2147483648 163900 2106263563</internalNodes>
      <leafValues>
        -1. 7.0139818126335740e-04</leafValues></_>
    <_>
      <internalNodes>
        0 -1 7383 2146377556 -16842753 -65540 -25296898 -163844 -1
        -196620 -12</internalNodes>
      <leafValues>
        -1.1515417136251926e-03 9.8947948217391968e-01</leafValues></_>
    <_>
      <internalNodes>
        0 -1 7651 -796145521 65536 0 65537 65539 0 -2147287013 17104903</internalNodes>
      <leafValues>
        -1. 5.9678987599909306e-04</leafValues></_>
    <_>
      <internalNodes>
        0 -1 3819 0 0 0 0 0 0 0 -2147483648</internalNodes>
      <leafValues>
        -6.8296259269118309e-04 9.8981106281280518e-01</leafValues></_>
    <_>
      <internalNodes>
        0 -1 62 -1055796233 1359155203 106775 -2011758591 34955
        203423744 176271 839483946</internalNodes>
      <leafValues>
        -1. -1.0627260182971554e-10</leafValues></_>
    <_>
      <internalNodes>
        0 -1 56 0 0 0 0 0 0 0 -2147483648</internalNodes>
      <leafValues>
        -3.5498206852935255e-04 9.8942786455154419e-01</leafValues></_>
    <_>
      <internalNodes>
        0 -1 56 1375785177 285212672 8389077 286261248 192 -2013263744
        134217858 134217856</internalNodes>
      <leafValues>
        -1. 6.5236457157880068e-04</leafValues></_>
    <_>
      <internalNodes>
        0 -1 2698 -1665630596 -1095827460 -1107361795 -50528260
        -16842762 -1 -16941064 -229508</internalNodes>
      <leafValues>
        -1.5726344427093863e-03 1.</leafValues></_>
    <_>
      <internalNodes>
        0 -1 1162 1359429635 352387073 285278473 286326809 134217875
        16777216 18915370 990609427</internalNodes>
      <leafValues>
        -1. 2.1448881307151169e-04</leafValues></_>
    <_>
      <internalNodes>
        0 -1 1316 16 0 0 0 0 0 0 -2147483648</internalNodes>
      <leafValues>
        -7.2586798341944814e-04 1.</leafValues></_>
    <_>
      <internalNodes>
        0 -1 1957 -2147401701 285278545 65553 -1862205309 32897
        -2145386366 1082138763 531202111</internalNodes>
      <leafValues>
        -1. 5.7912158081308007e-04</leafValues></_>
    <_>
      <internalNodes>
        0 -1 889 0 0 0 0 0 0 0 -2130706432</internalNodes>
      <leafValues>
        -6.6910352325066924e-04 1.</leafValues></_>
    <_>
      <internalNodes>
        0 -1 791 1100460143 1095958531 25755655 -1861025789 -2147483605
        209715202 729151 2076805167</internalNodes>
      <leafValues>
        -1. 8.4902363596484065e-05</leafValues></_>
    <_>
      <internalNodes>
        0 -1 58 0 0 0 0 0 0 0 -2147483648</internalNodes>
      <leafValues>
        -8.7951972091104835e-05 1.</leafValues></_>
    <_>
      <internalNodes>
        0 -1 58 -653143553 1342242833 285278621 -1727725568 2185
        402653184 32904 958922752</internalNodes>
      <leafValues>
        -1. -1.2751435920620863e-13</leafValues></_>
    <_>
      <internalNodes>
        0 -1 7382 0 0 0 0 0 0 0 -2147483648</internalNodes>
      <leafValues>
        -8.6646585259586573e-05 1.</leafValues></_>
    <_>
      <internalNodes>
        0 -1 7382 -800996353 65536 1073741827 268501003 -1073102641 0
        1278115 1653838351</internalNodes>
      <leafValues>
        -1. 1.1648942745523527e-04</leafValues></_>
    <_>
      <internalNodes>
        0 -1 58 0 0 0 0 0 0 0 -2147483648</internalNodes>
      <leafValues>
        -2.9908822034485638e-04 1.</leafValues></_>
    <_>
      <internalNodes>
        0 -1 58 -653143553 -787415023 352387485 -1727721472 2235
        402653184 32968 958922752</internalNodes>
      <leafValues>
        -1. -8.9118452201164544e-12</leafValues></_>
    <_>
      <internalNodes>
        0 -1 58 0 0 0 0 0 0 0 -2147483648</internalNodes>
      <leafValues>
        -4.9796396118986092e-14 1.</leafValues></_>
    <_>
      <internalNodes>
        0 -1 58 -653143553 -787415023 352387485 -1727721472 35003
        402653184 32968 958922752</internalNodes>
      <leafValues>
        -1. 1.0663236363095711e-15</leafValues></_>
    <_>
      <internalNodes>
        0 -1 58 0 0 0 0 0 0 0 -2147483648</internalNodes>
      <leafValues>
        -7.0584305815555443e-14 1.</leafValues></_>
    <_>
      <internalNodes>
        0 -1 58 -653143553 -787415023 352387485 -1727721472 35003
        402653184 32968 958922752</internalNodes>
      <leafValues>
        -1. -1.4417364735874391e-14</leafValues></_>
    <_>
      <internalNodes>
        0 -1 58 -285282720 -1342177281 -2 -268435457 -129 -1 -129 -1</internalNodes>
      <leafValues>
        1.0576157056249938e-13 1.</leafValues></_>
    <_>
      <internalNodes>
        0 -1 58 285282719 1342177280 1 268435456 128 0 128 0</internalNodes>
      <leafValues>
        -1. -5.6245254357852395e-14</leafValues></_>
    <_>
      <internalNodes>
        0 -1 58 -285282720 -1342177281 -2 -268435457 -129 -1 -129 -1</internalNodes>
      <leafValues>
        8.4951685443146463e-14 1.</leafValues></_>
    <_>
      <internalNodes>
        0 -1 58 285282719 1342177280 1 268435456 128 0 128 0</internalNodes>
      <leafValues>
        -1. -5.7462003634056041e-14</leafValues></_>
    <_>
      <internalNodes>
        0 -1 58 -285282720 -1342177281 -2 -268435457 -129 -1 -129 -1</internalNodes>
      <leafValues>
        2.9758916956102582e-14 1.</leafValues></_>
    <_>
      <internalNodes>
        0 -1 58 285282719 1342177280 1 268435456 128 0 128 0</internalNodes>
      <leafValues>
        -1. -4.2407585418551691e-14</leafValues></_>
    <_>
      <internalNodes>
        0 -1 58 -285282720 -1342177281 -2 -268435457 -129 -1 -129 -1</internalNodes>
      <leafValues>
        3.3523463410616017e-14 1.</leafValues></_>
    <_>
      <internalNodes>
        0 -1 58 285282719 1342177280 1 268435456 128 0 128 0</internalNodes>
      <leafValues>
        -1. -4.0387652396707205e-14</leafValues></_>
    <_>
      <internalNodes>
        0 -1 58 -285282720 -1342177281 -2 -268435457 -129 -1 -129 -1</internalNodes>
      <leafValues>
        8.9038361915632497e-14 1.</leafValues></_>
    <_>
      <internalNodes>
        0 -1 58 285282719 1342177280 1 268435456 128 0 128 0</internalNodes>
      <leafValues>
        -1. -5.7427722516614765e-14</leafValues></_>
    <_>
      <internalNodes>
        0 -1 58 -285282720 -1342177281 -2 -268435457 -129 -1 -129 -1</internalNodes>
      <leafValues>
        2.8594971713830769e-14 1.</leafValues></_>
    <_>
      <internalNodes>
        0 -1 58 285282719 1342177280 1 268435456 128 0 128 0</internalNodes>
      <leafValues>
        -1. -4.2583585312463978e-14</leafValues></_>
    <_>
      <internalNodes>
        0 -1 58 -285282720 -1342177281 -2 -268435457 -129 -1 -129 -1</internalNodes>
      <leafValues>
        3.2131645976742063e-14 1.</leafValues></_></weakClassifiers></stage18>
</opencv_storage>
