<?xml version="1.0"?>
<opencv_storage>
<stage23>
  <maxWeakCount>100</maxWeakCount>
  <stageThreshold>-2.9911386966705322e+00</stageThreshold>
  <weakClassifiers>
    <_>
      <internalNodes>
        0 -1 117 -2079849984 0 0 4096 1074266112 2 67117056 -2079850477</internalNodes>
      <leafValues>
        -9.8817217350006104e-01 8.5316532850265503e-01</leafValues></_>
    <_>
      <internalNodes>
        0 -1 189 -2147450300 -2147471360 0 -1789386752 50462722 131072
        4292609 -233151590</internalNodes>
      <leafValues>
        -8.7181901931762695e-01 5.2294319868087769e-01</leafValues></_>
    <_>
      <internalNodes>
        0 -1 8379 -1056828812 1074331650 65536 -2147450749 -2147352423 2
        134381704 -693919613</internalNodes>
      <leafValues>
        -5.7263487577438354e-01 3.6149373650550842e-01</leafValues></_>
    <_>
      <internalNodes>
        0 -1 6307 -775506513 -587004798 -2030162318 -716209024
        -1356169064 -855552800 33718666 -1056713585</internalNodes>
      <leafValues>
        -2.2812625765800476e-01 7.6292657852172852e-01</leafValues></_>
    <_>
      <internalNodes>
        0 -1 728 -746549104 -801111935 536871184 1561919507 1115718851
        -2130697214 -1702852467 2142749098</internalNodes>
      <leafValues>
        -5.1582580804824829e-01 2.8667098283767700e-01</leafValues></_>
    <_>
      <internalNodes>
        0 -1 6132 -1341243312 -2106588156 131345 -1606024953 -267877632
        -896532480 -1065315456 -1405042512</internalNodes>
      <leafValues>
        -3.7862825393676758e-01 4.2652806639671326e-01</leafValues></_>
    <_>
      <internalNodes>
        0 -1 16 -534609854 -1022361599 16656 352849920 -939352038
        -1735917552 -1610563432 948011649</internalNodes>
      <leafValues>
        -8.1124615669250488e-01 1.6114655137062073e-01</leafValues></_>
    <_>
      <internalNodes>
        0 -1 4660 -721028077 -114680816 -329767831 -1518271210
        -465957680 -1476334528 -1608838973 -1862036461</internalNodes>
      <leafValues>
        -1.9035078585147858e-01 7.0517462491989136e-01</leafValues></_>
    <_>
      <internalNodes>
        0 -1 2661 -2147315700 1342177280 269496336 -779616240 65728
        -2147483648 -2147483504 999997576</internalNodes>
      <leafValues>
        -6.5446835756301880e-01 1.4310589432716370e-01</leafValues></_>
    <_>
      <internalNodes>
        0 -1 6060 -1934472175 -937001440 788250596 -1844851676
        1290620037 -1401127148 477549759 -1278276054</internalNodes>
      <leafValues>
        -1.5121413767337799e-01 7.4815410375595093e-01</leafValues></_>
    <_>
      <internalNodes>
        0 -1 2735 -774667273 278013750 -1099010069 -1184547023
        1949621466 -318963730 -160293769 -762348429</internalNodes>
      <leafValues>
        -1.0063073784112930e-01 7.5350314378738403e-01</leafValues></_>
    <_>
      <internalNodes>
        0 -1 8012 -1727782912 -1602191232 -2147467184 -586416101
        -1577054180 -2147434496 -805140311 2072101546</internalNodes>
      <leafValues>
        -8.3473217487335205e-01 1.2269037216901779e-01</leafValues></_>
    <_>
      <internalNodes>
        0 -1 4429 1400763129 -1189019788 749045523 688422519 125736648
        -8421638 -1405087845 -1007353896</internalNodes>
      <leafValues>
        -1.3520208001136780e-01 6.8059873580932617e-01</leafValues></_>
    <_>
      <internalNodes>
        0 -1 64 671228354 1276788864 268435712 -787480573 -1878916991
        -1207959552 -343928318 2059125635</internalNodes>
      <leafValues>
        -7.6803100109100342e-01 1.1548632383346558e-01</leafValues></_>
    <_>
      <internalNodes>
        0 -1 6991 2114993919 -1649311926 -118758723 1578597551
        -714266934 -635404730 -536345190 -108582961</internalNodes>
      <leafValues>
        -1.2230037152767181e-01 7.2140502929687500e-01</leafValues></_>
    <_>
      <internalNodes>
        0 -1 2119 -250809967 1073872900 -1048051704 -1539276495
        402653408 9043978 975260220 2056131107</internalNodes>
      <leafValues>
        -4.2776504158973694e-01 1.7260263860225677e-01</leafValues></_>
    <_>
      <internalNodes>
        0 -1 5228 -269484294 -269549571 -25296926 2129526509 -16777240
        -304742571 -731512868 -3538971</internalNodes>
      <leafValues>
        -1.5911825001239777e-01 5.0903415679931641e-01</leafValues></_>
    <_>
      <internalNodes>
        0 -1 8186 1364250712 268959744 16648 -1056964606 -1031790568
        -2147089918 -267878263 2140833928</internalNodes>
      <leafValues>
        -6.5771955251693726e-01 1.1249049752950668e-01</leafValues></_>
    <_>
      <internalNodes>
        0 -1 5633 -64659472 -307007574 -1224803343 -1817072414
        -134427473 -2067497152 909343890 -1971235685</internalNodes>
      <leafValues>
        -1.1566065251827240e-01 7.1210813522338867e-01</leafValues></_>
    <_>
      <internalNodes>
        0 -1 5016 -267046664 -2078924774 -1862004672 -972746654
        1527832640 273154048 -1610595760 1090953240</internalNodes>
      <leafValues>
        -6.4389240741729736e-01 9.6502326428890228e-02</leafValues></_>
    <_>
      <internalNodes>
        0 -1 5457 -6103075 1835761132 1996423153 -782414456 1588610196
        -1343029660 1412619722 -220265465</internalNodes>
      <leafValues>
        -9.2508658766746521e-02 7.3036903142929077e-01</leafValues></_>
    <_>
      <internalNodes>
        0 -1 2048 -1597931486 -1995440111 1350572373 2013266256
        402661403 -670924800 -1862237552 1376256385</internalNodes>
      <leafValues>
        -7.7111744880676270e-01 7.6388753950595856e-02</leafValues></_>
    <_>
      <internalNodes>
        0 -1 6480 -73416464 -679807114 -755789 -1401225611 -1507482593
        -134283265 -1034618887 -1233207410</internalNodes>
      <leafValues>
        -1.0285054892301559e-01 6.1236637830734253e-01</leafValues></_>
    <_>
      <internalNodes>
        0 -1 616 -535592928 1614807298 131072 -289275900 139288
        -2147483599 -1609531263 1142671370</internalNodes>
      <leafValues>
        -7.5559216737747192e-01 7.3841243982315063e-02</leafValues></_>
    <_>
      <internalNodes>
        0 -1 3761 -1878703992 1395724288 33040 -250474473 16826504
        -1878949880 -804634456 -542457720</internalNodes>
      <leafValues>
        -8.7706826627254486e-02 6.6155660152435303e-01</leafValues></_>
    <_>
      <internalNodes>
        0 -1 8390 -1065139108 1610743810 -2147467199 -2147418112
        -536182592 -2147483646 32928 1087357568</internalNodes>
      <leafValues>
        -7.3950761556625366e-01 7.3611125349998474e-02</leafValues></_>
    <_>
      <internalNodes>
        0 -1 7816 -1398018328 -999456860 -385 -1540423697 -54593538
        -1074364418 1560063932 -13897861</internalNodes>
      <leafValues>
        -7.7147267758846283e-02 7.4213379621505737e-01</leafValues></_>
    <_>
      <internalNodes>
        0 -1 7081 -1072263108 -1069514688 -2147483504 -805289852
        268468352 -1609564031 143802758 2056126680</internalNodes>
      <leafValues>
        -6.6912579536437988e-01 6.9140881299972534e-02</leafValues></_>
    <_>
      <internalNodes>
        0 -1 6219 -287410746 -239370410 -1493504142 -171348236
        -673190716 -407994529 -723069026 -247228661</internalNodes>
      <leafValues>
        -6.9934412837028503e-02 6.9722950458526611e-01</leafValues></_>
    <_>
      <internalNodes>
        0 -1 18 -1488453632 -1055600384 1073874032 -1878523648
        -1870364592 -2130444160 -260013886 957603848</internalNodes>
      <leafValues>
        -7.6151740550994873e-01 5.2031677216291428e-02</leafValues></_>
    <_>
      <internalNodes>
        0 -1 2151 1383070333 -940376214 2063134181 1705246298 -285286948
        1340604415 -587794332 -906429089</internalNodes>
      <leafValues>
        -7.1886733174324036e-02 6.4603406190872192e-01</leafValues></_>
    <_>
      <internalNodes>
        0 -1 2495 219164894 -2012741472 268468358 272699392 -1073605886
        1879048320 -1996291824 1125151249</internalNodes>
      <leafValues>
        -6.8594276905059814e-01 6.0846477746963501e-02</leafValues></_>
    <_>
      <internalNodes>
        0 -1 5712 -194781695 -167841922 -285278345 -25198618 -268966438
        -545259521 -536870914 -1275658241</internalNodes>
      <leafValues>
        -4.7701090574264526e-02 7.9556733369827271e-01</leafValues></_>
    <_>
      <internalNodes>
        0 -1 7984 2147482847 1308557164 -17105238 -279 2139095038
        -1179687 1068905935 -1892685829</internalNodes>
      <leafValues>
        -3.1184660270810127e-02 8.8878387212753296e-01</leafValues></_>
    <_>
      <internalNodes>
        0 -1 8459 -1073725440 -1044315648 1342193688 1342914562
        134791460 -2147483640 142835840 2076706956</internalNodes>
      <leafValues>
        -8.6339861154556274e-01 4.8030767589807510e-02</leafValues></_>
    <_>
      <internalNodes>
        0 -1 5143 2029829848 2041044195 -1091568016 -1212181256
        -1245945866 -833749164 1012645359 -1773521419</internalNodes>
      <leafValues>
        -5.1127828657627106e-02 6.6726052761077881e-01</leafValues></_>
    <_>
      <internalNodes>
        0 -1 4849 1593494 269484048 163921 -1065222144 -1073469255
        294914 -2146949094 596189856</internalNodes>
      <leafValues>
        -6.7981314659118652e-01 5.0532635301351547e-02</leafValues></_>
    <_>
      <internalNodes>
        0 -1 2745 -672549133 536739838 -17830151 -1158217858 -151163544
        -1107296259 -184584291 -1627455618</internalNodes>
      <leafValues>
        -3.4964159131050110e-02 7.2064548730850220e-01</leafValues></_>
    <_>
      <internalNodes>
        0 -1 840 -1031515864 62033924 1344405520 35787009 571547666 0
        -1834993639 820584611</internalNodes>
      <leafValues>
        -6.8196213245391846e-01 3.8612395524978638e-02</leafValues></_>
    <_>
      <internalNodes>
        0 -1 6434 -285282501 -273744093 -198 -43253800 2147481542
        -276824196 -136380933 -539492355</internalNodes>
      <leafValues>
        -3.2608158886432648e-02 7.6786619424819946e-01</leafValues></_>
    <_>
      <internalNodes>
        0 -1 4252 -274061742 -59015175 -285671434 2137780090 -1074045060
        -805306505 -1107843086 -4464705</internalNodes>
      <leafValues>
        -2.2814812138676643e-02 8.1824445724487305e-01</leafValues></_>
    <_>
      <internalNodes>
        0 -1 8327 -2145808305 151257088 16842832 -2129182719 -1476358110
        -1879015412 -2146860924 789616648</internalNodes>
      <leafValues>
        -7.5576126575469971e-01 3.6505609750747681e-02</leafValues></_>
    <_>
      <internalNodes>
        0 -1 6861 -570829585 1055522804 -196889 -285868162 2087550334
        1879048183 -199098905 -176349708</internalNodes>
      <leafValues>
        -3.0716141685843468e-02 7.0447462797164917e-01</leafValues></_>
    <_>
      <internalNodes>
        0 -1 2936 -1803189320 1360527491 67108867 -1811668478 810037544
        -2012544384 -1567424479 1451231794</internalNodes>
      <leafValues>
        -6.5324151515960693e-01 3.1502701342105865e-02</leafValues></_>
    <_>
      <internalNodes>
        0 -1 7521 1072660142 -9437190 -4108 889126895 -11 -679481473
        1693900494 -1042498091</internalNodes>
      <leafValues>
        -2.7376135811209679e-02 6.6120439767837524e-01</leafValues></_>
    <_>
      <internalNodes>
        0 -1 496 -1056731134 -1069547520 -1073692656 -633077756
        -2147221328 131072 -2147450880 1998274571</internalNodes>
      <leafValues>
        -7.1756255626678467e-01 2.2540954872965813e-02</leafValues></_>
    <_>
      <internalNodes>
        0 -1 2986 -1930975006 -639123462 -17138061 -169755715 1862135550
        -1628504209 -1115793433 -1757735429</internalNodes>
      <leafValues>
        -2.0227815955877304e-02 7.6309818029403687e-01</leafValues></_>
    <_>
      <internalNodes>
        0 -1 3384 1343242978 -1064951792 9568537 339804420 1656816256
        -2145255296 -2122284776 882512841</internalNodes>
      <leafValues>
        -6.8443912267684937e-01 2.3636827245354652e-02</leafValues></_>
    <_>
      <internalNodes>
        0 -1 6080 -37917098 2130444287 -16777363 -33685505 -25174531
        2147483647 -16842754 -1073743873</internalNodes>
      <leafValues>
        -1.7909809947013855e-02 7.4213755130767822e-01</leafValues></_>
    <_>
      <internalNodes>
        0 -1 8370 -1073811522 -269746194 -65561 -1075118082 -8197
        -536870929 -33 -301998085</internalNodes>
      <leafValues>
        -1.9392115995287895e-02 8.6412131786346436e-01</leafValues></_>
    <_>
      <internalNodes>
        0 -1 5305 -2147483518 1276739584 1074794888 -1878999017 521
        -2013265792 -2139055471 159907976</internalNodes>
      <leafValues>
        -8.6153733730316162e-01 2.1294727921485901e-02</leafValues></_>
    <_>
      <internalNodes>
        0 -1 4415 -9744726 -67305614 -657433 -1116340368 -151224844
        2147287039 -1124845702 -1884588682</internalNodes>
      <leafValues>
        -2.0730618387460709e-02 7.0491123199462891e-01</leafValues></_>
    <_>
      <internalNodes>
        0 -1 8461 1090684307 -1744797680 16924672 -1610547198
        -2147481456 -2147483648 268601376 1068048520</internalNodes>
      <leafValues>
        -8.6424094438552856e-01 1.1845668777823448e-02</leafValues></_>
    <_>
      <internalNodes>
        0 -1 3714 -285311115 -65556 -17826053 2146435049 -131214
        -16842755 -38 -818216972</internalNodes>
      <leafValues>
        -1.9816262647509575e-02 7.2217720746994019e-01</leafValues></_>
    <_>
      <internalNodes>
        0 -1 3720 1367347616 1494286466 329 416350337 163840 838877184
        8347 1619984939</internalNodes>
      <leafValues>
        -6.6072565317153931e-01 1.8054952844977379e-02</leafValues></_>
    <_>
      <internalNodes>
        0 -1 4192 -1360392427 1857843190 -321 -1636597774 2130673013
        -65537 1719596957 -1837712139</internalNodes>
      <leafValues>
        -1.1938213370740414e-02 7.1025532484054565e-01</leafValues></_>
    <_>
      <internalNodes>
        0 -1 1573 1371820213 200727 16909315 583663873 -1610546672
        604176512 -1340022647 1820917779</internalNodes>
      <leafValues>
        -6.6205829381942749e-01 1.2332797050476074e-02</leafValues></_>
    <_>
      <internalNodes>
        0 -1 2899 1073594108 2070871800 -285344262 -1610678303
        2147442534 -268435467 -622863 -1931510650</internalNodes>
      <leafValues>
        -8.7395859882235527e-03 7.3212814331054688e-01</leafValues></_>
    <_>
      <internalNodes>
        0 -1 1423 51171352 1107329025 1310875 -1727823864 130 0
        -2122317692 135495680</internalNodes>
      <leafValues>
        -8.4133255481719971e-01 4.8211403191089630e-03</leafValues></_>
    <_>
      <internalNodes>
        0 -1 6874 -167957655 1006632958 -1073807368 2147450864
        2147483103 -129 -16779403 -327746268</internalNodes>
      <leafValues>
        -5.3837695159018040e-03 8.3924907445907593e-01</leafValues></_>
    <_>
      <internalNodes>
        0 -1 5099 -787314352 -1073741800 67108882 -2139058112 32834
        2162690 101010 539957355</internalNodes>
      <leafValues>
        -8.0859810113906860e-01 6.9667198695242405e-03</leafValues></_>
    <_>
      <internalNodes>
        0 -1 4177 2092674794 -335872002 -590097 -1175456286 -155844737
        -16777219 1065350472 -2145190827</internalNodes>
      <leafValues>
        -6.0595520772039890e-03 8.6688452959060669e-01</leafValues></_>
    <_>
      <internalNodes>
        0 -1 6910 -2130439943 393216 1090585102 198659 1074151496
        1090519040 205699 419758146</internalNodes>
      <leafValues>
        -7.8323656320571899e-01 4.9573960714042187e-03</leafValues></_>
    <_>
      <internalNodes>
        0 -1 7542 2146336686 -18 -8388881 -289472514 -131134 -3 -8978556
        -295600271</internalNodes>
      <leafValues>
        -5.1792212761938572e-03 7.7946817874908447e-01</leafValues></_>
    <_>
      <internalNodes>
        0 -1 7037 -261947242 -2130640748 16842882 1229029376 -2146893816
        -2147483648 -1610612726 1354907795</internalNodes>
      <leafValues>
        -8.5886079072952271e-01 2.8573945164680481e-03</leafValues></_>
    <_>
      <internalNodes>
        0 -1 7037 1608349409 -1359020182 -16777477 -25231362 -196620
        2145386495 -134351403 -1657929892</internalNodes>
      <leafValues>
        -4.5410580933094025e-03 8.3242017030715942e-01</leafValues></_>
    <_>
      <internalNodes>
        0 -1 2934 71438387 1074987010 140 -499447551 -2146664432
        436275200 16814802 2060255754</internalNodes>
      <leafValues>
        -8.7428629398345947e-01 3.5880717914551497e-03</leafValues></_>
    <_>
      <internalNodes>
        0 -1 48 -301994230 -285212673 -10 -1 -137 -1 -2 -1</internalNodes>
      <leafValues>
        -8.5578225553035736e-03 7.0184117555618286e-01</leafValues></_>
    <_>
      <internalNodes>
        0 -1 4792 -188180350 -738127872 9 -671023101 57464 -1333788672
        -2147483517 940081280</internalNodes>
      <leafValues>
        -8.8301336765289307e-01 4.3277069926261902e-03</leafValues></_>
    <_>
      <internalNodes>
        0 -1 5372 2091302040 -540082178 -98820 -285343748 -33442 -32769
        1031766006 -2066645148</internalNodes>
      <leafValues>
        -3.4246416762471199e-03 8.3643633127212524e-01</leafValues></_>
    <_>
      <internalNodes>
        0 -1 5432 285250258 286261397 69645 1879113729 8422017 16777216
        -1845354486 1476987010</internalNodes>
      <leafValues>
        -8.9861392974853516e-01 3.5427324473857880e-03</leafValues></_>
    <_>
      <internalNodes>
        0 -1 4305 -269484164 -65540 -16843012 -16842770 -36 -134217732
        -548 -16842772</internalNodes>
      <leafValues>
        -4.2359298095107079e-03 8.1186604499816895e-01</leafValues></_>
    <_>
      <internalNodes>
        0 -1 8369 1073840515 1073807616 256 -1065353199 24760
        -2147450872 65770 562659530</internalNodes>
      <leafValues>
        -9.0629559755325317e-01 3.1166544649749994e-03</leafValues></_>
    <_>
      <internalNodes>
        0 -1 5828 -21070240 1609498620 -1073741866 -1369505796
        2147483516 -1 -32779 -1421183107</internalNodes>
      <leafValues>
        -4.9604712985455990e-03 8.9410823583602905e-01</leafValues></_>
    <_>
      <internalNodes>
        0 -1 5877 4313458 1157840896 16 1410531331 -2147450717 73856
        1073744073 1235468971</internalNodes>
      <leafValues>
        -8.9238810539245605e-01 3.3380601089447737e-03</leafValues></_>
    <_>
      <internalNodes>
        0 -1 5877 -25264416 -1099104258 -9 -1074855940 -32940 -131075
        -43017 -1538491024</internalNodes>
      <leafValues>
        -2.4658266920596361e-03 9.5264035463333130e-01</leafValues></_>
    <_>
      <internalNodes>
        0 -1 6178 -653532773 268632073 16842753 -1870594045 -2147448945
        0 -2147254141 1594785803</internalNodes>
      <leafValues>
        -9.0673542022705078e-01 2.1873801015317440e-03</leafValues></_>
    <_>
      <internalNodes>
        0 -1 7383 2147292992 -16842756 -65538 -16908291 -229388 -1
        -197252 -196620</internalNodes>
      <leafValues>
        -2.8452388942241669e-03 9.1641718149185181e-01</leafValues></_>
    <_>
      <internalNodes>
        0 -1 1057 270078227 1091633179 65536 454234401 134250683
        537395329 570568761 2072707211</internalNodes>
      <leafValues>
        -9.7581839561462402e-01 8.3321594865992665e-04</leafValues></_>
    <_>
      <internalNodes>
        0 -1 1057 -285806868 -1091633156 -129 -319881218 -16777380 -129
        2147352276 -1929576588</internalNodes>
      <leafValues>
        -7.6320755761116743e-04 9.6539282798767090e-01</leafValues></_>
    <_>
      <internalNodes>
        0 -1 168 285413653 1896022017 18939907 352518403 570425418
        536870913 553648139 2040725675</internalNodes>
      <leafValues>
        -9.5917963981628418e-01 1.3364189071580768e-03</leafValues></_>
    <_>
      <internalNodes>
        0 -1 1020 0 0 0 68157448 131080 0 0 -2147479552</internalNodes>
      <leafValues>
        -1.0132824536412954e-03 9.8204362392425537e-01</leafValues></_>
    <_>
      <internalNodes>
        0 -1 3391 -245927649 285278211 269680757 -644808551 42041499
        131074 -1610510085 1670316171</internalNodes>
      <leafValues>
        -9.8635613918304443e-01 7.4620754458010197e-04</leafValues></_>
    <_>
      <internalNodes>
        0 -1 5727 -329744524 -268500996 -65539 -16973828 -1075544228 -1
        -196644 -279642124</internalNodes>
      <leafValues>
        -2.4016715178731829e-04 9.9242961406707764e-01</leafValues></_>
    <_>
      <internalNodes>
        0 -1 174 1364562687 285294597 553783571 292093955 1155755 0
        196907 537461123</internalNodes>
      <leafValues>
        -9.8503637313842773e-01 7.1546144317835569e-04</leafValues></_>
    <_>
      <internalNodes>
        0 -1 52 262144 0 0 262144 0 0 134217728 -2147483648</internalNodes>
      <leafValues>
        -5.9419713215902448e-04 1.</leafValues></_>
    <_>
      <internalNodes>
        0 -1 52 -715664897 426049537 -452755065 -753072127 -2147450711 0
        -1969127253 286130178</internalNodes>
      <leafValues>
        -9.8787492513656616e-01 4.0085383807308972e-04</leafValues></_>
    <_>
      <internalNodes>
        0 -1 56 -2147483648 0 0 0 0 0 0 -2147483648</internalNodes>
      <leafValues>
        -1.3072092551738024e-03 9.6319854259490967e-01</leafValues></_>
    <_>
      <internalNodes>
        0 -1 2708 1493225977 -788529008 16777297 -1728053247 32953
        -2147483644 134250634 8388618</internalNodes>
      <leafValues>
        -9.6859163045883179e-01 9.0997799998149276e-04</leafValues></_>
    <_>
      <internalNodes>
        0 -1 2702 32768 65536 131072 0 0 0 0 -2147483648</internalNodes>
      <leafValues>
        -2.2778438869863749e-03 1.</leafValues></_>
    <_>
      <internalNodes>
        0 -1 1521 1392596821 1359478914 1359027533 -1627324341
        -2013265749 -1879048192 -2004877137 1527513226</internalNodes>
      <leafValues>
        -1. 3.7698535015806556e-04</leafValues></_>
    <_>
      <internalNodes>
        0 -1 2702 131072 0 -2147352576 201326592 0 0 -2147483648
        -2147483648</internalNodes>
      <leafValues>
        -6.1443605227395892e-04 1.</leafValues></_>
    <_>
      <internalNodes>
        0 -1 2702 2035282943 -1861025636 -1190688571 494997507
        -1979596628 276824064 -1970730805 1526890506</internalNodes>
      <leafValues>
        -1. 6.5542466472834349e-04</leafValues></_>
    <_>
      <internalNodes>
        0 -1 7383 0 0 0 0 0 0 0 -2147483648</internalNodes>
      <leafValues>
        -4.8051931662485003e-04 1.</leafValues></_>
    <_>
      <internalNodes>
        0 -1 7383 -2147225365 -2147221504 196611 65547 402882699 2
        196779 1351288971</internalNodes>
      <leafValues>
        -1. 1.1922694102395326e-04</leafValues></_>
    <_>
      <internalNodes>
        0 -1 58 0 0 0 0 0 0 0 -2147483648</internalNodes>
      <leafValues>
        -2.9757979791611433e-04 1.</leafValues></_>
    <_>
      <internalNodes>
        0 -1 58 1363760639 1360068625 490755551 -1861681151 -2147450231
        128 16793803 268435457</internalNodes>
      <leafValues>
        -1. -8.7635541184960530e-12</leafValues></_>
    <_>
      <internalNodes>
        0 -1 58 0 0 0 0 0 0 0 -2147483648</internalNodes>
      <leafValues>
        -3.0506162645906748e-14 1.</leafValues></_>
    <_>
      <internalNodes>
        0 -1 58 1364850175 1360068625 490755551 -1861681147 -2147450231
        128 16793835 276824065</internalNodes>
      <leafValues>
        -1. -3.3199107390058033e-14</leafValues></_>
    <_>
      <internalNodes>
        0 -1 58 0 0 0 0 0 0 0 -2147483648</internalNodes>
      <leafValues>
        -3.6979066456079707e-14 1.</leafValues></_></weakClassifiers></stage23>
</opencv_storage>
