<?xml version="1.0"?>
<opencv_storage>
<stage12>
  <maxWeakCount>100</maxWeakCount>
  <stageThreshold>-3.0129253864288330e+00</stageThreshold>
  <weakClassifiers>
    <_>
      <internalNodes>
        0 -1 60 -2147483648 2 0 0 0 0 0 -1988100095</internalNodes>
      <leafValues>
        -9.8839354515075684e-01 9.4704151153564453e-01</leafValues></_>
    <_>
      <internalNodes>
        0 -1 8019 269484032 -1879048183 0 65538 0 0 -2147467256
        -2147090432</internalNodes>
      <leafValues>
        -9.1563457250595093e-01 8.1825900077819824e-01</leafValues></_>
    <_>
      <internalNodes>
        0 -1 425 16908298 1073741856 0 -1876951040 0 65536 32898
        -1869348862</internalNodes>
      <leafValues>
        -6.6223007440567017e-01 6.5880203247070313e-01</leafValues></_>
    <_>
      <internalNodes>
        0 -1 3324 1391055426 -1072681184 551739416 268517024 1951712296
        97910623 -998998810 -2142935778</internalNodes>
      <leafValues>
        -3.2798260450363159e-01 6.9963252544403076e-01</leafValues></_>
    <_>
      <internalNodes>
        0 -1 7069 740428816 -2128072928 2062478450 -803113167 476480524
        -1945338017 82613378 -2122088318</internalNodes>
      <leafValues>
        -1.4790065586566925e-01 8.8608139753341675e-01</leafValues></_>
    <_>
      <internalNodes>
        0 -1 5882 541708289 1048578 18 1375797312 10 268435496 122
        419496074</internalNodes>
      <leafValues>
        -5.6337583065032959e-01 2.7649852633476257e-01</leafValues></_>
    <_>
      <internalNodes>
        0 -1 8179 1544066565 -1105133712 -17891352 724139238 -1078133560
        1316413308 -1926074408 -2027807031</internalNodes>
      <leafValues>
        -1.9801728427410126e-01 7.4435287714004517e-01</leafValues></_>
    <_>
      <internalNodes>
        0 -1 4442 725784963 -1849089503 249331271 1359033632 -1747659571
        -1053982860 542659611 -928963295</internalNodes>
      <leafValues>
        -1.0371139645576477e-01 9.0639823675155640e-01</leafValues></_>
    <_>
      <internalNodes>
        0 -1 2153 4834442 302006352 145 -989790207 -2113863424 33554434
        65674 1207959557</internalNodes>
      <leafValues>
        -5.9680712223052979e-01 1.9685035943984985e-01</leafValues></_>
    <_>
      <internalNodes>
        0 -1 4698 -1851029993 1461288624 -20123483 440524288 649646424
        1366095428 1416705160 -1851665081</internalNodes>
      <leafValues>
        -1.1529580503702164e-01 8.9993822574615479e-01</leafValues></_>
    <_>
      <internalNodes>
        0 -1 6121 -921414204 269484049 1 17498112 -2147481468 16777216
        -2147475318 218710080</internalNodes>
      <leafValues>
        -5.9951871633529663e-01 1.2592065334320068e-01</leafValues></_>
    <_>
      <internalNodes>
        0 -1 6440 -2145184760 -687964171 1023410174 2080341495
        2138372084 -1 -688490546 -722174095</internalNodes>
      <leafValues>
        -1.2811672687530518e-01 6.5256971120834351e-01</leafValues></_>
    <_>
      <internalNodes>
        0 -1 4777 -285319567 -143720466 -285278505 -542638103 -2195892
        1162272629 -555813053 -632292021</internalNodes>
      <leafValues>
        -6.6918939352035522e-02 8.7082123756408691e-01</leafValues></_>
    <_>
      <internalNodes>
        0 -1 2992 805544090 1476399104 22 1107378448 33554434 2097152 11
        134291990</internalNodes>
      <leafValues>
        -6.5393114089965820e-01 1.1521317809820175e-01</leafValues></_>
    <_>
      <internalNodes>
        0 -1 6012 -1138260456 547979244 -25362438 1407311668 2130632685
        -402817155 -1764395916 -2093844571</internalNodes>
      <leafValues>
        -7.3231473565101624e-02 8.2697457075119019e-01</leafValues></_>
    <_>
      <internalNodes>
        0 -1 118 2097254422 -1877803008 268435572 1073807396 536969216 0
        536887832 1208025156</internalNodes>
      <leafValues>
        -6.6738975048065186e-01 7.3640085756778717e-02</leafValues></_>
    <_>
      <internalNodes>
        0 -1 7680 -1896413547 687734654 -16842881 904904696 938864606
        1878982519 1962573558 -1309868708</internalNodes>
      <leafValues>
        -5.7509154081344604e-02 8.2860058546066284e-01</leafValues></_>
    <_>
      <internalNodes>
        0 -1 7997 -1199653165 -23265282 -1114116 -25296915 -268566566
        -17498147 -277188882 -673775877</internalNodes>
      <leafValues>
        -3.4857314079999924e-02 9.4237589836120605e-01</leafValues></_>
    <_>
      <internalNodes>
        0 -1 5786 268550230 -2147287024 2440 1124270081 0 -2147352576
        32776 436443272</internalNodes>
      <leafValues>
        -7.3902148008346558e-01 6.2407787889242172e-02</leafValues></_>
    <_>
      <internalNodes>
        0 -1 4153 1577047225 1068367852 -69903 594378485 -34242576
        1282858830 1031691481 -2060497913</internalNodes>
      <leafValues>
        -3.9224512875080109e-02 9.4085812568664551e-01</leafValues></_>
    <_>
      <internalNodes>
        0 -1 7260 -2130608122 -2147352432 268435672 -2147483582 10
        8454144 16810010 1141162129</internalNodes>
      <leafValues>
        -7.4062186479568481e-01 4.2649082839488983e-02</leafValues></_>
    <_>
      <internalNodes>
        0 -1 4381 -2047455275 -1628639242 -436551857 904101469
        2129428060 2122252286 2111602559 -1352192587</internalNodes>
      <leafValues>
        -4.3360389769077301e-02 7.5428938865661621e-01</leafValues></_>
    <_>
      <internalNodes>
        0 -1 158 1363710094 1249344 65552 1140850691 -2147384566 0 65674
        1098907649</internalNodes>
      <leafValues>
        -7.0798766613006592e-01 3.5264190286397934e-02</leafValues></_>
    <_>
      <internalNodes>
        0 -1 2072 1073704558 -1073741825 -16777231 -16777217 -162 -1
        2147483518 -1</internalNodes>
      <leafValues>
        -4.1020385921001434e-02 6.4711940288543701e-01</leafValues></_>
    <_>
      <internalNodes>
        0 -1 1551 4341896 -1858068478 273 -788463615 524322 0 32905
        1493172353</internalNodes>
      <leafValues>
        -7.4538803100585938e-01 2.9121482744812965e-02</leafValues></_>
    <_>
      <internalNodes>
        0 -1 3739 -229513 -17826084 -16777484 -319816018 -66 -16973825
        -105 -723591180</internalNodes>
      <leafValues>
        -3.3323667943477631e-02 6.4321577548980713e-01</leafValues></_>
    <_>
      <internalNodes>
        0 -1 2162 -1744830209 823133188 272629859 1359020288 -2046820352
        0 33554441 16906</internalNodes>
      <leafValues>
        -6.4398044347763062e-01 2.9987741261720657e-02</leafValues></_>
    <_>
      <internalNodes>
        0 -1 6833 -1300346978 2139062140 -229377 -30408705 2004877118
        -129 -1074331650 -1358988172</internalNodes>
      <leafValues>
        -2.2951137274503708e-02 7.7801030874252319e-01</leafValues></_>
    <_>
      <internalNodes>
        0 -1 8181 -1073774607 -2162689 -262 -17891329 -33 -268435521
        -1073742369 -6</internalNodes>
      <leafValues>
        -1.6282372176647186e-02 9.6425467729568481e-01</leafValues></_>
    <_>
      <internalNodes>
        0 -1 7996 268435616 17039360 152 -2147418024 32770 8388608 32898
        134283401</internalNodes>
      <leafValues>
        -8.9788168668746948e-01 2.1322039887309074e-02</leafValues></_>
    <_>
      <internalNodes>
        0 -1 6065 922640247 -1183757 -69642 -570425732 -65699 -816021506
        2128609118 -1881145379</internalNodes>
      <leafValues>
        -1.3148320838809013e-02 9.5436036586761475e-01</leafValues></_>
    <_>
      <internalNodes>
        0 -1 4457 1375932563 16777216 5 1 16842752 150994944 -2147475448
        58785793</internalNodes>
      <leafValues>
        -7.4014037847518921e-01 1.7863234505057335e-02</leafValues></_>
    <_>
      <internalNodes>
        0 -1 4348 938470704 -1409286145 -335839237 -134217729 -171
        -536870913 -514 -1</internalNodes>
      <leafValues>
        -1.7822608351707458e-02 7.5776481628417969e-01</leafValues></_>
    <_>
      <internalNodes>
        0 -1 6128 33620226 131088 9 18022401 32788 150994944 -1853882222
        1207959562</internalNodes>
      <leafValues>
        -7.8779405355453491e-01 1.0516939684748650e-02</leafValues></_>
    <_>
      <internalNodes>
        0 -1 6736 -1884311568 -272695298 -10 -83886088 -32828 -822083585
        -536873040 -1904263812</internalNodes>
      <leafValues>
        -1.1130290105938911e-02 9.0082567930221558e-01</leafValues></_>
    <_>
      <internalNodes>
        0 -1 4433 -2130702127 402653200 2 8201 131 136 268435459
        1225302528</internalNodes>
      <leafValues>
        -7.9010158777236938e-01 1.1439903639256954e-02</leafValues></_>
    <_>
      <internalNodes>
        0 -1 5363 1035876162 -1208090626 -33554499 -168361988 -268501050
        2130706399 2146238423 -2050098084</internalNodes>
      <leafValues>
        -9.5699010416865349e-03 8.5255986452102661e-01</leafValues></_>
    <_>
      <internalNodes>
        0 -1 1433 1078906964 272695297 3 1073741828 82049 2 1546 65536</internalNodes>
      <leafValues>
        -9.1759806871414185e-01 6.7861224524676800e-03</leafValues></_>
    <_>
      <internalNodes>
        0 -1 5139 -16814100 -277938177 -65566 -84148738 -33283
        2113929077 -16812170 -998380585</internalNodes>
      <leafValues>
        -3.9872638881206512e-03 9.0844798088073730e-01</leafValues></_>
    <_>
      <internalNodes>
        0 -1 3197 70041 268500992 65559 289406976 8 131072 133256
        671219778</internalNodes>
      <leafValues>
        -9.5187461376190186e-01 5.2544134669005871e-03</leafValues></_>
    <_>
      <internalNodes>
        0 -1 3197 -16842836 -65538 -65538 -16777218 -129 -131073 -138
        -402784395</internalNodes>
      <leafValues>
        -3.7680068053305149e-03 9.0762054920196533e-01</leafValues></_>
    <_>
      <internalNodes>
        0 -1 6625 -788414464 0 17825815 134283265 65672 0 1073938466
        142606338</internalNodes>
      <leafValues>
        -8.7327820062637329e-01 3.8223394658416510e-03</leafValues></_>
    <_>
      <internalNodes>
        0 -1 7889 -1090818344 -16777217 -1 -268500995 -163980 -2
        -1212420 -196620</internalNodes>
      <leafValues>
        -5.6165247224271297e-03 8.2763487100601196e-01</leafValues></_>
    <_>
      <internalNodes>
        0 -1 5011 -805207870 16777217 129 196610 -2147483648 1 10
        420086027</internalNodes>
      <leafValues>
        -9.3132019042968750e-01 3.3935399260371923e-03</leafValues></_>
    <_>
      <internalNodes>
        0 -1 3998 922695420 1056899070 -1 -1360201731 2130607990 -17
        -132 -1806565520</internalNodes>
      <leafValues>
        -1.8571306718513370e-03 9.2000466585159302e-01</leafValues></_>
    <_>
      <internalNodes>
        0 -1 3291 -2143121389 285212672 1 1090592768 -1879048176 8 139
        144769024</internalNodes>
      <leafValues>
        -9.3099915981292725e-01 2.6106105651706457e-03</leafValues></_>
    <_>
      <internalNodes>
        0 -1 5292 787363332 -1359020033 -16793612 -293601409 -134258852
        2147483647 -12 -1107495053</internalNodes>
      <leafValues>
        -3.2748498488217592e-03 9.3926328420639038e-01</leafValues></_>
    <_>
      <internalNodes>
        0 -1 4820 -1912254373 65537 1 1074855936 650 134217728 10
        169476096</internalNodes>
      <leafValues>
        -9.6105962991714478e-01 3.0240062624216080e-03</leafValues></_>
    <_>
      <internalNodes>
        0 -1 5787 -554039452 -1477443585 -4196484 -318832652 -32940
        -65537 -419563660 -1393033227</internalNodes>
      <leafValues>
        -1.6772041562944651e-03 9.7816443443298340e-01</leafValues></_>
    <_>
      <internalNodes>
        0 -1 872 1363251607 286326784 129 83951617 32778 0 10 16777220</internalNodes>
      <leafValues>
        -1. 1.1370865395292640e-03</leafValues></_>
    <_>
      <internalNodes>
        0 -1 4789 4 0 2 0 0 0 2 -2080374784</internalNodes>
      <leafValues>
        -4.6754081267863512e-04 1.</leafValues></_>
    <_>
      <internalNodes>
        0 -1 375 268538283 1363214337 268435465 286327057 1073807402 0
        16777227 134283275</internalNodes>
      <leafValues>
        -9.8644804954528809e-01 1.2157654855400324e-03</leafValues></_>
    <_>
      <internalNodes>
        0 -1 559 268439552 16777216 2 0 0 0 0 -2147483648</internalNodes>
      <leafValues>
        -1.1292168637737632e-03 1.</leafValues></_>
    <_>
      <internalNodes>
        0 -1 351 268636251 268500993 65537 822149120 33554442 1 16777344
        50528259</internalNodes>
      <leafValues>
        -1. 8.6420238949358463e-04</leafValues></_>
    <_>
      <internalNodes>
        0 -1 5268 -1493225966 -268435457 -1 -268435457 2147450718
        2147483647 -2 -1</internalNodes>
      <leafValues>
        -6.6677446011453867e-04 9.8856002092361450e-01</leafValues></_>
    <_>
      <internalNodes>
        0 -1 7900 214027 268500992 3 1 4784138 0 16384 229378</internalNodes>
      <leafValues>
        -8.9647883176803589e-01 2.2754201199859381e-03</leafValues></_>
    <_>
      <internalNodes>
        0 -1 7187 2130673654 -65554 -36 -268500995 -4391052 -9
        2096955376 -1179660</internalNodes>
      <leafValues>
        -2.3204018361866474e-03 1.</leafValues></_>
    <_>
      <internalNodes>
        0 -1 5729 1224786131 285216793 65 16777217 136 0 2 8388616</internalNodes>
      <leafValues>
        -9.7686141729354858e-01 4.9953861162066460e-04</leafValues></_>
    <_>
      <internalNodes>
        0 -1 5785 1073721186 1862270959 -268437522 -16777217 -396 -3
        -134217740 -50855937</internalNodes>
      <leafValues>
        -6.5079849446192384e-04 1.</leafValues></_>
    <_>
      <internalNodes>
        0 -1 4926 1342275615 269549584 259 65553 131081 134217728 138
        196611</internalNodes>
      <leafValues>
        -1. 5.4179626749828458e-04</leafValues></_>
    <_>
      <internalNodes>
        0 -1 6145 8 0 0 0 2 0 1 -2147483648</internalNodes>
      <leafValues>
        -6.6751358099281788e-04 1.</leafValues></_>
    <_>
      <internalNodes>
        0 -1 2949 1342279827 268500993 1 -1056899071 2162691 0 65547
        688455695</internalNodes>
      <leafValues>
        -1. 4.4679816346615553e-04</leafValues></_>
    <_>
      <internalNodes>
        0 -1 118 -1090617534 -269549569 -68 -16842756 -10 -1 -3 -9</internalNodes>
      <leafValues>
        -1.6683078138157725e-04 1.</leafValues></_>
    <_>
      <internalNodes>
        0 -1 61 67485919 286326787 17 65537 2 0 34 524288</internalNodes>
      <leafValues>
        -1. 3.8797571323812008e-04</leafValues></_>
    <_>
      <internalNodes>
        0 -1 4778 65665 16777216 0 0 0 0 0 -2147483648</internalNodes>
      <leafValues>
        -3.9494287921115756e-04 9.8692673444747925e-01</leafValues></_>
    <_>
      <internalNodes>
        0 -1 4317 69776 268435456 21 268533761 128 -2147483648 11
        721420433</internalNodes>
      <leafValues>
        -9.7575622797012329e-01 1.2079327134415507e-03</leafValues></_>
    <_>
      <internalNodes>
        0 -1 1419 1073745920 33554432 65536 0 0 0 0 -2147483648</internalNodes>
      <leafValues>
        -2.0273250993341208e-03 1.</leafValues></_>
    <_>
      <internalNodes>
        0 -1 55 454131865 1359020049 268435971 16842753 1049088 130
        135243 1342242827</internalNodes>
      <leafValues>
        -1. 3.9273110451176763e-04</leafValues></_>
    <_>
      <internalNodes>
        0 -1 7877 -32904 -268435457 -1 -65539 -753668 -3 -229380 -196612</internalNodes>
      <leafValues>
        -1.2706573761533946e-04 1.</leafValues></_>
    <_>
      <internalNodes>
        0 -1 8019 98451 1 1 65536 3 0 10 11</internalNodes>
      <leafValues>
        -9.6956509351730347e-01 1.4134882949292660e-03</leafValues></_>
    <_>
      <internalNodes>
        0 -1 4417 4 1114112 0 1 0 0 0 -2147483648</internalNodes>
      <leafValues>
        -8.7087339488789439e-04 1.</leafValues></_>
    <_>
      <internalNodes>
        0 -1 2076 -754908705 34668560 262155 1359216641 138 0 395
        151748610</internalNodes>
      <leafValues>
        -1. 5.8516411809250712e-04</leafValues></_>
    <_>
      <internalNodes>
        0 -1 60 0 0 0 0 0 0 0 -2147483648</internalNodes>
      <leafValues>
        -2.8520662453956902e-04 1.</leafValues></_>
    <_>
      <internalNodes>
        0 -1 61 1561842135 -1861156861 65559 1090584589 69787 0 43
        1225261072</internalNodes>
      <leafValues>
        -1. 1.5232132864184678e-04</leafValues></_>
    <_>
      <internalNodes>
        0 -1 7381 -16876208 -1 -68 -1 -8389036 -1 -65548 -11</internalNodes>
      <leafValues>
        -9.1727626568172127e-05 1.</leafValues></_>
    <_>
      <internalNodes>
        0 -1 7381 98435 0 1 0 8388779 0 11 131074</internalNodes>
      <leafValues>
        -1. 6.2403181800618768e-05</leafValues></_>
    <_>
      <internalNodes>
        0 -1 495 268435456 0 0 0 0 0 0 -2147483648</internalNodes>
      <leafValues>
        -2.2006951621733606e-04 1.</leafValues></_>
    <_>
      <internalNodes>
        0 -1 2457 151097393 -1876885503 8195 -1056899069 11 16781312
        16777227 151591627</internalNodes>
      <leafValues>
        -1. 3.6868837923975661e-05</leafValues></_>
    <_>
      <internalNodes>
        0 -1 52 0 0 0 65536 0 0 0 -2147483648</internalNodes>
      <leafValues>
        -2.6482672546990216e-04 1.</leafValues></_>
    <_>
      <internalNodes>
        0 -1 52 -787365665 1359544344 515 1363218457 -2147384440 0 138
        25165833</internalNodes>
      <leafValues>
        -1. 1.0632746125338599e-04</leafValues></_>
    <_>
      <internalNodes>
        0 -1 52 -1360068628 -285278209 -2 -2 -1 -1 -9 -1</internalNodes>
      <leafValues>
        4.0293606667386739e-13 1.</leafValues></_>
    <_>
      <internalNodes>
        0 -1 58 -1862184459 289472640 16777225 65537 0 0 0 0</internalNodes>
      <leafValues>
        -1. 5.2942363254260272e-05</leafValues></_>
    <_>
      <internalNodes>
        0 -1 50 -285298902 -285212673 -1073741890 -17104898 -1 -1 -1 -1</internalNodes>
      <leafValues>
        1.3986054881506144e-13 1.</leafValues></_>
    <_>
      <internalNodes>
        0 -1 36 285278227 1364262929 1 16842753 268435456 0 130 0</internalNodes>
      <leafValues>
        -1. 2.2414723935071379e-04</leafValues></_>
    <_>
      <internalNodes>
        0 -1 7380 -268550316 -1 -10 -1 -164 -1 -12 -8388737</internalNodes>
      <leafValues>
        -3.4353222417848883e-06 1.</leafValues></_>
    <_>
      <internalNodes>
        0 -1 7380 268488843 0 1 0 131 0 11 0</internalNodes>
      <leafValues>
        -1. 1.5847990289330482e-04</leafValues></_>
    <_>
      <internalNodes>
        0 -1 7381 0 0 0 0 0 0 0 -2147483648</internalNodes>
      <leafValues>
        -1.0426751396153122e-04 1.</leafValues></_>
    <_>
      <internalNodes>
        0 -1 7381 -1862166277 16842753 65545 33685504 8388779 0 32779
        302383618</internalNodes>
      <leafValues>
        -1. -4.4965623564006962e-13</leafValues></_>
    <_>
      <internalNodes>
        0 -1 7381 -16810124 -1 -2 -1 -164 -1 -12 -3</internalNodes>
      <leafValues>
        1.0925206458912637e-13 1.</leafValues></_>
    <_>
      <internalNodes>
        0 -1 7381 16810123 0 1 0 163 0 11 2</internalNodes>
      <leafValues>
        -1. -1.4123893230639194e-14</leafValues></_>
    <_>
      <internalNodes>
        0 -1 7381 0 0 0 0 0 0 0 -2147483648</internalNodes>
      <leafValues>
        -9.3103239148187994e-14 1.</leafValues></_>
    <_>
      <internalNodes>
        0 -1 7381 -1862166021 16842753 65549 33751040 8421547 0 32907
        302383618</internalNodes>
      <leafValues>
        -1. 1.3024810722149505e-13</leafValues></_>
    <_>
      <internalNodes>
        0 -1 7381 0 0 0 0 0 0 0 -2147483648</internalNodes>
      <leafValues>
        -1.7033813934559140e-14 1.</leafValues></_>
    <_>
      <internalNodes>
        0 -1 7381 -1862166021 16842753 98317 33751040 8421547 0 32907
        1376125442</internalNodes>
      <leafValues>
        -1. 9.4239149293971584e-15</leafValues></_>
    <_>
      <internalNodes>
        0 -1 7381 0 0 0 0 0 0 0 -2147483648</internalNodes>
      <leafValues>
        -1.6522880060885320e-15 1.</leafValues></_>
    <_>
      <internalNodes>
        0 -1 7381 -788424197 16842753 98317 33751040 8487083 0 32907
        1376125442</internalNodes>
      <leafValues>
        -1. -3.4095044631555008e-14</leafValues></_>
    <_>
      <internalNodes>
        0 -1 7381 -16810124 -1 -2 -1 -164 -1 -12 -3</internalNodes>
      <leafValues>
        7.7319315500926772e-14 1.</leafValues></_>
    <_>
      <internalNodes>
        0 -1 7381 16810123 0 1 0 163 0 11 2</internalNodes>
      <leafValues>
        -1. -8.8964724259329997e-14</leafValues></_>
    <_>
      <internalNodes>
        0 -1 7381 -16810124 -1 -2 -1 -164 -1 -12 -3</internalNodes>
      <leafValues>
        6.7574384401882653e-14 1.</leafValues></_>
    <_>
      <internalNodes>
        0 -1 7381 16810123 0 1 0 163 0 11 2</internalNodes>
      <leafValues>
        -1. -8.9384656089524367e-14</leafValues></_></weakClassifiers></stage12>
</opencv_storage>
