<?xml version="1.0"?>
<opencv_storage>
<stage21>
  <maxWeakCount>100</maxWeakCount>
  <stageThreshold>-3.0085794925689697e+00</stageThreshold>
  <weakClassifiers>
    <_>
      <internalNodes>
        0 -1 61 524288 16384 201326592 4356 1073744896 -1610612736
        2123776 -903868414</internalNodes>
      <leafValues>
        -9.8823058605194092e-01 9.1418927907943726e-01</leafValues></_>
    <_>
      <internalNodes>
        0 -1 3819 419473680 -805306368 17346688 -889159488 16 536870913
        262416 -1040129984</internalNodes>
      <leafValues>
        -9.1994190216064453e-01 6.2298262119293213e-01</leafValues></_>
    <_>
      <internalNodes>
        0 -1 711 65586 286327824 268437828 -2130706430 4280 184680970
        27562028 -1415329790</internalNodes>
      <leafValues>
        -5.6813466548919678e-01 4.4747197628021240e-01</leafValues></_>
    <_>
      <internalNodes>
        0 -1 6655 1682176411 229133386 -352813942 1342964160 1275393192
        201940032 299162 -2146189045</internalNodes>
      <leafValues>
        -2.7230867743492126e-01 7.2533667087554932e-01</leafValues></_>
    <_>
      <internalNodes>
        0 -1 0 -301613046 -752809728 4097 -317616127 -2147385344
        -779026432 -897011574 2013504139</internalNodes>
      <leafValues>
        -7.2826910018920898e-01 3.1440615653991699e-01</leafValues></_>
    <_>
      <internalNodes>
        0 -1 6618 -858678577 -543089020 55169104 70130961 -2063559550
        159667462 285328266 -2127985269</internalNodes>
      <leafValues>
        -2.5434294342994690e-01 7.6726746559143066e-01</leafValues></_>
    <_>
      <internalNodes>
        0 -1 8372 -750611607 -1073729527 16 -2147450872 -2146926520
        -2138537984 -1467963318 1301004299</internalNodes>
      <leafValues>
        -7.2393643856048584e-01 2.0700795948505402e-01</leafValues></_>
    <_>
      <internalNodes>
        0 -1 30 1485622356 -1719501656 -857178560 1091591962 -27459587
        -17956882 2088042495 -973173650</internalNodes>
      <leafValues>
        -3.1140133738517761e-01 4.9100121855735779e-01</leafValues></_>
    <_>
      <internalNodes>
        0 -1 8463 -531873774 -1723858928 16 -603618816 537432505
        -1040088958 33785988 2141948649</internalNodes>
      <leafValues>
        -7.6868522167205811e-01 1.5549902617931366e-01</leafValues></_>
    <_>
      <internalNodes>
        0 -1 4379 1581372100 -752603614 1682044600 -1015565792
        -2072718194 -1216544914 -1069327296 -1553959699</internalNodes>
      <leafValues>
        -1.9679781794548035e-01 6.4672738313674927e-01</leafValues></_>
    <_>
      <internalNodes>
        0 -1 8449 18007040 1090519105 524288 -2122301440 -2138537928
        -1877983104 -1610072000 1589346314</internalNodes>
      <leafValues>
        -7.2961765527725220e-01 1.4492365717887878e-01</leafValues></_>
    <_>
      <internalNodes>
        0 -1 2799 1813798363 -671023110 -1092486055 -1195680334
        -551981404 -9633827 1819430131 -37748781</internalNodes>
      <leafValues>
        -1.5005056560039520e-01 7.3886704444885254e-01</leafValues></_>
    <_>
      <internalNodes>
        0 -1 728 1157660697 1380122626 2240 -795737983 1073791114
        67240066 -1459584824 1506511488</internalNodes>
      <leafValues>
        -6.8222689628601074e-01 1.3541060686111450e-01</leafValues></_>
    <_>
      <internalNodes>
        0 -1 5651 1826979048 -1691554165 -1435030840 1372156122
        2090081786 -1505428160 -529238629 -879510213</internalNodes>
      <leafValues>
        -1.1809153109788895e-01 8.2407993078231812e-01</leafValues></_>
    <_>
      <internalNodes>
        0 -1 736 -1575861072 1073778738 302024720 1409286144 -520028151
        163976 1132501001 1923866762</internalNodes>
      <leafValues>
        -8.2685339450836182e-01 9.1375336050987244e-02</leafValues></_>
    <_>
      <internalNodes>
        0 -1 7949 -816791604 2116812587 -84349239 -500859224 -412076598
        1669332945 1647547488 -310752118</internalNodes>
      <leafValues>
        -1.3249278068542480e-01 6.3383179903030396e-01</leafValues></_>
    <_>
      <internalNodes>
        0 -1 8387 -263994132 -1056931839 36888 -1862201344 -2146924512
        -1601699832 -2145345404 1519093897</internalNodes>
      <leafValues>
        -6.4189505577087402e-01 8.9709706604480743e-02</leafValues></_>
    <_>
      <internalNodes>
        0 -1 6841 268857972 -870121744 -1409875995 -1846509705
        -982350632 -268435465 -1058735276 -174604560</internalNodes>
      <leafValues>
        -1.2334717810153961e-01 5.5171984434127808e-01</leafValues></_>
    <_>
      <internalNodes>
        0 -1 8455 -1047480252 -2125398008 1208025088 -2130313086
        -2145345518 -2147450752 -2139061564 1669797899</internalNodes>
      <leafValues>
        -7.0274674892425537e-01 7.7833600342273712e-02</leafValues></_>
    <_>
      <internalNodes>
        0 -1 7997 -1094778893 -275841028 -130 -270336017 -2301953
        -281149476 -553881637 -40898817</internalNodes>
      <leafValues>
        -7.1772724390029907e-02 8.5980576276779175e-01</leafValues></_>
    <_>
      <internalNodes>
        0 -1 3474 -123502845 -337781552 -1073742668 -921870874 -21715672
        2146204116 -134939408 -620509809</internalNodes>
      <leafValues>
        -4.2542539536952972e-02 8.0781686305999756e-01</leafValues></_>
    <_>
      <internalNodes>
        0 -1 8371 1073840466 -1056964598 285278208 809566217 -2113920430
        -2143256576 -1995865984 1518395405</internalNodes>
      <leafValues>
        -8.1661379337310791e-01 5.9282980859279633e-02</leafValues></_>
    <_>
      <internalNodes>
        0 -1 6080 -320712512 -134545425 -285212809 -71303427 1719664349
        -1 -150994948 -25165828</internalNodes>
      <leafValues>
        -7.3542617261409760e-02 6.5784591436386108e-01</leafValues></_>
    <_>
      <internalNodes>
        0 -1 8188 -1589575531 -1073741824 0 -1878327168 -2145877880
        -1073741696 -2147448694 2072608906</internalNodes>
      <leafValues>
        -6.6076040267944336e-01 5.9723120182752609e-02</leafValues></_>
    <_>
      <internalNodes>
        0 -1 4527 782982379 -1100972035 -327743 -863928989 1995013642
        2138865532 2011561722 -1118371886</internalNodes>
      <leafValues>
        -5.4790161550045013e-02 7.7042192220687866e-01</leafValues></_>
    <_>
      <internalNodes>
        0 -1 2660 -285278595 -17 -1 -262161 -51 -403177601 -50 -16842881</internalNodes>
      <leafValues>
        -3.0371593311429024e-02 9.6932137012481689e-01</leafValues></_>
    <_>
      <internalNodes>
        0 -1 7817 -2146348944 823132166 1073741824 1112670480
        -1601662664 65672 98496 1508802721</internalNodes>
      <leafValues>
        -8.0387330055236816e-01 4.7373246401548386e-02</leafValues></_>
    <_>
      <internalNodes>
        0 -1 1474 1860786149 -1092157523 -290497163 -34869544 -822313763
        1879048182 -327303748 -19464329</internalNodes>
      <leafValues>
        -4.5321226119995117e-02 7.1645987033843994e-01</leafValues></_>
    <_>
      <internalNodes>
        0 -1 2024 -670940927 -784326656 1207959552 -586907647 168837258
        0 131206 1393135630</internalNodes>
      <leafValues>
        -6.4174574613571167e-01 4.3475892394781113e-02</leafValues></_>
    <_>
      <internalNodes>
        0 -1 2816 1556729762 480914649 2130574974 -984630793 2147440596
        1593800428 -17531754 -1069165052</internalNodes>
      <leafValues>
        -3.8339484483003616e-02 6.8976396322250366e-01</leafValues></_>
    <_>
      <internalNodes>
        0 -1 680 1090551840 -1073741310 8 -1877868540 1140916234
        536903688 -1048575614 1763393800</internalNodes>
      <leafValues>
        -8.2945173978805542e-01 2.3264510557055473e-02</leafValues></_>
    <_>
      <internalNodes>
        0 -1 7620 -20971921 -1114121 -420548614 -21233665 -1189908 -3
        -537460787 -942801417</internalNodes>
      <leafValues>
        -2.9803082346916199e-02 7.5006735324859619e-01</leafValues></_>
    <_>
      <internalNodes>
        0 -1 6080 2143027153 -262145 -16777345 -257 1870659583 -1
        -218103812 -1082130433</internalNodes>
      <leafValues>
        -2.2281773388385773e-02 9.2728573083877563e-01</leafValues></_>
    <_>
      <internalNodes>
        0 -1 841 -1325019007 1610776578 1073742096 -200638454
        -2130706416 553648129 1224736899 2076344458</internalNodes>
      <leafValues>
        -7.6339584589004517e-01 3.0262134969234467e-02</leafValues></_>
    <_>
      <internalNodes>
        0 -1 1574 795561395 -21037058 2097086048 -131079 -958884 -130
        -40468516 -22052937</internalNodes>
      <leafValues>
        -2.1571094170212746e-02 7.4650245904922485e-01</leafValues></_>
    <_>
      <internalNodes>
        0 -1 6436 50413648 33619968 16777219 -1862254591 8388608 16
        -1996259191 1804255273</internalNodes>
      <leafValues>
        -8.1388121843338013e-01 1.6991969197988510e-02</leafValues></_>
    <_>
      <internalNodes>
        0 -1 5292 -509098962 486473591 -33554436 -285343747 -554303664
        -1 -1342275972 -1124499587</internalNodes>
      <leafValues>
        -1.8889531493186951e-02 7.3264253139495850e-01</leafValues></_>
    <_>
      <internalNodes>
        0 -1 994 -1073725370 -530579328 -1862270968 1342197776 269516804
        1073741826 536907778 545325056</internalNodes>
      <leafValues>
        -9.3330132961273193e-01 1.1185442097485065e-02</leafValues></_>
    <_>
      <internalNodes>
        0 -1 2646 -268501160 -2 -16777220 -285212673 -138 -545259531
        -172 -822214673</internalNodes>
      <leafValues>
        -2.3122055456042290e-02 5.6057190895080566e-01</leafValues></_>
    <_>
      <internalNodes>
        0 -1 5496 1074092240 0 286261381 -803782640 -1602223848
        268435456 -2130683894 1124122763</internalNodes>
      <leafValues>
        -8.2148677110671997e-01 1.5928411856293678e-02</leafValues></_>
    <_>
      <internalNodes>
        0 -1 3843 -1401061657 -1096286284 -268501251 805167102 -50855980
        -65537 -134946852 -8454274</internalNodes>
      <leafValues>
        -9.2543540522456169e-03 8.2548952102661133e-01</leafValues></_>
    <_>
      <internalNodes>
        0 -1 8387 -255732658 0 32768 -1879044096 -2146926552 536870920
        2097288 411797643</internalNodes>
      <leafValues>
        -8.3562648296356201e-01 9.9353706464171410e-03</leafValues></_>
    <_>
      <internalNodes>
        0 -1 1604 -1879245225 -1364656408 -100663553 -1133642122
        796294621 -131073 -66191 -814514177</internalNodes>
      <leafValues>
        -1.0220670141279697e-02 8.3291453123092651e-01</leafValues></_>
    <_>
      <internalNodes>
        0 -1 4644 1347437430 1343520 1052672 289472640 131 1887436800
        1744863234 1940226250</internalNodes>
      <leafValues>
        -8.3993101119995117e-01 7.4900328181684017e-03</leafValues></_>
    <_>
      <internalNodes>
        0 -1 7567 -1097944 2146435071 -1090523424 -285278337 -5515520
        -4194437 -134480192 -1267335236</internalNodes>
      <leafValues>
        -9.3699404969811440e-03 8.1230813264846802e-01</leafValues></_>
    <_>
      <internalNodes>
        0 -1 7966 -2142097225 -2147450879 0 1090584576 65576 0
        1073867194 1619255307</internalNodes>
      <leafValues>
        -8.6083543300628662e-01 5.1512019708752632e-03</leafValues></_>
    <_>
      <internalNodes>
        0 -1 2646 -268501160 -17891346 -12 -16842754 -140 -25165825 -12
        -537591817</internalNodes>
      <leafValues>
        -9.1303149238228798e-03 7.8816324472427368e-01</leafValues></_>
    <_>
      <internalNodes>
        0 -1 6433 1342177291 -2130706432 67 293797891 4194466 805306498
        557195 428048395</internalNodes>
      <leafValues>
        -8.7971532344818115e-01 4.7050379216670990e-03</leafValues></_>
    <_>
      <internalNodes>
        0 -1 56 1862266726 -1358954497 -285212954 -1 2147483479
        2147483647 -10 -1</internalNodes>
      <leafValues>
        -8.0291666090488434e-03 7.8200376033782959e-01</leafValues></_>
    <_>
      <internalNodes>
        0 -1 5284 -1064516157 -620756992 32896 -1065254912 -2147385216 0
        817987584 839565312</internalNodes>
      <leafValues>
        -8.8514846563339233e-01 4.1709695942699909e-03</leafValues></_>
    <_>
      <internalNodes>
        0 -1 7756 2146279231 -1342373890 2130639868 -285278213
        2143288804 -1082196097 -50532644 -1804305400</internalNodes>
      <leafValues>
        -2.8506387025117874e-03 9.7552520036697388e-01</leafValues></_>
    <_>
      <internalNodes>
        0 -1 4950 73835 -1862074368 1 -770113533 -2147348472 16809984
        -2146990077 197214219</internalNodes>
      <leafValues>
        -9.7492825984954834e-01 2.6622407604008913e-03</leafValues></_>
    <_>
      <internalNodes>
        0 -1 2748 -1901146768 803143678 -196624 -857735436 2096725748 -1
        2119622526 -327221388</internalNodes>
      <leafValues>
        -3.0635723378509283e-03 9.8062360286712646e-01</leafValues></_>
    <_>
      <internalNodes>
        0 -1 159 1363513683 1342505089 25202696 327155717 -2147483637
        128 1073741833 419660035</internalNodes>
      <leafValues>
        -9.7414469718933105e-01 1.3403651537373662e-03</leafValues></_>
    <_>
      <internalNodes>
        0 -1 1960 -285344194 -65538 -274 -18022420 -36 -524419 -655404
        -151060492</internalNodes>
      <leafValues>
        -2.2475919686257839e-03 9.5133924484252930e-01</leafValues></_>
    <_>
      <internalNodes>
        0 -1 5223 21 268500992 145 285278469 32776 -1744830336 203
        75563019</internalNodes>
      <leafValues>
        -1. 1.3298388803377748e-03</leafValues></_>
    <_>
      <internalNodes>
        0 -1 1431 787902216 -1342177345 -285475084 805240766 -49324
        -268435457 -32940 -13</internalNodes>
      <leafValues>
        -2.1585270296782255e-03 9.8291409015655518e-01</leafValues></_>
    <_>
      <internalNodes>
        0 -1 4449 -784206881 1344339969 16809993 16842762 -1065320311
        -2147483648 17367171 671326218</internalNodes>
      <leafValues>
        -1. 7.8210659557953477e-04</leafValues></_>
    <_>
      <internalNodes>
        0 -1 7383 0 0 0 0 0 0 0 -2147483648</internalNodes>
      <leafValues>
        -1.3520031934604049e-03 9.8135024309158325e-01</leafValues></_>
    <_>
      <internalNodes>
        0 -1 279 1098975699 420544531 16875907 -1853784061 8494 0
        4391083 160105019</internalNodes>
      <leafValues>
        -1. 3.7930664257146418e-04</leafValues></_>
    <_>
      <internalNodes>
        0 -1 56 0 0 0 0 0 0 0 -2147483648</internalNodes>
      <leafValues>
        -1.5218108892440796e-03 9.8092848062515259e-01</leafValues></_>
    <_>
      <internalNodes>
        0 -1 6080 -653602315 -788529024 3 286294016 32899 32768
        -2147450752 671678472</internalNodes>
      <leafValues>
        -1. 7.0078147109597921e-04</leafValues></_>
    <_>
      <internalNodes>
        0 -1 4317 0 0 16 0 0 0 0 -2143289344</internalNodes>
      <leafValues>
        -2.4788621813058853e-03 9.7391277551651001e-01</leafValues></_>
    <_>
      <internalNodes>
        0 -1 6791 1079214107 276889637 16777225 -1593737087 1610654347 2
        -1979580261 1914405003</internalNodes>
      <leafValues>
        -9.8881709575653076e-01 5.0388043746352196e-04</leafValues></_>
    <_>
      <internalNodes>
        0 -1 4380 553648192 8 0 0 32768 0 0 -2147483648</internalNodes>
      <leafValues>
        -1.2102429755032063e-03 1.</leafValues></_>
    <_>
      <internalNodes>
        0 -1 926 -804941351 -787414783 16777501 -1849622527 -2147450744
        0 134285515 2072578090</internalNodes>
      <leafValues>
        -1. 7.5814768206328154e-04</leafValues></_>
    <_>
      <internalNodes>
        0 -1 7383 0 0 0 0 0 0 0 -2147483648</internalNodes>
      <leafValues>
        -3.4590155701152980e-04 1.</leafValues></_>
    <_>
      <internalNodes>
        0 -1 691 16842781 -1819998975 16777497 -1857879807 268435610
        -2080112640 -2146893301 2074853387</internalNodes>
      <leafValues>
        -1. 1.4042442489881068e-04</leafValues></_>
    <_>
      <internalNodes>
        0 -1 22 0 0 0 0 0 0 0 -2147483648</internalNodes>
      <leafValues>
        -4.5198222505860031e-04 1.</leafValues></_>
    <_>
      <internalNodes>
        0 -1 22 -783060449 1360334867 1 -788332159 229377 0 65571
        1266770563</internalNodes>
      <leafValues>
        -1. -3.0667343664525504e-11</leafValues></_>
    <_>
      <internalNodes>
        0 -1 58 0 0 0 0 0 0 0 -2147483648</internalNodes>
      <leafValues>
        -5.2870269428240135e-05 1.</leafValues></_>
    <_>
      <internalNodes>
        0 -1 57 -653176611 1359020049 16777481 419430400 268468377 32768
        136 168296448</internalNodes>
      <leafValues>
        -1. -1.6809587033948803e-13</leafValues></_>
    <_>
      <internalNodes>
        0 -1 2072 0 0 0 0 0 0 0 -2147483648</internalNodes>
      <leafValues>
        -1.7622197628952563e-04 1.</leafValues></_>
    <_>
      <internalNodes>
        0 -1 2072 1360548061 285229200 4125 1358954496 -2147450696
        -2139094912 32904 134217728</internalNodes>
      <leafValues>
        -1. 3.2196842948906124e-04</leafValues></_>
    <_>
      <internalNodes>
        0 -1 57 0 0 0 0 0 0 0 -2147483648</internalNodes>
      <leafValues>
        -8.2430482143536210e-04 1.</leafValues></_>
    <_>
      <internalNodes>
        0 -1 57 -653175811 1359020049 16777485 419430400 268468409
        -2147450880 137 168296448</internalNodes>
      <leafValues>
        -1. -1.8676704627296203e-10</leafValues></_>
    <_>
      <internalNodes>
        0 -1 57 -285216978 -268435457 -2 -16777217 -145 -1 -1 -1</internalNodes>
      <leafValues>
        1.4696579998980941e-13 1.</leafValues></_>
    <_>
      <internalNodes>
        0 -1 21 1364005735 1359171585 -1073741824 1360470282 2097168
        -2147483648 1074495491 1136754699</internalNodes>
      <leafValues>
        -1. -1.1328981643857899e-13</leafValues></_>
    <_>
      <internalNodes>
        0 -1 21 -1359024386 -1359020034 -1 -285409281 -1 -1 -1 -65538</internalNodes>
      <leafValues>
        8.6571666447956414e-14 1.</leafValues></_>
    <_>
      <internalNodes>
        0 -1 14 1463927045 16842752 0 286326787 0 0 0 1099104259</internalNodes>
      <leafValues>
        -1. -6.2404961806547445e-15</leafValues></_>
    <_>
      <internalNodes>
        0 -1 2646 0 0 0 0 0 0 0 -2147483648</internalNodes>
      <leafValues>
        -3.0758932552998886e-05 1.</leafValues></_>
    <_>
      <internalNodes>
        0 -1 2646 465 286326800 89 -1862205311 8388619 134283266 65547
        458721291</internalNodes>
      <leafValues>
        -1. 6.1270045989658684e-05</leafValues></_>
    <_>
      <internalNodes>
        0 -1 13 0 0 0 0 0 0 0 -2139095040</internalNodes>
      <leafValues>
        -4.8728991532698274e-04 1.</leafValues></_>
    <_>
      <internalNodes>
        0 -1 13 -720919597 1359183874 65558 1359020033 33652736
        1073741824 -2147450878 1904984065</internalNodes>
      <leafValues>
        -1. 7.8589073382318020e-05</leafValues></_>
    <_>
      <internalNodes>
        0 -1 13 -1359020290 -1359020033 -1 -1073807361 -1 -1 -1
        -16842753</internalNodes>
      <leafValues>
        1.5907263841655889e-13 1.</leafValues></_>
    <_>
      <internalNodes>
        0 -1 13 1359020289 1359020032 0 1073807360 0 0 0 16842752</internalNodes>
      <leafValues>
        -1. 2.8416628926786376e-14</leafValues></_>
    <_>
      <internalNodes>
        0 -1 13 -1359020290 -1359020033 -1 -1073807361 -1 -1 -1
        -16842753</internalNodes>
      <leafValues>
        1.2572447355657483e-14 1.</leafValues></_>
    <_>
      <internalNodes>
        0 -1 13 1359020289 1359020032 0 1073807360 0 0 0 16842752</internalNodes>
      <leafValues>
        -1. -5.1105377118750364e-14</leafValues></_>
    <_>
      <internalNodes>
        0 -1 13 -1359020290 -1359020033 -1 -1073807361 -1 -1 -1
        -16842753</internalNodes>
      <leafValues>
        2.6248910678502643e-14 1.</leafValues></_>
    <_>
      <internalNodes>
        0 -1 13 1359020289 1359020032 0 1073807360 0 0 0 16842752</internalNodes>
      <leafValues>
        -1. 5.3659664263502015e-15</leafValues></_>
    <_>
      <internalNodes>
        0 -1 13 -1359020290 -1359020033 -1 -1073807361 -1 -1 -1
        -16842753</internalNodes>
      <leafValues>
        1.0642899525548609e-14 1.</leafValues></_>
    <_>
      <internalNodes>
        0 -1 13 1359020289 1359020032 0 1073807360 0 0 0 16842752</internalNodes>
      <leafValues>
        -1. -5.2633966656683365e-14</leafValues></_>
    <_>
      <internalNodes>
        0 -1 13 -1359020290 -1359020033 -1 -1073807361 -1 -1 -1
        -16842753</internalNodes>
      <leafValues>
        3.9621423004489176e-14 1.</leafValues></_>
    <_>
      <internalNodes>
        0 -1 13 1359020289 1359020032 0 1073807360 0 0 0 16842752</internalNodes>
      <leafValues>
        -1. 2.1119985151892137e-15</leafValues></_>
    <_>
      <internalNodes>
        0 -1 13 -1359020290 -1359020033 -1 -1073807361 -1 -1 -1
        -16842753</internalNodes>
      <leafValues>
        1.0186057387644686e-14 1.</leafValues></_>
    <_>
      <internalNodes>
        0 -1 13 1359020289 1359020032 0 1073807360 0 0 0 16842752</internalNodes>
      <leafValues>
        -1. 1.6866563679233753e-15</leafValues></_>
    <_>
      <internalNodes>
        0 -1 13 -1359020290 -1359020033 -1 -1073807361 -1 -1 -1
        -16842753</internalNodes>
      <leafValues>
        6.3348725916378187e-15 1.</leafValues></_>
    <_>
      <internalNodes>
        0 -1 13 1359020289 1359020032 0 1073807360 0 0 0 16842752</internalNodes>
      <leafValues>
        -1. -5.2230206379517974e-14</leafValues></_>
    <_>
      <internalNodes>
        0 -1 13 -1359020290 -1359020033 -1 -1073807361 -1 -1 -1
        -16842753</internalNodes>
      <leafValues>
        2.5751765018902466e-14 1.</leafValues></_>
    <_>
      <internalNodes>
        0 -1 13 1359020289 1359020032 0 1073807360 0 0 0 16842752</internalNodes>
      <leafValues>
        -1. 6.1859697052246698e-15</leafValues></_></weakClassifiers></stage21>
</opencv_storage>
