<?xml version="1.0"?>
<opencv_storage>
<stage3>
  <maxWeakCount>13</maxWeakCount>
  <stageThreshold>-1.8617724180221558e+00</stageThreshold>
  <weakClassifiers>
    <_>
      <internalNodes>
        0 -1 8375 -47616 -203439381 -1727673891 -141590069 -70530140
        -73748083 -18093362 2146434047</internalNodes>
      <leafValues>
        -8.3617156744003296e-01 2.4048118293285370e-01</leafValues></_>
    <_>
      <internalNodes>
        0 -1 591 -236978690 -2297412 -582421548 -3351676 -138675716
        -70745960 -104005940 -3867708</internalNodes>
      <leafValues>
        -7.0612823963165283e-01 3.3407512307167053e-01</leafValues></_>
    <_>
      <internalNodes>
        0 -1 9 -1498485078 -289475116 -548479777 -2121476 -92602629
        -103694206 -108004357 2147483371</internalNodes>
      <leafValues>
        -8.5399025678634644e-01 2.7940028905868530e-01</leafValues></_>
    <_>
      <internalNodes>
        0 -1 5705 -1976942576 -803682284 -784282403 -599101435
        -804740455 -109014912 -1130302502 -630531672</internalNodes>
      <leafValues>
        -5.4500234127044678e-01 3.9692610502243042e-01</leafValues></_>
    <_>
      <internalNodes>
        0 -1 728 -4334594 -105459248 -787311692 -136391282 -212889462
        -85227077 -16070466 2147408894</internalNodes>
      <leafValues>
        -7.3986816406250000e-01 3.3556154370307922e-01</leafValues></_>
    <_>
      <internalNodes>
        0 -1 6994 -1532608510 -1430253552 -536688590 -224370428
        -1207953404 142639115 -2134598496 -2133671808</internalNodes>
      <leafValues>
        -5.5627930164337158e-01 3.7046420574188232e-01</leafValues></_>
    <_>
      <internalNodes>
        0 -1 8463 -641480304 -79462230 1912770576 -609566642 -92018454
        -358907494 -92099592 2079324906</internalNodes>
      <leafValues>
        -6.8464934825897217e-01 3.6287322640419006e-01</leafValues></_>
    <_>
      <internalNodes>
        0 -1 4609 -324908032 -897572288 2023014704 1350103072
        -1605873664 -2002649055 -1568108380 -1326317360</internalNodes>
      <leafValues>
        -4.8816946148872375e-01 3.7504631280899048e-01</leafValues></_>
    <_>
      <internalNodes>
        0 -1 7376 -1579161088 -745023017 -595470349 -136398625
        -375723175 -393117526 -612109569 2147211675</internalNodes>
      <leafValues>
        -7.5252932310104370e-01 2.3704405128955841e-01</leafValues></_>
    <_>
      <internalNodes>
        0 -1 420 -1431662898 -970177894 -1056828900 -431054648
        -221605461 -256917493 -577265029 2125131471</internalNodes>
      <leafValues>
        -7.8063094615936279e-01 2.1255703270435333e-01</leafValues></_>
    <_>
      <internalNodes>
        0 -1 64 -364024913 -368946758 -637352046 -7861476 -7781998
        -83984248 -82249313 2143223017</internalNodes>
      <leafValues>
        -6.9447910785675049e-01 2.2091335058212280e-01</leafValues></_>
    <_>
      <internalNodes>
        0 -1 7240 -1509286218 -1568246224 -327223568 -197345548
        -864756096 -2073657481 -1795391092 -528341584</internalNodes>
      <leafValues>
        -3.7939879298210144e-01 5.0145381689071655e-01</leafValues></_>
    <_>
      <internalNodes>
        0 -1 8460 -7702224 -7688192 1342343928 -104235002 -367808092
        -120487805 -368399200 2078276524</internalNodes>
      <leafValues>
        -7.4328905344009399e-01 2.3414225876331329e-01</leafValues></_></weakClassifiers></stage3>
</opencv_storage>
