<?xml version="1.0"?>
<opencv_storage>
<stage8>
  <maxWeakCount>100</maxWeakCount>
  <stageThreshold>-2.9465713500976563e+00</stageThreshold>
  <weakClassifiers>
    <_>
      <internalNodes>
        0 -1 39 4753628 -2147483504 -2146959224 4224 -2113240552
        -436076541 -2142207544 -2000369656</internalNodes>
      <leafValues>
        -9.7610723972320557e-01 7.3142188787460327e-01</leafValues></_>
    <_>
      <internalNodes>
        0 -1 787 -1610031104 43155456 536876608 622985606 -1861637964
        134348928 1321470289 -842315640</internalNodes>
      <leafValues>
        -8.6655533313751221e-01 3.2336315512657166e-01</leafValues></_>
    <_>
      <internalNodes>
        0 -1 2646 -2137857576 -644546528 269489944 -749465280 4202632
        -1280638768 -1999863136 -21456896</internalNodes>
      <leafValues>
        -6.0276639461517334e-01 2.3574037849903107e-01</leafValues></_>
    <_>
      <internalNodes>
        0 -1 8372 -74998977 -707460926 -935259939 -778764143 -1861971733
        -1392410426 -520044293 2145370863</internalNodes>
      <leafValues>
        -6.7398554086685181e-01 3.0070289969444275e-01</leafValues></_>
    <_>
      <internalNodes>
        0 -1 2168 1953885171 317997136 -1065294448 8520480 1375805652
        302022657 -905696960 -1908180116</internalNodes>
      <leafValues>
        -3.9790353178977966e-01 3.6767682433128357e-01</leafValues></_>
    <_>
      <internalNodes>
        0 -1 0 -447492893 -150658479 1291944073 1435866113 -687627574
        -267870080 -1962866293 2140908483</internalNodes>
      <leafValues>
        -6.0327184200286865e-01 2.3945096135139465e-01</leafValues></_>
    <_>
      <internalNodes>
        0 -1 5564 -737632033 -1656748920 458258956 1569832981 -733440006
        634147914 50533019 -1002208673</internalNodes>
      <leafValues>
        -2.2401252388954163e-01 6.2434816360473633e-01</leafValues></_>
    <_>
      <internalNodes>
        0 -1 8188 -2138633984 -804159213 134332668 -1752448896
        -1576363848 -762314606 -1450665239 2106573770</internalNodes>
      <leafValues>
        -6.4297950267791748e-01 1.6413106024265289e-01</leafValues></_>
    <_>
      <internalNodes>
        0 -1 351 51168606 1527923730 813712150 -784035816 -1873870156
        -2143191030 -2147432310 -639471429</internalNodes>
      <leafValues>
        -3.3970689773559570e-01 3.6340576410293579e-01</leafValues></_>
    <_>
      <internalNodes>
        0 -1 665 -1761361188 -767377336 262144 -62504800 -2147433462
        -1719451646 -1279097968 2078195878</internalNodes>
      <leafValues>
        -6.3295823335647583e-01 1.9109904766082764e-01</leafValues></_>
    <_>
      <internalNodes>
        0 -1 6528 -98050865 -253530316 -1493254281 -165546472
        -1996706744 -977272963 -428417548 -328142508</internalNodes>
      <leafValues>
        -2.1453876793384552e-01 5.0586169958114624e-01</leafValues></_>
    <_>
      <internalNodes>
        0 -1 3221 -1568525312 -763313920 268468480 -805271476 -930741631
        -2147483645 -192757627 1937678337</internalNodes>
      <leafValues>
        -7.0906090736389160e-01 1.4093568921089172e-01</leafValues></_>
    <_>
      <internalNodes>
        0 -1 4973 -1222381359 -575254906 -1091641399 285680204
        -152506663 528872708 1485160155 -2092720861</internalNodes>
      <leafValues>
        -1.8270663917064667e-01 5.7951205968856812e-01</leafValues></_>
    <_>
      <internalNodes>
        0 -1 8003 -1530727742 -1051688954 807473252 -157679480
        -1467768744 -1602191350 -904295952 1839977089</internalNodes>
      <leafValues>
        -7.4772280454635620e-01 1.3798956573009491e-01</leafValues></_>
    <_>
      <internalNodes>
        0 -1 7761 -1653994332 -1884594940 -17859035 1207985712
        -588591992 -1368567991 1869785763 -2002121288</internalNodes>
      <leafValues>
        -2.2186096012592316e-01 3.7028291821479797e-01</leafValues></_>
    <_>
      <internalNodes>
        0 -1 8429 -972295678 -1871642623 -2146369404 -754450173
        -1878883812 343965698 -1709643100 2041240234</internalNodes>
      <leafValues>
        -6.1281609535217285e-01 1.5285736322402954e-01</leafValues></_>
    <_>
      <internalNodes>
        0 -1 5050 -1254949684 -1280451192 -755040400 -250350349
        -323196728 258285390 284388491 -518281765</internalNodes>
      <leafValues>
        -1.2399647384881973e-01 5.8760166168212891e-01</leafValues></_>
    <_>
      <internalNodes>
        0 -1 720 -402439612 -333999600 1073840140 -682491342 1611300872
        -1451130878 -1929213717 2132790188</internalNodes>
      <leafValues>
        -5.7277226448059082e-01 1.4567200839519501e-01</leafValues></_>
    <_>
      <internalNodes>
        0 -1 1926 -5285324 -137495891 1942944412 291049155 -34250940
        -1932952267 -1143679773 -138313905</internalNodes>
      <leafValues>
        -1.1912204325199127e-01 6.1776107549667358e-01</leafValues></_>
    <_>
      <internalNodes>
        0 -1 7820 -1835790336 -1048346605 1879069201 -666664960
        -1065187112 -503283696 -66549526 1938811066</internalNodes>
      <leafValues>
        -5.8600842952728271e-01 1.2239101529121399e-01</leafValues></_>
    <_>
      <internalNodes>
        0 -1 4818 -2046264624 -1407451139 1591530551 -42205698
        -293677362 -1 1719003116 -269025420</internalNodes>
      <leafValues>
        -1.7050728201866150e-01 4.3908092379570007e-01</leafValues></_>
    <_>
      <internalNodes>
        0 -1 8457 -1580217556 -788520957 1048660 -853931900 -1446997964
        -2130591742 -201325948 2063585434</internalNodes>
      <leafValues>
        -6.3367825746536255e-01 1.1314042657613754e-01</leafValues></_>
    <_>
      <internalNodes>
        0 -1 4738 -1090523523 -11600286 -4325387 -117113158 -1253390
        -546316476 -262 -19935525</internalNodes>
      <leafValues>
        -1.1593436449766159e-01 6.1583918333053589e-01</leafValues></_>
    <_>
      <internalNodes>
        0 -1 6080 -1365768640 -2070933487 -267796185 -775421815
        -1879039992 -1609039744 -1064787816 730783882</internalNodes>
      <leafValues>
        -6.6902422904968262e-01 9.4920225441455841e-02</leafValues></_>
    <_>
      <internalNodes>
        0 -1 5389 -1733141717 -172343497 1056898657 -101910808
        -1099146020 -1350566027 351442293 -252131536</internalNodes>
      <leafValues>
        -1.4544768631458282e-01 4.6454167366027832e-01</leafValues></_>
    <_>
      <internalNodes>
        0 -1 376 -1055686526 -469724862 -1811931102 -968482560
        -1069383168 -1593835520 -1744797037 2048503816</internalNodes>
      <leafValues>
        -7.4312388896942139e-01 8.7547920644283295e-02</leafValues></_>
    <_>
      <internalNodes>
        0 -1 7958 2110746365 -1645215824 1991048887 -807151645
        -182732390 -16842905 -1533893685 -471089953</internalNodes>
      <leafValues>
        -7.6470702886581421e-02 7.6930534839630127e-01</leafValues></_>
    <_>
      <internalNodes>
        0 -1 176 -2041912960 -402616320 1108877316 -757857916
        -1051999095 -671047670 -1960738664 529752225</internalNodes>
      <leafValues>
        -7.1882957220077515e-01 8.3749696612358093e-02</leafValues></_>
    <_>
      <internalNodes>
        0 -1 5076 -1079515719 -1150599672 -16777225 -616205051
        1589112106 -21176494 -1961639989 -1954338981</internalNodes>
      <leafValues>
        -8.3121150732040405e-02 6.7869079113006592e-01</leafValues></_>
    <_>
      <internalNodes>
        0 -1 4318 1879822864 -1006534626 83894604 -115832680 -2130575322
        -2004877184 -2147317504 1002351500</internalNodes>
      <leafValues>
        -6.3940030336380005e-01 8.2896836102008820e-02</leafValues></_>
    <_>
      <internalNodes>
        0 -1 4342 -937068902 -1183572944 -857703305 -596117899
        -111387654 1608515583 -964870440 -553812098</internalNodes>
      <leafValues>
        -1.0681562125682831e-01 5.0716698169708252e-01</leafValues></_>
    <_>
      <internalNodes>
        0 -1 327 -1806630508 -2122055424 268436728 -988807040
        -2147417404 -1732706304 -1609391904 1518585926</internalNodes>
      <leafValues>
        -6.7760509252548218e-01 7.4784711003303528e-02</leafValues></_>
    <_>
      <internalNodes>
        0 -1 8000 1815854010 -1632403468 -16879875 -8458778 -1069622
        -1367998671 -1077608450 -6299682</internalNodes>
      <leafValues>
        -6.0056533664464951e-02 8.1020408868789673e-01</leafValues></_>
    <_>
      <internalNodes>
        0 -1 8385 -184397552 -2130263933 88 -1073643517 -771571644
        1073774594 -2143285232 1486538889</internalNodes>
      <leafValues>
        -8.6398166418075562e-01 5.4527994245290756e-02</leafValues></_>
    <_>
      <internalNodes>
        0 -1 6112 -1146371887 -1174438127 -486555669 -185139659
        -159985425 -287309953 -319424534 -422398605</internalNodes>
      <leafValues>
        -7.0912808179855347e-02 6.4405649900436401e-01</leafValues></_>
    <_>
      <internalNodes>
        0 -1 3473 310772896 -1325378992 1375785072 1146962232 1075912704
        1216348160 -1006583680 1162871432</internalNodes>
      <leafValues>
        -5.8813691139221191e-01 6.6609613597393036e-02</leafValues></_>
    <_>
      <internalNodes>
        0 -1 6064 -1379987963 -316223946 2147483620 1060175358
        -1082163372 -25268226 1031274471 -360743</internalNodes>
      <leafValues>
        -7.6462887227535248e-02 5.2528846263885498e-01</leafValues></_>
    <_>
      <internalNodes>
        0 -1 616 -999898944 -1507450880 -2147221504 -665419704
        -1056915447 268959848 -2097109854 1474265108</internalNodes>
      <leafValues>
        -6.7756491899490356e-01 6.2004648149013519e-02</leafValues></_>
    <_>
      <internalNodes>
        0 -1 3326 1345704927 -640581969 -705398943 -721066029 -595634444
        -847479051 -689917989 -883853876</internalNodes>
      <leafValues>
        -4.9038194119930267e-02 7.2319763898849487e-01</leafValues></_>
    <_>
      <internalNodes>
        0 -1 8463 -800892424 1372389632 -1996488437 -2096889334
        135826082 -1834974589 -1308056960 1840958088</internalNodes>
      <leafValues>
        -7.7473419904708862e-01 4.5192036777734756e-02</leafValues></_>
    <_>
      <internalNodes>
        0 -1 7861 -726970402 -68 -16777354 -1125318661 -44772194 -524289
        -164227397 -17047608</internalNodes>
      <leafValues>
        -6.5648354589939117e-02 5.2279919385910034e-01</leafValues></_>
    <_>
      <internalNodes>
        0 -1 7081 -2146925307 -1022361084 268501506 -1828699632
        -1610579967 704675979 -1576957492 1068392616</internalNodes>
      <leafValues>
        -6.5107095241546631e-01 5.2336651831865311e-02</leafValues></_>
    <_>
      <internalNodes>
        0 -1 6080 -404005203 -1073807489 -352453530 -167772423
        -142615324 -134217729 -16844802 -1073809409</internalNodes>
      <leafValues>
        -4.9590133130550385e-02 5.9530407190322876e-01</leafValues></_>
    <_>
      <internalNodes>
        0 -1 4490 348287290 -1609039744 -2147483344 1358299656 677445632
        -1559216128 1115693712 153100616</internalNodes>
      <leafValues>
        -7.1540164947509766e-01 4.1978284716606140e-02</leafValues></_>
    <_>
      <internalNodes>
        0 -1 6409 2122227710 -17268818 -17367063 1722281795 -34146438
        -287998000 -580059957 -14159957</internalNodes>
      <leafValues>
        -4.5866169035434723e-02 7.1910107135772705e-01</leafValues></_>
    <_>
      <internalNodes>
        0 -1 7857 -1073191898 -1048280957 -2143289337 -1809842150
        583108672 -2138570752 -1073643360 1509984392</internalNodes>
      <leafValues>
        -7.4928164482116699e-01 3.7221763283014297e-02</leafValues></_>
    <_>
      <internalNodes>
        0 -1 1455 -1731510643 1537805924 2113273725 -178955147
        -822641284 -34603009 -16789514 -190840875</internalNodes>
      <leafValues>
        -4.8157256096601486e-02 6.1918598413467407e-01</leafValues></_>
    <_>
      <internalNodes>
        0 -1 5704 -1304428464 -251625343 16814081 -784072442 -1073184631
        -2147483648 -1073673688 2133844490</internalNodes>
      <leafValues>
        -6.1488217115402222e-01 4.3369557708501816e-02</leafValues></_>
    <_>
      <internalNodes>
        0 -1 8254 -1086328912 -278200530 -285803929 1781989183
        -1074333860 1568145401 -151011629 -1510015128</internalNodes>
      <leafValues>
        -4.4267740100622177e-02 5.2931189537048340e-01</leafValues></_>
    <_>
      <internalNodes>
        0 -1 6272 2068627689 356548756 269565970 -1316159486 -2136774520
        -2146959228 -251494336 4903827</internalNodes>
      <leafValues>
        -5.5077147483825684e-01 4.5414663851261139e-02</leafValues></_>
    <_>
      <internalNodes>
        0 -1 7116 -286789655 -1858076805 -1166082226 -1095139484
        -1090745334 -41943041 -855853095 -629358724</internalNodes>
      <leafValues>
        -3.1718190759420395e-02 6.1913019418716431e-01</leafValues></_>
    <_>
      <internalNodes>
        0 -1 66 -1608998464 -1073610368 229409 1636601858 -1879048190
        -2147483646 -2147450864 2051723275</internalNodes>
      <leafValues>
        -8.5741883516311646e-01 2.2449150681495667e-02</leafValues></_>
    <_>
      <internalNodes>
        0 -1 7997 -1140900125 -1077018628 -33816604 -303169665 -16982035
        -1245204 -150999062 -136314889</internalNodes>
      <leafValues>
        -3.1814899295568466e-02 7.6190435886383057e-01</leafValues></_>
    <_>
      <internalNodes>
        0 -1 7661 268593200 101032130 -2071986111 -671088638 -234846080
        1342177280 1141030928 1657438849</internalNodes>
      <leafValues>
        -6.7311328649520874e-01 2.9274575412273407e-02</leafValues></_>
    <_>
      <internalNodes>
        0 -1 2463 -172053429 -54777956 -1208037664 1899084529 2097051381
        802094975 -1258498337 -852769565</internalNodes>
      <leafValues>
        -2.6292730122804642e-02 7.4444299936294556e-01</leafValues></_>
    <_>
      <internalNodes>
        0 -1 7358 49162 1350615184 16777488 302776976 302157905
        -1560248192 419473824 1597825128</internalNodes>
      <leafValues>
        -8.2451987266540527e-01 1.7601678147912025e-02</leafValues></_>
    <_>
      <internalNodes>
        0 -1 4764 -25690754 -11636764 -65675 -35651599 -3350690
        -570556434 -537067649 -607158961</internalNodes>
      <leafValues>
        -2.0046558231115341e-02 8.3559530973434448e-01</leafValues></_>
    <_>
      <internalNodes>
        0 -1 5712 -168821029 -134221841 -65547 -1073807377 -557068
        -536870913 -268435458 -218103809</internalNodes>
      <leafValues>
        -1.8341872841119766e-02 9.0690904855728149e-01</leafValues></_>
    <_>
      <internalNodes>
        0 -1 1376 272629890 -786951152 268440344 -733998576 536903708
        -1601593216 655488 498795193</internalNodes>
      <leafValues>
        -8.0856072902679443e-01 2.3144029080867767e-02</leafValues></_>
    <_>
      <internalNodes>
        0 -1 3919 -75846957 -1146716210 -86310922 -173572130 -1224739460
        268435439 2119333631 -755400842</internalNodes>
      <leafValues>
        -2.4286938831210136e-02 6.5961658954620361e-01</leafValues></_>
    <_>
      <internalNodes>
        0 -1 3309 -1558681896 -1996488703 -2063593424 -2130640890
        -2109669060 -1744830464 -2138429286 723585225</internalNodes>
      <leafValues>
        -6.6652870178222656e-01 2.4456962943077087e-02</leafValues></_>
    <_>
      <internalNodes>
        0 -1 3375 -58753025 -1633222914 -285216779 506461950 2145345503
        -696320065 -168626187 -28903588</internalNodes>
      <leafValues>
        -1.7750376835465431e-02 6.7429119348526001e-01</leafValues></_>
    <_>
      <internalNodes>
        0 -1 6231 403898562 1107296256 1677788624 -1040187007 1207969832
        1207992448 570432001 990158889</internalNodes>
      <leafValues>
        -7.6076966524124146e-01 1.3389443047344685e-02</leafValues></_>
    <_>
      <internalNodes>
        0 -1 3646 -1086691389 -1196054 -69676 -573572612 -34341162
        -1880260627 -298123274 -136319633</internalNodes>
      <leafValues>
        -9.4420816749334335e-03 8.2129472494125366e-01</leafValues></_>
    <_>
      <internalNodes>
        0 -1 720 -1459433450 1544683520 1090519050 -729677535 688283
        -1459519488 -2130539800 2038973358</internalNodes>
      <leafValues>
        -8.1602650880813599e-01 1.3544455170631409e-02</leafValues></_>
    <_>
      <internalNodes>
        0 -1 7287 -24591 -26247220 -269500440 -1073873291 1610608302
        -838926482 -9076743 -1534233473</internalNodes>
      <leafValues>
        -1.3747635297477245e-02 7.5478851795196533e-01</leafValues></_>
    <_>
      <internalNodes>
        0 -1 781 -972403812 -1807339440 1130552 -2130444158 42508690
        -1711276030 -2122186743 1577746632</internalNodes>
      <leafValues>
        -7.2227883338928223e-01 1.2849897146224976e-02</leafValues></_>
    <_>
      <internalNodes>
        0 -1 7231 2012938221 1005838068 -536887312 -22085644 -1881210904
        2138963956 -17799193 -1002095301</internalNodes>
      <leafValues>
        -1.1696167290210724e-02 6.9348108768463135e-01</leafValues></_>
    <_>
      <internalNodes>
        0 -1 5827 -805211949 -783220732 1358974989 -1073217520 4358
        8519680 -1073478769 293613568</internalNodes>
      <leafValues>
        -6.2409061193466187e-01 1.1714748106896877e-02</leafValues></_>
    <_>
      <internalNodes>
        0 -1 4323 -2 -16842753 -6 -17825810 -60 -671088642 -33554547
        -33685513</internalNodes>
      <leafValues>
        -1.2140598148107529e-02 6.5300607681274414e-01</leafValues></_>
    <_>
      <internalNodes>
        0 -1 8369 -1040039762 -1290796797 8388608 644 -2147425918
        -1744830430 545497800 2041299000</internalNodes>
      <leafValues>
        -7.9170978069305420e-01 7.4143805541098118e-03</leafValues></_>
    <_>
      <internalNodes>
        0 -1 967 800061015 1022820258 -318767120 -547749919 -127788
        -1114114 2113265533 -539001100</internalNodes>
      <leafValues>
        -1.0096953250467777e-02 7.3388946056365967e-01</leafValues></_>
    <_>
      <internalNodes>
        0 -1 1721 -800718843 -1072627438 1293 1082196226 -2147483488
        -2121727608 -2113757013 1477574808</internalNodes>
      <leafValues>
        -7.6272368431091309e-01 8.1780292093753815e-03</leafValues></_>
    <_>
      <internalNodes>
        0 -1 7790 -290509808 -1074331658 -268501314 -318767122
        1073692494 -276824233 1878945653 -52470316</internalNodes>
      <leafValues>
        -6.5181301906704903e-03 7.1177947521209717e-01</leafValues></_>
    <_>
      <internalNodes>
        0 -1 4426 1350574669 21168128 1 219095041 1056971 16875520
        -2113830838 1124655520</internalNodes>
      <leafValues>
        -7.5014132261276245e-01 6.7634508013725281e-03</leafValues></_>
    <_>
      <internalNodes>
        0 -1 3809 986033504 888799225 -270614811 -1895890945 -59310268
        2147483647 -25723074 -131097</internalNodes>
      <leafValues>
        -7.3991781100630760e-03 6.4045023918151855e-01</leafValues></_>
    <_>
      <internalNodes>
        0 -1 2197 621232654 -741228479 285212673 27361796 128
        -2113929216 268501378 1887543938</internalNodes>
      <leafValues>
        -7.4727374315261841e-01 6.4151547849178314e-03</leafValues></_>
    <_>
      <internalNodes>
        0 -1 1050 -17891723 -1896952086 -16777351 652541683 -2123940
        -536903809 2145812308 -2023129257</internalNodes>
      <leafValues>
        -4.0379241108894348e-03 7.8244316577911377e-01</leafValues></_>
    <_>
      <internalNodes>
        0 -1 3544 809533610 -784269184 16777216 -1861107694 134322324
        536870912 -2134671208 1754169482</internalNodes>
      <leafValues>
        -8.3126384019851685e-01 2.3285669740289450e-03</leafValues></_>
    <_>
      <internalNodes>
        0 -1 3544 -306874767 783219711 2130706431 1324285647 -98441
        2147483391 -50430154 -1776067243</internalNodes>
      <leafValues>
        -2.6991711929440498e-03 8.0882388353347778e-01</leafValues></_>
    <_>
      <internalNodes>
        0 -1 4044 -788408995 1352237073 -2147417825 -249233406 536905896
        -1879048192 -1828158831 545292301</internalNodes>
      <leafValues>
        -8.2116037607192993e-01 4.2092991061508656e-03</leafValues></_>
    <_>
      <internalNodes>
        0 -1 4044 1783511714 -1343561770 -33066 251592437 -285253817
        2147483647 -50955158 -570523789</internalNodes>
      <leafValues>
        -1.8922772724181414e-03 8.2984840869903564e-01</leafValues></_>
    <_>
      <internalNodes>
        0 -1 7245 -1811865138 268451840 16843014 -250937216 -1862235494
        -2076180477 -2097135486 571064449</internalNodes>
      <leafValues>
        -8.4435737133026123e-01 6.5436266595497727e-04</leafValues></_>
    <_>
      <internalNodes>
        0 -1 3252 -1358975422 -1359020033 -268468569 -1 -32897
        -536870913 -2 -134217729</internalNodes>
      <leafValues>
        -7.3962537571787834e-03 7.0504832267761230e-01</leafValues></_>
    <_>
      <internalNodes>
        0 -1 3252 1360122005 1363148800 1090552213 16777216 134251192 0
        2048 32768</internalNodes>
      <leafValues>
        -7.8666698932647705e-01 6.5824282355606556e-03</leafValues></_>
    <_>
      <internalNodes>
        0 -1 6167 -1917970908 784334830 -16814546 -1326514177 -102580
        -671088649 -143163436 -496732172</internalNodes>
      <leafValues>
        -2.7161904145032167e-03 8.1949466466903687e-01</leafValues></_>
    <_>
      <internalNodes>
        0 -1 6167 -268320295 -1853865904 286277649 84934672 34947
        545259648 32779 461471754</internalNodes>
      <leafValues>
        -8.7614691257476807e-01 1.7827224219217896e-03</leafValues></_>
    <_>
      <internalNodes>
        0 -1 7159 247350292 -1091764227 -285278274 -402849803 1722253144
        2146402301 368180342 -1942691978</internalNodes>
      <leafValues>
        -2.6085795834660530e-03 8.1995761394500732e-01</leafValues></_>
    <_>
      <internalNodes>
        0 -1 2797 -1861110417 1343291393 18878725 1662713864 268503225
        -2147483648 16853075 692652041</internalNodes>
      <leafValues>
        -8.6066490411758423e-01 3.2007698900997639e-03</leafValues></_>
    <_>
      <internalNodes>
        0 -1 791 -1632864556 -1346174979 -204828 -4521992 -6365186 -1
        -65666 -16810121</internalNodes>
      <leafValues>
        -2.1255989558994770e-03 8.3126765489578247e-01</leafValues></_>
    <_>
      <internalNodes>
        0 -1 112 285937927 1359413248 1114501 286457857 73985 16777216
        51576873 25296907</internalNodes>
      <leafValues>
        -8.4970885515213013e-01 2.3964822757989168e-03</leafValues></_>
    <_>
      <internalNodes>
        0 -1 6518 -587461008 -1359151108 2147287026 786235352 -722182444
        -1074921474 -478773548 -1360666636</internalNodes>
      <leafValues>
        -2.1295747719705105e-03 8.6375999450683594e-01</leafValues></_>
    <_>
      <internalNodes>
        0 -1 6518 50586091 1359151105 1073807361 1359020035 8421675 1
        98571 1879707659</internalNodes>
      <leafValues>
        -9.1099876165390015e-01 1.6205464489758015e-03</leafValues></_>
    <_>
      <internalNodes>
        0 -1 5734 -1172415216 -1393754116 -65604 -17891338 2146926580 -4
        -554270860 -6946828</internalNodes>
      <leafValues>
        -2.3599478881806135e-03 8.5739850997924805e-01</leafValues></_>
    <_>
      <internalNodes>
        0 -1 4987 1350664955 1082195969 25297163 92405771 134415275
        671088640 17367227 1125318859</internalNodes>
      <leafValues>
        -8.8393628597259521e-01 1.7652573296800256e-03</leafValues></_>
    <_>
      <internalNodes>
        0 -1 4987 -1342280192 -1073807364 -25231628 -25296900 -65964
        -1048579 -50397884 -1259536556</internalNodes>
      <leafValues>
        -2.0218265708535910e-03 8.8687014579772949e-01</leafValues></_>
    <_>
      <internalNodes>
        0 -1 6496 1895948511 1073741953 1065051 17891345 565401
        -2147483648 134254731 654475274</internalNodes>
      <leafValues>
        -9.2499250173568726e-01 1.4156798133626580e-03</leafValues></_>
    <_>
      <internalNodes>
        0 -1 6496 -269598944 -1090519041 -28 -1048578 -41098 -1
        -1107329164 -688139</internalNodes>
      <leafValues>
        -1.9001436885446310e-03 9.0490275621414185e-01</leafValues></_>
    <_>
      <internalNodes>
        0 -1 5438 1367462389 -1861218303 267 1367408641 -2146926424
        -1862238207 -2113371718 168697866</internalNodes>
      <leafValues>
        -9.1502863168716431e-01 1.3826739741489291e-03</leafValues></_>
    <_>
      <internalNodes>
        0 -1 5438 -276943198 1861222394 -258 -1359020034 2147450711
        1879015295 2146924117 -168689675</internalNodes>
      <leafValues>
        -1.2771742185577750e-03 9.2320793867111206e-01</leafValues></_></weakClassifiers></stage8>
</opencv_storage>
