<?xml version="1.0"?>
<opencv_storage>
<stage14>
  <maxWeakCount>100</maxWeakCount>
  <stageThreshold>-3.0146715641021729e+00</stageThreshold>
  <weakClassifiers>
    <_>
      <internalNodes>
        0 -1 117 0 0 0 131072 8390656 536870912 134217728 -1979711486</internalNodes>
      <leafValues>
        -9.8916059732437134e-01 9.4262427091598511e-01</leafValues></_>
    <_>
      <internalNodes>
        0 -1 1403 4227224 260 0 -2130706300 524416 196608 1152
        -792459008</internalNodes>
      <leafValues>
        -9.1772621870040894e-01 7.5229328870773315e-01</leafValues></_>
    <_>
      <internalNodes>
        0 -1 118 1343264988 270532876 -2139095040 50331649 32938 0
        142811168 -1173815293</internalNodes>
      <leafValues>
        -6.0785239934921265e-01 5.4346728324890137e-01</leafValues></_>
    <_>
      <internalNodes>
        0 -1 6407 956307754 421530632 877981904 -2128182271 346033544
        1753238784 402669707 -2146709941</internalNodes>
      <leafValues>
        -2.6311346888542175e-01 7.6132506132125854e-01</leafValues></_>
    <_>
      <internalNodes>
        0 -1 2957 -930967573 16875793 1076414993 285409288 109068490
        -1610593244 32843 -1046805367</internalNodes>
      <leafValues>
        -1.2519989907741547e-01 9.2846524715423584e-01</leafValues></_>
    <_>
      <internalNodes>
        0 -1 728 537035136 285409280 -2146430975 -243269631 -2147483520
        -2139094848 139 730005512</internalNodes>
      <leafValues>
        -7.0940738916397095e-01 2.2729083895683289e-01</leafValues></_>
    <_>
      <internalNodes>
        0 -1 2747 1361430599 -1868526580 71304409 -1860091784 90502338
        486473717 1178833161 -1992067714</internalNodes>
      <leafValues>
        -1.7448349297046661e-01 8.3708369731903076e-01</leafValues></_>
    <_>
      <internalNodes>
        0 -1 2684 1078001666 -2130706431 32785 1359022080 56 -1610612736
        -2147446647 1476919424</internalNodes>
      <leafValues>
        -8.0378532409667969e-01 1.5338920056819916e-01</leafValues></_>
    <_>
      <internalNodes>
        0 -1 6571 362528925 2096660208 1624011201 -1953743445
        -1672380004 1047819364 67661000 -1548884701</internalNodes>
      <leafValues>
        -1.6061557829380035e-01 7.7002906799316406e-01</leafValues></_>
    <_>
      <internalNodes>
        0 -1 8181 -1074020621 -3473410 -17826200 2104655849 -139825
        -196652 -286466984 -38536101</internalNodes>
      <leafValues>
        -9.7821407020092010e-02 7.6858162879943848e-01</leafValues></_>
    <_>
      <internalNodes>
        0 -1 8279 402718851 1114112 295185 -721354747 1073774594
        -2143125376 557225 1000046600</internalNodes>
      <leafValues>
        -7.0317077636718750e-01 1.6389605402946472e-01</leafValues></_>
    <_>
      <internalNodes>
        0 -1 6480 -1065334879 -2094338187 -1402603983 -1854800304
        -1272740722 1727987703 7402592 -1637271972</internalNodes>
      <leafValues>
        -1.5816454589366913e-01 6.7976510524749756e-01</leafValues></_>
    <_>
      <internalNodes>
        0 -1 5516 62924952 -1857454080 2 -2128543740 -2147475448
        1082130692 268571416 237571</internalNodes>
      <leafValues>
        -6.0592222213745117e-01 1.3707207143306732e-01</leafValues></_>
    <_>
      <internalNodes>
        0 -1 5402 1244532814 -1440452760 1946020529 -1855884176
        -1160887148 -413368356 -955201909 -2008191717</internalNodes>
      <leafValues>
        -1.0797721892595291e-01 7.6741385459899902e-01</leafValues></_>
    <_>
      <internalNodes>
        0 -1 5652 1324220284 1072619503 -2228747 1363468151 -268632333
        2080661500 -328373 -1097208433</internalNodes>
      <leafValues>
        -6.0961682349443436e-02 7.9415988922119141e-01</leafValues></_>
    <_>
      <internalNodes>
        0 -1 7630 -2130673648 -1879048192 17 805371904 -2147450872
        -1744830440 268501170 730464640</internalNodes>
      <leafValues>
        -7.1730130910873413e-01 1.0543449223041534e-01</leafValues></_>
    <_>
      <internalNodes>
        0 -1 3073 251574241 -664155012 -100664639 -778753347 1467776458
        -976945308 1719315868 -1995184946</internalNodes>
      <leafValues>
        -7.2482086718082428e-02 8.8551169633865356e-01</leafValues></_>
    <_>
      <internalNodes>
        0 -1 866 268456340 268435460 671105292 28639250 -2146827895
        131072 -2139062263 1343340546</internalNodes>
      <leafValues>
        -6.0051310062408447e-01 8.4664195775985718e-02</leafValues></_>
    <_>
      <internalNodes>
        0 -1 5261 -575352828 -538378255 -420612169 -1216938121
        -1267206147 2147483647 -294357254 -159580298</internalNodes>
      <leafValues>
        -7.6632559299468994e-02 7.7903026342391968e-01</leafValues></_>
    <_>
      <internalNodes>
        0 -1 8185 -1358958797 -269484098 -16845132 -1646730 -32914
        -806354945 -197125 -1114113</internalNodes>
      <leafValues>
        -4.3366163969039917e-02 8.7519592046737671e-01</leafValues></_>
    <_>
      <internalNodes>
        0 -1 8419 -1065304060 1073807362 1073741824 -778993660 1146882
        671121536 16809984 1621311499</internalNodes>
      <leafValues>
        -8.1305986642837524e-01 6.3706122338771820e-02</leafValues></_>
    <_>
      <internalNodes>
        0 -1 3452 342583215 1073676016 -1245187 -574292246 1802393590
        2122219388 -1166901683 -1140593199</internalNodes>
      <leafValues>
        -6.0453284531831741e-02 7.8455364704132080e-01</leafValues></_>
    <_>
      <internalNodes>
        0 -1 3935 -2147270512 -1875902456 268435529 -1609561264
        -2086628960 8 -2013156844 585671306</internalNodes>
      <leafValues>
        -6.7268860340118408e-01 5.7084701955318451e-02</leafValues></_>
    <_>
      <internalNodes>
        0 -1 3796 -134290870 -135331841 2146893437 -1 -2090 -1 -1048578
        -1</internalNodes>
      <leafValues>
        -5.1835630089044571e-02 7.4076420068740845e-01</leafValues></_>
    <_>
      <internalNodes>
        0 -1 4305 -269484204 -269549588 -297 -16777234 -33 -1 -133239
        -65537</internalNodes>
      <leafValues>
        -3.2357428222894669e-02 7.2279995679855347e-01</leafValues></_>
    <_>
      <internalNodes>
        0 -1 2699 1350869776 268452416 16842752 1629487107 655360
        -2113798112 -1828716536 706793634</internalNodes>
      <leafValues>
        -8.3747673034667969e-01 4.0310047566890717e-02</leafValues></_>
    <_>
      <internalNodes>
        0 -1 4256 -406915472 989659130 -143 2104620516 -8921264
        243040118 -1099106910 -507536161</internalNodes>
      <leafValues>
        -3.4175638109445572e-02 8.1271123886108398e-01</leafValues></_>
    <_>
      <internalNodes>
        0 -1 7628 1073938832 -1048576000 -2147479416 303104016
        -2146959352 142606354 -2130542446 1613299851</internalNodes>
      <leafValues>
        -7.3341643810272217e-01 3.4844003617763519e-02</leafValues></_>
    <_>
      <internalNodes>
        0 -1 3886 -340824178 -1662583243 -17530881 -1661370396 -25239978
        -1 -901523 -1644208259</internalNodes>
      <leafValues>
        -2.8765549883246422e-02 7.7238470315933228e-01</leafValues></_>
    <_>
      <internalNodes>
        0 -1 3544 -1849388904 71303176 16842762 -2079653879 2629668
        -536346624 592008 528629906</internalNodes>
      <leafValues>
        -7.2057342529296875e-01 2.7104951441287994e-02</leafValues></_>
    <_>
      <internalNodes>
        0 -1 7957 -34938 -1094729746 -92340496 -287047700 -35654566
        -65545 -192942182 -1494254133</internalNodes>
      <leafValues>
        -2.3196462541818619e-02 7.9595023393630981e-01</leafValues></_>
    <_>
      <internalNodes>
        0 -1 6440 -26631 2130706423 2147483647 -163844 2139095025
        2147483647 -557068 -1074339841</internalNodes>
      <leafValues>
        -1.8369307741522789e-02 8.9029300212860107e-01</leafValues></_>
    <_>
      <internalNodes>
        0 -1 4794 -1995956176 -1870036732 33554570 -1056833535
        -2147352567 0 128 1250623498</internalNodes>
      <leafValues>
        -8.6812806129455566e-01 2.2896289825439453e-02</leafValues></_>
    <_>
      <internalNodes>
        0 -1 4301 -16908437 -84934658 -65799 -33619996 -8233 -8454281
        -8519683 -1099497475</internalNodes>
      <leafValues>
        -1.9659176468849182e-02 7.9696106910705566e-01</leafValues></_>
    <_>
      <internalNodes>
        0 -1 3846 1099227465 268452488 65537 -1056960512 302022784 0
        538083904 134906368</internalNodes>
      <leafValues>
        -7.3675942420959473e-01 1.8235024064779282e-02</leafValues></_>
    <_>
      <internalNodes>
        0 -1 6611 -1351147016 -1092190232 -67178506 2147418046
        -134742122 -25165858 -16853266 -515965578</internalNodes>
      <leafValues>
        -1.5550891868770123e-02 8.1008595228195190e-01</leafValues></_>
    <_>
      <internalNodes>
        0 -1 8315 -2096561822 1073741826 4194442 1073741905 -2146926328
        131072 -2146795520 679968908</internalNodes>
      <leafValues>
        -9.1858237981796265e-01 1.0704593732953072e-02</leafValues></_>
    <_>
      <internalNodes>
        0 -1 7426 -1241600900 -1342242819 -1074431236 -67108867
        2147483348 -1 2146696926 -831193092</internalNodes>
      <leafValues>
        -1.1550496332347393e-02 8.5342574119567871e-01</leafValues></_>
    <_>
      <internalNodes>
        0 -1 3415 -1878962038 1359118340 98304 318832648 -939524096
        134217856 -2063564543 419463175</internalNodes>
      <leafValues>
        -7.5946825742721558e-01 1.2524612247943878e-02</leafValues></_>
    <_>
      <internalNodes>
        0 -1 7943 805240312 -65537 -2 -268500994 -196756 -1 -9142277
        -302514827</internalNodes>
      <leafValues>
        -9.8485732451081276e-03 8.6931705474853516e-01</leafValues></_>
    <_>
      <internalNodes>
        0 -1 8156 -1073643405 327680 1026 -1861910528 1610809480 0
        -2147352574 411705419</internalNodes>
      <leafValues>
        -8.3831870555877686e-01 6.5270438790321350e-03</leafValues></_>
    <_>
      <internalNodes>
        0 -1 6141 1052655377 -1092157698 -65545 -1292238986 -16843116 -1
        -155660 -2140831771</internalNodes>
      <leafValues>
        -8.0574257299304008e-03 8.8663005828857422e-01</leafValues></_>
    <_>
      <internalNodes>
        0 -1 4950 411058703 71368705 9 -1325400056 -2139029502 0
        -2138726343 1890157184</internalNodes>
      <leafValues>
        -9.5549643039703369e-01 2.5583007372915745e-03</leafValues></_>
    <_>
      <internalNodes>
        0 -1 3765 -285278362 -16777233 -274 -65538 -10 -33554433
        -150994956 -34144393</internalNodes>
      <leafValues>
        -6.3350521959364414e-03 8.1804287433624268e-01</leafValues></_>
    <_>
      <internalNodes>
        0 -1 6062 1048727 -2147483648 1 -1879047936 136 -2013265920 200
        982139019</internalNodes>
      <leafValues>
        -9.0806293487548828e-01 5.5080298334360123e-03</leafValues></_>
    <_>
      <internalNodes>
        0 -1 48 -1493242326 -1090519041 -2049 -1 -35 -1 -130 -1</internalNodes>
      <leafValues>
        -6.8291067145764828e-03 8.4038513898849487e-01</leafValues></_>
    <_>
      <internalNodes>
        0 -1 6456 155484290 16 17 0 -2147450752 -2147483520 136 8913026</internalNodes>
      <leafValues>
        -8.8036888837814331e-01 3.6638001911342144e-03</leafValues></_>
    <_>
      <internalNodes>
        0 -1 3543 485982012 -269553665 -83886102 -1426538502 -35066
        -1744830481 -134252682 -1795588365</internalNodes>
      <leafValues>
        -5.8206734247505665e-03 9.1476088762283325e-01</leafValues></_>
    <_>
      <internalNodes>
        0 -1 3079 20608 -2147483632 8454144 285212673 16777219 131072
        -2147448245 856227993</internalNodes>
      <leafValues>
        -9.4145464897155762e-01 2.8944767545908689e-03</leafValues></_>
    <_>
      <internalNodes>
        0 -1 5760 -291081102 -1359020033 -16843148 -25231367 -268533932
        -524289 -537296908 -1074397193</internalNodes>
      <leafValues>
        -2.7131249662488699e-03 9.5214831829071045e-01</leafValues></_>
    <_>
      <internalNodes>
        0 -1 2831 1363386517 1343225985 83 822149121 32938 129
        -2130706424 1527414803</internalNodes>
      <leafValues>
        -1. 2.3118634708225727e-03</leafValues></_>
    <_>
      <internalNodes>
        0 -1 2646 2 0 0 0 0 0 0 -2147483646</internalNodes>
      <leafValues>
        -1.9552295561879873e-03 9.7208529710769653e-01</leafValues></_>
    <_>
      <internalNodes>
        0 -1 3201 69635 16777216 16842773 1090588673 98723 -1995439989
        33620619 193658890</internalNodes>
      <leafValues>
        -1. 1.3488099211826921e-03</leafValues></_>
    <_>
      <internalNodes>
        0 -1 47 268435456 0 0 -2113929216 0 0 0 -2147483648</internalNodes>
      <leafValues>
        -2.7650701813399792e-03 9.9035042524337769e-01</leafValues></_>
    <_>
      <internalNodes>
        0 -1 783 285723115 1359151635 270761995 1628504065 1219 0
        67306011 294716075</internalNodes>
      <leafValues>
        -1. 4.1309138759970665e-04</leafValues></_>
    <_>
      <internalNodes>
        0 -1 7446 16842768 0 0 0 0 0 0 -2147483648</internalNodes>
      <leafValues>
        -5.1070103654637933e-04 1.</leafValues></_>
    <_>
      <internalNodes>
        0 -1 7464 272679323 268500992 1 1 9109659 65537 598091
        1200079047</internalNodes>
      <leafValues>
        -1. 3.6863173590973020e-04</leafValues></_>
    <_>
      <internalNodes>
        0 -1 6080 1055796876 1879048191 -16809989 -268435461 -9472131
        2147483647 -16777226 -1</internalNodes>
      <leafValues>
        -6.4430909696966410e-04 1.</leafValues></_>
    <_>
      <internalNodes>
        0 -1 6080 -1056845743 268435456 524288 268435456 32896
        -2147483648 8 0</internalNodes>
      <leafValues>
        -1. 1.0061280336230993e-03</leafValues></_>
    <_>
      <internalNodes>
        0 -1 63 4194304 0 0 0 0 0 0 -2147483648</internalNodes>
      <leafValues>
        -2.7054271195083857e-03 1.</leafValues></_>
    <_>
      <internalNodes>
        0 -1 55 286513599 1359151155 605225007 285409795 34251 131072
        -2146401750 277037625</internalNodes>
      <leafValues>
        -1. 1.4696340076625347e-04</leafValues></_>
    <_>
      <internalNodes>
        0 -1 663 -16777282 -65538 -16843010 -16842754 -9 -1 -131084
        -50462732</internalNodes>
      <leafValues>
        -5.6507447879994288e-05 1.</leafValues></_>
    <_>
      <internalNodes>
        0 -1 660 65537 286261265 65537 50397185 8 655360 11 185270283</internalNodes>
      <leafValues>
        -1. 2.1514038962777704e-04</leafValues></_>
    <_>
      <internalNodes>
        0 -1 51 0 0 2 0 0 0 0 -2147483647</internalNodes>
      <leafValues>
        -8.1202614819630980e-04 1.</leafValues></_>
    <_>
      <internalNodes>
        0 -1 3814 1091686911 1363148800 150995205 285212673 135301291
        130 98442 143654914</internalNodes>
      <leafValues>
        -1. 5.9658737154677510e-04</leafValues></_>
    <_>
      <internalNodes>
        0 -1 3814 -1073857024 -285212673 -1 -285212673 -268435596 -1
        -138 -1</internalNodes>
      <leafValues>
        -2.4696273612789810e-04 1.</leafValues></_>
    <_>
      <internalNodes>
        0 -1 51 -787099377 1359020032 403243013 286326784 32920
        -2147483648 524296 16875521</internalNodes>
      <leafValues>
        -1. 2.6842503575608134e-04</leafValues></_>
    <_>
      <internalNodes>
        0 -1 35 0 0 0 0 0 0 0 -2147483648</internalNodes>
      <leafValues>
        -1.8154202552977949e-04 1.</leafValues></_>
    <_>
      <internalNodes>
        0 -1 35 1427472887 1895923731 -2122317695 -1727987640 32930 0
        557192 562659337</internalNodes>
      <leafValues>
        -1. -1.9644440154426013e-12</leafValues></_>
    <_>
      <internalNodes>
        0 -1 35 0 0 0 0 0 0 0 -2147483648</internalNodes>
      <leafValues>
        -2.7686493302516747e-14 1.</leafValues></_>
    <_>
      <internalNodes>
        0 -1 35 1427472887 1895923731 -2122317695 -654245815 32931 0
        557192 562659337</internalNodes>
      <leafValues>
        -1. 1.5065348328655720e-13</leafValues></_>
    <_>
      <internalNodes>
        0 -1 35 0 0 0 0 0 0 0 -2147483648</internalNodes>
      <leafValues>
        -9.8170535828105698e-14 1.</leafValues></_>
    <_>
      <internalNodes>
        0 -1 35 1427472887 1895923731 -2122252159 -654245815 32931
        -2147483648 557192 562659337</internalNodes>
      <leafValues>
        -1. -2.4982550682578313e-14</leafValues></_>
    <_>
      <internalNodes>
        0 -1 35 -1359020178 -1359020034 -2 -285278209 -32771 -1 -1
        -65537</internalNodes>
      <leafValues>
        1.1325016852038391e-13 1.</leafValues></_>
    <_>
      <internalNodes>
        0 -1 33 1360072785 -1861222400 268435521 285278208 136 0 32768
        805306368</internalNodes>
      <leafValues>
        -1. -7.1357897618151006e-14</leafValues></_>
    <_>
      <internalNodes>
        0 -1 56 0 0 0 0 0 0 0 -2147483648</internalNodes>
      <leafValues>
        -2.2056681336835027e-04 1.</leafValues></_>
    <_>
      <internalNodes>
        0 -1 56 1363169497 285212672 5 268500993 152 4096 8 1275068416</internalNodes>
      <leafValues>
        -1. 2.9268558137118816e-04</leafValues></_>
    <_>
      <internalNodes>
        0 -1 7425 0 0 65536 0 0 0 0 -2147483648</internalNodes>
      <leafValues>
        -7.2913075564429164e-04 1.</leafValues></_>
    <_>
      <internalNodes>
        0 -1 7383 1351200907 268435456 0 268435459 8519819 65536
        1074077707 1182908547</internalNodes>
      <leafValues>
        -1. 1.8171907868236303e-04</leafValues></_>
    <_>
      <internalNodes>
        0 -1 34 0 0 0 0 0 0 0 -2147483648</internalNodes>
      <leafValues>
        -2.2773572709411383e-04 1.</leafValues></_>
    <_>
      <internalNodes>
        0 -1 34 1360090263 -786366448 83956109 -1727987712 32938
        -2130706432 128 11075712</internalNodes>
      <leafValues>
        -1. -4.0381274712952830e-12</leafValues></_>
    <_>
      <internalNodes>
        0 -1 34 -1359020182 -285212673 -1 -16842753 -32897 -1 -1 -1</internalNodes>
      <leafValues>
        2.4782284988793084e-14 1.</leafValues></_>
    <_>
      <internalNodes>
        0 -1 34 1359020181 285212672 0 16842752 32896 0 0 0</internalNodes>
      <leafValues>
        -1. 2.7750010609165453e-14</leafValues></_>
    <_>
      <internalNodes>
        0 -1 34 -1359020182 -285212673 -1 -16842753 -32897 -1 -1 -1</internalNodes>
      <leafValues>
        7.0735920477949226e-15 1.</leafValues></_>
    <_>
      <internalNodes>
        0 -1 34 1359020181 285212672 0 16842752 32896 0 0 0</internalNodes>
      <leafValues>
        -1. 2.9588524420301118e-14</leafValues></_>
    <_>
      <internalNodes>
        0 -1 34 0 0 0 0 0 0 0 -2147483648</internalNodes>
      <leafValues>
        -9.7479214641611051e-14 1.</leafValues></_>
    <_>
      <internalNodes>
        0 -1 34 1360254175 -786366448 83956109 -1727987696 32938
        -2130706432 192 11075712</internalNodes>
      <leafValues>
        -1. 1.3871065754345047e-13</leafValues></_>
    <_>
      <internalNodes>
        0 -1 34 0 0 0 0 0 0 0 -2147483648</internalNodes>
      <leafValues>
        -1.3144014685256139e-13 1.</leafValues></_>
    <_>
      <internalNodes>
        0 -1 34 1360254175 -786366448 83956109 -1727987696 32938
        -2130706432 192 11075712</internalNodes>
      <leafValues>
        -1. 2.3700320677354225e-15</leafValues></_>
    <_>
      <internalNodes>
        0 -1 34 -1359020182 -285212673 -1 -16842753 -32897 -1 -1 -1</internalNodes>
      <leafValues>
        4.4293819371869769e-14 1.</leafValues></_>
    <_>
      <internalNodes>
        0 -1 34 1359020181 285212672 0 16842752 32896 0 0 0</internalNodes>
      <leafValues>
        -1. -5.8535750031840639e-14</leafValues></_>
    <_>
      <internalNodes>
        0 -1 34 -1359020182 -285212673 -1 -16842753 -32897 -1 -1 -1</internalNodes>
      <leafValues>
        2.7070065075152430e-14 1.</leafValues></_>
    <_>
      <internalNodes>
        0 -1 34 1359020181 285212672 0 16842752 32896 0 0 0</internalNodes>
      <leafValues>
        -1. -5.8477189561999265e-14</leafValues></_>
    <_>
      <internalNodes>
        0 -1 34 -1359020182 -285212673 -1 -16842753 -32897 -1 -1 -1</internalNodes>
      <leafValues>
        4.0714498694130116e-14 1.</leafValues></_>
    <_>
      <internalNodes>
        0 -1 34 1359020181 285212672 0 16842752 32896 0 0 0</internalNodes>
      <leafValues>
        -1. 1.4545851502456575e-13</leafValues></_>
    <_>
      <internalNodes>
        0 -1 34 0 0 0 0 0 0 0 -2147483648</internalNodes>
      <leafValues>
        -5.6144555692951015e-14 1.</leafValues></_>
    <_>
      <internalNodes>
        0 -1 34 1360254175 -786366448 83956109 -1727987696 32938
        -2130706432 192 11075712</internalNodes>
      <leafValues>
        -1. 3.3162969576396376e-14</leafValues></_>
    <_>
      <internalNodes>
        0 -1 34 -1359020182 -285212673 -1 -16842753 -32897 -1 -1 -1</internalNodes>
      <leafValues>
        1.9186236461881355e-14 1.</leafValues></_>
    <_>
      <internalNodes>
        0 -1 34 1359020181 285212672 0 16842752 32896 0 0 0</internalNodes>
      <leafValues>
        -1. -1.8229853932828777e-13</leafValues></_>
    <_>
      <internalNodes>
        0 -1 34 -1359020182 -285212673 -1 -16842753 -32897 -1 -1 -1</internalNodes>
      <leafValues>
        1.3794004729682924e-13 1.</leafValues></_></weakClassifiers></stage14>
</opencv_storage>
