<?xml version="1.0"?>
<opencv_storage>
<stage1>
  <maxWeakCount>30</maxWeakCount>
  <stageThreshold>-1.6302272081375122e+00</stageThreshold>
  <weakClassifiers>
    <_>
      <internalNodes>
        0 -1 786 -1063198720 -659362821 -1005065135 -580913669
        -833313291 -79168609 -927598081 -4195329</internalNodes>
      <leafValues>
        -4.8585093021392822e-01 3.1702575087547302e-01</leafValues></_>
    <_>
      <internalNodes>
        0 -1 3453 -547356673 -208476994 -543599843 1501623960 -109321740
        -1297946976 -115149348 1208008736</internalNodes>
      <leafValues>
        -5.2317774295806885e-01 2.7302330732345581e-01</leafValues></_>
    <_>
      <internalNodes>
        0 -1 7545 -268439553 -1411387658 149899392 -1918901009
        -1935171352 -2001801538 72630504 1088144623</internalNodes>
      <leafValues>
        -3.2944676280021667e-01 3.4461262822151184e-01</leafValues></_>
    <_>
      <internalNodes>
        0 -1 6440 -1531834863 -1413582849 -68288579 -67195009 -151567107
        -268468240 -137541 -67588</internalNodes>
      <leafValues>
        -2.7894854545593262e-01 3.8361126184463501e-01</leafValues></_>
    <_>
      <internalNodes>
        0 -1 6500 -1968570287 -1429204676 -770255372 -187673836
        -1600103408 -1264205594 -1462730508 -1003422960</internalNodes>
      <leafValues>
        -4.4000512361526489e-01 2.4137368798255920e-01</leafValues></_>
    <_>
      <internalNodes>
        0 -1 386 -2103642 42922378 351985888 -798559542 1505721300
        2082449461 1148842736 -145228361</internalNodes>
      <leafValues>
        -4.8283636569976807e-01 1.8252421915531158e-01</leafValues></_>
    <_>
      <internalNodes>
        0 -1 648 -4236447 2067400706 -251371941 1060177954 -483260160
        976297984 389023551 2063822691</internalNodes>
      <leafValues>
        -3.3697959780693054e-01 2.9639324545860291e-01</leafValues></_>
    <_>
      <internalNodes>
        0 -1 8240 -1429271254 649011466 -1595196330 -1172140028
        -434415100 -1114398460 -201873152 -463274080</internalNodes>
      <leafValues>
        -4.2945498228073120e-01 2.2297187149524689e-01</leafValues></_>
    <_>
      <internalNodes>
        0 -1 5554 -2004218332 -1532476518 -1734684460 -55682668
        -1605736368 -838784920 -1365225344 -2135799692</internalNodes>
      <leafValues>
        -4.9938532710075378e-01 1.5572518110275269e-01</leafValues></_>
    <_>
      <internalNodes>
        0 -1 8279 -1895953257 -1933929644 -134905889 532571870
        -1339048773 -1523171331 -1413786116 -1073783298</internalNodes>
      <leafValues>
        -2.4707488715648651e-01 3.4790277481079102e-01</leafValues></_>
    <_>
      <internalNodes>
        0 -1 2486 -322967793 -492419782 -594484812 -93158896 -1563822079
        -2004286649 -1035274572 -530161084</internalNodes>
      <leafValues>
        -3.4821909666061401e-01 2.3859554529190063e-01</leafValues></_>
    <_>
      <internalNodes>
        0 -1 7653 -1535768511 -120425601 428497278 -170165960
        -2096465708 -82542290 -435782706 -1439500520</internalNodes>
      <leafValues>
        -3.4359455108642578e-01 2.3665484786033630e-01</leafValues></_>
    <_>
      <internalNodes>
        0 -1 5963 -101978113 -131007848 -1778058416 1224737296
        -1342012256 570954640 991219016 1259193122</internalNodes>
      <leafValues>
        -3.1324335932731628e-01 2.6546588540077209e-01</leafValues></_>
    <_>
      <internalNodes>
        0 -1 3221 -1398136271 -1746165767 2147221463 -1657033292
        -1090548545 -42467331 -16843634 -2097687</internalNodes>
      <leafValues>
        -2.5607326626777649e-01 3.2731175422668457e-01</leafValues></_>
    <_>
      <internalNodes>
        0 -1 7078 -1896939722 -2068306254 -1458668210 -1290366696
        984180900 -524713318 -1934937912 -1162425872</internalNodes>
      <leafValues>
        -2.8806909918785095e-01 2.7882882952690125e-01</leafValues></_>
    <_>
      <internalNodes>
        0 -1 3049 -25690389 -634483062 -232169254 420143338 -1002485046
        -926232956 -229392870 -683147285</internalNodes>
      <leafValues>
        -2.1641200780868530e-01 3.6483779549598694e-01</leafValues></_>
    <_>
      <internalNodes>
        0 -1 5899 -1038127982 1536053482 -78884638 160368872 -1269777216
        1352838028 2046884746 739546</internalNodes>
      <leafValues>
        -3.0227282643318176e-01 2.4923703074455261e-01</leafValues></_>
    <_>
      <internalNodes>
        0 -1 8457 -1162875929 138326009 -1126292445 -1641889284
        -1384423972 -1445290027 1685994726 -356526597</internalNodes>
      <leafValues>
        -2.3842491209506989e-01 3.2409560680389404e-01</leafValues></_>
    <_>
      <internalNodes>
        0 -1 728 912152339 391184735 1398493887 -1177781412 -1276419983
        -97386437 -83229148 -1162140003</internalNodes>
      <leafValues>
        -2.9099798202514648e-01 2.7384251356124878e-01</leafValues></_>
    <_>
      <internalNodes>
        0 -1 6499 -540287424 -46232481 -707887466 -8090986 -1002337152
        -589391726 -1059929976 -659832782</internalNodes>
      <leafValues>
        -2.9481506347656250e-01 2.7221587300300598e-01</leafValues></_>
    <_>
      <internalNodes>
        0 -1 7718 613821962 857899662 1476825842 -1572671084 -630893488
        -1471119351 -890708080 -265225596</internalNodes>
      <leafValues>
        -4.5359429717063904e-01 1.7949664592742920e-01</leafValues></_>
    <_>
      <internalNodes>
        0 -1 133 -554896428 1177813018 -1786290930 -1089950966
        -482187270 889408951 1176599261 -1088213121</internalNodes>
      <leafValues>
        -2.6546218991279602e-01 2.9908350110054016e-01</leafValues></_>
    <_>
      <internalNodes>
        0 -1 5389 -1978986629 -1375704399 -11958064 -579415656 161184081
        -1947634985 1294127490 -119476972</internalNodes>
      <leafValues>
        -3.4001338481903076e-01 2.1660743653774261e-01</leafValues></_>
    <_>
      <internalNodes>
        0 -1 2519 -873470094 -754309058 1891299494 -183794686
        -1217536320 -997392950 -717090838 -1021094437</internalNodes>
      <leafValues>
        -2.1409896016120911e-01 3.4371808171272278e-01</leafValues></_>
    <_>
      <internalNodes>
        0 -1 3640 -292590073 -427138102 -648979293 -86972257 1359485140
        -1936031194 -1030327084 -802004752</internalNodes>
      <leafValues>
        -3.0803442001342773e-01 2.4919985234737396e-01</leafValues></_>
    <_>
      <internalNodes>
        0 -1 5882 -40914253 -1612681730 738196432 -841688180 -1815571328
        -256381944 -480908984 -2059272754</internalNodes>
      <leafValues>
        -2.5457373261451721e-01 2.8610673546791077e-01</leafValues></_>
    <_>
      <internalNodes>
        0 -1 6853 -1467087820 1015378217 -669539329 -1330458299
        -527101420 -1297923157 -17395840 -157746368</internalNodes>
      <leafValues>
        -3.9177387952804565e-01 1.9334240257740021e-01</leafValues></_>
    <_>
      <internalNodes>
        0 -1 3185 -746589313 1895296766 2080142085 1060305905 1549727472
        -90018944 1130165194 -816327357</internalNodes>
      <leafValues>
        -1.8110075592994690e-01 4.2657735943794250e-01</leafValues></_>
    <_>
      <internalNodes>
        0 -1 6964 -1898496254 -1530523398 -501818480 -224767900
        430075988 -1967502837 1370263744 -1336759008</internalNodes>
      <leafValues>
        -3.9149266481399536e-01 1.9134798645973206e-01</leafValues></_>
    <_>
      <internalNodes>
        0 -1 3438 -629830061 -621571934 -1392546065 -645008236
        -2030772840 -1551335992 1561870427 -1062776098</internalNodes>
      <leafValues>
        -2.1216385066509247e-01 3.5849612951278687e-01</leafValues></_></weakClassifiers></stage1>
</opencv_storage>
