<?xml version="1.0"?>
<opencv_storage>
<stage9>
  <maxWeakCount>86</maxWeakCount>
  <stageThreshold>-1.1425753831863403e+00</stageThreshold>
  <weakClassifiers>
    <_>
      <internalNodes>
        0 -1 3621 1508962016 -590708532 -662011328 -716995904 738242794
        -2008494072 1401992698 16977931</internalNodes>
      <leafValues>
        -3.7277147173881531e-01 7.9681277275085449e-02</leafValues></_>
    <_>
      <internalNodes>
        0 -1 7034 -180356942 -705232956 -206040896 -788299720
        -1028982102 -1144062076 -1845299317 1460391179</internalNodes>
      <leafValues>
        -1.7241680622100830e-01 2.4643246829509735e-01</leafValues></_>
    <_>
      <internalNodes>
        0 -1 2710 1146118144 -608440338 -467905099 1402257151 -569489675
        -6126679 149225464 -586188072</internalNodes>
      <leafValues>
        -2.5913438200950623e-01 1.5271724760532379e-01</leafValues></_>
    <_>
      <internalNodes>
        0 -1 1377 -968969773 493968870 -35160131 -13557205 1978932401
        -102401263 1868507656 426852665</internalNodes>
      <leafValues>
        -9.8941579461097717e-02 2.9689314961433411e-01</leafValues></_>
    <_>
      <internalNodes>
        0 -1 5973 1700067234 -23030588 -1065170720 -510496656 -116779864
        1259092096 -1223553141 4924571</internalNodes>
      <leafValues>
        -2.3341582715511322e-01 1.4179903268814087e-01</leafValues></_>
    <_>
      <internalNodes>
        0 -1 2416 1393915455 -1150598421 -64545947 975888335 -1176169612
        -1426968473 394089125 -1661016708</internalNodes>
      <leafValues>
        -2.1679392457008362e-01 1.6561418771743774e-01</leafValues></_>
    <_>
      <internalNodes>
        0 -1 8143 -2115260421 -24449217 -1897986864 -69469601
        -2064273174 -1883341347 150279624 1085132202</internalNodes>
      <leafValues>
        -1.6517578065395355e-01 1.9208860397338867e-01</leafValues></_>
    <_>
      <internalNodes>
        0 -1 1493 1193899937 -336680976 -10235643 -15288651 1151198203
        1868931256 84154784 -851054272</internalNodes>
      <leafValues>
        -2.0819957554340363e-01 1.4364120364189148e-01</leafValues></_>
    <_>
      <internalNodes>
        0 -1 6396 -67448454 1610459793 918188645 -243711764 -108858972
        768069056 -618596453 -955048177</internalNodes>
      <leafValues>
        -1.1218651384115219e-01 2.4904690682888031e-01</leafValues></_>
    <_>
      <internalNodes>
        0 -1 6243 1013231810 -1123937374 -762672910 -509829480
        -154267136 -1358034556 -2121814486 67319179</internalNodes>
      <leafValues>
        -1.8495130538940430e-01 1.6611608862876892e-01</leafValues></_>
    <_>
      <internalNodes>
        0 -1 188 -942836996 1937230778 -1761263137 454071954 1981072189
        -297467575 1457327295 -44751957</internalNodes>
      <leafValues>
        -1.7936266958713531e-01 1.6748110949993134e-01</leafValues></_>
    <_>
      <internalNodes>
        0 -1 2546 -570950150 -607506754 -461860400 -718189262
        -1348416593 -1899307270 -714960482 -740589333</internalNodes>
      <leafValues>
        -8.0531552433967590e-02 3.0205380916595459e-01</leafValues></_>
    <_>
      <internalNodes>
        0 -1 2993 -2020997329 -1560430965 2007637623 -796235541
        1319777123 -1434481862 -446686887 1922589440</internalNodes>
      <leafValues>
        -2.2346746921539307e-01 1.2372116744518280e-01</leafValues></_>
    <_>
      <internalNodes>
        0 -1 4197 -470228104 1709839368 -17084232 -183805557 -742735393
        -1154503603 1119283099 -1760834149</internalNodes>
      <leafValues>
        -1.1499956250190735e-01 2.3951892554759979e-01</leafValues></_>
    <_>
      <internalNodes>
        0 -1 47 -1849654618 1709089514 1914330624 1487833555 999821240
        -1214282066 -273533199 1527447587</internalNodes>
      <leafValues>
        -2.1828429400920868e-01 1.3014005124568939e-01</leafValues></_>
    <_>
      <internalNodes>
        0 -1 2019 -1024155343 850474680 184295419 934486314 -545843909
        -1249937923 -617181557 -1627252966</internalNodes>
      <leafValues>
        -1.3329225778579712e-01 2.0658975839614868e-01</leafValues></_>
    <_>
      <internalNodes>
        0 -1 1785 -177225742 -285042674 -167858628 -37303077 -169478754
        -1847019872 1613380792 -1861156481</internalNodes>
      <leafValues>
        -1.5225940942764282e-01 1.8066790699958801e-01</leafValues></_>
    <_>
      <internalNodes>
        0 -1 8382 389807911 -634520976 1857748607 -10289353 567934287
        1727733626 402487008 -950023068</internalNodes>
      <leafValues>
        -1.4082887768745422e-01 1.9800722599029541e-01</leafValues></_>
    <_>
      <internalNodes>
        0 -1 6461 508564496 1004012925 686855052 -1277161307 1812229344
        -4282596 46443424 1158431040</internalNodes>
      <leafValues>
        -4.1867998242378235e-01 6.3934661448001862e-02</leafValues></_>
    <_>
      <internalNodes>
        0 -1 6956 -1243676875 -1611457280 700271615 -211051188 625266594
        -591374652 -587106341 -1525419173</internalNodes>
      <leafValues>
        -1.2038634717464447e-01 2.2778040170669556e-01</leafValues></_>
    <_>
      <internalNodes>
        0 -1 5083 -268483593 942915497 -92603137 2142157575 754937853
        987462898 1878889323 -69206081</internalNodes>
      <leafValues>
        -7.1063637733459473e-02 3.9481508731842041e-01</leafValues></_>
    <_>
      <internalNodes>
        0 -1 597 -872688389 -1246381956 -186237393 963736394 -94720010
        -616387479 2018676888 -1524375586</internalNodes>
      <leafValues>
        -1.1674752831459045e-01 2.3807683587074280e-01</leafValues></_>
    <_>
      <internalNodes>
        0 -1 8186 132777616 -1375565334 -166536451 -1902243564 146809267
        195659977 552806732 -1999998723</internalNodes>
      <leafValues>
        -2.7413469552993774e-01 1.0505836457014084e-01</leafValues></_>
    <_>
      <internalNodes>
        0 -1 36 135296 545408496 148435888 2095612880 -294073660
        1689587468 -458223887 888165904</internalNodes>
      <leafValues>
        -4.7584414482116699e-01 4.7460574656724930e-02</leafValues></_>
    <_>
      <internalNodes>
        0 -1 4694 -40085969 -838577459 872581334 -1059566768 -68588732
        -1963716069 1250486368 -793767568</internalNodes>
      <leafValues>
        -2.7291154861450195e-01 9.8386339843273163e-02</leafValues></_>
    <_>
      <internalNodes>
        0 -1 5456 -41945888 -1282541306 1725936638 -652514500
        -1343025171 -1879212212 -680159381 -1822196581</internalNodes>
      <leafValues>
        -1.1510429531335831e-01 2.3340369760990143e-01</leafValues></_>
    <_>
      <internalNodes>
        0 -1 174 -169016601 602799464 1894957895 -1308885045 -420373505
        -1414529049 -137601041 -344287845</internalNodes>
      <leafValues>
        -8.2052856683731079e-02 3.5087281465530396e-01</leafValues></_>
    <_>
      <internalNodes>
        0 -1 1065 2104333120 -406280958 356883744 -796894848 -650972225
        765493275 -1315224384 -1594009888</internalNodes>
      <leafValues>
        -1.9746734201908112e-01 1.4289413392543793e-01</leafValues></_>
    <_>
      <internalNodes>
        0 -1 6032 -282988695 -1550721683 -1582197586 1880746715
        -321056008 784083368 535433753 1502015169</internalNodes>
      <leafValues>
        -1.7297063767910004e-01 1.5411895513534546e-01</leafValues></_>
    <_>
      <internalNodes>
        0 -1 7231 456785042 -157404264 -1068395790 -2117010060
        -695141440 -59014581 -1979272536 269052810</internalNodes>
      <leafValues>
        -1.9422480463981628e-01 1.3898274302482605e-01</leafValues></_>
    <_>
      <internalNodes>
        0 -1 1414 196096 -1728578130 -1542189371 -499821622 546980469
        1052283097 76852306 1546014977</internalNodes>
      <leafValues>
        -3.0385014414787292e-01 9.2338673770427704e-02</leafValues></_>
    <_>
      <internalNodes>
        0 -1 5261 1156736216 1081894463 -808878841 1362435713
        -1867913487 -1078916122 57268994 -928032901</internalNodes>
      <leafValues>
        -1.6825066506862640e-01 1.6052857041358948e-01</leafValues></_>
    <_>
      <internalNodes>
        0 -1 8169 -549733385 -1283494687 2095994080 1302106012 147542895
        112635771 1413557428 -609884501</internalNodes>
      <leafValues>
        -1.2169642001390457e-01 2.2491586208343506e-01</leafValues></_>
    <_>
      <internalNodes>
        0 -1 3045 -55247669 2007716426 876377336 -1718644669 1253604330
        -2138803236 -917499009 353317853</internalNodes>
      <leafValues>
        -1.3819654285907745e-01 1.9651399552822113e-01</leafValues></_>
    <_>
      <internalNodes>
        0 -1 5820 -2069224655 -422137301 77120448 -1273068284 -207990666
        -1946637981 109192048 -1942992556</internalNodes>
      <leafValues>
        -3.3379328250885010e-01 8.6417786777019501e-02</leafValues></_>
    <_>
      <internalNodes>
        0 -1 5299 -1251479189 1026401787 -400687115 1258147322
        -629846216 -269779032 -782972053 -752282423</internalNodes>
      <leafValues>
        -1.3565066456794739e-01 2.0774234831333160e-01</leafValues></_>
    <_>
      <internalNodes>
        0 -1 6795 -1936847436 -2142887465 1761832120 1755768387
        -1650150792 41308833 486607977 138527921</internalNodes>
      <leafValues>
        -2.9599815607070923e-01 9.1434530913829803e-02</leafValues></_>
    <_>
      <internalNodes>
        0 -1 1379 1929287628 448665406 -402952324 460419808 1727485875
        -1200128259 1339455803 428925019</internalNodes>
      <leafValues>
        -1.3374806940555573e-01 2.0588861405849457e-01</leafValues></_>
    <_>
      <internalNodes>
        0 -1 6265 1046215759 -1461816216 -1805956984 -774500138
        -644700148 -399859445 -376593708 -1041256014</internalNodes>
      <leafValues>
        -1.9027835130691528e-01 1.4736405014991760e-01</leafValues></_>
    <_>
      <internalNodes>
        0 -1 5672 1654433392 1914883040 1409351727 202956846 566240176
        404793056 2000720459 34754163</internalNodes>
      <leafValues>
        -2.2990280389785767e-01 1.1831994354724884e-01</leafValues></_>
    <_>
      <internalNodes>
        0 -1 5180 1342160687 121716031 1260944219 1098217209 -1417763338
        -1088693890 -779498527 -34745965</internalNodes>
      <leafValues>
        -1.0985682904720306e-01 2.4754755198955536e-01</leafValues></_>
    <_>
      <internalNodes>
        0 -1 7972 -377487828 1597006805 1118281952 1436645135 -852233331
        -928872236 346287747 1407402411</internalNodes>
      <leafValues>
        -1.4170643687248230e-01 1.9333922863006592e-01</leafValues></_>
    <_>
      <internalNodes>
        0 -1 4361 1092663376 1802611054 679791889 888995771 -366110248
        -16635040 540467615 1765198018</internalNodes>
      <leafValues>
        -2.0432367920875549e-01 1.3226525485515594e-01</leafValues></_>
    <_>
      <internalNodes>
        0 -1 4318 -1545447483 -1096597515 1069472999 -1215201802
        -1880562575 -1209110532 -1770110984 -78431230</internalNodes>
      <leafValues>
        -1.4487873017787933e-01 1.8902364373207092e-01</leafValues></_>
    <_>
      <internalNodes>
        0 -1 3352 -1893665391 -269823352 -179486704 -674373308 51126769
        -73166680 -2110114943 -2054122187</internalNodes>
      <leafValues>
        -1.8112030625343323e-01 1.4858077466487885e-01</leafValues></_>
    <_>
      <internalNodes>
        0 -1 150 1475326399 170122340 787160529 -638303043 -1527314049
        2113248493 -186253446 -34907922</internalNodes>
      <leafValues>
        -1.1446919292211533e-01 2.4158930778503418e-01</leafValues></_>
    <_>
      <internalNodes>
        0 -1 5188 -470303846 2045563061 -975118110 -640322082
        -1167051166 -997624296 1392663738 290035803</internalNodes>
      <leafValues>
        -1.5171627700328827e-01 1.8833713233470917e-01</leafValues></_>
    <_>
      <internalNodes>
        0 -1 860 1921807596 1376607232 407581168 1995491890 981751213
        235735188 601837400 525373728</internalNodes>
      <leafValues>
        -3.2367452979087830e-01 8.5159458220005035e-02</leafValues></_>
    <_>
      <internalNodes>
        0 -1 2884 -370149080 -339220544 -535506758 -730719460 296364917
        207159441 1956839639 -797305390</internalNodes>
      <leafValues>
        -2.3023511469364166e-01 1.2495301663875580e-01</leafValues></_>
    <_>
      <internalNodes>
        0 -1 7094 170016964 -1764870639 -192583080 -106090215
        -1912593755 2119770721 -860912100 -1198981567</internalNodes>
      <leafValues>
        -2.6384019851684570e-01 1.1113601922988892e-01</leafValues></_>
    <_>
      <internalNodes>
        0 -1 728 -1623954896 -2488855 -1856249410 468271515 502746143
        -1290925789 -1990648935 -1615134023</internalNodes>
      <leafValues>
        -1.7110553383827209e-01 1.6254976391792297e-01</leafValues></_>
    <_>
      <internalNodes>
        0 -1 5345 591140049 -1080678893 1898246145 2082222511 -455066028
        -794762099 -1435479368 1856627878</internalNodes>
      <leafValues>
        -1.9367375969886780e-01 1.4771415293216705e-01</leafValues></_>
    <_>
      <internalNodes>
        0 -1 8419 526687951 777450399 222494732 1419088294 1134153797
        1602988203 1736659844 -1745797276</internalNodes>
      <leafValues>
        -2.2119554877281189e-01 1.2734730541706085e-01</leafValues></_>
    <_>
      <internalNodes>
        0 -1 5516 -1384252359 -46180361 1534818149 -1740685681
        1456547467 -1164991950 -1171798197 -69206101</internalNodes>
      <leafValues>
        -8.2454003393650055e-02 3.6756139993667603e-01</leafValues></_>
    <_>
      <internalNodes>
        0 -1 681 -201462367 -570590804 2145806236 -144324679 -2109991163
        1816094525 -2039249431 -7881477</internalNodes>
      <leafValues>
        -1.0178621858358383e-01 2.8282469511032104e-01</leafValues></_>
    <_>
      <internalNodes>
        0 -1 8152 -1444947039 1768686005 1082284184 -231550060
        -917974976 153190465 -2130545982 -2143337067</internalNodes>
      <leafValues>
        -2.0305135846138000e-01 1.4011780917644501e-01</leafValues></_>
    <_>
      <internalNodes>
        0 -1 1945 2109397829 1409180284 1064434493 1330127969
        -1208025384 -1630885121 1548913372 -181286038</internalNodes>
      <leafValues>
        -1.3421984016895294e-01 2.1353505551815033e-01</leafValues></_>
    <_>
      <internalNodes>
        0 -1 7878 349226587 308150741 1498476951 -905154163 -883769240
        -80486315 2048973412 -2098062728</internalNodes>
      <leafValues>
        -2.1238419413566589e-01 1.3164737820625305e-01</leafValues></_>
    <_>
      <internalNodes>
        0 -1 1591 1133098992 1405660738 -858804132 -1001467464
        1229735672 1109956364 1608985127 474089690</internalNodes>
      <leafValues>
        -2.1110431849956512e-01 1.2929943203926086e-01</leafValues></_>
    <_>
      <internalNodes>
        0 -1 1064 1109229597 559310311 353430548 1348078222 800286703
        591103543 -709258266 1795899563</internalNodes>
      <leafValues>
        -1.7285288870334625e-01 1.6948267817497253e-01</leafValues></_>
    <_>
      <internalNodes>
        0 -1 6801 -39784672 1694763958 805891209 1945539172 428180385
        497856672 1352680120 -1321000800</internalNodes>
      <leafValues>
        -1.7041048407554626e-01 1.6332910954952240e-01</leafValues></_>
    <_>
      <internalNodes>
        0 -1 3204 1424980503 -100970919 867148265 -780981284 1911868328
        -497117188 -1308884232 -1714705189</internalNodes>
      <leafValues>
        -8.9379079639911652e-02 3.1458038091659546e-01</leafValues></_>
    <_>
      <internalNodes>
        0 -1 2885 152085954 -211187416 -137245749 -976783638 1794741495
        -1400078872 -1022772210 -1774103381</internalNodes>
      <leafValues>
        -1.3778460025787354e-01 2.0334346592426300e-01</leafValues></_>
    <_>
      <internalNodes>
        0 -1 7171 -2099024820 1909986365 -1004941067 -1381121339
        -332403640 -90462015 -1498751264 -732776479</internalNodes>
      <leafValues>
        -2.0339410006999969e-01 1.3847191631793976e-01</leafValues></_>
    <_>
      <internalNodes>
        0 -1 1843 -206307619 -740061506 803910842 1469037793 -1362770216
        1833074659 259171048 -512800625</internalNodes>
      <leafValues>
        -9.5172598958015442e-02 2.9774904251098633e-01</leafValues></_>
    <_>
      <internalNodes>
        0 -1 3268 -1230343371 -490151240 389243799 -1915401766 393472603
        -124913493 -1624478861 -118422363</internalNodes>
      <leafValues>
        -1.8374630808830261e-01 1.5724648535251617e-01</leafValues></_>
    <_>
      <internalNodes>
        0 -1 5700 -29575915 1509390255 670760635 1933129598 -1671263247
        775706367 -838994518 -1435886501</internalNodes>
      <leafValues>
        -1.0912245512008667e-01 2.6883503794670105e-01</leafValues></_>
    <_>
      <internalNodes>
        0 -1 1842 -858807577 -1468164786 1108189344 -1907988190
        860916524 152012511 417014672 -2073013803</internalNodes>
      <leafValues>
        -2.6624089479446411e-01 1.0883166640996933e-01</leafValues></_>
    <_>
      <internalNodes>
        0 -1 4256 -109908684 -1294774076 -155900568 1406248968
        2121426918 -932803348 991081914 1422104078</internalNodes>
      <leafValues>
        -1.6235978901386261e-01 1.7692990601062775e-01</leafValues></_>
    <_>
      <internalNodes>
        0 -1 4091 90417960 500039872 1478246502 753918193 -525320266
        -1345716040 297048152 84751728</internalNodes>
      <leafValues>
        -2.3641946911811829e-01 1.1678732186555862e-01</leafValues></_>
    <_>
      <internalNodes>
        0 -1 4784 -2107632352 2118521810 1351070005 1804231121 580254079
        -1229291008 2074917490 -1625405079</internalNodes>
      <leafValues>
        -2.1592028439044952e-01 1.3185508549213409e-01</leafValues></_>
    <_>
      <internalNodes>
        0 -1 261 -152620755 744490626 -286327829 -298714058 746329405
        519253965 2115208357 315728379</internalNodes>
      <leafValues>
        -1.6687288880348206e-01 1.7547395825386047e-01</leafValues></_>
    <_>
      <internalNodes>
        0 -1 7206 -578869477 -1644712065 -1395393807 -117654026
        -537352710 519593895 1037956303 -115757920</internalNodes>
      <leafValues>
        -1.3562753796577454e-01 2.1014390885829926e-01</leafValues></_>
    <_>
      <internalNodes>
        0 -1 5644 -85213618 1324951531 1862270969 1928003516 -1246378028
        -982646915 -152021052 -134566534</internalNodes>
      <leafValues>
        -1.5290872752666473e-01 1.8484188616275787e-01</leafValues></_>
    <_>
      <internalNodes>
        0 -1 4095 -1468241352 -1469699015 1553334366 -754558832
        1006768752 -23182194 1983112467 85132453</internalNodes>
      <leafValues>
        -2.4535131454467773e-01 1.1731510609388351e-01</leafValues></_>
    <_>
      <internalNodes>
        0 -1 1444 1233354531 -1465190620 1732367953 -420420836 537277937
        -1712602968 -433438327 -1596710501</internalNodes>
      <leafValues>
        -1.9932143390178680e-01 1.4890310168266296e-01</leafValues></_>
    <_>
      <internalNodes>
        0 -1 6601 220103686 1277220084 -398929568 -41414799 -927530416
        -51646403 1087177408 1077994656</internalNodes>
      <leafValues>
        -3.6771935224533081e-01 7.8532002866268158e-02</leafValues></_>
    <_>
      <internalNodes>
        0 -1 5173 1107187132 -1150446005 -135108429 1057321805
        -222533317 1229887756 1028322011 85946523</internalNodes>
      <leafValues>
        -1.4263203740119934e-01 2.1305646002292633e-01</leafValues></_>
    <_>
      <internalNodes>
        0 -1 2388 -2034503167 -641564264 -1811215168 -696712792
        1156183023 1166215305 1619714546 -1871359888</internalNodes>
      <leafValues>
        -1.9647978246212006e-01 1.5139673650264740e-01</leafValues></_>
    <_>
      <internalNodes>
        0 -1 3137 1307934809 819009630 -1628294627 -226305662 -387046736
        -749935720 1517119776 -1676061952</internalNodes>
      <leafValues>
        -2.0166435837745667e-01 1.4854313433170319e-01</leafValues></_>
    <_>
      <internalNodes>
        0 -1 4615 -1356170568 1366295657 1560278258 -175672577
        -2069463573 -1375805972 -798882422 -1761035077</internalNodes>
      <leafValues>
        -1.4053788781166077e-01 2.1912027895450592e-01</leafValues></_>
    <_>
      <internalNodes>
        0 -1 1424 1489314547 2059254895 1163952121 -377783107 1847326023
        -1229717575 -75663369 -1279435651</internalNodes>
      <leafValues>
        -1.1751929670572281e-01 2.4552150070667267e-01</leafValues></_>
    <_>
      <internalNodes>
        0 -1 6098 1273050628 724916743 101371745 -478413054 1521745990
        2108756137 -335458494 948071130</internalNodes>
      <leafValues>
        -2.7009746432304382e-01 1.1030896753072739e-01</leafValues></_>
    <_>
      <internalNodes>
        0 -1 8027 223261933 796559706 1569360735 103732490 -1173462516
        1808411555 715995797 -1092435972</internalNodes>
      <leafValues>
        -2.2409534454345703e-01 1.3704299926757813e-01</leafValues></_>
    <_>
      <internalNodes>
        0 -1 669 -1606766233 -1156791479 -1638790952 -2123175485
        -397301664 -5150707 -1593722036 1009986618</internalNodes>
      <leafValues>
        -2.0345960557460785e-01 1.4115434885025024e-01</leafValues></_>
    <_>
      <internalNodes>
        0 -1 7075 -1180109900 1995731550 315871433 258337246 400036744
        -1822348265 -1312632094 -17928147</internalNodes>
      <leafValues>
        -1.6007369756698608e-01 1.8378128111362457e-01</leafValues></_></weakClassifiers></stage9>
</opencv_storage>
