<?xml version="1.0"?>
<opencv_storage>
<stage8>
  <maxWeakCount>76</maxWeakCount>
  <stageThreshold>-1.3313724994659424e+00</stageThreshold>
  <weakClassifiers>
    <_>
      <internalNodes>
        0 -1 1412 138649891 1070697975 1594940915 -2911783 350952575
        2143023858 1712927947 -1578253</internalNodes>
      <leafValues>
        -3.5035830736160278e-01 1.6414937376976013e-01</leafValues></_>
    <_>
      <internalNodes>
        0 -1 8448 -1469072397 -1934496097 218053950 -1610748047
        726113968 178040831 731848152 -973123077</internalNodes>
      <leafValues>
        -1.9149015843868256e-01 2.6934275031089783e-01</leafValues></_>
    <_>
      <internalNodes>
        0 -1 3805 1785168384 -1558319325 1563684663 -680933583 545604336
        -1613509955 1279905098 -12265472</internalNodes>
      <leafValues>
        -2.6431903243064880e-01 1.7149128019809723e-01</leafValues></_>
    <_>
      <internalNodes>
        0 -1 5195 -546484427 1530391398 232852793 464552594 -1737513820
        -1094284040 1750663204 -34217038</internalNodes>
      <leafValues>
        -1.8585155904293060e-01 2.3632572591304779e-01</leafValues></_>
    <_>
      <internalNodes>
        0 -1 703 -614489847 -1152255725 2136344849 1060190993 -233617360
        959711288 -2055320288 2032369239</internalNodes>
      <leafValues>
        -2.2283570468425751e-01 1.9562415778636932e-01</leafValues></_>
    <_>
      <internalNodes>
        0 -1 1847 -155454974 -139582582 608850160 -1192832 860338874
        -2117296116 1910825102 -1068513858</internalNodes>
      <leafValues>
        -2.0742440223693848e-01 1.9017316401004791e-01</leafValues></_>
    <_>
      <internalNodes>
        0 -1 26 950470 713745668 606787025 -269931232 1475343711
        901227263 1299041533 -41991056</internalNodes>
      <leafValues>
        -2.2771692276000977e-01 1.7083394527435303e-01</leafValues></_>
    <_>
      <internalNodes>
        0 -1 5699 -1477763276 -722843501 294207878 494953358 -1539149323
        -1836363585 16850360 -1089848264</internalNodes>
      <leafValues>
        -2.4091672897338867e-01 1.4355736970901489e-01</leafValues></_>
    <_>
      <internalNodes>
        0 -1 6368 -1935325471 -435670742 -265102256 -253043303 357366036
        -1945160399 -1279224604 -650991420</internalNodes>
      <leafValues>
        -2.2964732348918915e-01 1.5590989589691162e-01</leafValues></_>
    <_>
      <internalNodes>
        0 -1 7377 182787843 677657404 -2974704 926677730 673846600
        956021236 278936672 -85269950</internalNodes>
      <leafValues>
        -2.7503627538681030e-01 1.3027392327785492e-01</leafValues></_>
    <_>
      <internalNodes>
        0 -1 4683 1722808467 2011481256 579322086 -1848807218
        -1041852350 1812359168 1980793418 290683011</internalNodes>
      <leafValues>
        -2.0503990352153778e-01 1.7743174731731415e-01</leafValues></_>
    <_>
      <internalNodes>
        0 -1 528 -186650779 1721905943 -1689762700 -24668862 -1550879948
        610527341 -38167568 -203949038</internalNodes>
      <leafValues>
        -2.0151638984680176e-01 1.7117996513843536e-01</leafValues></_>
    <_>
      <internalNodes>
        0 -1 7818 -1953253454 92856980 -1786068660 -1247431550 293839797
        753856643 25381112 -1946192456</internalNodes>
      <leafValues>
        -1.7811387777328491e-01 1.8670868873596191e-01</leafValues></_>
    <_>
      <internalNodes>
        0 -1 6038 -687937818 -672518494 1023324818 -235382212 1968698436
        39120735 41285116 -747196273</internalNodes>
      <leafValues>
        -1.7915061116218567e-01 1.9112683832645416e-01</leafValues></_>
    <_>
      <internalNodes>
        0 -1 5169 -2031283923 -394167526 -1342123660 -1306889843
        149614416 -1440373995 753070324 -147136076</internalNodes>
      <leafValues>
        -2.3687058687210083e-01 1.2968078255653381e-01</leafValues></_>
    <_>
      <internalNodes>
        0 -1 642 1981770293 926882681 2142600703 1607957033 -730497611
        644611932 -1350991889 -136614501</internalNodes>
      <leafValues>
        -1.3946656882762909e-01 2.3231439292430878e-01</leafValues></_>
    <_>
      <internalNodes>
        0 -1 8439 -2126790910 -1676173172 1095185744 -1143474232
        881701636 55586315 1401122976 -218115801</internalNodes>
      <leafValues>
        -1.8355461955070496e-01 1.9331136345863342e-01</leafValues></_>
    <_>
      <internalNodes>
        0 -1 7238 -288473185 1561964511 -212261604 -36072440 -1336319678
        498654768 1696200274 2109834642</internalNodes>
      <leafValues>
        -1.6482758522033691e-01 2.0110973715782166e-01</leafValues></_>
    <_>
      <internalNodes>
        0 -1 5419 -1903706573 -318746280 -431583214 -6757964 -1948530666
        -872732487 -1343581579 -51241612</internalNodes>
      <leafValues>
        -2.1514281630516052e-01 1.5566748380661011e-01</leafValues></_>
    <_>
      <internalNodes>
        0 -1 7960 -1682441085 -297372802 -637430128 1922815538
        -1213210812 -1557444002 -1711342874 -208871176</internalNodes>
      <leafValues>
        -1.9176669418811798e-01 1.7058549821376801e-01</leafValues></_>
    <_>
      <internalNodes>
        0 -1 6826 -1972949685 1002352469 -545657037 -1147011220
        -1266664782 2127953565 -391872662 -1135935977</internalNodes>
      <leafValues>
        -1.5153455734252930e-01 2.1355795860290527e-01</leafValues></_>
    <_>
      <internalNodes>
        0 -1 7465 -1415101432 687985027 -1840865776 840881432
        -1128707516 -1190514599 -356664892 -1599807388</internalNodes>
      <leafValues>
        -3.4548595547676086e-01 8.7929613888263702e-02</leafValues></_>
    <_>
      <internalNodes>
        0 -1 4257 -323328459 1024047746 2076128438 -8559208 2129423280
        1529362354 499353305 -550906997</internalNodes>
      <leafValues>
        -1.3712288439273834e-01 2.4605000019073486e-01</leafValues></_>
    <_>
      <internalNodes>
        0 -1 2217 767390087 812314599 -1288379519 2031414978 -942186795
        997981127 -141496575 -1929645862</internalNodes>
      <leafValues>
        -1.7118266224861145e-01 1.9710548222064972e-01</leafValues></_>
    <_>
      <internalNodes>
        0 -1 4299 -1493450079 269709175 508571148 2070958163 682329840
        -897735758 1007428008 2109797198</internalNodes>
      <leafValues>
        -1.8396846950054169e-01 1.8355995416641235e-01</leafValues></_>
    <_>
      <internalNodes>
        0 -1 8372 137510673 647559326 239212892 -812788940 1873304177
        1292853445 2047107680 -269617788</internalNodes>
      <leafValues>
        -2.4535065889358521e-01 1.3527262210845947e-01</leafValues></_>
    <_>
      <internalNodes>
        0 -1 7552 1269611848 1695393044 -162606736 -1853867231
        -110753112 -1449443224 1444086514 17000966</internalNodes>
      <leafValues>
        -2.2831149399280548e-01 1.5280620753765106e-01</leafValues></_>
    <_>
      <internalNodes>
        0 -1 5114 -1932459501 -298970310 -649881224 1986064464 730299221
        -357841918 -1324375852 -1741516636</internalNodes>
      <leafValues>
        -2.6782548427581787e-01 1.2023303657770157e-01</leafValues></_>
    <_>
      <internalNodes>
        0 -1 4364 -1366870255 -1400200959 -342908585 -826964260
        -1545870350 -1543970676 1471289952 -893646667</internalNodes>
      <leafValues>
        -2.3302015662193298e-01 1.4485077559947968e-01</leafValues></_>
    <_>
      <internalNodes>
        0 -1 3513 1356185263 -742326642 1599900400 -615776902 1077073008
        -473118268 504385626 1372927558</internalNodes>
      <leafValues>
        -1.9637548923492432e-01 1.6502153873443604e-01</leafValues></_>
    <_>
      <internalNodes>
        0 -1 6804 -2072039855 450371972 -1819462783 -1179249820
        211366321 -1194063604 831125486 -1347785584</internalNodes>
      <leafValues>
        -1.9900526106357574e-01 1.7142394185066223e-01</leafValues></_>
    <_>
      <internalNodes>
        0 -1 8424 132258727 -1967589758 1292731350 912101882 1781021958
        152012979 2006795728 -1879494170</internalNodes>
      <leafValues>
        -2.3460198938846588e-01 1.4804567396640778e-01</leafValues></_>
    <_>
      <internalNodes>
        0 -1 6694 -51685393 -1270103130 -144589851 -673377075 -728236820
        -17861560 794346235 -149690661</internalNodes>
      <leafValues>
        -1.0167495161294937e-01 3.4261465072631836e-01</leafValues></_>
    <_>
      <internalNodes>
        0 -1 4874 1711013008 -1657520716 -649987795 -1107912687
        -1392533192 -1641132476 -1190073730 -850921398</internalNodes>
      <leafValues>
        -1.5418428182601929e-01 2.1547064185142517e-01</leafValues></_>
    <_>
      <internalNodes>
        0 -1 571 -117497219 -84451974 -135647425 -80631426 2027230209
        -1261480652 -1059840260 -243809253</internalNodes>
      <leafValues>
        -1.5464249253273010e-01 2.1449193358421326e-01</leafValues></_>
    <_>
      <internalNodes>
        0 -1 7984 -1358593698 -618791128 2113483972 2044958261
        -1402997806 -2004201475 293560800 -1012964321</internalNodes>
      <leafValues>
        -1.4063180983066559e-01 2.3151284456253052e-01</leafValues></_>
    <_>
      <internalNodes>
        0 -1 5614 -343535785 -2031202230 -620186096 -151898365
        -108812163 -880140013 1399110580 -553482820</internalNodes>
      <leafValues>
        -2.0196802914142609e-01 1.6718237102031708e-01</leafValues></_>
    <_>
      <internalNodes>
        0 -1 5923 1156292406 2071942096 1691135334 -36614952 -1041746538
        -540057662 1465900010 -1795134294</internalNodes>
      <leafValues>
        -1.6197930276393890e-01 2.0169466733932495e-01</leafValues></_>
    <_>
      <internalNodes>
        0 -1 16 1278192389 667169108 -939478672 -1629613773 2080078155
        699207826 -1062047718 -1150160128</internalNodes>
      <leafValues>
        -2.3601406812667847e-01 1.4492584764957428e-01</leafValues></_>
    <_>
      <internalNodes>
        0 -1 7084 -1531969275 -1101726644 -1312285245 -1514447621
        -745144411 -1078607637 1526821760 -5703896</internalNodes>
      <leafValues>
        -1.9811119139194489e-01 1.7225542664527893e-01</leafValues></_>
    <_>
      <internalNodes>
        0 -1 5753 -536653445 -629376553 492107111 -1191379532 -999096448
        -580255759 688247675 -1409964233</internalNodes>
      <leafValues>
        -1.5768669545650482e-01 2.2005845606327057e-01</leafValues></_>
    <_>
      <internalNodes>
        0 -1 3046 1675881379 1528826592 -826438198 1598808365 -993677830
        1420031918 1331838040 -808738069</internalNodes>
      <leafValues>
        -1.1634127050638199e-01 2.8262507915496826e-01</leafValues></_>
    <_>
      <internalNodes>
        0 -1 898 797139221 782950688 1595885008 -326591837 1065923964
        1258021751 -810722850 -437360364</internalNodes>
      <leafValues>
        -2.3697811365127563e-01 1.4161854982376099e-01</leafValues></_>
    <_>
      <internalNodes>
        0 -1 8279 -1411576335 -1933912711 621011421 -1731263010
        999729338 -255655798 -1276473171 -1879637764</internalNodes>
      <leafValues>
        -1.9165399670600891e-01 1.7716084420681000e-01</leafValues></_>
    <_>
      <internalNodes>
        0 -1 4937 1481504258 1503787052 -1225392363 1565458845
        -1231623336 -106701445 -1212090022 2132235551</internalNodes>
      <leafValues>
        -1.4109082520008087e-01 2.3592966794967651e-01</leafValues></_>
    <_>
      <internalNodes>
        0 -1 5044 782928499 -813682134 -2130202351 -86084131 -1186270443
        -1569470148 511957828 -265940720</internalNodes>
      <leafValues>
        -2.5965085625648499e-01 1.2822325527667999e-01</leafValues></_>
    <_>
      <internalNodes>
        0 -1 187 -1045962570 1370877094 -1362493698 -470772290
        1374049688 -201859587 -288643846 -269257265</internalNodes>
      <leafValues>
        -1.2624046206474304e-01 2.7108284831047058e-01</leafValues></_>
    <_>
      <internalNodes>
        0 -1 7914 1762493451 -1419160586 -1065002992 -1442650475
        -1703686392 -76742366 -185420832 -1066339344</internalNodes>
      <leafValues>
        -2.8449016809463501e-01 1.2146184593439102e-01</leafValues></_>
    <_>
      <internalNodes>
        0 -1 4361 -935840896 1268710432 -1961051616 -1074154297
        -819863785 -32889979 -1425045479 -615715738</internalNodes>
      <leafValues>
        -2.1924421191215515e-01 1.6985528171062469e-01</leafValues></_>
    <_>
      <internalNodes>
        0 -1 5684 -1442634203 1345121332 -1408954980 1906331745
        273541620 480738176 735526413 1214723474</internalNodes>
      <leafValues>
        -2.2405403852462769e-01 1.5481355786323547e-01</leafValues></_>
    <_>
      <internalNodes>
        0 -1 2353 -418907357 -1533351552 -1884286736 -155577584
        1625192533 -469727847 1373681492 -1061924416</internalNodes>
      <leafValues>
        -2.9449430108070374e-01 1.1976767331361771e-01</leafValues></_>
    <_>
      <internalNodes>
        0 -1 8168 -552419950 -1614743943 1640857044 1039351481 592818171
        231646834 1600115102 -879758658</internalNodes>
      <leafValues>
        -1.2204164266586304e-01 2.7502965927124023e-01</leafValues></_>
    <_>
      <internalNodes>
        0 -1 7784 -393535197 139802490 -1693322526 854382557 -1381287996
        1381622116 2065460212 -784422419</internalNodes>
      <leafValues>
        -2.1300670504570007e-01 1.5857461094856262e-01</leafValues></_>
    <_>
      <internalNodes>
        0 -1 9 1176845171 -134828623 1533984760 -1311243 1059968377
        1067908541 1560237532 -688558700</internalNodes>
      <leafValues>
        -1.5076278150081635e-01 2.1433839201927185e-01</leafValues></_>
    <_>
      <internalNodes>
        0 -1 7558 -2037116254 75694852 141067728 948713708 -2004141224
        -1183874807 708002032 -1288520208</internalNodes>
      <leafValues>
        -2.6364126801490784e-01 1.2241678684949875e-01</leafValues></_>
    <_>
      <internalNodes>
        0 -1 6039 -126167655 1247980264 -842359856 1027128942 839531248
        427819136 23136850 1078649150</internalNodes>
      <leafValues>
        -2.2917512059211731e-01 1.4806009829044342e-01</leafValues></_>
    <_>
      <internalNodes>
        0 -1 8073 1794551617 767406011 798795262 993971966 -692342288
        -1258487881 496455258 -7092457</internalNodes>
      <leafValues>
        -1.3538765907287598e-01 2.4868454039096832e-01</leafValues></_>
    <_>
      <internalNodes>
        0 -1 7378 208568148 222335836 -1333192635 -1872976994 679217380
        951393203 -508145136 -1304802399</internalNodes>
      <leafValues>
        -2.7692812681198120e-01 1.2440037727355957e-01</leafValues></_>
    <_>
      <internalNodes>
        0 -1 3760 -1899888332 1781686275 -585400848 -921529526 859198229
        -1045426087 1977545432 -13471630</internalNodes>
      <leafValues>
        -2.2734971344470978e-01 1.4639399945735931e-01</leafValues></_>
    <_>
      <internalNodes>
        0 -1 6480 -478680609 2112544649 1155731421 -38686923 -580595287
        -729090 -1436422213 -1215334813</internalNodes>
      <leafValues>
        -9.3988440930843353e-02 3.7736445665359497e-01</leafValues></_>
    <_>
      <internalNodes>
        0 -1 6417 -423900893 -239994250 -1380538812 -582488268
        1837036660 484238122 1063007473 -74603701</internalNodes>
      <leafValues>
        -1.3141058385372162e-01 2.5023981928825378e-01</leafValues></_>
    <_>
      <internalNodes>
        0 -1 7750 -1576094463 -865274777 1200002246 -220850664
        -2071142848 -1421233551 -436026668 -262625312</internalNodes>
      <leafValues>
        -2.5741961598396301e-01 1.2667405605316162e-01</leafValues></_>
    <_>
      <internalNodes>
        0 -1 7246 1543367451 -1109181420 -1942749966 -1711812739
        -292331014 -31662131 -1617403393 -1622147605</internalNodes>
      <leafValues>
        -9.8553411662578583e-02 3.4157595038414001e-01</leafValues></_>
    <_>
      <internalNodes>
        0 -1 7702 1863054734 -1720430802 -838243333 -579506724
        1372917963 -169220308 1332448187 -1381108853</internalNodes>
      <leafValues>
        -1.1546976864337921e-01 2.8601574897766113e-01</leafValues></_>
    <_>
      <internalNodes>
        0 -1 8408 -1665073339 28758604 -1056517996 -1867745332 533719398
        -2104841329 1942451936 -1423065067</internalNodes>
      <leafValues>
        -2.1183644235134125e-01 1.6009306907653809e-01</leafValues></_>
    <_>
      <internalNodes>
        0 -1 5319 -1501297408 76062992 2091421782 -1127596016 21721877
        -1094532984 112768870 -933214752</internalNodes>
      <leafValues>
        -3.8842236995697021e-01 8.6642369627952576e-02</leafValues></_>
    <_>
      <internalNodes>
        0 -1 3521 541792096 1685283646 312287253 1310864548 1233455536
        -1506618310 1796101844 109969524</internalNodes>
      <leafValues>
        -3.4843108057975769e-01 9.3031153082847595e-02</leafValues></_>
    <_>
      <internalNodes>
        0 -1 341 417131172 50706468 675771524 -1186936632 604025241
        -1929144041 1918059672 -43682949</internalNodes>
      <leafValues>
        -1.9771866500377655e-01 1.7000770568847656e-01</leafValues></_>
    <_>
      <internalNodes>
        0 -1 7081 -1268373542 -1076749821 -2026058012 -1115716302
        597844149 972931243 954542718 -1343352486</internalNodes>
      <leafValues>
        -1.7604170739650726e-01 1.8678666651248932e-01</leafValues></_>
    <_>
      <internalNodes>
        0 -1 4282 -1691521168 -467975786 1678152919 1778542178
        1372987924 69730402 1169077232 -1187900108</internalNodes>
      <leafValues>
        -2.7030271291732788e-01 1.2937468290328979e-01</leafValues></_>
    <_>
      <internalNodes>
        0 -1 2519 -102120658 1579889208 2092619235 1957905632 853983198
        252509648 2001622472 -638623273</internalNodes>
      <leafValues>
        -1.5705054998397827e-01 2.2060126066207886e-01</leafValues></_>
    <_>
      <internalNodes>
        0 -1 4910 -51420349 -1089966246 -404588983 -1779828913
        -2071661750 -1158687404 -1627333062 -1533332670</internalNodes>
      <leafValues>
        -1.5125514566898346e-01 2.2814455628395081e-01</leafValues></_>
    <_>
      <internalNodes>
        0 -1 7480 -1743800029 -154972097 -1379734513 1606525619
        1084561480 2084741591 1649746092 980448407</internalNodes>
      <leafValues>
        -1.9035288691520691e-01 1.7545193433761597e-01</leafValues></_>
    <_>
      <internalNodes>
        0 -1 6556 -2112748432 1405220 1392816340 -153183786 -662090987
        -1948047359 -258567536 -2006969968</internalNodes>
      <leafValues>
        -3.3690139651298523e-01 1.0239785164594650e-01</leafValues></_>
    <_>
      <internalNodes>
        0 -1 729 1994329521 1054278498 -1694410403 1557377278 1033582359
        -1254258881 604725053 -567213322</internalNodes>
      <leafValues>
        -2.0612294971942902e-01 1.6483883559703827e-01</leafValues></_>
    <_>
      <internalNodes>
        0 -1 2677 1052918835 149416433 1293077990 -424291896 160361847
        -425360616 373031038 -306379616</internalNodes>
      <leafValues>
        -2.2848287224769592e-01 1.4951618015766144e-01</leafValues></_></weakClassifiers></stage8>
</opencv_storage>
