<?xml version="1.0"?>
<opencv_storage>
<stage7>
  <maxWeakCount>52</maxWeakCount>
  <stageThreshold>-1.4645965099334717e+00</stageThreshold>
  <weakClassifiers>
    <_>
      <internalNodes>
        0 -1 50359 -682796 1605606615 -154112280 -678227634 -63164200
        -26279916 860912842 924023515</internalNodes>
      <leafValues>
        -5.5616348981857300e-01 -8.0933287739753723e-02</leafValues></_>
    <_>
      <internalNodes>
        0 -1 2211 -73926050 -498743642 -536853806 -503283542 -95693825
        -1307344752 -1239178293 -243832945</internalNodes>
      <leafValues>
        -2.9268395900726318e-01 2.1808749437332153e-01</leafValues></_>
    <_>
      <internalNodes>
        0 -1 41206 -1286091584 -572301989 -1038298934 1665361255
        -1193240896 2002735616 -1174385142 1393761179</internalNodes>
      <leafValues>
        -2.4886566400527954e-01 2.3551476001739502e-01</leafValues></_>
    <_>
      <internalNodes>
        0 -1 37171 -34380937 -10276882 -168429 -578868749 -1879101445
        -1679526017 -1619036165 -1077208646</internalNodes>
      <leafValues>
        -1.4980265498161316e-01 3.6281630396842957e-01</leafValues></_>
    <_>
      <internalNodes>
        0 -1 47662 1163751488 1045688151 -510675619 -197600679
        1093282368 2117577625 -2066910626 -105128213</internalNodes>
      <leafValues>
        -2.8023162484169006e-01 2.1339161694049835e-01</leafValues></_>
    <_>
      <internalNodes>
        0 -1 45105 -816979224 -1575136761 -770489104 -771518089
        -12285780 -786988736 -835701822 1393757907</internalNodes>
      <leafValues>
        -2.5475993752479553e-01 1.9305431842803955e-01</leafValues></_>
    <_>
      <internalNodes>
        0 -1 20630 695269599 785118238 621185271 -1073152260 198994800
        712385398 -1687563404 1313647936</internalNodes>
      <leafValues>
        -3.9036455750465393e-01 1.3999381661415100e-01</leafValues></_>
    <_>
      <internalNodes>
        0 -1 376 1636699043 1861139320 1595233868 -290525036 155328799
        1844065274 1150775439 -939555849</internalNodes>
      <leafValues>
        -2.8974705934524536e-01 1.6113777458667755e-01</leafValues></_>
    <_>
      <internalNodes>
        0 -1 63543 -813767262 -273154970 -1292353022 1393014341
        -2121340792 142992509 574022098 1364709855</internalNodes>
      <leafValues>
        -2.0004791021347046e-01 2.2723484039306641e-01</leafValues></_>
    <_>
      <internalNodes>
        0 -1 35340 -139002686 -1504069246 582207888 -1000899584
        -904285612 -1933401747 -260000688 -800781564</internalNodes>
      <leafValues>
        -3.4610942006111145e-01 1.3119743764400482e-01</leafValues></_>
    <_>
      <internalNodes>
        0 -1 64478 -1371635014 -1544474712 -1494467225 -1257376086
        888663945 -1661009929 904746475 -1348664082</internalNodes>
      <leafValues>
        -1.9277767837047577e-01 2.5121289491653442e-01</leafValues></_>
    <_>
      <internalNodes>
        0 -1 34031 887052496 -287390690 168584294 -252135219 1749062640
        -1339750076 -530400678 855735695</internalNodes>
      <leafValues>
        -2.4349111318588257e-01 1.9332925975322723e-01</leafValues></_>
    <_>
      <internalNodes>
        0 -1 22125 -1138973507 -683999631 901706829 -227022977
        2087891199 -8534153 1750769023 -617633345</internalNodes>
      <leafValues>
        -1.2071412056684494e-01 3.6284831166267395e-01</leafValues></_>
    <_>
      <internalNodes>
        0 -1 3105 -46025356 924540940 -117090177 1397971573 -1147071627
        -1275121375 1765921621 -1552721049</internalNodes>
      <leafValues>
        -2.3811656236648560e-01 1.9285407662391663e-01</leafValues></_>
    <_>
      <internalNodes>
        0 -1 19022 771781664 -492195454 -552405613 -1387947172 176253363
        1687085242 1322099961 -1432468376</internalNodes>
      <leafValues>
        -3.3192136883735657e-01 1.4142356812953949e-01</leafValues></_>
    <_>
      <internalNodes>
        0 -1 56874 2110776380 2040123808 -1857392168 1931795028
        -932636756 1570017768 -44887422 319141186</internalNodes>
      <leafValues>
        -2.6767912507057190e-01 1.6299954056739807e-01</leafValues></_>
    <_>
      <internalNodes>
        0 -1 41096 986655295 -455786017 -1853434802 1651955583
        1393182724 -496828390 -936711312 -151611019</internalNodes>
      <leafValues>
        -3.3264598250389099e-01 1.3462625443935394e-01</leafValues></_>
    <_>
      <internalNodes>
        0 -1 37148 1316390949 100684106 234937623 788674074 1342208764
        1639023032 390674520 145643618</internalNodes>
      <leafValues>
        -2.8845953941345215e-01 1.6040259599685669e-01</leafValues></_>
    <_>
      <internalNodes>
        0 -1 63376 -1637553401 -1500073978 1679462856 -1600253621
        -1471606208 1240154372 -1568137180 -1603263724</internalNodes>
      <leafValues>
        -4.3358489871025085e-01 1.0612162202596664e-01</leafValues></_>
    <_>
      <internalNodes>
        0 -1 42631 -279998912 -134511152 -1836355404 -474750992
        2094320122 -1120764792 643389928 -1526077698</internalNodes>
      <leafValues>
        -2.0885217189788818e-01 2.0594455301761627e-01</leafValues></_>
    <_>
      <internalNodes>
        0 -1 1408 216626886 -1467293128 -1331671872 -805262260 277460753
        917573811 1403053264 -1050641484</internalNodes>
      <leafValues>
        -4.6314844489097595e-01 9.1857261955738068e-02</leafValues></_>
    <_>
      <internalNodes>
        0 -1 53718 -273875210 1027529999 681243202 -1354664521
        -597885054 -582549672 1956374522 -1877371910</internalNodes>
      <leafValues>
        -1.8943895399570465e-01 2.3208850622177124e-01</leafValues></_>
    <_>
      <internalNodes>
        0 -1 39160 -1294136737 -639938169 1517346023 1925075293
        579589957 -633616117 -1504828640 -214798780</internalNodes>
      <leafValues>
        -2.8427907824516296e-01 1.5219774842262268e-01</leafValues></_>
    <_>
      <internalNodes>
        0 -1 35302 -1485851609 -1375381742 807588289 -456224508
        212540023 -1464221528 -1853300380 -186324827</internalNodes>
      <leafValues>
        -3.4576079249382019e-01 1.2609019875526428e-01</leafValues></_>
    <_>
      <internalNodes>
        0 -1 21948 2020618304 145907253 68314545 1142803294 -358429455
        -295560392 -2080127079 -885073800</internalNodes>
      <leafValues>
        -2.8990262746810913e-01 1.4778672158718109e-01</leafValues></_>
    <_>
      <internalNodes>
        0 -1 33387 254202484 1786351437 -1882926509 -642273209 774197600
        -576556796 -1611599398 -234625249</internalNodes>
      <leafValues>
        -1.9591087102890015e-01 2.2293286025524139e-01</leafValues></_>
    <_>
      <internalNodes>
        0 -1 58620 739114587 840610587 -701268137 -1661631346 570628696
        -1469107729 -1265869880 -1397569067</internalNodes>
      <leafValues>
        -2.2838552296161652e-01 1.8920508027076721e-01</leafValues></_>
    <_>
      <internalNodes>
        0 -1 15052 735237805 1606652578 1762900169 -696094512 -756835741
        189554336 411856410 1561415772</internalNodes>
      <leafValues>
        -2.4338896572589874e-01 1.8809147179126740e-01</leafValues></_>
    <_>
      <internalNodes>
        0 -1 61771 2104463762 -1813299348 -1468278226 -215130946
        1828318178 -269555008 1223528586 1942848735</internalNodes>
      <leafValues>
        -1.6430321335792542e-01 2.8236299753189087e-01</leafValues></_>
    <_>
      <internalNodes>
        0 -1 5346 894371693 37507218 -736839294 -660697402 770820348
        1811366691 1468245619 187206379</internalNodes>
      <leafValues>
        -2.3053051531314850e-01 1.9598147273063660e-01</leafValues></_>
    <_>
      <internalNodes>
        0 -1 59215 -255237434 -818543795 -939081577 571644557 -376764076
        -116686549 1957362340 -629630348</internalNodes>
      <leafValues>
        -3.4818381071090698e-01 1.2967050075531006e-01</leafValues></_>
    <_>
      <internalNodes>
        0 -1 962 1164210697 1678703678 268910994 1746461336 584014635
        -1416312648 1476489743 -968089665</internalNodes>
      <leafValues>
        -2.9128012061119080e-01 1.5605530142784119e-01</leafValues></_>
    <_>
      <internalNodes>
        0 -1 34795 -733208776 1964314693 -444157541 2071344477
        -497518584 -1988097763 -1551664136 -1148179580</internalNodes>
      <leafValues>
        -2.4771472811698914e-01 1.8598172068595886e-01</leafValues></_>
    <_>
      <internalNodes>
        0 -1 52545 -2084004090 -725495369 -2147100450 -263560880
        -1970754816 671287554 914487728 -702408652</internalNodes>
      <leafValues>
        -3.5199791193008423e-01 1.3337433338165283e-01</leafValues></_>
    <_>
      <internalNodes>
        0 -1 42438 1278228267 1274265329 -1879097359 -911651017
        -595810133 -67555465 1368744921 -89145949</internalNodes>
      <leafValues>
        -1.4365129172801971e-01 3.3588829636573792e-01</leafValues></_>
    <_>
      <internalNodes>
        0 -1 39986 720930195 1918618203 -764934559 -285413584
        -1866469534 -719998952 -721371886 126183748</internalNodes>
      <leafValues>
        -2.8225874900817871e-01 1.6555824875831604e-01</leafValues></_>
    <_>
      <internalNodes>
        0 -1 62 1277382062 866352675 -369229836 -79986888 -38764611
        2132901881 -499980330 1498797467</internalNodes>
      <leafValues>
        -1.9130304455757141e-01 2.4680361151695251e-01</leafValues></_>
    <_>
      <internalNodes>
        0 -1 66462 137752071 -177750529 -554058177 1886379763 1828709894
        1551663037 -805835636 -1059621318</internalNodes>
      <leafValues>
        -1.6576398909091949e-01 2.7831831574440002e-01</leafValues></_>
    <_>
      <internalNodes>
        0 -1 66757 -50283294 158499014 -971460446 1560908673 -778999007
        724415116 56906498 46397827</internalNodes>
      <leafValues>
        -2.2181797027587891e-01 2.0822103321552277e-01</leafValues></_>
    <_>
      <internalNodes>
        0 -1 53152 -1803787650 -927514304 -1059890721 -1831321477
        463590080 -926334950 -1426003084 -399222512</internalNodes>
      <leafValues>
        -3.2518228888511658e-01 1.4405998587608337e-01</leafValues></_>
    <_>
      <internalNodes>
        0 -1 11151 -716703955 1250095530 -1258071210 -732103228
        276929911 1788055688 1271615015 1149891388</internalNodes>
      <leafValues>
        -2.7993452548980713e-01 1.6622325778007507e-01</leafValues></_>
    <_>
      <internalNodes>
        0 -1 24428 -403527794 -43447202 -490858062 -585557233 -167166792
        -465226322 -1958197990 155779715</internalNodes>
      <leafValues>
        -2.0036090910434723e-01 2.3616787791252136e-01</leafValues></_>
    <_>
      <internalNodes>
        0 -1 18928 -1625661144 2065256463 -1862119234 876826819
        -107793870 -1584525299 381851816 -1147516904</internalNodes>
      <leafValues>
        -2.9531636834144592e-01 1.6811174154281616e-01</leafValues></_>
    <_>
      <internalNodes>
        0 -1 55368 -383803694 -1371985975 -294999892 -938754603
        -1076640306 -569016744 389172970 1981229978</internalNodes>
      <leafValues>
        -2.1079473197460175e-01 2.4344176054000854e-01</leafValues></_>
    <_>
      <internalNodes>
        0 -1 30013 -841203312 2138430969 1785822629 704147311
        -1374292045 -461965481 -2101995073 -1409619481</internalNodes>
      <leafValues>
        -1.9922748208045959e-01 2.4996364116668701e-01</leafValues></_>
    <_>
      <internalNodes>
        0 -1 37716 -128257434 -1421421658 -640449296 1209173626 50925632
        1493426706 538972224 1413845580</internalNodes>
      <leafValues>
        -5.2291166782379150e-01 9.1107785701751709e-02</leafValues></_>
    <_>
      <internalNodes>
        0 -1 55549 -613882819 -112618212 1639678411 469809845 1208865207
        7700064 -1645654263 -1681279766</internalNodes>
      <leafValues>
        -1.8002250790596008e-01 2.5009995698928833e-01</leafValues></_>
    <_>
      <internalNodes>
        0 -1 17015 -1079856509 -1411607315 -234561935 1322111486
        -1372705193 -1113152998 -1081216650 -1642379172</internalNodes>
      <leafValues>
        -2.0901115238666534e-01 2.1613913774490356e-01</leafValues></_>
    <_>
      <internalNodes>
        0 -1 47317 584566296 -90329087 1153637516 1628651838 1228756868
        479369604 -87937734 891021439</internalNodes>
      <leafValues>
        -2.2514219582080841e-01 2.0426420867443085e-01</leafValues></_>
    <_>
      <internalNodes>
        0 -1 10660 69969232 -1330861150 -595160047 -862412114 294740747
        -1045388618 -1873644462 -57147282</internalNodes>
      <leafValues>
        -3.1347233057022095e-01 1.4767372608184814e-01</leafValues></_>
    <_>
      <internalNodes>
        0 -1 39048 -1756682055 1850843160 -1950238441 -673637153
        1259059837 -1884135172 475744485 -313752191</internalNodes>
      <leafValues>
        -1.9595532119274139e-01 2.3959811031818390e-01</leafValues></_>
    <_>
      <internalNodes>
        0 -1 8879 -1857641522 -518471333 -1572716400 -688602740
        1353868059 176160784 -1341275516 -1877747328</internalNodes>
      <leafValues>
        -3.3209565281867981e-01 1.3618908822536469e-01</leafValues></_></weakClassifiers></stage7>
</opencv_storage>
