<?xml version="1.0"?>
<opencv_storage>
<stage5>
  <maxWeakCount>39</maxWeakCount>
  <stageThreshold>-1.6056264638900757e+00</stageThreshold>
  <weakClassifiers>
    <_>
      <internalNodes>
        0 -1 57257 2052542815 2069756799 -204645513 -77087873 -86024929
        -1145098273 -319815697 -262145</internalNodes>
      <leafValues>
        -4.9394315481185913e-01 1.6149285435676575e-01</leafValues></_>
    <_>
      <internalNodes>
        0 -1 5249 -67113009 -1035547674 -747537822 1753282186 -200301685
        -770057865 -137365513 -254279729</internalNodes>
      <leafValues>
        -3.2772463560104370e-01 2.7810758352279663e-01</leafValues></_>
    <_>
      <internalNodes>
        0 -1 3373 -603981059 -8437953 -1074845697 -9469955 2013165363
        -78882947 -302096805 -1087144131</internalNodes>
      <leafValues>
        -2.2823789715766907e-01 3.7591329216957092e-01</leafValues></_>
    <_>
      <internalNodes>
        0 -1 50595 -33554465 -716480789 -626067202 1380425727 -134808370
        -76030900 -99421206 -82577457</internalNodes>
      <leafValues>
        -1.6169279813766479e-01 4.7560587525367737e-01</leafValues></_>
    <_>
      <internalNodes>
        0 -1 7611 -285608545 1995331303 -294252720 -355043594 -69540420
        -1195653523 1762979797 -889555984</internalNodes>
      <leafValues>
        -3.2133740186691284e-01 2.1456846594810486e-01</leafValues></_>
    <_>
      <internalNodes>
        0 -1 55099 -1154097938 -67952753 -22873474 846921535 -537936308
        -9470083 -285802498 -487391250</internalNodes>
      <leafValues>
        -2.2423678636550903e-01 2.9708570241928101e-01</leafValues></_>
    <_>
      <internalNodes>
        0 -1 49428 -1596698544 -135004167 -420070673 1733541561
        -545982725 -4194307 -1908867153 -356778185</internalNodes>
      <leafValues>
        -2.5399300456047058e-01 2.5972223281860352e-01</leafValues></_>
    <_>
      <internalNodes>
        0 -1 47398 -280527753 -565216626 1443584202 -757441183
        -872523708 -486391785 -56953132 -1305314438</internalNodes>
      <leafValues>
        -2.7798122167587280e-01 2.2416004538536072e-01</leafValues></_>
    <_>
      <internalNodes>
        0 -1 62584 -1442879905 713511775 -1743388548 1622866087
        -133574629 -381613981 -661668716 -230515048</internalNodes>
      <leafValues>
        -3.0186438560485840e-01 1.9220688939094543e-01</leafValues></_>
    <_>
      <internalNodes>
        0 -1 9936 782641152 777945053 -1395983401 1814837548 273077951
        165407226 1122881269 -960111147</internalNodes>
      <leafValues>
        -3.9124089479446411e-01 1.5162563323974609e-01</leafValues></_>
    <_>
      <internalNodes>
        0 -1 2584 -38273 -554023433 -818351242 35662622 -109681382
        -230270395 -949994604 -114110513</internalNodes>
      <leafValues>
        -2.7040070295333862e-01 2.0747810602188110e-01</leafValues></_>
    <_>
      <internalNodes>
        0 -1 58115 -1130425801 2044717951 -2013070626 -534875323
        -83176884 983795723 -19946812 -1307407412</internalNodes>
      <leafValues>
        -2.8473493456840515e-01 2.0472164452075958e-01</leafValues></_>
    <_>
      <internalNodes>
        0 -1 59075 -1898090799 -1881183139 1242058876 1749705116
        -167160748 -1440610185 -121312700 -1331635788</internalNodes>
      <leafValues>
        -4.2958000302314758e-01 1.2992908060550690e-01</leafValues></_>
    <_>
      <internalNodes>
        0 -1 66293 641264075 -1256173588 2113564633 -1610756493
        836615855 347967487 -1107447621 -1883276145</internalNodes>
      <leafValues>
        -1.7152659595012665e-01 3.2245528697967529e-01</leafValues></_>
    <_>
      <internalNodes>
        0 -1 1540 -1434458629 -494489966 -305501736 -262107630
        -648170502 -1044930330 1582658324 -197667519</internalNodes>
      <leafValues>
        -2.9990869760513306e-01 1.8469421565532684e-01</leafValues></_>
    <_>
      <internalNodes>
        0 -1 43694 -1506247624 -1371272871 -1047835539 1796054988
        1003159007 -351631221 -905749029 -174653955</internalNodes>
      <leafValues>
        -2.5963884592056274e-01 2.2204862534999847e-01</leafValues></_>
    <_>
      <internalNodes>
        0 -1 31870 -791711777 -824375139 -724475233 1658515871
        -234092521 -2094511614 -1549601980 -218956866</internalNodes>
      <leafValues>
        -2.6908773183822632e-01 2.1117930114269257e-01</leafValues></_>
    <_>
      <internalNodes>
        0 -1 3535 -453543836 141842390 1446967345 1072093883 45651448
        -1166151686 133616131 -1144523761</internalNodes>
      <leafValues>
        -2.1910083293914795e-01 2.6027259230613708e-01</leafValues></_>
    <_>
      <internalNodes>
        0 -1 55198 -296268177 -1412775457 1082142862 1985892778
        -1871384986 -341958005 -678758044 -421467035</internalNodes>
      <leafValues>
        -3.4932664036750793e-01 1.6566741466522217e-01</leafValues></_>
    <_>
      <internalNodes>
        0 -1 44234 -1963983105 -1914184368 -1342587145 1564470652
        -555758888 -7612449 -1844079649 1101770</internalNodes>
      <leafValues>
        -2.0322178304195404e-01 2.8335368633270264e-01</leafValues></_>
    <_>
      <internalNodes>
        0 -1 31418 -1972132043 -294367372 2128574194 1020309374
        -591512493 -521362457 1006662692 416629429</internalNodes>
      <leafValues>
        -3.6391773819923401e-01 1.6564264893531799e-01</leafValues></_>
    <_>
      <internalNodes>
        0 -1 56945 -1144040241 -891329589 -798928674 1612236731
        1787422790 -216282861 -1409619210 -1241894179</internalNodes>
      <leafValues>
        -2.5683477520942688e-01 2.2487883269786835e-01</leafValues></_>
    <_>
      <internalNodes>
        0 -1 43531 -2063688069 -1976928779 -1552662993 498400948
        -1551949635 -560549988 1037126908 -1375849832</internalNodes>
      <leafValues>
        -2.2101120650768280e-01 2.5484952330589294e-01</leafValues></_>
    <_>
      <internalNodes>
        0 -1 61977 1818244959 -367010849 151960066 1342822666 -591471996
        -359007761 -1329320164 -1161118025</internalNodes>
      <leafValues>
        -2.3768903315067291e-01 2.4632190167903900e-01</leafValues></_>
    <_>
      <internalNodes>
        0 -1 119 1794107426 -431842466 616621172 1850906110 789929078
        1637567281 1904263669 2025157200</internalNodes>
      <leafValues>
        -5.0844699144363403e-01 1.1686843633651733e-01</leafValues></_>
    <_>
      <internalNodes>
        0 -1 29404 -71601702 1593821279 -1065312542 -250135970
        2048833546 1986412568 -721126902 1981174347</internalNodes>
      <leafValues>
        -2.6648995280265808e-01 2.1122018992900848e-01</leafValues></_>
    <_>
      <internalNodes>
        0 -1 819 748321569 1179434622 805635778 14482013 -1865527020
        1724229131 -731972970 -1537163404</internalNodes>
      <leafValues>
        -4.7432166337966919e-01 1.2243149429559708e-01</leafValues></_>
    <_>
      <internalNodes>
        0 -1 26220 735969375 -1930750839 1074909854 -497274848
        -2136415402 -1817539958 -1465859516 -596332464</internalNodes>
      <leafValues>
        -4.6281972527503967e-01 1.2327371537685394e-01</leafValues></_>
    <_>
      <internalNodes>
        0 -1 18044 601416687 -388070326 -94439721 -1901465892 2001190357
        802683733 118879252 -1102906012</internalNodes>
      <leafValues>
        -3.1689232587814331e-01 1.7392425239086151e-01</leafValues></_>
    <_>
      <internalNodes>
        0 -1 38719 1026939984 -1903212310 -801713558 -1586026147
        -611129106 1661264008 -620086322 542332891</internalNodes>
      <leafValues>
        -2.5034263730049133e-01 2.2760552167892456e-01</leafValues></_>
    <_>
      <internalNodes>
        0 -1 50630 -1342728261 -1161957465 683538225 -1180545493
        -1101504865 1831912692 -375889864 -570575433</internalNodes>
      <leafValues>
        -1.8915472924709320e-01 3.1409522891044617e-01</leafValues></_>
    <_>
      <internalNodes>
        0 -1 40104 777666311 776978644 541315163 -487273987 -112848383
        -1999650710 184732583 -454545036</internalNodes>
      <leafValues>
        -4.2287820577621460e-01 1.3625529408454895e-01</leafValues></_>
    <_>
      <internalNodes>
        0 -1 50987 -560015144 -146290 857198666 1918910661 253680326
        -79281976 -1490239752 858983119</internalNodes>
      <leafValues>
        -2.3341433703899384e-01 2.3946769535541534e-01</leafValues></_>
    <_>
      <internalNodes>
        0 -1 21830 -1214498721 -1868836438 -1807547113 -1284550389
        1001334555 -75332974 934198261 -203220236</internalNodes>
      <leafValues>
        -2.4426060914993286e-01 2.3019315302371979e-01</leafValues></_>
    <_>
      <internalNodes>
        0 -1 30520 680948799 -1414917688 1889137821 -861765244 275388527
        -502496891 -757877966 -386084463</internalNodes>
      <leafValues>
        -3.7318581342697144e-01 1.4865274727344513e-01</leafValues></_>
    <_>
      <internalNodes>
        0 -1 2546 -177266745 788195703 -16956255 -1625654537 1928946943
        -68027658 802013377 -619091829</internalNodes>
      <leafValues>
        -1.9502951204776764e-01 3.1462079286575317e-01</leafValues></_>
    <_>
      <internalNodes>
        0 -1 72 564883308 464117310 -226335750 -304563222 1085302231
        767735243 1476458947 -464130447</internalNodes>
      <leafValues>
        -3.0582672357559204e-01 1.9434683024883270e-01</leafValues></_>
    <_>
      <internalNodes>
        0 -1 49826 953580895 1467404284 -370823194 2066775744 947527732
        -62357537 -396967699 -306186241</internalNodes>
      <leafValues>
        -2.1565689146518707e-01 2.7780902385711670e-01</leafValues></_>
    <_>
      <internalNodes>
        0 -1 10792 151648123 -923868942 -737016200 -391234656 169108181
        1390125308 -1517919595 -534753338</internalNodes>
      <leafValues>
        -3.1889283657073975e-01 1.9248723983764648e-01</leafValues></_></weakClassifiers></stage5>
</opencv_storage>
