<?xml version="1.0"?>
<opencv_storage>
<stage2>
  <maxWeakCount>30</maxWeakCount>
  <stageThreshold>-1.6745222806930542e+00</stageThreshold>
  <weakClassifiers>
    <_>
      <internalNodes>
        0 -1 45802 -227065776 -11316875 -2062492833 -550406587
        -497631016 -68691461 -95290373 -76284161</internalNodes>
      <leafValues>
        -6.2721729278564453e-01 1.3960748910903931e-01</leafValues></_>
    <_>
      <internalNodes>
        0 -1 1777 -8193 -680264073 -12947650 990917138 -34342145
        -9228482 -4194309 -82575605</internalNodes>
      <leafValues>
        -3.0757439136505127e-01 4.9702832102775574e-01</leafValues></_>
    <_>
      <internalNodes>
        0 -1 48602 -136586020 -574632356 -88445970 1393782126 -51064632
        -11576252 -226435878 1628657675</internalNodes>
      <leafValues>
        -3.0676978826522827e-01 3.6037695407867432e-01</leafValues></_>
    <_>
      <internalNodes>
        0 -1 50464 -486588321 -19443265 -503160097 -88419505 -104134652
        -9795565 -87372864 -1334654208</internalNodes>
      <leafValues>
        -4.0083184838294983e-01 2.6114165782928467e-01</leafValues></_>
    <_>
      <internalNodes>
        0 -1 1760 -87309235 -354799352 1048932604 -253322926 1900307353
        1220706466 -645779012 -1279787521</internalNodes>
      <leafValues>
        -3.0784898996353149e-01 3.0526146292686462e-01</leafValues></_>
    <_>
      <internalNodes>
        0 -1 59359 -545269763 1883489367 -562373001 1359036557
        -111616824 2137870044 -227362102 -216794485</internalNodes>
      <leafValues>
        -2.3062472045421600e-01 4.5031377673149109e-01</leafValues></_>
    <_>
      <internalNodes>
        0 -1 3061 -276829377 1064803659 997885759 793800464 -33669264
        -1084926932 -281678225 -16552117</internalNodes>
      <leafValues>
        -2.4480114877223969e-01 3.6018511652946472e-01</leafValues></_>
    <_>
      <internalNodes>
        0 -1 16909 -787505 -1034249498 -560662671 2095510468 -368387083
        -100793295 -1023358736 -867909388</internalNodes>
      <leafValues>
        -3.9212137460708618e-01 2.2731566429138184e-01</leafValues></_>
    <_>
      <internalNodes>
        0 -1 54341 -1463808976 -1563280994 -1879032865 496961885
        -20670211 -880570357 1540290973 -1179723207</internalNodes>
      <leafValues>
        -3.9505672454833984e-01 2.1310915052890778e-01</leafValues></_>
    <_>
      <internalNodes>
        0 -1 58495 44771257 -1635942794 -285491204 -1146257860 603918270
        -1342702090 -1898533154 -1343538024</internalNodes>
      <leafValues>
        -2.4013771116733551e-01 3.4599062800407410e-01</leafValues></_>
    <_>
      <internalNodes>
        0 -1 62488 -655470881 -542113923 -268812614 -218955779
        -1619007908 -1098907810 -16855556 -86835208</internalNodes>
      <leafValues>
        -2.6893720030784607e-01 3.0984717607498169e-01</leafValues></_>
    <_>
      <internalNodes>
        0 -1 61978 72613952 962336854 -909220923 704735493 -263894008
        1621601023 -254926716 1659411</internalNodes>
      <leafValues>
        -5.1506143808364868e-01 1.7088168859481812e-01</leafValues></_>
    <_>
      <internalNodes>
        0 -1 62799 -1199659318 3702928 -1401743279 165972801 -755602754
        679479342 -401829604 13224143</internalNodes>
      <leafValues>
        -3.8970005512237549e-01 2.0673947036266327e-01</leafValues></_>
    <_>
      <internalNodes>
        0 -1 47223 -155313077 -1428438977 -2146807073 -493348962
        -339060160 -297399773 -124097548 -1837487652</internalNodes>
      <leafValues>
        -3.6578267812728882e-01 2.2394983470439911e-01</leafValues></_>
    <_>
      <internalNodes>
        0 -1 19152 648961280 1052406748 -401290339 -1411934877 434363388
        -658286437 -358815281 -1972659459</internalNodes>
      <leafValues>
        -3.5061636567115784e-01 2.2665087878704071e-01</leafValues></_>
    <_>
      <internalNodes>
        0 -1 62760 -314112958 653997815 -2141531491 987525845 -360023787
        990904337 176862448 -1466289764</internalNodes>
      <leafValues>
        -3.7571418285369873e-01 2.1530182659626007e-01</leafValues></_>
    <_>
      <internalNodes>
        0 -1 26974 -371209734 2145297790 957491727 535069079 -18150476
        2067927936 -910127416 967891467</internalNodes>
      <leafValues>
        -2.9029697179794312e-01 2.8172197937965393e-01</leafValues></_>
    <_>
      <internalNodes>
        0 -1 62380 317329439 303599832 1342739158 -1329145507 -388268024
        -79133654 -363795774 -233768080</internalNodes>
      <leafValues>
        -3.7835392355918884e-01 2.0781897008419037e-01</leafValues></_>
    <_>
      <internalNodes>
        0 -1 23715 -350754106 9949636 -63937652 -1287273267 -359511582
        -222192568 -429872994 1364420171</internalNodes>
      <leafValues>
        -2.7452009916305542e-01 2.8670641779899597e-01</leafValues></_>
    <_>
      <internalNodes>
        0 -1 40163 964422867 2063232753 719464175 -272681104 -34157072
        -9008 1912668092 -2145689994</internalNodes>
      <leafValues>
        -2.5221401453018188e-01 3.1654706597328186e-01</leafValues></_>
    <_>
      <internalNodes>
        0 -1 49988 -1296097477 -493485649 -669949483 -1969827500
        -393584380 -1417051990 -758577131 -1968163040</internalNodes>
      <leafValues>
        -4.7687774896621704e-01 1.5674342215061188e-01</leafValues></_>
    <_>
      <internalNodes>
        0 -1 5659 -150625713 2144357655 -847213336 -1203859256
        1137944292 1541080035 96540368 -1192498525</internalNodes>
      <leafValues>
        -3.0922961235046387e-01 2.4566537141799927e-01</leafValues></_>
    <_>
      <internalNodes>
        0 -1 41571 1383524484 842465142 717090363 1033632442 117362110
        -1628799055 148767978 711615394</internalNodes>
      <leafValues>
        -2.4357645213603973e-01 3.1555497646331787e-01</leafValues></_>
    <_>
      <internalNodes>
        0 -1 52402 -1903481075 1247727698 1297279 -1607182049 -225781680
        1007353871 -1467945232 -1297074396</internalNodes>
      <leafValues>
        -4.5555207133293152e-01 1.7692451179027557e-01</leafValues></_>
    <_>
      <internalNodes>
        0 -1 6854 1315761666 726978742 -458434349 767912191 1944150899
        1990686854 1888220413 -1119325105</internalNodes>
      <leafValues>
        -3.5468068718910217e-01 2.1751604974269867e-01</leafValues></_>
    <_>
      <internalNodes>
        0 -1 62377 -58789538 874140171 -2130263930 344767386 1483243740
        2122990328 1073861820 -1871190141</internalNodes>
      <leafValues>
        -2.8477337956428528e-01 2.8821519017219543e-01</leafValues></_>
    <_>
      <internalNodes>
        0 -1 36299 -612398339 1602190559 -49193 1061885401 -315463976
        -33989292 -1941649398 -215779256</internalNodes>
      <leafValues>
        -2.3711916804313660e-01 3.5317543148994446e-01</leafValues></_>
    <_>
      <internalNodes>
        0 -1 5976 -186909217 1054196445 -605365414 266489345 1876053328
        1746557120 -637395238 -277750941</internalNodes>
      <leafValues>
        -2.4760557711124420e-01 3.1339013576507568e-01</leafValues></_>
    <_>
      <internalNodes>
        0 -1 31800 148704606 1859672454 -1869458226 -363462145
        -520529840 1136181259 -73222860 -97323644</internalNodes>
      <leafValues>
        -4.3803039193153381e-01 1.7591688036918640e-01</leafValues></_>
    <_>
      <internalNodes>
        0 -1 35052 -393353712 1725768314 108461647 -177976882 -385161596
        -39876549 -468125272 1745597756</internalNodes>
      <leafValues>
        -3.1876489520072937e-01 2.3430518805980682e-01</leafValues></_></weakClassifiers></stage2>
</opencv_storage>
