<?xml version="1.0"?>
<opencv_storage>
<stage9>
  <maxWeakCount>63</maxWeakCount>
  <stageThreshold>-1.4050383567810059e+00</stageThreshold>
  <weakClassifiers>
    <_>
      <internalNodes>
        0 -1 60492 -671089153 -687759228 -74333099 1363528449 -663948662
        1490411712 -616527142 -213650869</internalNodes>
      <leafValues>
        -4.7181627154350281e-01 5.4580897092819214e-02</leafValues></_>
    <_>
      <internalNodes>
        0 -1 47113 -43516696 -777792296 1347613794 -787252821 -193685110
        -1677243774 -1291275590 861611086</internalNodes>
      <leafValues>
        -2.6373517513275146e-01 2.0642279088497162e-01</leafValues></_>
    <_>
      <internalNodes>
        0 -1 2014 -335814661 -605057038 -748641446 -885999534 -83913217
        -155451589 -3424802 -183238661</internalNodes>
      <leafValues>
        -1.9201427698135376e-01 2.8274282813072205e-01</leafValues></_>
    <_>
      <internalNodes>
        0 -1 57798 -674237768 -275672036 -935309156 2013615568
        -125241142 -1915201536 -1040123830 571564554</internalNodes>
      <leafValues>
        -2.6240596175193787e-01 1.8034631013870239e-01</leafValues></_>
    <_>
      <internalNodes>
        0 -1 52509 -824711297 -838480652 1795025917 -173556007
        -1661142017 -607381254 1653952989 1422259448</internalNodes>
      <leafValues>
        -1.5618653595447540e-01 2.6639008522033691e-01</leafValues></_>
    <_>
      <internalNodes>
        0 -1 26617 -155256356 -100973367 -997009878 -208074369
        1476720066 -1139752828 -851395848 1363369819</internalNodes>
      <leafValues>
        -2.2492827475070953e-01 1.8442904949188232e-01</leafValues></_>
    <_>
      <internalNodes>
        0 -1 39588 -633289664 -1519178149 -59381537 1160806245
        -822886147 -723001610 -125505685 -1698114085</internalNodes>
      <leafValues>
        -1.9289512932300568e-01 1.9858048856258392e-01</leafValues></_>
    <_>
      <internalNodes>
        0 -1 31753 -121700658 -14844180 -84740506 -1283244068 -764044850
        -674930492 -760216885 -150471025</internalNodes>
      <leafValues>
        -1.5093797445297241e-01 2.4613308906555176e-01</leafValues></_>
    <_>
      <internalNodes>
        0 -1 23276 699217233 -337439506 -1828209090 -1563650882
        152598389 37722858 -76614604 211556832</internalNodes>
      <leafValues>
        -3.6019760370254517e-01 1.0150524228811264e-01</leafValues></_>
    <_>
      <internalNodes>
        0 -1 53410 -1396963041 -221597646 -1610554642 1652210317
        -133545372 -1098841663 -2002214140 -193680972</internalNodes>
      <leafValues>
        -3.5049265623092651e-01 1.0768195986747742e-01</leafValues></_>
    <_>
      <internalNodes>
        0 -1 45725 -1492048364 1416405340 964952424 487325842 -662352455
        111985584 1098984940 798498816</internalNodes>
      <leafValues>
        -2.7887788414955139e-01 1.2809628248214722e-01</leafValues></_>
    <_>
      <internalNodes>
        0 -1 2300 -680586371 856699718 -803925974 453017234 -1591254666
        -663015135 1938641613 -1089209878</internalNodes>
      <leafValues>
        -1.8186594545841217e-01 2.0292076468467712e-01</leafValues></_>
    <_>
      <internalNodes>
        0 -1 37971 -1043860586 -438444531 1342878454 -1425469161
        377837708 -357525346 -2011762598 -1340883246</internalNodes>
      <leafValues>
        -1.8426144123077393e-01 1.9689604640007019e-01</leafValues></_>
    <_>
      <internalNodes>
        0 -1 55881 -1949500017 -1867600242 1203678539 -1783059717
        1165278455 867630574 -176167429 166270135</internalNodes>
      <leafValues>
        -1.7170345783233643e-01 2.0862877368927002e-01</leafValues></_>
    <_>
      <internalNodes>
        0 -1 18994 -1355663071 -8113212 2078070998 804320333 1134262783
        1858240641 331182751 -1057044236</internalNodes>
      <leafValues>
        -2.1309155225753784e-01 1.6472220420837402e-01</leafValues></_>
    <_>
      <internalNodes>
        0 -1 36157 -427264398 -1563571072 -569738894 -1034983588
        -1819744526 1854636436 1938085918 1996746455</internalNodes>
      <leafValues>
        -2.0602582395076752e-01 1.7314116656780243e-01</leafValues></_>
    <_>
      <internalNodes>
        0 -1 39889 -2113111690 370736372 -1705748923 -335804416
        -867108048 -238032796 -2092845936 311693084</internalNodes>
      <leafValues>
        -3.4498548507690430e-01 1.0347422957420349e-01</leafValues></_>
    <_>
      <internalNodes>
        0 -1 27429 80391293 1474592 18770236 410198728 1491622927
        1499203619 -1560365569 -721251393</internalNodes>
      <leafValues>
        -1.7542703449726105e-01 2.0598274469375610e-01</leafValues></_>
    <_>
      <internalNodes>
        0 -1 29270 -410156627 -1029323897 -1325287944 1761395133
        -1886688419 1957412935 -779988400 -1368331979</internalNodes>
      <leafValues>
        -3.1363657116889954e-01 1.1828141659498215e-01</leafValues></_>
    <_>
      <internalNodes>
        0 -1 41402 1716912044 2146863630 -527826898 1360527759
        -905919020 -339076992 1919994770 2065127251</internalNodes>
      <leafValues>
        -1.9625505805015564e-01 1.9267512857913971e-01</leafValues></_>
    <_>
      <internalNodes>
        0 -1 17906 698343160 -1365749586 -446921832 -1322630303
        283575482 890701992 -788232592 1644190313</internalNodes>
      <leafValues>
        -2.7467924356460571e-01 1.3120250403881073e-01</leafValues></_>
    <_>
      <internalNodes>
        0 -1 49274 -1805959813 -151187077 -737553953 852529236
        -1459550164 -99991272 -91575308 -90549540</internalNodes>
      <leafValues>
        -2.3344989120960236e-01 1.4947876334190369e-01</leafValues></_>
    <_>
      <internalNodes>
        0 -1 3367 927868304 224415854 21051669 2064597324 433683748
        1921024467 296448790 488309089</internalNodes>
      <leafValues>
        -3.2973143458366394e-01 1.1653531342744827e-01</leafValues></_>
    <_>
      <internalNodes>
        0 -1 64876 1343553363 -659321963 -737783230 438378587 1601525826
        -19142455 -1729404950 -1064231978</internalNodes>
      <leafValues>
        -2.0076744258403778e-01 1.8196900188922882e-01</leafValues></_>
    <_>
      <internalNodes>
        0 -1 48127 -1056588833 -5914780 -1118053480 -650809908
        -1713774866 -3156911 1343521423 -1135121177</internalNodes>
      <leafValues>
        -1.2398213893175125e-01 2.8604009747505188e-01</leafValues></_>
    <_>
      <internalNodes>
        0 -1 24397 -1283471363 -834605353 1765940987 -1389761549
        -1260405121 -79921838 698096701 -1191904637</internalNodes>
      <leafValues>
        -1.5774582326412201e-01 2.4197274446487427e-01</leafValues></_>
    <_>
      <internalNodes>
        0 -1 61840 -1429435992 35820076 -1543068266 -547183992
        -1569571933 145044384 110745208 234689968</internalNodes>
      <leafValues>
        -2.9453691840171814e-01 1.2403592467308044e-01</leafValues></_>
    <_>
      <internalNodes>
        0 -1 65017 -18228069 -407704923 -50659686 1939066995 -790440886
        1541602644 -1799648661 -16573429</internalNodes>
      <leafValues>
        -1.2355194985866547e-01 2.9735243320465088e-01</leafValues></_>
    <_>
      <internalNodes>
        0 -1 1871 2004859606 -1180488154 -1082802177 855762446
        -197227041 2078801901 1862130933 -640824001</internalNodes>
      <leafValues>
        -1.1891522258520126e-01 3.1118810176849365e-01</leafValues></_>
    <_>
      <internalNodes>
        0 -1 841 1818981356 618829028 243851610 612676436 1128288621
        195979640 1989029981 -339420940</internalNodes>
      <leafValues>
        -3.4425297379493713e-01 1.1545383930206299e-01</leafValues></_>
    <_>
      <internalNodes>
        0 -1 6445 1837075583 -1854049359 -110693276 -1990080902
        -18884955 -23210590 1600643631 -346950597</internalNodes>
      <leafValues>
        -1.6856507956981659e-01 2.3442427814006805e-01</leafValues></_>
    <_>
      <internalNodes>
        0 -1 48895 -1558327961 -645923824 -1129825798 -1973700601
        1699141900 984533892 1255109705 1736565302</internalNodes>
      <leafValues>
        -2.0274351537227631e-01 1.9427277147769928e-01</leafValues></_>
    <_>
      <internalNodes>
        0 -1 61926 206575168 1062531356 550369187 876448657 1977575614
        1793205163 -120800708 -1601045119</internalNodes>
      <leafValues>
        -2.9313018918037415e-01 1.2745118141174316e-01</leafValues></_>
    <_>
      <internalNodes>
        0 -1 59057 -1278083853 905473621 -1288166350 595869420
        1096359626 2113171188 -519055638 357123734</internalNodes>
      <leafValues>
        -1.7487247288227081e-01 2.1025578677654266e-01</leafValues></_>
    <_>
      <internalNodes>
        0 -1 29727 -134218897 2101471309 -218432076 1966718751
        -1747913572 -629788595 1497229530 -864602469</internalNodes>
      <leafValues>
        -1.2428111582994461e-01 2.9458510875701904e-01</leafValues></_>
    <_>
      <internalNodes>
        0 -1 25224 1510244130 -1441115766 289689619 1725301330
        2139253602 1300963512 1342950805 -2068436331</internalNodes>
      <leafValues>
        -3.6539164185523987e-01 1.0210834443569183e-01</leafValues></_>
    <_>
      <internalNodes>
        0 -1 57281 1806326744 -1509928350 -1047211761 -2084981170
        -1341920581 1183551634 -410949266 9462561</internalNodes>
      <leafValues>
        -2.8644534945487976e-01 1.3175740838050842e-01</leafValues></_>
    <_>
      <internalNodes>
        0 -1 250 42008518 1005219937 2117391729 1865646095 -828137593
        1115202457 1217351551 -692043038</internalNodes>
      <leafValues>
        -2.1220611035823822e-01 1.7646732926368713e-01</leafValues></_>
    <_>
      <internalNodes>
        0 -1 52342 -537135698 465244372 -189011418 -1347142308
        1589362686 2140885992 -474435184 -1622020901</internalNodes>
      <leafValues>
        -1.7382693290710449e-01 2.1560496091842651e-01</leafValues></_>
    <_>
      <internalNodes>
        0 -1 54147 -235125996 1266102768 1720384103 1273688304
        -1053111662 2093142663 -584732637 344964502</internalNodes>
      <leafValues>
        -2.1572260558605194e-01 1.7309357225894928e-01</leafValues></_>
    <_>
      <internalNodes>
        0 -1 50886 -300863381 -1147252556 1297014414 1003608849
        1698703460 -1008728534 -586250351 1302913448</internalNodes>
      <leafValues>
        -2.4311645328998566e-01 1.5991947054862976e-01</leafValues></_>
    <_>
      <internalNodes>
        0 -1 6162 1696122825 2006044062 -1677616130 445297506 1460621972
        2022043630 1816641766 199170681</internalNodes>
      <leafValues>
        -2.3440161347389221e-01 1.5980796515941620e-01</leafValues></_>
    <_>
      <internalNodes>
        0 -1 41257 -335020392 -1252671729 1144945682 1936875349
        1853899224 1494126720 975180555 1661028510</internalNodes>
      <leafValues>
        -2.1325042843818665e-01 1.7435045540332794e-01</leafValues></_>
    <_>
      <internalNodes>
        0 -1 49155 793148543 1963348255 939938182 980119876 -1045972390
        -783745015 -1970619552 -101176460</internalNodes>
      <leafValues>
        -2.6888355612754822e-01 1.4111153781414032e-01</leafValues></_>
    <_>
      <internalNodes>
        0 -1 15371 -1593921809 -344723691 -1073807374 1944829707
        -554351521 2104033143 -168458348 -140126229</internalNodes>
      <leafValues>
        -1.5033859014511108e-01 2.6254960894584656e-01</leafValues></_>
    <_>
      <internalNodes>
        0 -1 1365 1371100445 -273847041 -360712728 -798720462 939474359
        1174370286 1710793530 -553805831</internalNodes>
      <leafValues>
        -1.8687996268272400e-01 2.0646475255489349e-01</leafValues></_>
    <_>
      <internalNodes>
        0 -1 31017 -1483972345 671851154 1083614071 -895317200 -61706521
        -1489558739 1790307965 1288295496</internalNodes>
      <leafValues>
        -2.3924422264099121e-01 1.6555292904376984e-01</leafValues></_>
    <_>
      <internalNodes>
        0 -1 65085 1733541314 -1868384362 1377972260 1346028334
        -1172089186 43098519 885814299 294756987</internalNodes>
      <leafValues>
        -2.1729247272014618e-01 1.8892382085323334e-01</leafValues></_>
    <_>
      <internalNodes>
        0 -1 21240 -385501475 2088312112 -9810793 -39108739 -35682566
        -2229764 2135147206 -371771717</internalNodes>
      <leafValues>
        -1.2226527929306030e-01 3.1527745723724365e-01</leafValues></_>
    <_>
      <internalNodes>
        0 -1 16826 65788800 -363969373 -678232751 -292374127 50360315
        -911560214 1237959236 -425256372</internalNodes>
      <leafValues>
        -2.5348001718521118e-01 1.5315952897071838e-01</leafValues></_>
    <_>
      <internalNodes>
        0 -1 13053 1292073328 -187681702 1225317725 1867744708 270129755
        1244766600 1075508204 1828432532</internalNodes>
      <leafValues>
        -1.9203768670558929e-01 2.0542854070663452e-01</leafValues></_>
    <_>
      <internalNodes>
        0 -1 13583 1198840491 1223077726 -18372764 -658129395 -4360230
        561993727 1046314678 -1686617857</internalNodes>
      <leafValues>
        -1.7796462774276733e-01 2.1173429489135742e-01</leafValues></_>
    <_>
      <internalNodes>
        0 -1 21980 838411444 989033585 -152636083 425719279 1659688775
        -530678287 -42999653 -117150545</internalNodes>
      <leafValues>
        -1.7630349099636078e-01 2.0742660760879517e-01</leafValues></_>
    <_>
      <internalNodes>
        0 -1 47901 -1661160077 -902324047 -297006924 -1114732312
        1679037698 -467160540 194081824 1116070741</internalNodes>
      <leafValues>
        -2.6504105329513550e-01 1.5453906357288361e-01</leafValues></_>
    <_>
      <internalNodes>
        0 -1 42520 783697425 -464191110 -1039117603 -1231109283
        -345941743 -40992213 1645803796 -265244852</internalNodes>
      <leafValues>
        -3.7031158804893494e-01 1.0336300730705261e-01</leafValues></_>
    <_>
      <internalNodes>
        0 -1 49057 -371262572 378853770 -2003514798 -789901303
        -1840900360 560136516 -1170166870 -1222233592</internalNodes>
      <leafValues>
        -2.3952673375606537e-01 1.5703625977039337e-01</leafValues></_>
    <_>
      <internalNodes>
        0 -1 61893 169088870 -474972202 578813477 795707111 1567943405
        1564475115 2012601319 -104158050</internalNodes>
      <leafValues>
        -1.7656366527080536e-01 2.1758534014225006e-01</leafValues></_>
    <_>
      <internalNodes>
        0 -1 61434 -671747937 -1636878268 -1301330337 -540289001
        -161968246 2060307146 -1847733861 -309742098</internalNodes>
      <leafValues>
        -1.1900700628757477e-01 3.3327737450599670e-01</leafValues></_>
    <_>
      <internalNodes>
        0 -1 13375 525171987 -355745780 -1407683079 969954052 438196598
        -1680628951 1745727073 1744835146</internalNodes>
      <leafValues>
        -2.0471400022506714e-01 1.9022901356220245e-01</leafValues></_>
    <_>
      <internalNodes>
        0 -1 54789 -2099100777 1039417757 -2138906394 537840012
        -1086092722 2072219715 547496180 -1340062928</internalNodes>
      <leafValues>
        -3.2615095376968384e-01 1.1771146953105927e-01</leafValues></_>
    <_>
      <internalNodes>
        0 -1 11019 876686394 302535622 -1462349571 111660966 -481297577
        219517236 -249524736 304792186</internalNodes>
      <leafValues>
        -2.7613887190818787e-01 1.3746577501296997e-01</leafValues></_>
    <_>
      <internalNodes>
        0 -1 29861 -345255243 1975427061 1052438437 -1113048070
        -1226396419 -589339234 -1385136646 195644202</internalNodes>
      <leafValues>
        -1.3509471714496613e-01 2.9844555258750916e-01</leafValues></_>
    <_>
      <internalNodes>
        0 -1 8680 -311063773 -481497066 4899410 -198543856 -74718343
        -2103869429 1938553444 -696784828</internalNodes>
      <leafValues>
        -2.3766267299652100e-01 1.7137934267520905e-01</leafValues></_></weakClassifiers></stage9>
</opencv_storage>
