<?xml version="1.0"?>
<opencv_storage>
<stage2>
  <maxWeakCount>16</maxWeakCount>
  <stageThreshold>-1.8959050178527832e+00</stageThreshold>
  <weakClassifiers>
    <_>
      <internalNodes>
        0 -1 54572 -92280808 -681589101 202620287 -109854617 -9634818
        -1204128975 -894506353 -401605793</internalNodes>
      <leafValues>
        -8.1695908308029175e-01 -3.4406778216362000e-01</leafValues></_>
    <_>
      <internalNodes>
        0 -1 541 -19074858 -767727402 -1540696713 486897152 -227159812
        -655198049 -945955351 1094926403</internalNodes>
      <leafValues>
        -6.0107064247131348e-01 1.0172038525342941e-01</leafValues></_>
    <_>
      <internalNodes>
        0 -1 79301 -549073394 1434314623 -534848465 1056962687 -11014654
        -1103465154 -1162549397 -230293634</internalNodes>
      <leafValues>
        -4.8277211189270020e-01 2.6523593068122864e-01</leafValues></_>
    <_>
      <internalNodes>
        0 -1 118665 -69865 -16793613 -25252197 -266146820 -143455232
        -548357259 2002181802 -54081733</internalNodes>
      <leafValues>
        -3.4710940718650818e-01 3.7593868374824524e-01</leafValues></_>
    <_>
      <internalNodes>
        0 -1 48603 -1896149200 -1701166208 -891569065 -263421442
        -1381801204 -1593311095 -1694990672 -218967696</internalNodes>
      <leafValues>
        -4.3883386254310608e-01 3.1522396206855774e-01</leafValues></_>
    <_>
      <internalNodes>
        0 -1 75587 -700823546 291008863 436288415 487589702 -565784853
        -699923695 -1729961093 1745019699</internalNodes>
      <leafValues>
        -4.4322553277015686e-01 2.9106160998344421e-01</leafValues></_>
    <_>
      <internalNodes>
        0 -1 72270 -67126306 -405553121 1413667709 -161812201 -641356969
        -1347710933 -74527804 -124716488</internalNodes>
      <leafValues>
        -3.8186025619506836e-01 3.5115596652030945e-01</leafValues></_>
    <_>
      <internalNodes>
        0 -1 2621 -1073753018 -697248190 2114639061 360775418 -193866588
        1410359472 -439868678 320043591</internalNodes>
      <leafValues>
        -5.1657873392105103e-01 2.4794648587703705e-01</leafValues></_>
    <_>
      <internalNodes>
        0 -1 80181 -136500691 781898077 1079545951 637673626 1531530324
        -1422163959 2052189174 -188052546</internalNodes>
      <leafValues>
        -5.2515566349029541e-01 2.3684726655483246e-01</leafValues></_>
    <_>
      <internalNodes>
        0 -1 90200 1459243080 1431977482 -569641613 192213529 -92739354
        2069840150 1873243963 -1035961502</internalNodes>
      <leafValues>
        -5.2604264020919800e-01 2.2705617547035217e-01</leafValues></_>
    <_>
      <internalNodes>
        0 -1 15468 -493425150 -1140559248 940890651 -1846225596
        -121381708 -1943531862 -598581635 1346721396</internalNodes>
      <leafValues>
        -5.4188126325607300e-01 2.2497771680355072e-01</leafValues></_>
    <_>
      <internalNodes>
        0 -1 117930 -136469953 -10763875 -803842790 -1133886316
        -80063946 -267169464 -501411184 -227349648</internalNodes>
      <leafValues>
        -4.2298331856727600e-01 2.9445913434028625e-01</leafValues></_>
    <_>
      <internalNodes>
        0 -1 72450 -1573515760 814883284 -752503303 -1113418549
        -2085989636 2058197137 -796735233 -1095324860</internalNodes>
      <leafValues>
        -3.9088550209999084e-01 3.2903277873992920e-01</leafValues></_>
    <_>
      <internalNodes>
        0 -1 86011 -562053814 282980605 -1999185124 -867383302
        -270835711 -287948482 -1348501636 -553846940</internalNodes>
      <leafValues>
        -5.9713375568389893e-01 2.2338823974132538e-01</leafValues></_>
    <_>
      <internalNodes>
        0 -1 9601 -1335639040 -24108652 672052887 -1221416527 1881556977
        1499464013 709894651 1613208123</internalNodes>
      <leafValues>
        -4.2736279964447021e-01 3.1919136643409729e-01</leafValues></_>
    <_>
      <internalNodes>
        0 -1 56759 1889464028 -579804832 -158664568 1602807086
        -741440821 2074263709 -474055681 984842975</internalNodes>
      <leafValues>
        -3.6128431558609009e-01 3.7717568874359131e-01</leafValues></_></weakClassifiers></stage2>
</opencv_storage>
