<?xml version="1.0"?>
<opencv_storage>
<stage3>
  <maxWeakCount>15</maxWeakCount>
  <stageThreshold>-1.9045155048370361e+00</stageThreshold>
  <weakClassifiers>
    <_>
      <internalNodes>
        0 -1 97099 -1 -671099905 -757145601 -88145987 -33817068
        -33562713 -19988908 -88416261</internalNodes>
      <leafValues>
        -8.6789608001708984e-01 -3.7805256247520447e-01</leafValues></_>
    <_>
      <internalNodes>
        0 -1 76702 -67117329 -1717570569 -1907611610 14352381 -86022336
        -285771998 -23142574 -83953813</internalNodes>
      <leafValues>
        -6.0949844121932983e-01 1.2278964370489120e-01</leafValues></_>
    <_>
      <internalNodes>
        0 -1 102375 -9963690 1455388575 -88151426 -58867713 -25207488
        2135583034 -212665350 -231473289</internalNodes>
      <leafValues>
        -4.1340228915214539e-01 3.2996326684951782e-01</leafValues></_>
    <_>
      <internalNodes>
        0 -1 89327 -536871145 1044313727 -665325926 -961119236
        2063563092 -719261381 1922816048 -86179844</internalNodes>
      <leafValues>
        -5.7057273387908936e-01 2.3906871676445007e-01</leafValues></_>
    <_>
      <internalNodes>
        0 -1 109551 -2118642 -1938437556 -896081770 -223153250 -68458430
        2069563475 -353895849 -497883276</internalNodes>
      <leafValues>
        -4.7725647687911987e-01 2.6892983913421631e-01</leafValues></_>
    <_>
      <internalNodes>
        0 -1 75096 -18895397 752801263 -214003202 -468265488 -87861410
        -796325745 -101912862 -200218636</internalNodes>
      <leafValues>
        -4.5816326141357422e-01 2.7605423331260681e-01</leafValues></_>
    <_>
      <internalNodes>
        0 -1 115814 -10507514 -8797826 -1153238190 1920203283 2061723716
        -29146795 -20516260 -201278672</internalNodes>
      <leafValues>
        -5.5014866590499878e-01 2.2913469374179840e-01</leafValues></_>
    <_>
      <internalNodes>
        0 -1 1731 -111152569 -607223070 -163260634 1904737118 1960980610
        1777362150 974418129 1198744407</internalNodes>
      <leafValues>
        -4.5425492525100708e-01 2.8943631052970886e-01</leafValues></_>
    <_>
      <internalNodes>
        0 -1 5788 -756160894 -53215265 -330429695 736948975 -4462710
        -656961522 559818426 1348386338</internalNodes>
      <leafValues>
        -5.0641089677810669e-01 2.2723557054996490e-01</leafValues></_>
    <_>
      <internalNodes>
        0 -1 99330 -86294833 1733243659 -938355250 -226602497 -20490138
        1267403147 -879889580 -463416460</internalNodes>
      <leafValues>
        -4.9408316612243652e-01 2.2572845220565796e-01</leafValues></_>
    <_>
      <internalNodes>
        0 -1 50777 -243558384 -713894085 -1063551369 1536345199
        -1138717002 -1156068575 -1366377777 -1198853564</internalNodes>
      <leafValues>
        -3.5043743252754211e-01 3.3657154440879822e-01</leafValues></_>
    <_>
      <internalNodes>
        0 -1 74340 -1009567921 -1477979173 -250739416 -530666081
        1944782853 2064601578 -550309083 -1130693480</internalNodes>
      <leafValues>
        -4.6882209181785583e-01 2.4441564083099365e-01</leafValues></_>
    <_>
      <internalNodes>
        0 -1 84841 517957134 1131374543 -397241805 -1363291491
        1983845120 2058315387 -77834630 -630128802</internalNodes>
      <leafValues>
        -5.4428571462631226e-01 2.1713452041149139e-01</leafValues></_>
    <_>
      <internalNodes>
        0 -1 92180 -406864897 1866191098 -2088220397 508858783
        -133343725 -475299573 -1312197675 -253694172</internalNodes>
      <leafValues>
        -4.5524039864540100e-01 2.5182786583900452e-01</leafValues></_>
    <_>
      <internalNodes>
        0 -1 3329 -630991210 -72112177 -803547206 -702589303 -1221574473
        117720645 738359962 876861915</internalNodes>
      <leafValues>
        -3.6327332258224487e-01 3.3184805512428284e-01</leafValues></_></weakClassifiers></stage3>
</opencv_storage>
