<?xml version="1.0"?>
<opencv_storage>
<stage0>
  <maxWeakCount>10</maxWeakCount>
  <stageThreshold>-1.7558655738830566e+00</stageThreshold>
  <weakClassifiers>
    <_>
      <internalNodes>
        0 -1 96344 -257 -8965 1103347720 -538975014 -808455464
        -1416633709 82526344 -924859137</internalNodes>
      <leafValues>
        -7.0830178260803223e-01 3.8944873213768005e-01</leafValues></_>
    <_>
      <internalNodes>
        0 -1 38419 704512 -1070102653 1342346165 1438635475 148698316
        -1078220102 1082512891 -577767953</internalNodes>
      <leafValues>
        -6.2792259454727173e-01 4.5406436920166016e-01</leafValues></_>
    <_>
      <internalNodes>
        0 -1 101250 -1439764633 -1398762650 -603472655 -1171467792
        -1275076107 62636061 -1752968284 -1895902768</internalNodes>
      <leafValues>
        -5.4168385267257690e-01 4.5769944787025452e-01</leafValues></_>
    <_>
      <internalNodes>
        0 -1 48855 -1364478189 -1968808822 -927935212 -255438400
        600487539 -2121923925 -439360076 -993864240</internalNodes>
      <leafValues>
        -5.3797727823257446e-01 4.1803818941116333e-01</leafValues></_>
    <_>
      <internalNodes>
        0 -1 112185 -9307862 -44146711 -602835094 -204553794 -70583738
        1762117851 -91753504 -134479905</internalNodes>
      <leafValues>
        -4.8429164290428162e-01 4.3733125925064087e-01</leafValues></_>
    <_>
      <internalNodes>
        0 -1 103445 -1434468613 -1431372889 -654328845 225655475
        111485439 268402671 1333218559 -839126017</internalNodes>
      <leafValues>
        -4.4788265228271484e-01 5.0075197219848633e-01</leafValues></_>
    <_>
      <internalNodes>
        0 -1 60714 -1358747721 -1964615704 -577507039 -153299856
        -1997562881 -1975902035 -1848933904 -1057304364</internalNodes>
      <leafValues>
        -4.7112733125686646e-01 4.1007021069526672e-01</leafValues></_>
    <_>
      <internalNodes>
        0 -1 388 -201788526 -800013687 1094734808 1493234049 -50218061
        -1667587101 419559609 1343609107</internalNodes>
      <leafValues>
        -4.7484275698661804e-01 3.8350486755371094e-01</leafValues></_>
    <_>
      <internalNodes>
        0 -1 117920 -1495358493 705582062 -1740531370 -1106463610
        168503925 -1853193441 1938371060 -1665142108</internalNodes>
      <leafValues>
        -5.0554150342941284e-01 3.5343959927558899e-01</leafValues></_>
    <_>
      <internalNodes>
        0 -1 76437 53414439 111710408 -1609186795 -1812985584 1611017079
        -930381440 -607347564 -1460383280</internalNodes>
      <leafValues>
        -5.8191281557083130e-01 3.0771973729133606e-01</leafValues></_></weakClassifiers></stage0>
</opencv_storage>
