<?xml version="1.0"?>
<opencv_storage>
<stage1>
  <maxWeakCount>16</maxWeakCount>
  <stageThreshold>-1.8764907121658325e+00</stageThreshold>
  <weakClassifiers>
    <_>
      <internalNodes>
        0 -1 94978 -33569708 -48377700 -687031084 -35811106 -658444064
        -117706564 -924395304 -33566561</internalNodes>
      <leafValues>
        -7.3028439283370972e-01 1.5230013430118561e-01</leafValues></_>
    <_>
      <internalNodes>
        0 -1 24967 -1073685302 -804218800 1074035707 1429558237
        -868960257 -726619731 -1200297473 -581569057</internalNodes>
      <leafValues>
        -5.0973999500274658e-01 3.9100989699363708e-01</leafValues></_>
    <_>
      <internalNodes>
        0 -1 77935 -592648726 -761113368 -728698864 1375060032
        -339022086 -2067231608 -1006045189 30392559</internalNodes>
      <leafValues>
        -4.4534236192703247e-01 4.0171077847480774e-01</leafValues></_>
    <_>
      <internalNodes>
        0 -1 111431 751701822 582119895 -2122214629 -1781098064
        -1494599470 -1412887877 -1093170177 -1413586196</internalNodes>
      <leafValues>
        -4.3707448244094849e-01 3.8901039958000183e-01</leafValues></_>
    <_>
      <internalNodes>
        0 -1 90353 -1474152399 -1158660291 -1074118817 -168140931
        75257840 -42041409 -17453060 -352419856</internalNodes>
      <leafValues>
        -3.5251930356025696e-01 4.5410892367362976e-01</leafValues></_>
    <_>
      <internalNodes>
        0 -1 83205 -1421705453 -2036977592 -1264880803 -127772528
        -1928878479 -1448378168 -1199177040 -453355296</internalNodes>
      <leafValues>
        -5.0044119358062744e-01 3.0230852961540222e-01</leafValues></_>
    <_>
      <internalNodes>
        0 -1 49446 -685975936 -675282808 -771501488 1430841344
        -1970783832 -2138512216 38674635 8867871</internalNodes>
      <leafValues>
        -4.5462411642074585e-01 3.5128548741340637e-01</leafValues></_>
    <_>
      <internalNodes>
        0 -1 45735 -1565053133 -2139041648 -1040145071 -133017008
        -2007387655 -2001565494 278929584 -218172992</internalNodes>
      <leafValues>
        -4.5179933309555054e-01 3.3232802152633667e-01</leafValues></_>
    <_>
      <internalNodes>
        0 -1 111870 -214964210 1490942295 -553200340 -778837667
        -537143024 -75974402 1211009412 -12583392</internalNodes>
      <leafValues>
        -4.2467921972274780e-01 3.4849986433982849e-01</leafValues></_>
    <_>
      <internalNodes>
        0 -1 81359 -6307073 -2104250226 4851729 49267334 -560215874
        -1915861286 9379866 150711039</internalNodes>
      <leafValues>
        -4.5697215199470520e-01 3.2531201839447021e-01</leafValues></_>
    <_>
      <internalNodes>
        0 -1 95820 712186929 -1969745421 692143431 -1090742258
        -2012267965 -1174240725 -232068688 -390153564</internalNodes>
      <leafValues>
        -4.8927345871925354e-01 2.7347752451896667e-01</leafValues></_>
    <_>
      <internalNodes>
        0 -1 69140 -668086784 -812465854 -1716431791 -538182713
        1489635422 -54787051 -85799122 -904792225</internalNodes>
      <leafValues>
        -4.4123050570487976e-01 3.3361008763313293e-01</leafValues></_>
    <_>
      <internalNodes>
        0 -1 4152 -8959963 -76436428 2071768581 1966095522 443613944
        -1619844078 1766889339 1933812003</internalNodes>
      <leafValues>
        -3.6221504211425781e-01 3.9419782161712646e-01</leafValues></_>
    <_>
      <internalNodes>
        0 -1 77300 -588521540 -19378156 -956206675 -571636568 -446385702
        -271920976 1779456635 67362955</internalNodes>
      <leafValues>
        -3.8828200101852417e-01 3.7766221165657043e-01</leafValues></_>
    <_>
      <internalNodes>
        0 -1 64200 -2095231205 -1367061830 -1070894895 -225131880
        -1316133896 -303660872 -2071428176 -1124940432</internalNodes>
      <leafValues>
        -4.4100832939147949e-01 3.2283601164817810e-01</leafValues></_>
    <_>
      <internalNodes>
        0 -1 33858 69419312 20379897 -981255721 -678481280 504038133
        -670989577 18366939 -1382084192</internalNodes>
      <leafValues>
        -4.9122682213783264e-01 2.8272822499275208e-01</leafValues></_></weakClassifiers></stage1>
</opencv_storage>
