<?xml version="1.0"?>
<opencv_storage>
<stage5>
  <maxWeakCount>38</maxWeakCount>
  <stageThreshold>-1.5882472991943359e+00</stageThreshold>
  <weakClassifiers>
    <_>
      <internalNodes>
        0 -1 8460 -3145745 -2132641 -502935322 -227552737 -381165756
        -654100141 -75302010 -229179409</internalNodes>
      <leafValues>
        -6.3819992542266846e-01 -1.2367838621139526e-01</leafValues></_>
    <_>
      <internalNodes>
        0 -1 6964 -67633409 -538970137 1384244686 1346366947 -152049850
        1932231236 -502010876 -161555489</internalNodes>
      <leafValues>
        -3.2861426472663879e-01 2.3458266258239746e-01</leafValues></_>
    <_>
      <internalNodes>
        0 -1 8265 -134218017 -1081529 -1166349598 -218894497 -1098918394
        1333264213 -1786972602 -147132417</internalNodes>
      <leafValues>
        -2.5731027126312256e-01 2.8260767459869385e-01</leafValues></_>
    <_>
      <internalNodes>
        0 -1 5574 -628109845 939260319 -535378706 -499204631 -1711285418
        1933232215 -555357884 -251723778</internalNodes>
      <leafValues>
        -3.0921840667724609e-01 2.3228785395622253e-01</leafValues></_>
    <_>
      <internalNodes>
        0 -1 343 -162142073 -68699994 -699396422 1971812883 -199819248
        2042905282 275007808 1350037063</internalNodes>
      <leafValues>
        -2.7359521389007568e-01 2.3632292449474335e-01</leafValues></_>
    <_>
      <internalNodes>
        0 -1 4769 -185348113 2070877023 907730586 -763724951 -358877177
        -354838489 -1551852812 -263007402</internalNodes>
      <leafValues>
        -2.6643028855323792e-01 2.4199438095092773e-01</leafValues></_>
    <_>
      <internalNodes>
        0 -1 4877 -51437857 76690687 1209149698 -1361142306 -398179320
        -1440022487 1388245649 -1865875896</internalNodes>
      <leafValues>
        -3.3981174230575562e-01 1.6878817975521088e-01</leafValues></_>
    <_>
      <internalNodes>
        0 -1 6371 -177241041 2002244063 -2129541686 -153104005 126974536
        1835958824 448723812 -185795644</internalNodes>
      <leafValues>
        -3.6583560705184937e-01 1.5685796737670898e-01</leafValues></_>
    <_>
      <internalNodes>
        0 -1 697 -1043994706 -427257465 -1853824640 -577052000 -8171456
        1921597985 504004 -235410669</internalNodes>
      <leafValues>
        -2.2846888005733490e-01 2.4700507521629333e-01</leafValues></_>
    <_>
      <internalNodes>
        0 -1 7465 -537670936 1600111258 1086358074 -231546657 -131907570
        1111949585 730528438 -227874950</internalNodes>
      <leafValues>
        -2.4288950860500336e-01 2.3329342901706696e-01</leafValues></_>
    <_>
      <internalNodes>
        0 -1 3788 1513966608 -570761685 -1997050249 -647495736
        -461455661 2079612889 -1127121334 -261632699</internalNodes>
      <leafValues>
        -2.1279433369636536e-01 2.6952376961708069e-01</leafValues></_>
    <_>
      <internalNodes>
        0 -1 5209 626518543 763580492 -804551674 -497517601 2041803383
        742091170 -1002279968 -735003256</internalNodes>
      <leafValues>
        -4.1387951374053955e-01 1.2760277092456818e-01</leafValues></_>
    <_>
      <internalNodes>
        0 -1 8273 -920917251 -538623771 -1072281428 -220212790
        -545001395 1929855318 -1702126010 -146110618</internalNodes>
      <leafValues>
        -2.3982730507850647e-01 2.1617431938648224e-01</leafValues></_>
    <_>
      <internalNodes>
        0 -1 4035 -1201193505 1521636602 -34674340 -570239249 -549586792
        -822181946 1545494238 -1051522853</internalNodes>
      <leafValues>
        -2.0246207714080811e-01 2.6539042592048645e-01</leafValues></_>
    <_>
      <internalNodes>
        0 -1 3088 -286898484 -1952714087 -729589904 1927676702
        -225779706 1124844071 -1071973662 -528820522</internalNodes>
      <leafValues>
        -2.9169398546218872e-01 1.7949078977108002e-01</leafValues></_>
    <_>
      <internalNodes>
        0 -1 9 -249308496 1536643312 725514346 -912131872 89519283
        153239485 -1957257325 -1779971945</internalNodes>
      <leafValues>
        -1.9352068006992340e-01 2.8926512598991394e-01</leafValues></_>
    <_>
      <internalNodes>
        0 -1 4959 -136330637 -174112495 -1634549062 -124601713
        2074628356 -277802095 -395091230 -262996494</internalNodes>
      <leafValues>
        -2.4404717981815338e-01 2.1868103742599487e-01</leafValues></_>
    <_>
      <internalNodes>
        0 -1 4216 -71546321 421914088 -266674816 549606294 -757007349
        849977362 1625537476 -219112732</internalNodes>
      <leafValues>
        -3.2393312454223633e-01 1.5962903201580048e-01</leafValues></_>
    <_>
      <internalNodes>
        0 -1 8463 -104121500 -83914297 1275087010 -191890706 1787810060
        386654209 -166993336 1931726095</internalNodes>
      <leafValues>
        -2.6163202524185181e-01 1.9909338653087616e-01</leafValues></_>
    <_>
      <internalNodes>
        0 -1 6772 -1135108855 759066751 -1045327730 -2132897381
        1901742943 1276354867 1688326336 -761245484</internalNodes>
      <leafValues>
        -3.9957830309867859e-01 1.2713836133480072e-01</leafValues></_>
    <_>
      <internalNodes>
        0 -1 1209 -1537903881 -680464805 2121674592 1429305085
        -1507572593 928403610 -99537702 -108056836</internalNodes>
      <leafValues>
        -1.6123215854167938e-01 3.2352328300476074e-01</leafValues></_>
    <_>
      <internalNodes>
        0 -1 8002 -60944257 -135610348 -729202584 1088323865 -1442727858
        54757386 -985095936 -1303447452</internalNodes>
      <leafValues>
        -3.4167984127998352e-01 1.5398328006267548e-01</leafValues></_>
    <_>
      <internalNodes>
        0 -1 25 -1558691198 -171928766 50642331 1834064090 1510378148
        -1143303531 286849867 24243155</internalNodes>
      <leafValues>
        -2.6130533218383789e-01 2.0721077919006348e-01</leafValues></_>
    <_>
      <internalNodes>
        0 -1 3202 -906678609 -842739130 269622212 -1605317678
        -1432058753 -639663975 1892089558 -1259154974</internalNodes>
      <leafValues>
        -2.8524571657180786e-01 1.8234813213348389e-01</leafValues></_>
    <_>
      <internalNodes>
        0 -1 7018 1744718379 1784103251 1442915826 -522788870 948687364
        137531554 1895328500 -266014108</internalNodes>
      <leafValues>
        -4.3066036701202393e-01 1.2606151401996613e-01</leafValues></_>
    <_>
      <internalNodes>
        0 -1 2365 -595749205 534282649 955966128 460455480 -227146069
        -743997532 -1333887330 1466433476</internalNodes>
      <leafValues>
        -1.9565111398696899e-01 2.7434438467025757e-01</leafValues></_>
    <_>
      <internalNodes>
        0 -1 288 -1091134486 -1616469774 1298138826 1770377776
        1688225210 -1389514700 35954253 1349637842</internalNodes>
      <leafValues>
        -2.6498878002166748e-01 2.1516777575016022e-01</leafValues></_>
    <_>
      <internalNodes>
        0 -1 7531 -419824042 -967724589 1343314458 843945799 957072130
        419577857 -1456941054 -145818892</internalNodes>
      <leafValues>
        -2.8338617086410522e-01 1.9000300765037537e-01</leafValues></_>
    <_>
      <internalNodes>
        0 -1 8157 -1086970 1859607163 403047100 -191542823 2013719640
        -1707073523 -762668392 1347722840</internalNodes>
      <leafValues>
        -3.9166426658630371e-01 1.3828153908252716e-01</leafValues></_>
    <_>
      <internalNodes>
        0 -1 4654 -1082634337 -455896617 1460812769 -1328787170
        1011585488 -1682734933 1673760820 -253953372</internalNodes>
      <leafValues>
        -3.0220007896423340e-01 1.7415884137153625e-01</leafValues></_>
    <_>
      <internalNodes>
        0 -1 3829 -1250439598 1573418890 276324098 1240304890 -889214569
        -923697186 145882739 -1964773918</internalNodes>
      <leafValues>
        -1.9388552010059357e-01 2.8254589438438416e-01</leafValues></_>
    <_>
      <internalNodes>
        0 -1 1636 324606608 1976744322 -1236795250 -1101884786
        1949057468 -372849394 2061800970 1455672718</internalNodes>
      <leafValues>
        -2.3923711478710175e-01 2.3133817315101624e-01</leafValues></_>
    <_>
      <internalNodes>
        0 -1 728 -386937468 1873076132 -1493250236 -39358856 -680017571
        1163878399 -19474527 -1280836125</internalNodes>
      <leafValues>
        -2.1207997202873230e-01 2.7737984061241150e-01</leafValues></_>
    <_>
      <internalNodes>
        0 -1 2079 438187348 -893323887 -170869037 -41795261 -267452506
        -1729060417 1395388681 814640832</internalNodes>
      <leafValues>
        -3.1849452853202820e-01 1.7324046790599823e-01</leafValues></_>
    <_>
      <internalNodes>
        0 -1 6160 -218372018 -43548831 452918846 1915961340 -713135028
        2071363404 -1136726276 -78186883</internalNodes>
      <leafValues>
        -2.2734786570072174e-01 2.5718975067138672e-01</leafValues></_>
    <_>
      <internalNodes>
        0 -1 6260 -1092672209 787207611 339970224 -2042227272
        -1031044580 1705193603 -133248302 -198157360</internalNodes>
      <leafValues>
        -3.9055880904197693e-01 1.3860718905925751e-01</leafValues></_>
    <_>
      <internalNodes>
        0 -1 7081 -19578245 -11972146 -182978514 -352389666 1611385454
        1644372899 -909706372 -354758058</internalNodes>
      <leafValues>
        -2.7739784121513367e-01 1.9125995039939880e-01</leafValues></_>
    <_>
      <internalNodes>
        0 -1 5252 -50767356 1541520930 -227698792 468843337 343219420
        -1585713218 1390737343 -1238963074</internalNodes>
      <leafValues>
        -2.1256777644157410e-01 2.7534636855125427e-01</leafValues></_></weakClassifiers></stage5>
</opencv_storage>
