<?xml version="1.0"?>
<opencv_storage>
<stage9>
  <maxWeakCount>68</maxWeakCount>
  <stageThreshold>-1.3691647052764893e+00</stageThreshold>
  <weakClassifiers>
    <_>
      <internalNodes>
        0 -1 389 -329652517 -1654286134 2128060329 1200963081 1443157687
        -657194309 1078290635 444558715</internalNodes>
      <leafValues>
        -5.6212186813354492e-01 -2.1797996759414673e-01</leafValues></_>
    <_>
      <internalNodes>
        0 -1 49 761132032 2086269975 -497620207 -1416783311 2025568416
        -1229047642 -166593744 1080527605</internalNodes>
      <leafValues>
        -2.9504045844078064e-01 8.7222442030906677e-02</leafValues></_>
    <_>
      <internalNodes>
        0 -1 8032 1442046219 863743003 1576173434 2137759507 -197669637
        1576370163 771183754 -92553989</internalNodes>
      <leafValues>
        -1.0474026203155518e-01 3.1683507561683655e-01</leafValues></_>
    <_>
      <internalNodes>
        0 -1 182 -994204752 -2084216408 -1660922068 -1416034618
        134550293 1357266951 1343300034 1393631747</internalNodes>
      <leafValues>
        -1.9700685143470764e-01 1.6110171377658844e-01</leafValues></_>
    <_>
      <internalNodes>
        0 -1 7558 -681867461 794284339 277054090 1344198987 1157706313
        592265336 -1919767996 -9507876</internalNodes>
      <leafValues>
        -2.0133340358734131e-01 1.7123281955718994e-01</leafValues></_>
    <_>
      <internalNodes>
        0 -1 5891 16245461 428355687 -1375011808 -273890738 -1786146383
        -745414653 -74917617 -149270442</internalNodes>
      <leafValues>
        -1.9048565626144409e-01 1.5939097106456757e-01</leafValues></_>
    <_>
      <internalNodes>
        0 -1 2834 1416244866 -1036352223 1303268677 -1941926186
        -1048414975 -680478633 -454121401 7070972</internalNodes>
      <leafValues>
        -2.6557636260986328e-01 1.2430455535650253e-01</leafValues></_>
    <_>
      <internalNodes>
        0 -1 3238 -1169631214 -552663078 1146672917 193868061 1526868345
        -606578300 982874155 -2000637038</internalNodes>
      <leafValues>
        -2.2509422898292542e-01 1.3587507605552673e-01</leafValues></_>
    <_>
      <internalNodes>
        0 -1 5134 1557484579 798839175 -1442752320 582386625 671785079
        799746074 2089689236 -253068748</internalNodes>
      <leafValues>
        -3.0156683921813965e-01 1.0258968174457550e-01</leafValues></_>
    <_>
      <internalNodes>
        0 -1 67 1126405682 472756208 1861152762 -1887852487 422383080
        1182051760 1320492141 1145528811</internalNodes>
      <leafValues>
        -1.5950110554695129e-01 1.9958870112895966e-01</leafValues></_>
    <_>
      <internalNodes>
        0 -1 209 -1919249406 -2132879825 1259201928 233359596 343344180
        272708791 631495172 1209364</internalNodes>
      <leafValues>
        -4.0812751650810242e-01 8.1563331186771393e-02</leafValues></_>
    <_>
      <internalNodes>
        0 -1 8462 -9242333 -583154181 -787647458 -132517537 1378065208
        1493895208 1535169492 1364688498</internalNodes>
      <leafValues>
        -2.2002673149108887e-01 1.3548548519611359e-01</leafValues></_>
    <_>
      <internalNodes>
        0 -1 2269 -1757428071 -475306142 -1904329055 -151947358
        -1628917830 -2099713 1994281470 -121137784</internalNodes>
      <leafValues>
        -1.2823656201362610e-01 2.3887528479099274e-01</leafValues></_>
    <_>
      <internalNodes>
        0 -1 1226 -372514265 1129472775 43091708 -26197786 -1024621951
        575291392 -1598184510 -266142522</internalNodes>
      <leafValues>
        -1.9505080580711365e-01 1.5937903523445129e-01</leafValues></_>
    <_>
      <internalNodes>
        0 -1 7653 -797449841 1597189517 763014180 2099891498 1567906746
        -1328152578 -810301798 -1825843589</internalNodes>
      <leafValues>
        -9.6867948770523071e-02 3.3359146118164063e-01</leafValues></_>
    <_>
      <internalNodes>
        0 -1 736 -73144045 -265551946 -1754520482 2145578644 519550718
        922669054 517310383 -816848941</internalNodes>
      <leafValues>
        -1.0225368291139603e-01 3.0674138665199280e-01</leafValues></_>
    <_>
      <internalNodes>
        0 -1 3318 -94509351 -1270919512 -134429403 1845331863 1873005778
        -221622623 846401130 -1201439014</internalNodes>
      <leafValues>
        -1.2945292890071869e-01 2.4212788045406342e-01</leafValues></_>
    <_>
      <internalNodes>
        0 -1 5244 -95401763 493641323 1656545130 -542165170 -52494855
        -943857795 -612705286 -1223973285</internalNodes>
      <leafValues>
        -1.0742457956075668e-01 2.7582380175590515e-01</leafValues></_>
    <_>
      <internalNodes>
        0 -1 3202 -1954256888 900997478 270078864 -1466765226 726860865
        1907337368 742687120 -1804579516</internalNodes>
      <leafValues>
        -3.5921037197113037e-01 8.4397986531257629e-02</leafValues></_>
    <_>
      <internalNodes>
        0 -1 680 -706173053 -885805130 -335806879 -143462688 -453112241
        2004701044 -1213819470 -403458589</internalNodes>
      <leafValues>
        -1.6470183432102203e-01 1.9101448357105255e-01</leafValues></_>
    <_>
      <internalNodes>
        0 -1 3130 -829913214 84091010 596674614 -1334437540 144536306
        1736880385 -248600912 -236258398</internalNodes>
      <leafValues>
        -2.0820690691471100e-01 1.5045768022537231e-01</leafValues></_>
    <_>
      <internalNodes>
        0 -1 4802 1449048654 1497089498 -366587525 701744587 932787950
        -719605708 709075359 -868200036</internalNodes>
      <leafValues>
        -2.0053152740001678e-01 1.5824896097183228e-01</leafValues></_>
    <_>
      <internalNodes>
        0 -1 5169 -1664626673 -2094673637 -183312344 -132495914
        990791770 -339504461 -1870504572 -256182095</internalNodes>
      <leafValues>
        -2.4071015417575836e-01 1.2794636189937592e-01</leafValues></_>
    <_>
      <internalNodes>
        0 -1 2894 -1017927013 1495791922 -438432887 -1120833996
        -147759453 2079604687 -1615074498 1609036530</internalNodes>
      <leafValues>
        -1.2786558270454407e-01 2.7499979734420776e-01</leafValues></_>
    <_>
      <internalNodes>
        0 -1 4754 -2087596030 578187499 -729709554 1077023256
        -1608420748 -1552383813 -1811248807 -265605360</internalNodes>
      <leafValues>
        -3.1722560524940491e-01 1.0148285329341888e-01</leafValues></_>
    <_>
      <internalNodes>
        0 -1 503 1089428482 -63788869 2013975981 -440494214 -215390560
        918556836 168362825 1045666862</internalNodes>
      <leafValues>
        -2.0083184540271759e-01 1.6217806935310364e-01</leafValues></_>
    <_>
      <internalNodes>
        0 -1 2431 1404078826 16818200 -1773308665 -1381556970 -916383237
        1555591729 1428731914 208245897</internalNodes>
      <leafValues>
        -1.9716592133045197e-01 1.6830405592918396e-01</leafValues></_>
    <_>
      <internalNodes>
        0 -1 6466 1648561674 1724232606 236014962 -682581601 1648293828
        -1524384898 790258506 1906736623</internalNodes>
      <leafValues>
        -2.1347364783287048e-01 1.5197762846946716e-01</leafValues></_>
    <_>
      <internalNodes>
        0 -1 6496 1504439983 830158005 -559843125 182092315 980898692
        1018702056 2094437647 -1292545782</internalNodes>
      <leafValues>
        -1.9619970023632050e-01 1.7766444385051727e-01</leafValues></_>
    <_>
      <internalNodes>
        0 -1 7621 1539265579 -293109737 1217568774 -428992013
        -1744165044 1863092794 1212351252 -1267422956</internalNodes>
      <leafValues>
        -4.0212067961692810e-01 7.8036397695541382e-02</leafValues></_>
    <_>
      <internalNodes>
        0 -1 187 -415799597 -1401705440 -679723027 1638741031 1330135025
        -1193695312 869704909 2033040790</internalNodes>
      <leafValues>
        -1.6809715330600739e-01 1.9171862304210663e-01</leafValues></_>
    <_>
      <internalNodes>
        0 -1 11 -32297630 515911202 2138068685 -1913612763 1145831926
        611375092 -971002402 -119670829</internalNodes>
      <leafValues>
        -1.5409730374813080e-01 2.0847803354263306e-01</leafValues></_>
    <_>
      <internalNodes>
        0 -1 6538 1539289811 1601555197 -1225250499 -1846890500
        402595319 847177460 -1359284549 -280101390</internalNodes>
      <leafValues>
        -1.1320684850215912e-01 2.8877678513526917e-01</leafValues></_>
    <_>
      <internalNodes>
        0 -1 7483 -621674773 2138992502 -285263757 2109208187 -680563112
        1550737214 -125960204 -13632306</internalNodes>
      <leafValues>
        -1.1547826230525970e-01 2.7633193135261536e-01</leafValues></_>
    <_>
      <internalNodes>
        0 -1 6614 1685135916 303510976 1375897500 -1978338738 -518572747
        986857493 482104297 -2064625280</internalNodes>
      <leafValues>
        -3.8700380921363831e-01 9.0070217847824097e-02</leafValues></_>
    <_>
      <internalNodes>
        0 -1 7516 -1145584901 -311951665 1316872895 1358168055
        -971030581 1264525150 -50496138 -176437558</internalNodes>
      <leafValues>
        -1.5740323066711426e-01 2.2348046302795410e-01</leafValues></_>
    <_>
      <internalNodes>
        0 -1 4911 -915558189 412796800 125160707 -944107166 1339183458
        -669787993 1928549489 493152716</internalNodes>
      <leafValues>
        -1.9826751947402954e-01 1.6624456644058228e-01</leafValues></_>
    <_>
      <internalNodes>
        0 -1 4516 1236515727 1476057617 955688516 -545530178 -1074195045
        -1132831519 -43423393 1660637655</internalNodes>
      <leafValues>
        -1.1788234114646912e-01 2.6838856935501099e-01</leafValues></_>
    <_>
      <internalNodes>
        0 -1 3803 566148168 -865352835 1161446677 1581045901 1116006715
        -99897998 -2072543988 -604619580</internalNodes>
      <leafValues>
        -2.2669804096221924e-01 1.4203129708766937e-01</leafValues></_>
    <_>
      <internalNodes>
        0 -1 1591 -838468558 1003491330 -1845406438 2106438485
        1627590803 1539083696 -2013019686 677053329</internalNodes>
      <leafValues>
        -1.8825864791870117e-01 1.7175535857677460e-01</leafValues></_>
    <_>
      <internalNodes>
        0 -1 6901 -1696872242 1092195125 -1541403996 1984403918
        1090701854 35848210 704877327 1414484108</internalNodes>
      <leafValues>
        -2.8092870116233826e-01 1.1553021520376205e-01</leafValues></_>
    <_>
      <internalNodes>
        0 -1 872 -1435906208 -401331056 -1878617820 59036708 101826896
        -488064256 538869666 282226738</internalNodes>
      <leafValues>
        -3.5767522454261780e-01 9.1632567346096039e-02</leafValues></_>
    <_>
      <internalNodes>
        0 -1 4018 102105638 1130074369 1979716005 538104343 1795691343
        -2026291045 34088914 -256445616</internalNodes>
      <leafValues>
        -3.2200354337692261e-01 1.0289935767650604e-01</leafValues></_>
    <_>
      <internalNodes>
        0 -1 8372 -96029802 265311171 -1535065489 -1014165497
        -1314350607 49001225 1670475537 -2127877838</internalNodes>
      <leafValues>
        -1.7286641895771027e-01 1.9472880661487579e-01</leafValues></_>
    <_>
      <internalNodes>
        0 -1 8266 -30701409 -986206469 712505991 1904209775 -1757428229
        -1622376617 532021183 -547910322</internalNodes>
      <leafValues>
        -8.5833318531513214e-02 3.9850619435310364e-01</leafValues></_>
    <_>
      <internalNodes>
        0 -1 7097 1847329804 197676032 1384662946 726166604 836124638
        -2001862349 1561623392 675290150</internalNodes>
      <leafValues>
        -4.6329131722450256e-01 7.5896076858043671e-02</leafValues></_>
    <_>
      <internalNodes>
        0 -1 8115 1481811883 -96776378 1811312419 -48138444 1828562656
        1692237687 1534553770 -2028523661</internalNodes>
      <leafValues>
        -1.3001258671283722e-01 2.6857089996337891e-01</leafValues></_>
    <_>
      <internalNodes>
        0 -1 1283 -1487669259 -1082606984 -622460949 -707138247
        2019421326 829443509 897102296 785000379</internalNodes>
      <leafValues>
        -1.3139857351779938e-01 2.5561526417732239e-01</leafValues></_>
    <_>
      <internalNodes>
        0 -1 6368 -1158597343 559683647 -2012617940 1146781702
        -1576336795 1764458579 2022072692 -193666448</internalNodes>
      <leafValues>
        -4.4266489148139954e-01 7.5974121689796448e-02</leafValues></_>
    <_>
      <internalNodes>
        0 -1 314 1844344473 1971322431 -1342506515 -1078462881
        -697236239 854828589 -1385572961 -272630667</internalNodes>
      <leafValues>
        -9.5339663326740265e-02 3.7920600175857544e-01</leafValues></_>
    <_>
      <internalNodes>
        0 -1 3945 617065608 2054043997 -1574540222 -522156863 1136167936
        -562652252 -90519528 3017282</internalNodes>
      <leafValues>
        -4.9434000253677368e-01 7.3551736772060394e-02</leafValues></_>
    <_>
      <internalNodes>
        0 -1 1876 2087405475 -1289432220 2083534704 252313448 2067018811
        -1595047952 1736438233 -2068110918</internalNodes>
      <leafValues>
        -1.6117408871650696e-01 2.2107602655887604e-01</leafValues></_>
    <_>
      <internalNodes>
        0 -1 1940 -227965273 -805490710 -289473547 -190472194 1308006528
        -1655832705 2086106774 -195866940</internalNodes>
      <leafValues>
        -1.8407510221004486e-01 1.9326010346412659e-01</leafValues></_>
    <_>
      <internalNodes>
        0 -1 3276 1976811656 -1130847502 -787966417 -844346873
        1913936529 -510786938 -501062894 7363198</internalNodes>
      <leafValues>
        -2.5327202677726746e-01 1.3621751964092255e-01</leafValues></_>
    <_>
      <internalNodes>
        0 -1 1453 -1581763932 -290485567 -1928375365 1151635850
        -1121099668 1490195614 1547295913 1246714564</internalNodes>
      <leafValues>
        -2.2798970341682434e-01 1.5412688255310059e-01</leafValues></_>
    <_>
      <internalNodes>
        0 -1 8309 -816660392 -1471937592 -1795062531 1028349508
        444805597 2032261532 1476995914 50990622</internalNodes>
      <leafValues>
        -2.0339889824390411e-01 1.6773933172225952e-01</leafValues></_>
    <_>
      <internalNodes>
        0 -1 3581 31395943 -2131665545 -268452477 -1926683397 -554344969
        -940377386 754841502 -84212213</internalNodes>
      <leafValues>
        -1.1075808852910995e-01 3.1516760587692261e-01</leafValues></_>
    <_>
      <internalNodes>
        0 -1 330 1581119139 -1611334110 -822562841 -19554556 2046637283
        -1380065417 2062916967 -816225626</internalNodes>
      <leafValues>
        -1.4956101775169373e-01 2.4146391451358795e-01</leafValues></_>
    <_>
      <internalNodes>
        0 -1 8414 -440147025 -1414967708 -1375930660 -640854337
        1232529564 1031173813 1583433171 -1794387745</internalNodes>
      <leafValues>
        -1.0558318346738815e-01 3.3061948418617249e-01</leafValues></_>
    <_>
      <internalNodes>
        0 -1 2661 -481245145 -1123821496 -367080506 -527309056
        1034047585 1571500043 -2113919500 -201056076</internalNodes>
      <leafValues>
        -2.7223968505859375e-01 1.2929847836494446e-01</leafValues></_>
    <_>
      <internalNodes>
        0 -1 7383 -823623168 -1946338713 1469223867 222083138 2051031665
        2097877801 -1970396699 1577196600</internalNodes>
      <leafValues>
        -3.5777470469474792e-01 9.4236120581626892e-02</leafValues></_>
    <_>
      <internalNodes>
        0 -1 4381 -763390790 -605061511 762216307 1576685412 905197537
        -590442529 -176255529 -1055253</internalNodes>
      <leafValues>
        -1.1321485042572021e-01 3.2501327991485596e-01</leafValues></_>
    <_>
      <internalNodes>
        0 -1 4894 -1066227193 2005926845 1142083759 312123910 1440154184
        -1167028044 1936369792 -1307124744</internalNodes>
      <leafValues>
        -2.3722323775291443e-01 1.4326557517051697e-01</leafValues></_>
    <_>
      <internalNodes>
        0 -1 7636 707979980 1284923605 4212179 104984775 -493892626
        2044968975 981551402 -1015072608</internalNodes>
      <leafValues>
        -1.8662510812282562e-01 1.8569032847881317e-01</leafValues></_>
    <_>
      <internalNodes>
        0 -1 2088 -21262477 -1738903951 -1107572690 1572691665
        -2089357849 -2104173584 -1352073345 -1126215685</internalNodes>
      <leafValues>
        -1.2182767689228058e-01 2.9240974783897400e-01</leafValues></_>
    <_>
      <internalNodes>
        0 -1 617 -334771534 -930097012 -1069412170 2137555104 168440519
        556352001 354419063 400902915</internalNodes>
      <leafValues>
        -2.1453964710235596e-01 1.6684830188751221e-01</leafValues></_>
    <_>
      <internalNodes>
        0 -1 8020 -1784320319 768330048 -1962630857 1032685645 860602957
        1126552 1057126931 1381202702</internalNodes>
      <leafValues>
        -2.1766650676727295e-01 1.6317535936832428e-01</leafValues></_>
    <_>
      <internalNodes>
        0 -1 2068 1073716371 -345391354 872085365 -40902965 -1343225943
        -1610780759 1581247482 1384250829</internalNodes>
      <leafValues>
        -1.4381931722164154e-01 2.4679325520992279e-01</leafValues></_></weakClassifiers></stage9>
</opencv_storage>
