<?xml version="1.0"?>
<opencv_storage>
<stage6>
  <maxWeakCount>54</maxWeakCount>
  <stageThreshold>-1.5520483255386353e+00</stageThreshold>
  <weakClassifiers>
    <_>
      <internalNodes>
        0 -1 5183 -113262593 -547167875 -315097609 -118322437
        -1646660643 -4482949 -606896130 -50619393</internalNodes>
      <leafValues>
        -5.7228446006774902e-01 -1.3004484772682190e-01</leafValues></_>
    <_>
      <internalNodes>
        0 -1 6227 -494965181 398916423 1313267536 -1631127070 518748937
        -1450806154 794098678 -62595244</internalNodes>
      <leafValues>
        -3.8456428050994873e-01 1.0501751303672791e-01</leafValues></_>
    <_>
      <internalNodes>
        0 -1 8134 -749469941 -3297109 1301945426 -192289665 -350238648
        1495003741 1055809240 1882419967</internalNodes>
      <leafValues>
        -2.4944388866424561e-01 2.1317499876022339e-01</leafValues></_>
    <_>
      <internalNodes>
        0 -1 239 -295178337 -9957712 1777299360 -37370432 -168441927
        -2113871992 -715005229 -235412157</internalNodes>
      <leafValues>
        -1.6980350017547607e-01 2.6217001676559448e-01</leafValues></_>
    <_>
      <internalNodes>
        0 -1 3024 -2143452586 1505767056 1349024844 -2080243654
        -350207736 1251507406 209084154 1893760607</internalNodes>
      <leafValues>
        -3.2220038771629333e-01 1.5498624742031097e-01</leafValues></_>
    <_>
      <internalNodes>
        0 -1 8185 -40902897 -36712106 -1508676530 -26282898 1930580804
        1444938004 -1349918378 1346603863</internalNodes>
      <leafValues>
        -4.2379912734031677e-01 9.7709111869335175e-02</leafValues></_>
    <_>
      <internalNodes>
        0 -1 2041 -1269784064 897666582 828693787 -571638420 -1117728589
        -1707986185 -210392743 -925572576</internalNodes>
      <leafValues>
        -2.2019451856613159e-01 2.0623303949832916e-01</leafValues></_>
    <_>
      <internalNodes>
        0 -1 6626 1600774722 1182118215 -1640567694 -2001478703
        -365011644 -420799285 -684286731 1612746108</internalNodes>
      <leafValues>
        -3.9908698201179504e-01 1.0310956835746765e-01</leafValues></_>
    <_>
      <internalNodes>
        0 -1 498 -404757585 -469905418 -554294100 -1745379404 -841898081
        -42696842 -956826465 -680008217</internalNodes>
      <leafValues>
        -1.0080530494451523e-01 4.2967835068702698e-01</leafValues></_>
    <_>
      <internalNodes>
        0 -1 7075 -872456513 1204637903 1158730872 1926140315 -208019122
        411820152 -11477052 -158679644</internalNodes>
      <leafValues>
        -2.5799417495727539e-01 1.6367146372795105e-01</leafValues></_>
    <_>
      <internalNodes>
        0 -1 7294 2118200366 248972174 -1336826780 1285353695 451111244
        1523746842 -1264744108 -264965820</internalNodes>
      <leafValues>
        -4.7328886389732361e-01 8.7304942309856415e-02</leafValues></_>
    <_>
      <internalNodes>
        0 -1 5264 -1593890214 871890887 -1218808549 -1990569007
        647366603 2035987222 -1549558314 1381268592</internalNodes>
      <leafValues>
        -2.7766454219818115e-01 1.4612998068332672e-01</leafValues></_>
    <_>
      <internalNodes>
        0 -1 6207 915138766 851126555 -603788166 716170719 1611880258
        -1465777891 -1308208582 1937061935</internalNodes>
      <leafValues>
        -3.3209130167961121e-01 1.2814022600650787e-01</leafValues></_>
    <_>
      <internalNodes>
        0 -1 350 743386832 -137038166 -120455434 491388630 -1003403547
        1949328884 2016477636 9834851</internalNodes>
      <leafValues>
        -3.2663485407829285e-01 1.3238410651683807e-01</leafValues></_>
    <_>
      <internalNodes>
        0 -1 7553 619660801 194913654 -593542561 577778276 868571144
        1477230608 -1221976300 -16492316</internalNodes>
      <leafValues>
        -3.8175341486930847e-01 1.0604834556579590e-01</leafValues></_>
    <_>
      <internalNodes>
        0 -1 890 -2013616496 537045456 -2044538558 2144929344 36635097
        61900939 1917902292 1296513808</internalNodes>
      <leafValues>
        -2.6723596453666687e-01 1.5039733052253723e-01</leafValues></_>
    <_>
      <internalNodes>
        0 -1 3193 -571300352 1564743143 411358684 -228526988 -1163296033
        1302444128 -1928661404 -1307386885</internalNodes>
      <leafValues>
        -2.3569682240486145e-01 1.7218993604183197e-01</leafValues></_>
    <_>
      <internalNodes>
        0 -1 5044 -242652764 -740465740 201379174 1357661692 -1769267540
        -1148256085 -72955164 -189359625</internalNodes>
      <leafValues>
        -2.1428430080413818e-01 1.8624164164066315e-01</leafValues></_>
    <_>
      <internalNodes>
        0 -1 1421 1480741888 716237388 1477821811 1814316900 1084320816
        2063173840 1982900592 1082516277</internalNodes>
      <leafValues>
        -4.4569486379623413e-01 9.0404026210308075e-02</leafValues></_>
    <_>
      <internalNodes>
        0 -1 377 -255677824 -1928793376 -1070296696 -857666352
        1377804672 227107574 1439118084 1529074</internalNodes>
      <leafValues>
        -2.8184726834297180e-01 1.4458939433097839e-01</leafValues></_>
    <_>
      <internalNodes>
        0 -1 7952 -615545049 -284196045 536893526 -230139082 978567176
        1208680463 -619120058 -262000868</internalNodes>
      <leafValues>
        -3.0792942643165588e-01 1.3389925658702850e-01</leafValues></_>
    <_>
      <internalNodes>
        0 -1 8366 -413162801 -3969195 -268538094 -143953921 -273157224
        -27820680 1744830378 -143132673</internalNodes>
      <leafValues>
        -1.0230852663516998e-01 4.5491883158683777e-01</leafValues></_>
    <_>
      <internalNodes>
        0 -1 4192 30327723 735949211 -691908396 1880803796 -1434364181
        1889190067 -527805503 -220670236</internalNodes>
      <leafValues>
        -2.5730058550834656e-01 1.7514410614967346e-01</leafValues></_>
    <_>
      <internalNodes>
        0 -1 369 -29644425 -1820999681 -537696417 -46684549 -880887995
        1542651902 -403218497 -12871041</internalNodes>
      <leafValues>
        -9.9616341292858124e-02 4.4941282272338867e-01</leafValues></_>
    <_>
      <internalNodes>
        0 -1 4068 269518 1485895444 -264875440 307289036 -210543400
        280802871 -591438636 318030034</internalNodes>
      <leafValues>
        -3.7329858541488647e-01 1.1784427613019943e-01</leafValues></_>
    <_>
      <internalNodes>
        0 -1 7123 -2039300025 321013846 -1786276072 -1349435019
        -352204606 2067140592 824572226 -491893762</internalNodes>
      <leafValues>
        -2.0918837189674377e-01 1.9845460355281830e-01</leafValues></_>
    <_>
      <internalNodes>
        0 -1 3253 -1254560225 1946058553 -269160649 -110659975
        2013199786 -104432169 -8429845 -1150582921</internalNodes>
      <leafValues>
        -1.0457943379878998e-01 3.9626386761665344e-01</leafValues></_>
    <_>
      <internalNodes>
        0 -1 173 79687355 -1865548070 535494427 -503591361 -151519358
        -390201353 -1644925693 -990386412</internalNodes>
      <leafValues>
        -1.7501512169837952e-01 2.4028873443603516e-01</leafValues></_>
    <_>
      <internalNodes>
        0 -1 4033 -1642394878 357220887 90179584 610840669 1288313170
        1068814554 1610570617 -162216272</internalNodes>
      <leafValues>
        -3.2134276628494263e-01 1.3818067312240601e-01</leafValues></_>
    <_>
      <internalNodes>
        0 -1 8457 -1631331765 -171912874 -2012948448 1948883210
        638841704 1294926344 -1189639601 1932935487</internalNodes>
      <leafValues>
        -2.6281198859214783e-01 1.6002884507179260e-01</leafValues></_>
    <_>
      <internalNodes>
        0 -1 851 -544230797 -172413362 665605758 -1124748045 -1638717185
        2130465988 1889653241 -1177826657</internalNodes>
      <leafValues>
        -1.2057432532310486e-01 3.6979436874389648e-01</leafValues></_>
    <_>
      <internalNodes>
        0 -1 7345 -242655301 -1881177654 1090614666 -162217800
        -1324731782 237674555 -1279073320 -56331568</internalNodes>
      <leafValues>
        -2.6485782861709595e-01 1.6065979003906250e-01</leafValues></_>
    <_>
      <internalNodes>
        0 -1 65 -550438720 1405345008 -943982878 2112818266 1292969147
        183343100 1347936714 -456711645</internalNodes>
      <leafValues>
        -1.6512975096702576e-01 2.5962564349174500e-01</leafValues></_>
    <_>
      <internalNodes>
        0 -1 8394 -357568610 -318046675 720004925 -548440321 -748843596
        124547028 829848670 185569086</internalNodes>
      <leafValues>
        -1.7140150070190430e-01 2.6126778125762939e-01</leafValues></_>
    <_>
      <internalNodes>
        0 -1 2032 -1568627822 956842136 1964542675 1567473818 595803123
        1506779427 1499549083 1218648837</internalNodes>
      <leafValues>
        -2.0145732164382935e-01 2.0619210600852966e-01</leafValues></_>
    <_>
      <internalNodes>
        0 -1 7442 718463528 1940519401 -1394946510 979161109 -1269546106
        -1208298657 1194842810 1885529621</internalNodes>
      <leafValues>
        -2.8454673290252686e-01 1.5012408792972565e-01</leafValues></_>
    <_>
      <internalNodes>
        0 -1 6994 -1668322809 236931239 1123340952 -527531012 -947707124
        1109459025 -938978444 -902505487</internalNodes>
      <leafValues>
        -4.3505933880805969e-01 9.3218781054019928e-02</leafValues></_>
    <_>
      <internalNodes>
        0 -1 3568 517463426 1024850300 406458834 299482 313325382
        -233135456 847476222 1373860344</internalNodes>
      <leafValues>
        -2.6514863967895508e-01 1.6052852571010590e-01</leafValues></_>
    <_>
      <internalNodes>
        0 -1 618 260743840 -1534414208 -2080370238 -456089472 1744896529
        889267024 10576084 809838452</internalNodes>
      <leafValues>
        -4.0481147170066833e-01 1.1113915592432022e-01</leafValues></_>
    <_>
      <internalNodes>
        0 -1 6529 1364852814 345571534 335577244 109510690 -99913208
        -1145371872 -167771174 -95487360</internalNodes>
      <leafValues>
        -2.9808011651039124e-01 1.4255444705486298e-01</leafValues></_>
    <_>
      <internalNodes>
        0 -1 71 1519483659 680407056 -2062465626 -807988672 2090038195
        774408241 302691024 355459217</internalNodes>
      <leafValues>
        -2.7305248379707336e-01 1.6324146091938019e-01</leafValues></_>
    <_>
      <internalNodes>
        0 -1 4818 -374782769 814032942 -817496747 -1869882973 1916525446
        2032894715 -1397393629 -258933984</internalNodes>
      <leafValues>
        -2.3779730498790741e-01 1.8787974119186401e-01</leafValues></_>
    <_>
      <internalNodes>
        0 -1 2395 -861158328 408400648 21062364 -2014545550 270152122
        1554713120 511580146 47176458</internalNodes>
      <leafValues>
        -2.3492574691772461e-01 1.8920814990997314e-01</leafValues></_>
    <_>
      <internalNodes>
        0 -1 6841 -229643251 933928462 1047480498 -1917067442 -59752230
        2113802196 1298783678 1534222159</internalNodes>
      <leafValues>
        -1.9657768309116364e-01 2.2399231791496277e-01</leafValues></_>
    <_>
      <internalNodes>
        0 -1 8463 -821489 -49299386 -866895678 -762334577 1779000332
        1930136345 -132424828 1946214701</internalNodes>
      <leafValues>
        -3.4542950987815857e-01 1.3067963719367981e-01</leafValues></_>
    <_>
      <internalNodes>
        0 -1 8407 -555161959 1300712837 -1481233592 871344050 297727900
        -1652695089 913053401 857679947</internalNodes>
      <leafValues>
        -1.7033778131008148e-01 2.6823332905769348e-01</leafValues></_>
    <_>
      <internalNodes>
        0 -1 4674 -1374014033 234054029 -259833521 1114165641 424575757
        -1155162087 1804837524 -794767228</internalNodes>
      <leafValues>
        -3.4889721870422363e-01 1.2932349741458893e-01</leafValues></_>
    <_>
      <internalNodes>
        0 -1 697 -213456988 -970137964 -1359118975 -862819488 397516749
        -1218576531 166538459 1710738383</internalNodes>
      <leafValues>
        -1.7315228283405304e-01 2.5951316952705383e-01</leafValues></_>
    <_>
      <internalNodes>
        0 -1 2695 -1170225640 2097168990 -1394685130 78434258 1353934233
        1122099399 2972496 550829664</internalNodes>
      <leafValues>
        -4.1448137164115906e-01 1.1228276789188385e-01</leafValues></_>
    <_>
      <internalNodes>
        0 -1 5946 -1224800375 -1644695946 -184549518 -170295428
        1568493018 2139553774 -464181797 2010716094</internalNodes>
      <leafValues>
        -1.4628332853317261e-01 3.1144592165946960e-01</leafValues></_>
    <_>
      <internalNodes>
        0 -1 8136 -147115449 2073481339 -1668665792 1888179752 857887260
        1731133827 1111115784 1999031167</internalNodes>
      <leafValues>
        -2.8276169300079346e-01 1.6232238709926605e-01</leafValues></_>
    <_>
      <internalNodes>
        0 -1 5613 -1607002339 242541511 -1613562127 -198291243
        -2066831644 -1509752369 1893145401 -56615113</internalNodes>
      <leafValues>
        -2.3616020381450653e-01 1.9452755153179169e-01</leafValues></_>
    <_>
      <internalNodes>
        0 -1 4350 519302731 847121050 -334791785 1574043712 -721084021
        1190911163 831832002 -1336413779</internalNodes>
      <leafValues>
        -2.0263729989528656e-01 2.2885145246982574e-01</leafValues></_>
    <_>
      <internalNodes>
        0 -1 4779 1579094789 -178924337 -2055095286 -1068086808
        -787745953 -2136297174 -535971196 -263011984</internalNodes>
      <leafValues>
        -2.8530922532081604e-01 1.6157668828964233e-01</leafValues></_></weakClassifiers></stage6>
</opencv_storage>
